digraph Tree {
node [shape=box, style="filled, rounded", color="black", fontname=helvetica] ;
edge [fontname=helvetica] ;
0 [label="dst_bytes <= 4.5\nentropy = 4.41\nsamples = 475015\nvalue = [569013.0, 596063.11, 325125.33, 731532.0, 569385.56\n547973.16, 594369.75, 507352.84, 571925.02, 546082.82\n571734.5, 325125.33, 1097298.0, 610450.84, 548649.0\n559092.52, 975376.0, 576643.97, 609610.0, 528328.67\n575035.1, 0.0, 731532.0]\nclass = ftp_write.", fillcolor="#3989e503"] ;
1 [label="src_bytes <= 21.0\nentropy = 3.6\nsamples = 156362\nvalue = [65576.0, 0.0, 0.0, 0.0, 569385.56, 547973.16, 0.0\n507352.84, 571038.31, 544942.3, 565622.03, 325125.33, 0.0\n1681.68, 548649.0, 548406.13, 0.0, 575597.42, 0.0, 0.0\n372135.06, 0.0, 243844.0]\nclass = nmap.", fillcolor="#cb39e500"] ;
0 -> 1 [labeldistance=2.5, labelangle=45, headlabel="True"] ;
2 [label="dst_host_same_srv_rate <= 0.85\nentropy = 2.83\nsamples = 129678\nvalue = [26542.0, 0.0, 0.0, 0.0, 569385.56, 0.0, 0.0, 0.0, 0.0\n543345.56, 565622.03, 325125.33, 0.0, 0.0, 548649.0\n547920.38, 0.0, 496583.6, 0.0, 0.0, 0.0, 0.0, 0.0]\nclass = neptune.", fillcolor="#98e53900"] ;
1 -> 2 ;
3 [label="srv_rerror_rate <= 0.29\nentropy = 2.11\nsamples = 111841\nvalue = [1369.0, 0.0, 0.0, 0.0, 569167.38, 0.0, 0.0, 0.0, 0.0\n543117.46, 70948.34, 40640.67, 0.0, 0.0, 0.0, 547434.64\n0.0, 114072.94, 0.0, 0.0, 0.0, 0.0, 0.0]\nclass = neptune.", fillcolor="#98e53904"] ;
2 -> 3 ;
4 [label="serror_rate <= 0.81\nentropy = 1.83\nsamples = 91052\nvalue = [653.0, 0.0, 0.0, 0.0, 475120.69, 0.0, 0.0, 0.0, 0.0\n36268.66, 9168.71, 40640.67, 0.0, 0.0, 0.0, 279141.47\n0.0, 114072.94, 0.0, 0.0, 0.0, 0.0, 0.0]\nclass = neptune.", fillcolor="#98e5394a"] ;
3 -> 4 ;
5 [label="serror_rate <= 0.47\nentropy = 0.82\nsamples = 1661\nvalue = [625.0, 0.0, 0.0, 0.0, 456.5, 0.0, 0.0, 0.0, 0.0\n33987.61, 9168.71, 0.0, 0.0, 0.0, 0.0, 279141.47, 0.0\n5755.97, 0.0, 0.0, 0.0, 0.0, 0.0]\nclass = satan.", fillcolor="#6f39e5d4"] ;
4 -> 5 ;
6 [label="src_bytes <= 0.5\nentropy = 0.51\nsamples = 1471\nvalue = [566.0, 0.0, 0.0, 0.0, 0.0, 0.0, 0.0, 0.0, 0.0\n11177.13, 9168.71, 0.0, 0.0, 0.0, 0.0, 279141.47, 0.0\n2616.35, 0.0, 0.0, 0.0, 0.0, 0.0]\nclass = satan.", fillcolor="#6f39e5ea"] ;
5 -> 6 ;
7 [label="dst_host_diff_srv_rate <= 0.79\nentropy = 0.81\nsamples = 413\nvalue = [10.0, 0.0, 0.0, 0.0, 0.0, 0.0, 0.0, 0.0, 0.0\n10264.71, 7858.89, 0.0, 0.0, 0.0, 0.0, 91320.06, 0.0\n0.0, 0.0, 0.0, 0.0, 0.0, 0.0]\nclass = satan.", fillcolor="#6f39e5d0"] ;
6 -> 7 ;
8 [label="dst_host_srv_serror_rate <= 0.56\nentropy = 0.7\nsamples = 34\nvalue = [7.0, 0.0, 0.0, 0.0, 0.0, 0.0, 0.0, 0.0, 0.0, 9124.19\n0.0, 0.0, 0.0, 0.0, 0.0, 2104.9, 0.0, 0.0, 0.0, 0.0\n0.0, 0.0, 0.0]\nclass = portsweep.", fillcolor="#39e5bac4"] ;
7 -> 8 ;
9 [label="dst_host_same_srv_rate <= 0.03\nentropy = 0.01\nsamples = 17\nvalue = [7.0, 0.0, 0.0, 0.0, 0.0, 0.0, 0.0, 0.0, 0.0, 5702.62\n0.0, 0.0, 0.0, 0.0, 0.0, 0.0, 0.0, 0.0, 0.0, 0.0\n0.0, 0.0, 0.0]\nclass = portsweep.", fillcolor="#39e5baff"] ;
8 -> 9 ;
10 [label="entropy = 0.0\nsamples = 12\nvalue = [0.0, 0.0, 0.0, 0.0, 0.0, 0.0, 0.0, 0.0, 0.0, 5702.62\n0.0, 0.0, 0.0, 0.0, 0.0, 0.0, 0.0, 0.0, 0.0, 0.0\n0.0, 0.0, 0.0]\nclass = portsweep.", fillcolor="#39e5baff"] ;
9 -> 10 ;
11 [label="entropy = 0.0\nsamples = 5\nvalue = [7, 0, 0, 0, 0, 0, 0, 0, 0, 0, 0, 0, 0, 0\n0, 0, 0, 0, 0, 0, 0, 0, 0]\nclass = normal.", fillcolor="#e58139ff"] ;
9 -> 11 ;
12 [label="rerror_rate <= 0.9\nentropy = 0.96\nsamples = 17\nvalue = [0.0, 0.0, 0.0, 0.0, 0.0, 0.0, 0.0, 0.0, 0.0, 3421.57\n0.0, 0.0, 0.0, 0.0, 0.0, 2104.9, 0.0, 0.0, 0.0, 0.0\n0.0, 0.0, 0.0]\nclass = portsweep.", fillcolor="#39e5ba62"] ;
8 -> 12 ;
13 [label="diff_srv_rate <= 0.78\nentropy = 0.94\nsamples = 8\nvalue = [0.0, 0.0, 0.0, 0.0, 0.0, 0.0, 0.0, 0.0, 0.0, 912.42\n0.0, 0.0, 0.0, 0.0, 0.0, 1619.15, 0.0, 0.0, 0.0, 0.0\n0.0, 0.0, 0.0]\nclass = satan.", fillcolor="#6f39e56f"] ;
12 -> 13 ;
14 [label="entropy = 0.0\nsamples = 3\nvalue = [0.0, 0.0, 0.0, 0.0, 0.0, 0.0, 0.0, 0.0, 0.0, 912.42\n0.0, 0.0, 0.0, 0.0, 0.0, 0.0, 0.0, 0.0, 0.0, 0.0\n0.0, 0.0, 0.0]\nclass = portsweep.", fillcolor="#39e5baff"] ;
13 -> 14 ;
15 [label="entropy = 0.0\nsamples = 5\nvalue = [0.0, 0.0, 0.0, 0.0, 0.0, 0.0, 0.0, 0.0, 0.0, 0.0\n0.0, 0.0, 0.0, 0.0, 0.0, 1619.15, 0.0, 0.0, 0.0, 0.0\n0.0, 0.0, 0.0]\nclass = satan.", fillcolor="#6f39e5ff"] ;
13 -> 15 ;
16 [label="dst_host_same_src_port_rate <= 0.25\nentropy = 0.64\nsamples = 9\nvalue = [0.0, 0.0, 0.0, 0.0, 0.0, 0.0, 0.0, 0.0, 0.0, 2509.15\n0.0, 0.0, 0.0, 0.0, 0.0, 485.75, 0.0, 0.0, 0.0, 0.0\n0.0, 0.0, 0.0]\nclass = portsweep.", fillcolor="#39e5bace"] ;
12 -> 16 ;
17 [label="entropy = 0.0\nsamples = 2\nvalue = [0.0, 0.0, 0.0, 0.0, 0.0, 0.0, 0.0, 0.0, 0.0, 0.0\n0.0, 0.0, 0.0, 0.0, 0.0, 485.75, 0.0, 0.0, 0.0, 0.0\n0.0, 0.0, 0.0]\nclass = satan.", fillcolor="#6f39e5ff"] ;
16 -> 17 ;
18 [label="entropy = 0.0\nsamples = 7\nvalue = [0.0, 0.0, 0.0, 0.0, 0.0, 0.0, 0.0, 0.0, 0.0, 2509.15\n0.0, 0.0, 0.0, 0.0, 0.0, 0.0, 0.0, 0.0, 0.0, 0.0\n0.0, 0.0, 0.0]\nclass = portsweep.", fillcolor="#39e5baff"] ;
16 -> 18 ;
19 [label="count <= 84.5\nentropy = 0.49\nsamples = 379\nvalue = [3.0, 0.0, 0.0, 0.0, 0.0, 0.0, 0.0, 0.0, 0.0, 1140.52\n7858.89, 0.0, 0.0, 0.0, 0.0, 89215.17, 0.0, 0.0, 0.0\n0.0, 0.0, 0.0, 0.0]\nclass = satan.", fillcolor="#6f39e5e6"] ;
7 -> 19 ;
20 [label="dst_host_count <= 157.5\nentropy = 0.55\nsamples = 25\nvalue = [3.0, 0.0, 0.0, 0.0, 0.0, 0.0, 0.0, 0.0, 0.0, 1140.52\n7858.89, 0.0, 0.0, 0.0, 0.0, 0.0, 0.0, 0.0, 0.0, 0.0\n0.0, 0.0, 0.0]\nclass = ipsweep.", fillcolor="#39e2e5da"] ;
19 -> 20 ;
21 [label="entropy = -0.0\nsamples = 21\nvalue = [0.0, 0.0, 0.0, 0.0, 0.0, 0.0, 0.0, 0.0, 0.0, 0.0\n7858.89, 0.0, 0.0, 0.0, 0.0, 0.0, 0.0, 0.0, 0.0, 0.0\n0.0, 0.0, 0.0]\nclass = ipsweep.", fillcolor="#39e2e5ff"] ;
20 -> 21 ;
22 [label="dst_host_srv_count <= 3.5\nentropy = 0.03\nsamples = 4\nvalue = [3.0, 0.0, 0.0, 0.0, 0.0, 0.0, 0.0, 0.0, 0.0, 1140.52\n0.0, 0.0, 0.0, 0.0, 0.0, 0.0, 0.0, 0.0, 0.0, 0.0\n0.0, 0.0, 0.0]\nclass = portsweep.", fillcolor="#39e5bafe"] ;
20 -> 22 ;
23 [label="entropy = 0.0\nsamples = 3\nvalue = [0.0, 0.0, 0.0, 0.0, 0.0, 0.0, 0.0, 0.0, 0.0, 1140.52\n0.0, 0.0, 0.0, 0.0, 0.0, 0.0, 0.0, 0.0, 0.0, 0.0\n0.0, 0.0, 0.0]\nclass = portsweep.", fillcolor="#39e5baff"] ;
22 -> 23 ;
24 [label="entropy = 0.0\nsamples = 1\nvalue = [3, 0, 0, 0, 0, 0, 0, 0, 0, 0, 0, 0, 0, 0\n0, 0, 0, 0, 0, 0, 0, 0, 0]\nclass = normal.", fillcolor="#e58139ff"] ;
22 -> 24 ;
25 [label="entropy = -0.0\nsamples = 354\nvalue = [0.0, 0.0, 0.0, 0.0, 0.0, 0.0, 0.0, 0.0, 0.0, 0.0\n0.0, 0.0, 0.0, 0.0, 0.0, 89215.17, 0.0, 0.0, 0.0\n0.0, 0.0, 0.0, 0.0]\nclass = satan.", fillcolor="#6f39e5ff"] ;
19 -> 25 ;
26 [label="dst_host_count <= 70.0\nentropy = 0.23\nsamples = 1058\nvalue = [556.0, 0.0, 0.0, 0.0, 0.0, 0.0, 0.0, 0.0, 0.0\n912.42, 1309.82, 0.0, 0.0, 0.0, 0.0, 187821.41, 0.0\n2616.35, 0.0, 0.0, 0.0, 0.0, 0.0]\nclass = satan.", fillcolor="#6f39e5f8"] ;
6 -> 26 ;
27 [label="dst_host_srv_diff_host_rate <= 0.45\nentropy = 1.07\nsamples = 129\nvalue = [200.0, 0.0, 0.0, 0.0, 0.0, 0.0, 0.0, 0.0, 0.0, 0.0\n873.21, 0.0, 0.0, 0.0, 0.0, 0.0, 0.0, 2616.35, 0.0\n0.0, 0.0, 0.0, 0.0]\nclass = nmap.", fillcolor="#cb39e59e"] ;
26 -> 27 ;
28 [label="dst_host_diff_srv_rate <= 0.45\nentropy = 0.37\nsamples = 125\nvalue = [197.0, 0.0, 0.0, 0.0, 0.0, 0.0, 0.0, 0.0, 0.0, 0.0\n0.0, 0.0, 0.0, 0.0, 0.0, 0.0, 0.0, 2616.35, 0.0, 0.0\n0.0, 0.0, 0.0]\nclass = nmap.", fillcolor="#cb39e5ec"] ;
27 -> 28 ;
29 [label="entropy = 0.0\nsamples = 117\nvalue = [191, 0, 0, 0, 0, 0, 0, 0, 0, 0, 0, 0, 0, 0\n0, 0, 0, 0, 0, 0, 0, 0, 0]\nclass = normal.", fillcolor="#e58139ff"] ;
28 -> 29 ;
30 [label="srv_diff_host_rate <= 0.5\nentropy = 0.02\nsamples = 8\nvalue = [6.0, 0.0, 0.0, 0.0, 0.0, 0.0, 0.0, 0.0, 0.0, 0.0\n0.0, 0.0, 0.0, 0.0, 0.0, 0.0, 0.0, 2616.35, 0.0, 0.0\n0.0, 0.0, 0.0]\nclass = nmap.", fillcolor="#cb39e5fe"] ;
28 -> 30 ;
31 [label="src_dst_bytes_diff <= -8.5\nentropy = 0.09\nsamples = 5\nvalue = [6.0, 0.0, 0.0, 0.0, 0.0, 0.0, 0.0, 0.0, 0.0, 0.0\n0.0, 0.0, 0.0, 0.0, 0.0, 0.0, 0.0, 523.27, 0.0, 0.0\n0.0, 0.0, 0.0]\nclass = nmap.", fillcolor="#cb39e5fc"] ;
30 -> 31 ;
32 [label="entropy = 0.0\nsamples = 3\nvalue = [5, 0, 0, 0, 0, 0, 0, 0, 0, 0, 0, 0, 0, 0\n0, 0, 0, 0, 0, 0, 0, 0, 0]\nclass = normal.", fillcolor="#e58139ff"] ;
31 -> 32 ;
33 [label="dst_host_same_src_port_rate <= 0.35\nentropy = 0.02\nsamples = 2\nvalue = [1.0, 0.0, 0.0, 0.0, 0.0, 0.0, 0.0, 0.0, 0.0, 0.0\n0.0, 0.0, 0.0, 0.0, 0.0, 0.0, 0.0, 523.27, 0.0, 0.0\n0.0, 0.0, 0.0]\nclass = nmap.", fillcolor="#cb39e5ff"] ;
31 -> 33 ;
34 [label="entropy = 0.0\nsamples = 1\nvalue = [1, 0, 0, 0, 0, 0, 0, 0, 0, 0, 0, 0, 0, 0\n0, 0, 0, 0, 0, 0, 0, 0, 0]\nclass = normal.", fillcolor="#e58139ff"] ;
33 -> 34 ;
35 [label="entropy = 0.0\nsamples = 1\nvalue = [0.0, 0.0, 0.0, 0.0, 0.0, 0.0, 0.0, 0.0, 0.0, 0.0\n0.0, 0.0, 0.0, 0.0, 0.0, 0.0, 0.0, 523.27, 0.0, 0.0\n0.0, 0.0, 0.0]\nclass = nmap.", fillcolor="#cb39e5ff"] ;
33 -> 35 ;
36 [label="entropy = 0.0\nsamples = 3\nvalue = [0.0, 0.0, 0.0, 0.0, 0.0, 0.0, 0.0, 0.0, 0.0, 0.0\n0.0, 0.0, 0.0, 0.0, 0.0, 0.0, 0.0, 2093.08, 0.0, 0.0\n0.0, 0.0, 0.0]\nclass = nmap.", fillcolor="#cb39e5ff"] ;
30 -> 36 ;
37 [label="dst_host_count <= 28.0\nentropy = 0.03\nsamples = 4\nvalue = [3.0, 0.0, 0.0, 0.0, 0.0, 0.0, 0.0, 0.0, 0.0, 0.0\n873.21, 0.0, 0.0, 0.0, 0.0, 0.0, 0.0, 0.0, 0.0, 0.0\n0.0, 0.0, 0.0]\nclass = ipsweep.", fillcolor="#39e2e5fe"] ;
27 -> 37 ;
38 [label="entropy = 0.0\nsamples = 3\nvalue = [0.0, 0.0, 0.0, 0.0, 0.0, 0.0, 0.0, 0.0, 0.0, 0.0\n873.21, 0.0, 0.0, 0.0, 0.0, 0.0, 0.0, 0.0, 0.0, 0.0\n0.0, 0.0, 0.0]\nclass = ipsweep.", fillcolor="#39e2e5ff"] ;
37 -> 38 ;
39 [label="entropy = 0.0\nsamples = 1\nvalue = [3, 0, 0, 0, 0, 0, 0, 0, 0, 0, 0, 0, 0, 0\n0, 0, 0, 0, 0, 0, 0, 0, 0]\nclass = normal.", fillcolor="#e58139ff"] ;
37 -> 39 ;
40 [label="protocol_type <= 0.5\nentropy = 0.09\nsamples = 929\nvalue = [356.0, 0.0, 0.0, 0.0, 0.0, 0.0, 0.0, 0.0, 0.0\n912.42, 436.61, 0.0, 0.0, 0.0, 0.0, 187821.41, 0.0\n0.0, 0.0, 0.0, 0.0, 0.0, 0.0]\nclass = satan.", fillcolor="#6f39e5fd"] ;
26 -> 40 ;
41 [label="src_dst_bytes_diff <= -14.0\nentropy = 1.32\nsamples = 13\nvalue = [0.0, 0.0, 0.0, 0.0, 0.0, 0.0, 0.0, 0.0, 0.0, 912.42\n436.61, 0.0, 0.0, 0.0, 0.0, 2104.9, 0.0, 0.0, 0.0\n0.0, 0.0, 0.0, 0.0]\nclass = satan.", fillcolor="#6f39e578"] ;
40 -> 41 ;
42 [label="entropy = 0.0\nsamples = 10\nvalue = [0.0, 0.0, 0.0, 0.0, 0.0, 0.0, 0.0, 0.0, 0.0, 0.0\n0.0, 0.0, 0.0, 0.0, 0.0, 2104.9, 0.0, 0.0, 0.0, 0.0\n0.0, 0.0, 0.0]\nclass = satan.", fillcolor="#6f39e5ff"] ;
41 -> 42 ;
43 [label="dst_host_srv_diff_host_rate <= 0.25\nentropy = 0.91\nsamples = 3\nvalue = [0.0, 0.0, 0.0, 0.0, 0.0, 0.0, 0.0, 0.0, 0.0, 912.42\n436.61, 0.0, 0.0, 0.0, 0.0, 0.0, 0.0, 0.0, 0.0, 0.0\n0.0, 0.0, 0.0]\nclass = portsweep.", fillcolor="#39e5ba85"] ;
41 -> 43 ;
44 [label="entropy = 0.0\nsamples = 2\nvalue = [0.0, 0.0, 0.0, 0.0, 0.0, 0.0, 0.0, 0.0, 0.0, 912.42\n0.0, 0.0, 0.0, 0.0, 0.0, 0.0, 0.0, 0.0, 0.0, 0.0\n0.0, 0.0, 0.0]\nclass = portsweep.", fillcolor="#39e5baff"] ;
43 -> 44 ;
45 [label="entropy = 0.0\nsamples = 1\nvalue = [0.0, 0.0, 0.0, 0.0, 0.0, 0.0, 0.0, 0.0, 0.0, 0.0\n436.61, 0.0, 0.0, 0.0, 0.0, 0.0, 0.0, 0.0, 0.0, 0.0\n0.0, 0.0, 0.0]\nclass = ipsweep.", fillcolor="#39e2e5ff"] ;
43 -> 45 ;
46 [label="diff_srv_rate <= 0.0\nentropy = 0.02\nsamples = 916\nvalue = [356.0, 0.0, 0.0, 0.0, 0.0, 0.0, 0.0, 0.0, 0.0, 0.0\n0.0, 0.0, 0.0, 0.0, 0.0, 185716.51, 0.0, 0.0, 0.0\n0.0, 0.0, 0.0, 0.0]\nclass = satan.", fillcolor="#6f39e5ff"] ;
40 -> 46 ;
47 [label="dst_host_srv_diff_host_rate <= 0.0\nentropy = 0.1\nsamples = 286\nvalue = [336.0, 0.0, 0.0, 0.0, 0.0, 0.0, 0.0, 0.0, 0.0, 0.0\n0.0, 0.0, 0.0, 0.0, 0.0, 24934.91, 0.0, 0.0, 0.0\n0.0, 0.0, 0.0, 0.0]\nclass = satan.", fillcolor="#6f39e5fc"] ;
46 -> 47 ;
48 [label="logged_in <= 0.5\nentropy = 0.05\nsamples = 167\nvalue = [134.0, 0.0, 0.0, 0.0, 0.0, 0.0, 0.0, 0.0, 0.0, 0.0\n0.0, 0.0, 0.0, 0.0, 0.0, 24287.25, 0.0, 0.0, 0.0\n0.0, 0.0, 0.0, 0.0]\nclass = satan.", fillcolor="#6f39e5fe"] ;
47 -> 48 ;
49 [label="dst_host_same_src_port_rate <= 0.49\nentropy = 0.01\nsamples = 105\nvalue = [29.0, 0.0, 0.0, 0.0, 0.0, 0.0, 0.0, 0.0, 0.0, 0.0\n0.0, 0.0, 0.0, 0.0, 0.0, 24287.25, 0.0, 0.0, 0.0\n0.0, 0.0, 0.0, 0.0]\nclass = satan.", fillcolor="#6f39e5ff"] ;
48 -> 49 ;
50 [label="src_bytes <= 7.0\nentropy = 0.03\nsamples = 54\nvalue = [29.0, 0.0, 0.0, 0.0, 0.0, 0.0, 0.0, 0.0, 0.0, 0.0\n0.0, 0.0, 0.0, 0.0, 0.0, 11495.97, 0.0, 0.0, 0.0\n0.0, 0.0, 0.0, 0.0]\nclass = satan.", fillcolor="#6f39e5fe"] ;
49 -> 50 ;
51 [label="entropy = 0.0\nsamples = 33\nvalue = [0.0, 0.0, 0.0, 0.0, 0.0, 0.0, 0.0, 0.0, 0.0, 0.0\n0.0, 0.0, 0.0, 0.0, 0.0, 11495.97, 0.0, 0.0, 0.0\n0.0, 0.0, 0.0, 0.0]\nclass = satan.", fillcolor="#6f39e5ff"] ;
50 -> 51 ;
52 [label="entropy = 0.0\nsamples = 21\nvalue = [29, 0, 0, 0, 0, 0, 0, 0, 0, 0, 0, 0, 0, 0\n0, 0, 0, 0, 0, 0, 0, 0, 0]\nclass = normal.", fillcolor="#e58139ff"] ;
50 -> 52 ;
53 [label="entropy = 0.0\nsamples = 51\nvalue = [0.0, 0.0, 0.0, 0.0, 0.0, 0.0, 0.0, 0.0, 0.0, 0.0\n0.0, 0.0, 0.0, 0.0, 0.0, 12791.29, 0.0, 0.0, 0.0\n0.0, 0.0, 0.0, 0.0]\nclass = satan.", fillcolor="#6f39e5ff"] ;
49 -> 53 ;
54 [label="entropy = 0.0\nsamples = 62\nvalue = [105, 0, 0, 0, 0, 0, 0, 0, 0, 0, 0, 0, 0, 0\n0, 0, 0, 0, 0, 0, 0, 0, 0]\nclass = normal.", fillcolor="#e58139ff"] ;
48 -> 54 ;
55 [label="dst_host_same_srv_rate <= 0.05\nentropy = 0.79\nsamples = 119\nvalue = [202.0, 0.0, 0.0, 0.0, 0.0, 0.0, 0.0, 0.0, 0.0, 0.0\n0.0, 0.0, 0.0, 0.0, 0.0, 647.66, 0.0, 0.0, 0.0, 0.0\n0.0, 0.0, 0.0]\nclass = satan.", fillcolor="#6f39e5af"] ;
47 -> 55 ;
56 [label="dst_host_count <= 104.5\nentropy = 0.08\nsamples = 7\nvalue = [6.0, 0.0, 0.0, 0.0, 0.0, 0.0, 0.0, 0.0, 0.0, 0.0\n0.0, 0.0, 0.0, 0.0, 0.0, 647.66, 0.0, 0.0, 0.0, 0.0\n0.0, 0.0, 0.0]\nclass = satan.", fillcolor="#6f39e5fd"] ;
55 -> 56 ;
57 [label="entropy = 0.0\nsamples = 4\nvalue = [5, 0, 0, 0, 0, 0, 0, 0, 0, 0, 0, 0, 0, 0\n0, 0, 0, 0, 0, 0, 0, 0, 0]\nclass = normal.", fillcolor="#e58139ff"] ;
56 -> 57 ;
58 [label="service <= 19.0\nentropy = 0.02\nsamples = 3\nvalue = [1.0, 0.0, 0.0, 0.0, 0.0, 0.0, 0.0, 0.0, 0.0, 0.0\n0.0, 0.0, 0.0, 0.0, 0.0, 647.66, 0.0, 0.0, 0.0, 0.0\n0.0, 0.0, 0.0]\nclass = satan.", fillcolor="#6f39e5ff"] ;
56 -> 58 ;
59 [label="entropy = 0.0\nsamples = 2\nvalue = [0.0, 0.0, 0.0, 0.0, 0.0, 0.0, 0.0, 0.0, 0.0, 0.0\n0.0, 0.0, 0.0, 0.0, 0.0, 647.66, 0.0, 0.0, 0.0, 0.0\n0.0, 0.0, 0.0]\nclass = satan.", fillcolor="#6f39e5ff"] ;
58 -> 59 ;
60 [label="entropy = 0.0\nsamples = 1\nvalue = [1, 0, 0, 0, 0, 0, 0, 0, 0, 0, 0, 0, 0, 0\n0, 0, 0, 0, 0, 0, 0, 0, 0]\nclass = normal.", fillcolor="#e58139ff"] ;
58 -> 60 ;
61 [label="entropy = 0.0\nsamples = 112\nvalue = [196, 0, 0, 0, 0, 0, 0, 0, 0, 0, 0, 0, 0, 0\n0, 0, 0, 0, 0, 0, 0, 0, 0]\nclass = normal.", fillcolor="#e58139ff"] ;
55 -> 61 ;
62 [label="service <= 27.0\nentropy = 0.0\nsamples = 630\nvalue = [20.0, 0.0, 0.0, 0.0, 0.0, 0.0, 0.0, 0.0, 0.0, 0.0\n0.0, 0.0, 0.0, 0.0, 0.0, 160781.6, 0.0, 0.0, 0.0\n0.0, 0.0, 0.0, 0.0]\nclass = satan.", fillcolor="#6f39e5ff"] ;
46 -> 62 ;
63 [label="diff_srv_rate <= 0.55\nentropy = 0.11\nsamples = 21\nvalue = [20.0, 0.0, 0.0, 0.0, 0.0, 0.0, 0.0, 0.0, 0.0, 0.0\n0.0, 0.0, 0.0, 0.0, 0.0, 1295.32, 0.0, 0.0, 0.0, 0.0\n0.0, 0.0, 0.0]\nclass = satan.", fillcolor="#6f39e5fb"] ;
62 -> 63 ;
64 [label="entropy = 0.0\nsamples = 6\nvalue = [0.0, 0.0, 0.0, 0.0, 0.0, 0.0, 0.0, 0.0, 0.0, 0.0\n0.0, 0.0, 0.0, 0.0, 0.0, 1133.41, 0.0, 0.0, 0.0, 0.0\n0.0, 0.0, 0.0]\nclass = satan.", fillcolor="#6f39e5ff"] ;
63 -> 64 ;
65 [label="service <= 15.0\nentropy = 0.5\nsamples = 15\nvalue = [20.0, 0.0, 0.0, 0.0, 0.0, 0.0, 0.0, 0.0, 0.0, 0.0\n0.0, 0.0, 0.0, 0.0, 0.0, 161.92, 0.0, 0.0, 0.0, 0.0\n0.0, 0.0, 0.0]\nclass = satan.", fillcolor="#6f39e5e0"] ;
63 -> 65 ;
66 [label="entropy = 0.0\nsamples = 1\nvalue = [0.0, 0.0, 0.0, 0.0, 0.0, 0.0, 0.0, 0.0, 0.0, 0.0\n0.0, 0.0, 0.0, 0.0, 0.0, 161.92, 0.0, 0.0, 0.0, 0.0\n0.0, 0.0, 0.0]\nclass = satan.", fillcolor="#6f39e5ff"] ;
65 -> 66 ;
67 [label="entropy = 0.0\nsamples = 14\nvalue = [20, 0, 0, 0, 0, 0, 0, 0, 0, 0, 0, 0, 0, 0\n0, 0, 0, 0, 0, 0, 0, 0, 0]\nclass = normal.", fillcolor="#e58139ff"] ;
65 -> 67 ;
68 [label="entropy = 0.0\nsamples = 609\nvalue = [0.0, 0.0, 0.0, 0.0, 0.0, 0.0, 0.0, 0.0, 0.0, 0.0\n0.0, 0.0, 0.0, 0.0, 0.0, 159486.28, 0.0, 0.0, 0.0\n0.0, 0.0, 0.0, 0.0]\nclass = satan.", fillcolor="#6f39e5ff"] ;
62 -> 68 ;
69 [label="dst_host_rerror_rate <= 0.0\nentropy = 0.67\nsamples = 190\nvalue = [59.0, 0.0, 0.0, 0.0, 456.5, 0.0, 0.0, 0.0, 0.0\n22810.48, 0.0, 0.0, 0.0, 0.0, 0.0, 0.0, 0.0, 3139.62\n0.0, 0.0, 0.0, 0.0, 0.0]\nclass = portsweep.", fillcolor="#39e5bad7"] ;
5 -> 69 ;
70 [label="diff_srv_rate <= 0.88\nentropy = 0.94\nsamples = 123\nvalue = [56.0, 0.0, 0.0, 0.0, 456.5, 0.0, 0.0, 0.0, 0.0\n228.1, 0.0, 0.0, 0.0, 0.0, 0.0, 0.0, 0.0, 3139.62\n0.0, 0.0, 0.0, 0.0, 0.0]\nclass = nmap.", fillcolor="#cb39e5c8"] ;
69 -> 70 ;
71 [label="dst_host_same_src_port_rate <= 0.0\nentropy = 1.23\nsamples = 116\nvalue = [54.0, 0.0, 0.0, 0.0, 449.79, 0.0, 0.0, 0.0, 0.0\n228.1, 0.0, 0.0, 0.0, 0.0, 0.0, 0.0, 0.0, 0.0, 0.0\n0.0, 0.0, 0.0, 0.0]\nclass = neptune.", fillcolor="#98e53970"] ;
70 -> 71 ;
72 [label="entropy = 0.0\nsamples = 84\nvalue = [0.0, 0.0, 0.0, 0.0, 446.43, 0.0, 0.0, 0.0, 0.0, 0.0\n0.0, 0.0, 0.0, 0.0, 0.0, 0.0, 0.0, 0.0, 0.0, 0.0\n0.0, 0.0, 0.0]\nclass = neptune.", fillcolor="#98e539ff"] ;
71 -> 72 ;
73 [label="service <= 51.5\nentropy = 0.79\nsamples = 32\nvalue = [54.0, 0.0, 0.0, 0.0, 3.36, 0.0, 0.0, 0.0, 0.0, 228.1\n0.0, 0.0, 0.0, 0.0, 0.0, 0.0, 0.0, 0.0, 0.0, 0.0\n0.0, 0.0, 0.0]\nclass = portsweep.", fillcolor="#39e5bac0"] ;
71 -> 73 ;
74 [label="dst_host_same_srv_rate <= 0.0\nentropy = 0.28\nsamples = 5\nvalue = [6.0, 0.0, 0.0, 0.0, 3.36, 0.0, 0.0, 0.0, 0.0, 228.1\n0.0, 0.0, 0.0, 0.0, 0.0, 0.0, 0.0, 0.0, 0.0, 0.0\n0.0, 0.0, 0.0]\nclass = portsweep.", fillcolor="#39e5baf5"] ;
73 -> 74 ;
75 [label="entropy = 0.0\nsamples = 1\nvalue = [0.0, 0.0, 0.0, 0.0, 0.0, 0.0, 0.0, 0.0, 0.0, 228.1\n0.0, 0.0, 0.0, 0.0, 0.0, 0.0, 0.0, 0.0, 0.0, 0.0\n0.0, 0.0, 0.0]\nclass = portsweep.", fillcolor="#39e5baff"] ;
74 -> 75 ;
76 [label="dst_host_same_src_port_rate <= 0.01\nentropy = 0.94\nsamples = 4\nvalue = [6.0, 0.0, 0.0, 0.0, 3.36, 0.0, 0.0, 0.0, 0.0, 0.0\n0.0, 0.0, 0.0, 0.0, 0.0, 0.0, 0.0, 0.0, 0.0, 0.0\n0.0, 0.0, 0.0]\nclass = normal.", fillcolor="#e5813970"] ;
74 -> 76 ;
77 [label="entropy = 0.0\nsamples = 1\nvalue = [0.0, 0.0, 0.0, 0.0, 3.36, 0.0, 0.0, 0.0, 0.0, 0.0\n0.0, 0.0, 0.0, 0.0, 0.0, 0.0, 0.0, 0.0, 0.0, 0.0\n0.0, 0.0, 0.0]\nclass = neptune.", fillcolor="#98e539ff"] ;
76 -> 77 ;
78 [label="entropy = 0.0\nsamples = 3\nvalue = [6, 0, 0, 0, 0, 0, 0, 0, 0, 0, 0, 0, 0, 0\n0, 0, 0, 0, 0, 0, 0, 0, 0]\nclass = normal.", fillcolor="#e58139ff"] ;
76 -> 78 ;
79 [label="entropy = -0.0\nsamples = 27\nvalue = [48, 0, 0, 0, 0, 0, 0, 0, 0, 0, 0, 0, 0, 0\n0, 0, 0, 0, 0, 0, 0, 0, 0]\nclass = normal.", fillcolor="#e58139ff"] ;
73 -> 79 ;
80 [label="dst_host_srv_serror_rate <= 0.5\nentropy = 0.03\nsamples = 7\nvalue = [2.0, 0.0, 0.0, 0.0, 6.71, 0.0, 0.0, 0.0, 0.0, 0.0\n0.0, 0.0, 0.0, 0.0, 0.0, 0.0, 0.0, 3139.62, 0.0, 0.0\n0.0, 0.0, 0.0]\nclass = nmap.", fillcolor="#cb39e5fe"] ;
70 -> 80 ;
81 [label="entropy = 0.0\nsamples = 1\nvalue = [1, 0, 0, 0, 0, 0, 0, 0, 0, 0, 0, 0, 0, 0\n0, 0, 0, 0, 0, 0, 0, 0, 0]\nclass = normal.", fillcolor="#e58139ff"] ;
80 -> 81 ;
82 [label="flag <= 8.0\nentropy = 0.03\nsamples = 6\nvalue = [1.0, 0.0, 0.0, 0.0, 6.71, 0.0, 0.0, 0.0, 0.0, 0.0\n0.0, 0.0, 0.0, 0.0, 0.0, 0.0, 0.0, 3139.62, 0.0, 0.0\n0.0, 0.0, 0.0]\nclass = nmap.", fillcolor="#cb39e5fe"] ;
80 -> 82 ;
83 [label="flag <= 5.5\nentropy = 0.56\nsamples = 3\nvalue = [1.0, 0.0, 0.0, 0.0, 6.71, 0.0, 0.0, 0.0, 0.0, 0.0\n0.0, 0.0, 0.0, 0.0, 0.0, 0.0, 0.0, 0.0, 0.0, 0.0\n0.0, 0.0, 0.0]\nclass = neptune.", fillcolor="#98e539d9"] ;
82 -> 83 ;
84 [label="entropy = 0.0\nsamples = 2\nvalue = [0.0, 0.0, 0.0, 0.0, 6.71, 0.0, 0.0, 0.0, 0.0, 0.0\n0.0, 0.0, 0.0, 0.0, 0.0, 0.0, 0.0, 0.0, 0.0, 0.0\n0.0, 0.0, 0.0]\nclass = neptune.", fillcolor="#98e539ff"] ;
83 -> 84 ;
85 [label="entropy = 0.0\nsamples = 1\nvalue = [1, 0, 0, 0, 0, 0, 0, 0, 0, 0, 0, 0, 0, 0\n0, 0, 0, 0, 0, 0, 0, 0, 0]\nclass = normal.", fillcolor="#e58139ff"] ;
83 -> 85 ;
86 [label="entropy = 0.0\nsamples = 3\nvalue = [0.0, 0.0, 0.0, 0.0, 0.0, 0.0, 0.0, 0.0, 0.0, 0.0\n0.0, 0.0, 0.0, 0.0, 0.0, 0.0, 0.0, 3139.62, 0.0, 0.0\n0.0, 0.0, 0.0]\nclass = nmap.", fillcolor="#cb39e5ff"] ;
82 -> 86 ;
87 [label="srv_serror_rate <= 0.75\nentropy = 0.0\nsamples = 67\nvalue = [3.0, 0.0, 0.0, 0.0, 0.0, 0.0, 0.0, 0.0, 0.0\n22582.37, 0.0, 0.0, 0.0, 0.0, 0.0, 0.0, 0.0, 0.0\n0.0, 0.0, 0.0, 0.0, 0.0]\nclass = portsweep.", fillcolor="#39e5baff"] ;
69 -> 87 ;
88 [label="entropy = 0.0\nsamples = 3\nvalue = [3, 0, 0, 0, 0, 0, 0, 0, 0, 0, 0, 0, 0, 0\n0, 0, 0, 0, 0, 0, 0, 0, 0]\nclass = normal.", fillcolor="#e58139ff"] ;
87 -> 88 ;
89 [label="entropy = 0.0\nsamples = 64\nvalue = [0.0, 0.0, 0.0, 0.0, 0.0, 0.0, 0.0, 0.0, 0.0\n22582.37, 0.0, 0.0, 0.0, 0.0, 0.0, 0.0, 0.0, 0.0\n0.0, 0.0, 0.0, 0.0, 0.0]\nclass = portsweep.", fillcolor="#39e5baff"] ;
87 -> 89 ;
90 [label="dst_host_diff_srv_rate <= 0.19\nentropy = 1.03\nsamples = 89391\nvalue = [28.0, 0.0, 0.0, 0.0, 474664.19, 0.0, 0.0, 0.0, 0.0\n2281.05, 0.0, 40640.67, 0.0, 0.0, 0.0, 0.0, 0.0\n108316.97, 0.0, 0.0, 0.0, 0.0, 0.0]\nclass = neptune.", fillcolor="#98e539b4"] ;
4 -> 90 ;
91 [label="dst_host_serror_rate <= 0.77\nentropy = 0.0\nsamples = 89220\nvalue = [23.0, 0.0, 0.0, 0.0, 474493.0, 0.0, 0.0, 0.0, 0.0\n0.0, 0.0, 0.0, 0.0, 0.0, 0.0, 0.0, 0.0, 0.0, 0.0\n0.0, 0.0, 0.0, 0.0]\nclass = neptune.", fillcolor="#98e539ff"] ;
90 -> 91 ;
92 [label="count <= 165.5\nentropy = 0.85\nsamples = 25\nvalue = [23.0, 0.0, 0.0, 0.0, 60.42, 0.0, 0.0, 0.0, 0.0, 0.0\n0.0, 0.0, 0.0, 0.0, 0.0, 0.0, 0.0, 0.0, 0.0, 0.0\n0.0, 0.0, 0.0]\nclass = neptune.", fillcolor="#98e5399e"] ;
91 -> 92 ;
93 [label="entropy = 0.0\nsamples = 14\nvalue = [23, 0, 0, 0, 0, 0, 0, 0, 0, 0, 0, 0, 0, 0\n0, 0, 0, 0, 0, 0, 0, 0, 0]\nclass = normal.", fillcolor="#e58139ff"] ;
92 -> 93 ;
94 [label="entropy = -0.0\nsamples = 11\nvalue = [0.0, 0.0, 0.0, 0.0, 60.42, 0.0, 0.0, 0.0, 0.0, 0.0\n0.0, 0.0, 0.0, 0.0, 0.0, 0.0, 0.0, 0.0, 0.0, 0.0\n0.0, 0.0, 0.0]\nclass = neptune.", fillcolor="#98e539ff"] ;
92 -> 94 ;
95 [label="entropy = 0.0\nsamples = 89195\nvalue = [0.0, 0.0, 0.0, 0.0, 474432.58, 0.0, 0.0, 0.0, 0.0\n0.0, 0.0, 0.0, 0.0, 0.0, 0.0, 0.0, 0.0, 0.0, 0.0\n0.0, 0.0, 0.0, 0.0]\nclass = neptune.", fillcolor="#98e539ff"] ;
91 -> 95 ;
96 [label="flag <= 8.0\nentropy = 0.96\nsamples = 171\nvalue = [5.0, 0.0, 0.0, 0.0, 171.19, 0.0, 0.0, 0.0, 0.0\n2281.05, 0.0, 40640.67, 0.0, 0.0, 0.0, 0.0, 0.0\n108316.97, 0.0, 0.0, 0.0, 0.0, 0.0]\nclass = nmap.", fillcolor="#cb39e59c"] ;
90 -> 96 ;
97 [label="land <= 0.5\nentropy = 0.34\nsamples = 41\nvalue = [5.0, 0.0, 0.0, 0.0, 171.19, 0.0, 0.0, 0.0, 0.0\n2281.05, 0.0, 40640.67, 0.0, 0.0, 0.0, 0.0, 0.0, 0.0\n0.0, 0.0, 0.0, 0.0, 0.0]\nclass = land.", fillcolor="#39b4e5f0"] ;
96 -> 97 ;
98 [label="dst_host_rerror_rate <= 0.48\nentropy = 0.39\nsamples = 40\nvalue = [5.0, 0.0, 0.0, 0.0, 171.19, 0.0, 0.0, 0.0, 0.0\n2281.05, 0.0, 0.0, 0.0, 0.0, 0.0, 0.0, 0.0, 0.0, 0.0\n0.0, 0.0, 0.0, 0.0]\nclass = portsweep.", fillcolor="#39e5baeb"] ;
97 -> 98 ;
99 [label="dst_host_srv_count <= 79.0\nentropy = 0.19\nsamples = 34\nvalue = [5.0, 0.0, 0.0, 0.0, 171.19, 0.0, 0.0, 0.0, 0.0, 0.0\n0.0, 0.0, 0.0, 0.0, 0.0, 0.0, 0.0, 0.0, 0.0, 0.0\n0.0, 0.0, 0.0]\nclass = neptune.", fillcolor="#98e539f8"] ;
98 -> 99 ;
100 [label="dst_host_count <= 19.5\nentropy = 0.13\nsamples = 33\nvalue = [3.0, 0.0, 0.0, 0.0, 171.19, 0.0, 0.0, 0.0, 0.0, 0.0\n0.0, 0.0, 0.0, 0.0, 0.0, 0.0, 0.0, 0.0, 0.0, 0.0\n0.0, 0.0, 0.0]\nclass = neptune.", fillcolor="#98e539fb"] ;
99 -> 100 ;
101 [label="entropy = 0.0\nsamples = 25\nvalue = [0.0, 0.0, 0.0, 0.0, 134.27, 0.0, 0.0, 0.0, 0.0, 0.0\n0.0, 0.0, 0.0, 0.0, 0.0, 0.0, 0.0, 0.0, 0.0, 0.0\n0.0, 0.0, 0.0]\nclass = neptune.", fillcolor="#98e539ff"] ;
100 -> 101 ;
102 [label="count <= 58.0\nentropy = 0.38\nsamples = 8\nvalue = [3.0, 0.0, 0.0, 0.0, 36.92, 0.0, 0.0, 0.0, 0.0, 0.0\n0.0, 0.0, 0.0, 0.0, 0.0, 0.0, 0.0, 0.0, 0.0, 0.0\n0.0, 0.0, 0.0]\nclass = neptune.", fillcolor="#98e539ea"] ;
100 -> 102 ;
103 [label="entropy = 0.0\nsamples = 1\nvalue = [3, 0, 0, 0, 0, 0, 0, 0, 0, 0, 0, 0, 0, 0\n0, 0, 0, 0, 0, 0, 0, 0, 0]\nclass = normal.", fillcolor="#e58139ff"] ;
102 -> 103 ;
104 [label="entropy = 0.0\nsamples = 7\nvalue = [0.0, 0.0, 0.0, 0.0, 36.92, 0.0, 0.0, 0.0, 0.0, 0.0\n0.0, 0.0, 0.0, 0.0, 0.0, 0.0, 0.0, 0.0, 0.0, 0.0\n0.0, 0.0, 0.0]\nclass = neptune.", fillcolor="#98e539ff"] ;
102 -> 104 ;
105 [label="entropy = 0.0\nsamples = 1\nvalue = [2, 0, 0, 0, 0, 0, 0, 0, 0, 0, 0, 0, 0, 0\n0, 0, 0, 0, 0, 0, 0, 0, 0]\nclass = normal.", fillcolor="#e58139ff"] ;
99 -> 105 ;
106 [label="entropy = 0.0\nsamples = 6\nvalue = [0.0, 0.0, 0.0, 0.0, 0.0, 0.0, 0.0, 0.0, 0.0, 2281.05\n0.0, 0.0, 0.0, 0.0, 0.0, 0.0, 0.0, 0.0, 0.0, 0.0\n0.0, 0.0, 0.0]\nclass = portsweep.", fillcolor="#39e5baff"] ;
98 -> 106 ;
107 [label="entropy = 0.0\nsamples = 1\nvalue = [0.0, 0.0, 0.0, 0.0, 0.0, 0.0, 0.0, 0.0, 0.0, 0.0\n0.0, 40640.67, 0.0, 0.0, 0.0, 0.0, 0.0, 0.0, 0.0\n0.0, 0.0, 0.0, 0.0]\nclass = land.", fillcolor="#39b4e5ff"] ;
97 -> 107 ;
108 [label="entropy = -0.0\nsamples = 130\nvalue = [0.0, 0.0, 0.0, 0.0, 0.0, 0.0, 0.0, 0.0, 0.0, 0.0\n0.0, 0.0, 0.0, 0.0, 0.0, 0.0, 0.0, 108316.97, 0.0\n0.0, 0.0, 0.0, 0.0]\nclass = nmap.", fillcolor="#cb39e5ff"] ;
96 -> 108 ;
109 [label="dst_host_same_src_port_rate <= 0.01\nentropy = 1.6\nsamples = 20789\nvalue = [716.0, 0.0, 0.0, 0.0, 94046.68, 0.0, 0.0, 0.0, 0.0\n506848.8, 61779.63, 0.0, 0.0, 0.0, 0.0, 268293.17, 0.0\n0.0, 0.0, 0.0, 0.0, 0.0, 0.0]\nclass = portsweep.", fillcolor="#39e5ba5c"] ;
3 -> 109 ;
110 [label="dst_host_srv_count <= 1.5\nentropy = 1.02\nsamples = 19059\nvalue = [545.0, 0.0, 0.0, 0.0, 93915.77, 0.0, 0.0, 0.0, 0.0\n3421.57, 6112.47, 0.0, 0.0, 0.0, 0.0, 268293.17, 0.0\n0.0, 0.0, 0.0, 0.0, 0.0, 0.0]\nclass = satan.", fillcolor="#6f39e5a0"] ;
109 -> 110 ;
111 [label="count <= 3.5\nentropy = 0.29\nsamples = 1986\nvalue = [2.0, 0.0, 0.0, 0.0, 4984.63, 0.0, 0.0, 0.0, 0.0\n2965.36, 2619.63, 0.0, 0.0, 0.0, 0.0, 266026.36, 0.0\n0.0, 0.0, 0.0, 0.0, 0.0, 0.0]\nclass = satan.", fillcolor="#6f39e5f5"] ;
110 -> 111 ;
112 [label="dst_host_serror_rate <= 0.25\nentropy = 1.51\nsamples = 23\nvalue = [2.0, 0.0, 0.0, 0.0, 0.0, 0.0, 0.0, 0.0, 0.0, 2965.36\n2619.63, 0.0, 0.0, 0.0, 0.0, 1295.32, 0.0, 0.0, 0.0\n0.0, 0.0, 0.0, 0.0]\nclass = portsweep.", fillcolor="#39e5ba15"] ;
111 -> 112 ;
113 [label="count <= 1.5\nentropy = 1.53\nsamples = 20\nvalue = [2.0, 0.0, 0.0, 0.0, 0.0, 0.0, 0.0, 0.0, 0.0, 1824.84\n2619.63, 0.0, 0.0, 0.0, 0.0, 1295.32, 0.0, 0.0, 0.0\n0.0, 0.0, 0.0, 0.0]\nclass = ipsweep.", fillcolor="#39e2e534"] ;
112 -> 113 ;
114 [label="service <= 17.0\nentropy = 1.33\nsamples = 13\nvalue = [1.0, 0.0, 0.0, 0.0, 0.0, 0.0, 0.0, 0.0, 0.0, 1368.63\n2619.63, 0.0, 0.0, 0.0, 0.0, 485.75, 0.0, 0.0, 0.0\n0.0, 0.0, 0.0, 0.0]\nclass = ipsweep.", fillcolor="#39e2e567"] ;
113 -> 114 ;
115 [label="entropy = 0.0\nsamples = 1\nvalue = [0.0, 0.0, 0.0, 0.0, 0.0, 0.0, 0.0, 0.0, 0.0, 0.0\n0.0, 0.0, 0.0, 0.0, 0.0, 323.83, 0.0, 0.0, 0.0, 0.0\n0.0, 0.0, 0.0]\nclass = satan.", fillcolor="#6f39e5ff"] ;
114 -> 115 ;
116 [label="flag <= 1.5\nentropy = 1.13\nsamples = 12\nvalue = [1.0, 0.0, 0.0, 0.0, 0.0, 0.0, 0.0, 0.0, 0.0, 1368.63\n2619.63, 0.0, 0.0, 0.0, 0.0, 161.92, 0.0, 0.0, 0.0\n0.0, 0.0, 0.0, 0.0]\nclass = ipsweep.", fillcolor="#39e2e573"] ;
114 -> 116 ;
117 [label="dst_host_same_src_port_rate <= 0.0\nentropy = 0.68\nsamples = 8\nvalue = [0.0, 0.0, 0.0, 0.0, 0.0, 0.0, 0.0, 0.0, 0.0, 228.1\n2619.63, 0.0, 0.0, 0.0, 0.0, 161.92, 0.0, 0.0, 0.0\n0.0, 0.0, 0.0, 0.0]\nclass = ipsweep.", fillcolor="#39e2e5db"] ;
116 -> 117 ;
118 [label="dst_host_rerror_rate <= 0.47\nentropy = 0.98\nsamples = 2\nvalue = [0.0, 0.0, 0.0, 0.0, 0.0, 0.0, 0.0, 0.0, 0.0, 228.1\n0.0, 0.0, 0.0, 0.0, 0.0, 161.92, 0.0, 0.0, 0.0, 0.0\n0.0, 0.0, 0.0]\nclass = portsweep.", fillcolor="#39e5ba4a"] ;
117 -> 118 ;
119 [label="entropy = 0.0\nsamples = 1\nvalue = [0.0, 0.0, 0.0, 0.0, 0.0, 0.0, 0.0, 0.0, 0.0, 0.0\n0.0, 0.0, 0.0, 0.0, 0.0, 161.92, 0.0, 0.0, 0.0, 0.0\n0.0, 0.0, 0.0]\nclass = satan.", fillcolor="#6f39e5ff"] ;
118 -> 119 ;
120 [label="entropy = 0.0\nsamples = 1\nvalue = [0.0, 0.0, 0.0, 0.0, 0.0, 0.0, 0.0, 0.0, 0.0, 228.1\n0.0, 0.0, 0.0, 0.0, 0.0, 0.0, 0.0, 0.0, 0.0, 0.0\n0.0, 0.0, 0.0]\nclass = portsweep.", fillcolor="#39e5baff"] ;
118 -> 120 ;
121 [label="entropy = 0.0\nsamples = 6\nvalue = [0.0, 0.0, 0.0, 0.0, 0.0, 0.0, 0.0, 0.0, 0.0, 0.0\n2619.63, 0.0, 0.0, 0.0, 0.0, 0.0, 0.0, 0.0, 0.0, 0.0\n0.0, 0.0, 0.0]\nclass = ipsweep.", fillcolor="#39e2e5ff"] ;
117 -> 121 ;
122 [label="flag <= 3.0\nentropy = 0.01\nsamples = 4\nvalue = [1.0, 0.0, 0.0, 0.0, 0.0, 0.0, 0.0, 0.0, 0.0, 1140.52\n0.0, 0.0, 0.0, 0.0, 0.0, 0.0, 0.0, 0.0, 0.0, 0.0\n0.0, 0.0, 0.0]\nclass = portsweep.", fillcolor="#39e5baff"] ;
116 -> 122 ;
123 [label="entropy = 0.0\nsamples = 1\nvalue = [1, 0, 0, 0, 0, 0, 0, 0, 0, 0, 0, 0, 0, 0\n0, 0, 0, 0, 0, 0, 0, 0, 0]\nclass = normal.", fillcolor="#e58139ff"] ;
122 -> 123 ;
124 [label="entropy = 0.0\nsamples = 3\nvalue = [0.0, 0.0, 0.0, 0.0, 0.0, 0.0, 0.0, 0.0, 0.0, 1140.52\n0.0, 0.0, 0.0, 0.0, 0.0, 0.0, 0.0, 0.0, 0.0, 0.0\n0.0, 0.0, 0.0]\nclass = portsweep.", fillcolor="#39e5baff"] ;
122 -> 124 ;
125 [label="dst_host_count <= 175.0\nentropy = 0.95\nsamples = 7\nvalue = [1.0, 0.0, 0.0, 0.0, 0.0, 0.0, 0.0, 0.0, 0.0, 456.21\n0.0, 0.0, 0.0, 0.0, 0.0, 809.58, 0.0, 0.0, 0.0, 0.0\n0.0, 0.0, 0.0]\nclass = satan.", fillcolor="#6f39e56f"] ;
113 -> 125 ;
126 [label="entropy = 0.0\nsamples = 1\nvalue = [0.0, 0.0, 0.0, 0.0, 0.0, 0.0, 0.0, 0.0, 0.0, 0.0\n0.0, 0.0, 0.0, 0.0, 0.0, 161.92, 0.0, 0.0, 0.0, 0.0\n0.0, 0.0, 0.0]\nclass = satan.", fillcolor="#6f39e5ff"] ;
125 -> 126 ;
127 [label="dst_host_count <= 242.0\nentropy = 0.99\nsamples = 6\nvalue = [1.0, 0.0, 0.0, 0.0, 0.0, 0.0, 0.0, 0.0, 0.0, 456.21\n0.0, 0.0, 0.0, 0.0, 0.0, 647.66, 0.0, 0.0, 0.0, 0.0\n0.0, 0.0, 0.0]\nclass = satan.", fillcolor="#6f39e54b"] ;
125 -> 127 ;
128 [label="entropy = 0.0\nsamples = 1\nvalue = [0.0, 0.0, 0.0, 0.0, 0.0, 0.0, 0.0, 0.0, 0.0, 228.1\n0.0, 0.0, 0.0, 0.0, 0.0, 0.0, 0.0, 0.0, 0.0, 0.0\n0.0, 0.0, 0.0]\nclass = portsweep.", fillcolor="#39e5baff"] ;
127 -> 128 ;
129 [label="dst_host_diff_srv_rate <= 0.04\nentropy = 0.84\nsamples = 5\nvalue = [1.0, 0.0, 0.0, 0.0, 0.0, 0.0, 0.0, 0.0, 0.0, 228.1\n0.0, 0.0, 0.0, 0.0, 0.0, 647.66, 0.0, 0.0, 0.0, 0.0\n0.0, 0.0, 0.0]\nclass = satan.", fillcolor="#6f39e5a5"] ;
127 -> 129 ;
130 [label="count <= 2.5\nentropy = 0.04\nsamples = 2\nvalue = [1.0, 0.0, 0.0, 0.0, 0.0, 0.0, 0.0, 0.0, 0.0, 228.1\n0.0, 0.0, 0.0, 0.0, 0.0, 0.0, 0.0, 0.0, 0.0, 0.0\n0.0, 0.0, 0.0]\nclass = portsweep.", fillcolor="#39e5bafe"] ;
129 -> 130 ;
131 [label="entropy = 0.0\nsamples = 1\nvalue = [1, 0, 0, 0, 0, 0, 0, 0, 0, 0, 0, 0, 0, 0\n0, 0, 0, 0, 0, 0, 0, 0, 0]\nclass = normal.", fillcolor="#e58139ff"] ;
130 -> 131 ;
132 [label="entropy = 0.0\nsamples = 1\nvalue = [0.0, 0.0, 0.0, 0.0, 0.0, 0.0, 0.0, 0.0, 0.0, 228.1\n0.0, 0.0, 0.0, 0.0, 0.0, 0.0, 0.0, 0.0, 0.0, 0.0\n0.0, 0.0, 0.0]\nclass = portsweep.", fillcolor="#39e5baff"] ;
130 -> 132 ;
133 [label="entropy = 0.0\nsamples = 3\nvalue = [0.0, 0.0, 0.0, 0.0, 0.0, 0.0, 0.0, 0.0, 0.0, 0.0\n0.0, 0.0, 0.0, 0.0, 0.0, 647.66, 0.0, 0.0, 0.0, 0.0\n0.0, 0.0, 0.0]\nclass = satan.", fillcolor="#6f39e5ff"] ;
129 -> 133 ;
134 [label="entropy = 0.0\nsamples = 3\nvalue = [0.0, 0.0, 0.0, 0.0, 0.0, 0.0, 0.0, 0.0, 0.0, 1140.52\n0.0, 0.0, 0.0, 0.0, 0.0, 0.0, 0.0, 0.0, 0.0, 0.0\n0.0, 0.0, 0.0]\nclass = portsweep.", fillcolor="#39e5baff"] ;
112 -> 134 ;
135 [label="rerror_rate <= 0.99\nentropy = 0.13\nsamples = 1963\nvalue = [0.0, 0.0, 0.0, 0.0, 4984.63, 0.0, 0.0, 0.0, 0.0, 0.0\n0.0, 0.0, 0.0, 0.0, 0.0, 264731.04, 0.0, 0.0, 0.0\n0.0, 0.0, 0.0, 0.0]\nclass = satan.", fillcolor="#6f39e5fa"] ;
111 -> 135 ;
136 [label="srv_serror_rate <= 0.25\nentropy = 0.0\nsamples = 1012\nvalue = [0.0, 0.0, 0.0, 0.0, 3.36, 0.0, 0.0, 0.0, 0.0, 0.0\n0.0, 0.0, 0.0, 0.0, 0.0, 261978.48, 0.0, 0.0, 0.0\n0.0, 0.0, 0.0, 0.0]\nclass = satan.", fillcolor="#6f39e5ff"] ;
135 -> 136 ;
137 [label="entropy = 0.0\nsamples = 1011\nvalue = [0.0, 0.0, 0.0, 0.0, 0.0, 0.0, 0.0, 0.0, 0.0, 0.0\n0.0, 0.0, 0.0, 0.0, 0.0, 261978.48, 0.0, 0.0, 0.0\n0.0, 0.0, 0.0, 0.0]\nclass = satan.", fillcolor="#6f39e5ff"] ;
136 -> 137 ;
138 [label="entropy = 0.0\nsamples = 1\nvalue = [0.0, 0.0, 0.0, 0.0, 3.36, 0.0, 0.0, 0.0, 0.0, 0.0\n0.0, 0.0, 0.0, 0.0, 0.0, 0.0, 0.0, 0.0, 0.0, 0.0\n0.0, 0.0, 0.0]\nclass = neptune.", fillcolor="#98e539ff"] ;
136 -> 138 ;
139 [label="diff_srv_rate <= 0.75\nentropy = 0.94\nsamples = 951\nvalue = [0.0, 0.0, 0.0, 0.0, 4981.27, 0.0, 0.0, 0.0, 0.0, 0.0\n0.0, 0.0, 0.0, 0.0, 0.0, 2752.56, 0.0, 0.0, 0.0, 0.0\n0.0, 0.0, 0.0]\nclass = neptune.", fillcolor="#98e53972"] ;
135 -> 139 ;
140 [label="entropy = 0.0\nsamples = 939\nvalue = [0.0, 0.0, 0.0, 0.0, 4981.27, 0.0, 0.0, 0.0, 0.0, 0.0\n0.0, 0.0, 0.0, 0.0, 0.0, 0.0, 0.0, 0.0, 0.0, 0.0\n0.0, 0.0, 0.0]\nclass = neptune.", fillcolor="#98e539ff"] ;
139 -> 140 ;
141 [label="entropy = 0.0\nsamples = 12\nvalue = [0.0, 0.0, 0.0, 0.0, 0.0, 0.0, 0.0, 0.0, 0.0, 0.0\n0.0, 0.0, 0.0, 0.0, 0.0, 2752.56, 0.0, 0.0, 0.0, 0.0\n0.0, 0.0, 0.0]\nclass = satan.", fillcolor="#6f39e5ff"] ;
139 -> 141 ;
142 [label="srv_count <= 1.5\nentropy = 0.48\nsamples = 17073\nvalue = [543.0, 0.0, 0.0, 0.0, 88931.14, 0.0, 0.0, 0.0, 0.0\n456.21, 3492.84, 0.0, 0.0, 0.0, 0.0, 2266.81, 0.0, 0.0\n0.0, 0.0, 0.0, 0.0, 0.0]\nclass = neptune.", fillcolor="#98e539ec"] ;
110 -> 142 ;
143 [label="dst_host_srv_rerror_rate <= 0.99\nentropy = 1.21\nsamples = 303\nvalue = [440.0, 0.0, 0.0, 0.0, 83.92, 0.0, 0.0, 0.0, 0.0\n228.1, 3492.84, 0.0, 0.0, 0.0, 0.0, 323.83, 0.0, 0.0\n0.0, 0.0, 0.0, 0.0, 0.0]\nclass = ipsweep.", fillcolor="#39e2e5bd"] ;
142 -> 143 ;
144 [label="duration <= 58.0\nentropy = 0.88\nsamples = 60\nvalue = [96.0, 0.0, 0.0, 0.0, 0.0, 0.0, 0.0, 0.0, 0.0, 228.1\n0.0, 0.0, 0.0, 0.0, 0.0, 0.0, 0.0, 0.0, 0.0, 0.0\n0.0, 0.0, 0.0]\nclass = portsweep.", fillcolor="#39e5ba94"] ;
143 -> 144 ;
145 [label="service <= 22.0\nentropy = 0.87\nsamples = 58\nvalue = [93.0, 0.0, 0.0, 0.0, 0.0, 0.0, 0.0, 0.0, 0.0, 228.1\n0.0, 0.0, 0.0, 0.0, 0.0, 0.0, 0.0, 0.0, 0.0, 0.0\n0.0, 0.0, 0.0]\nclass = portsweep.", fillcolor="#39e5ba97"] ;
144 -> 145 ;
146 [label="dst_host_srv_count <= 52.5\nentropy = 0.3\nsamples = 11\nvalue = [13.0, 0.0, 0.0, 0.0, 0.0, 0.0, 0.0, 0.0, 0.0, 228.1\n0.0, 0.0, 0.0, 0.0, 0.0, 0.0, 0.0, 0.0, 0.0, 0.0\n0.0, 0.0, 0.0]\nclass = portsweep.", fillcolor="#39e5baf0"] ;
145 -> 146 ;
147 [label="entropy = 0.0\nsamples = 10\nvalue = [13, 0, 0, 0, 0, 0, 0, 0, 0, 0, 0, 0, 0, 0\n0, 0, 0, 0, 0, 0, 0, 0, 0]\nclass = normal.", fillcolor="#e58139ff"] ;
146 -> 147 ;
148 [label="entropy = 0.0\nsamples = 1\nvalue = [0.0, 0.0, 0.0, 0.0, 0.0, 0.0, 0.0, 0.0, 0.0, 228.1\n0.0, 0.0, 0.0, 0.0, 0.0, 0.0, 0.0, 0.0, 0.0, 0.0\n0.0, 0.0, 0.0]\nclass = portsweep.", fillcolor="#39e5baff"] ;
146 -> 148 ;
149 [label="entropy = 0.0\nsamples = 47\nvalue = [80, 0, 0, 0, 0, 0, 0, 0, 0, 0, 0, 0, 0, 0\n0, 0, 0, 0, 0, 0, 0, 0, 0]\nclass = normal.", fillcolor="#e58139ff"] ;
145 -> 149 ;
150 [label="entropy = 0.0\nsamples = 2\nvalue = [3, 0, 0, 0, 0, 0, 0, 0, 0, 0, 0, 0, 0, 0\n0, 0, 0, 0, 0, 0, 0, 0, 0]\nclass = normal.", fillcolor="#e58139ff"] ;
144 -> 150 ;
151 [label="dst_host_rerror_rate <= 0.87\nentropy = 0.92\nsamples = 243\nvalue = [344.0, 0.0, 0.0, 0.0, 83.92, 0.0, 0.0, 0.0, 0.0, 0.0\n3492.84, 0.0, 0.0, 0.0, 0.0, 323.83, 0.0, 0.0, 0.0\n0.0, 0.0, 0.0, 0.0]\nclass = ipsweep.", fillcolor="#39e2e5ce"] ;
143 -> 151 ;
152 [label="count <= 1.5\nentropy = 1.0\nsamples = 218\nvalue = [344.0, 0.0, 0.0, 0.0, 0.0, 0.0, 0.0, 0.0, 0.0, 0.0\n0.0, 0.0, 0.0, 0.0, 0.0, 323.83, 0.0, 0.0, 0.0, 0.0\n0.0, 0.0, 0.0]\nclass = normal.", fillcolor="#e581390f"] ;
151 -> 152 ;
153 [label="entropy = 0.0\nsamples = 214\nvalue = [340, 0, 0, 0, 0, 0, 0, 0, 0, 0, 0, 0, 0, 0\n0, 0, 0, 0, 0, 0, 0, 0, 0]\nclass = normal.", fillcolor="#e58139ff"] ;
152 -> 153 ;
154 [label="count <= 256.5\nentropy = 0.1\nsamples = 4\nvalue = [4.0, 0.0, 0.0, 0.0, 0.0, 0.0, 0.0, 0.0, 0.0, 0.0\n0.0, 0.0, 0.0, 0.0, 0.0, 323.83, 0.0, 0.0, 0.0, 0.0\n0.0, 0.0, 0.0]\nclass = satan.", fillcolor="#6f39e5fc"] ;
152 -> 154 ;
155 [label="entropy = 0.0\nsamples = 1\nvalue = [0.0, 0.0, 0.0, 0.0, 0.0, 0.0, 0.0, 0.0, 0.0, 0.0\n0.0, 0.0, 0.0, 0.0, 0.0, 323.83, 0.0, 0.0, 0.0, 0.0\n0.0, 0.0, 0.0]\nclass = satan.", fillcolor="#6f39e5ff"] ;
154 -> 155 ;
156 [label="entropy = 0.0\nsamples = 3\nvalue = [4, 0, 0, 0, 0, 0, 0, 0, 0, 0, 0, 0, 0, 0\n0, 0, 0, 0, 0, 0, 0, 0, 0]\nclass = normal.", fillcolor="#e58139ff"] ;
154 -> 156 ;
157 [label="dst_host_srv_diff_host_rate <= 0.5\nentropy = 0.16\nsamples = 25\nvalue = [0.0, 0.0, 0.0, 0.0, 83.92, 0.0, 0.0, 0.0, 0.0, 0.0\n3492.84, 0.0, 0.0, 0.0, 0.0, 0.0, 0.0, 0.0, 0.0, 0.0\n0.0, 0.0, 0.0]\nclass = ipsweep.", fillcolor="#39e2e5f9"] ;
151 -> 157 ;
158 [label="entropy = 0.0\nsamples = 14\nvalue = [0.0, 0.0, 0.0, 0.0, 83.92, 0.0, 0.0, 0.0, 0.0, 0.0\n0.0, 0.0, 0.0, 0.0, 0.0, 0.0, 0.0, 0.0, 0.0, 0.0\n0.0, 0.0, 0.0]\nclass = neptune.", fillcolor="#98e539ff"] ;
157 -> 158 ;
159 [label="entropy = 0.0\nsamples = 11\nvalue = [0.0, 0.0, 0.0, 0.0, 0.0, 0.0, 0.0, 0.0, 0.0, 0.0\n3492.84, 0.0, 0.0, 0.0, 0.0, 0.0, 0.0, 0.0, 0.0, 0.0\n0.0, 0.0, 0.0]\nclass = ipsweep.", fillcolor="#39e2e5ff"] ;
157 -> 159 ;
160 [label="serror_rate <= 0.04\nentropy = 0.19\nsamples = 16770\nvalue = [103.0, 0.0, 0.0, 0.0, 88847.23, 0.0, 0.0, 0.0, 0.0\n228.1, 0.0, 0.0, 0.0, 0.0, 0.0, 1942.98, 0.0, 0.0\n0.0, 0.0, 0.0, 0.0, 0.0]\nclass = neptune.", fillcolor="#98e539f8"] ;
142 -> 160 ;
161 [label="dst_host_same_srv_rate <= 0.38\nentropy = 0.01\nsamples = 16756\nvalue = [103.0, 0.0, 0.0, 0.0, 88827.09, 0.0, 0.0, 0.0, 0.0\n0.0, 0.0, 0.0, 0.0, 0.0, 0.0, 0.0, 0.0, 0.0, 0.0\n0.0, 0.0, 0.0, 0.0]\nclass = neptune.", fillcolor="#98e539ff"] ;
160 -> 161 ;
162 [label="dst_host_srv_count <= 6.5\nentropy = 0.0\nsamples = 16694\nvalue = [7.0, 0.0, 0.0, 0.0, 88827.09, 0.0, 0.0, 0.0, 0.0\n0.0, 0.0, 0.0, 0.0, 0.0, 0.0, 0.0, 0.0, 0.0, 0.0\n0.0, 0.0, 0.0, 0.0]\nclass = neptune.", fillcolor="#98e539ff"] ;
161 -> 162 ;
163 [label="dst_host_diff_srv_rate <= 0.05\nentropy = 0.0\nsamples = 4679\nvalue = [7.0, 0.0, 0.0, 0.0, 24775.45, 0.0, 0.0, 0.0, 0.0\n0.0, 0.0, 0.0, 0.0, 0.0, 0.0, 0.0, 0.0, 0.0, 0.0\n0.0, 0.0, 0.0, 0.0]\nclass = neptune.", fillcolor="#98e539ff"] ;
162 -> 163 ;
164 [label="entropy = 0.0\nsamples = 6\nvalue = [7, 0, 0, 0, 0, 0, 0, 0, 0, 0, 0, 0, 0, 0\n0, 0, 0, 0, 0, 0, 0, 0, 0]\nclass = normal.", fillcolor="#e58139ff"] ;
163 -> 164 ;
165 [label="entropy = 0.0\nsamples = 4673\nvalue = [0.0, 0.0, 0.0, 0.0, 24775.45, 0.0, 0.0, 0.0, 0.0\n0.0, 0.0, 0.0, 0.0, 0.0, 0.0, 0.0, 0.0, 0.0, 0.0\n0.0, 0.0, 0.0, 0.0]\nclass = neptune.", fillcolor="#98e539ff"] ;
163 -> 165 ;
166 [label="entropy = 0.0\nsamples = 12015\nvalue = [0.0, 0.0, 0.0, 0.0, 64051.64, 0.0, 0.0, 0.0, 0.0\n0.0, 0.0, 0.0, 0.0, 0.0, 0.0, 0.0, 0.0, 0.0, 0.0\n0.0, 0.0, 0.0, 0.0]\nclass = neptune.", fillcolor="#98e539ff"] ;
162 -> 166 ;
167 [label="entropy = 0.0\nsamples = 62\nvalue = [96, 0, 0, 0, 0, 0, 0, 0, 0, 0, 0, 0, 0, 0\n0, 0, 0, 0, 0, 0, 0, 0, 0]\nclass = normal.", fillcolor="#e58139ff"] ;
161 -> 167 ;
168 [label="rerror_rate <= 0.78\nentropy = 0.56\nsamples = 14\nvalue = [0.0, 0.0, 0.0, 0.0, 20.14, 0.0, 0.0, 0.0, 0.0, 228.1\n0.0, 0.0, 0.0, 0.0, 0.0, 1942.98, 0.0, 0.0, 0.0, 0.0\n0.0, 0.0, 0.0]\nclass = satan.", fillcolor="#6f39e5df"] ;
160 -> 168 ;
169 [label="same_srv_rate <= 0.75\nentropy = 0.41\nsamples = 6\nvalue = [0.0, 0.0, 0.0, 0.0, 20.14, 0.0, 0.0, 0.0, 0.0, 228.1\n0.0, 0.0, 0.0, 0.0, 0.0, 0.0, 0.0, 0.0, 0.0, 0.0\n0.0, 0.0, 0.0]\nclass = portsweep.", fillcolor="#39e5bae8"] ;
168 -> 169 ;
170 [label="entropy = -0.0\nsamples = 4\nvalue = [0.0, 0.0, 0.0, 0.0, 16.78, 0.0, 0.0, 0.0, 0.0, 0.0\n0.0, 0.0, 0.0, 0.0, 0.0, 0.0, 0.0, 0.0, 0.0, 0.0\n0.0, 0.0, 0.0]\nclass = neptune.", fillcolor="#98e539ff"] ;
169 -> 170 ;
171 [label="dst_host_diff_srv_rate <= 0.01\nentropy = 0.11\nsamples = 2\nvalue = [0.0, 0.0, 0.0, 0.0, 3.36, 0.0, 0.0, 0.0, 0.0, 228.1\n0.0, 0.0, 0.0, 0.0, 0.0, 0.0, 0.0, 0.0, 0.0, 0.0\n0.0, 0.0, 0.0]\nclass = portsweep.", fillcolor="#39e5bafb"] ;
169 -> 171 ;
172 [label="entropy = 0.0\nsamples = 1\nvalue = [0.0, 0.0, 0.0, 0.0, 0.0, 0.0, 0.0, 0.0, 0.0, 228.1\n0.0, 0.0, 0.0, 0.0, 0.0, 0.0, 0.0, 0.0, 0.0, 0.0\n0.0, 0.0, 0.0]\nclass = portsweep.", fillcolor="#39e5baff"] ;
171 -> 172 ;
173 [label="entropy = 0.0\nsamples = 1\nvalue = [0.0, 0.0, 0.0, 0.0, 3.36, 0.0, 0.0, 0.0, 0.0, 0.0\n0.0, 0.0, 0.0, 0.0, 0.0, 0.0, 0.0, 0.0, 0.0, 0.0\n0.0, 0.0, 0.0]\nclass = neptune.", fillcolor="#98e539ff"] ;
171 -> 173 ;
174 [label="entropy = 0.0\nsamples = 8\nvalue = [0.0, 0.0, 0.0, 0.0, 0.0, 0.0, 0.0, 0.0, 0.0, 0.0\n0.0, 0.0, 0.0, 0.0, 0.0, 1942.98, 0.0, 0.0, 0.0, 0.0\n0.0, 0.0, 0.0]\nclass = satan.", fillcolor="#6f39e5ff"] ;
168 -> 174 ;
175 [label="dst_host_rerror_rate <= 0.99\nentropy = 0.47\nsamples = 1730\nvalue = [171.0, 0.0, 0.0, 0.0, 130.91, 0.0, 0.0, 0.0, 0.0\n503427.23, 55667.16, 0.0, 0.0, 0.0, 0.0, 0.0, 0.0, 0.0\n0.0, 0.0, 0.0, 0.0, 0.0]\nclass = portsweep.", fillcolor="#39e5bae3"] ;
109 -> 175 ;
176 [label="duration <= 0.5\nentropy = 0.66\nsamples = 1016\nvalue = [171.0, 0.0, 0.0, 0.0, 0.0, 0.0, 0.0, 0.0, 0.0\n267338.79, 53484.14, 0.0, 0.0, 0.0, 0.0, 0.0, 0.0, 0.0\n0.0, 0.0, 0.0, 0.0, 0.0]\nclass = portsweep.", fillcolor="#39e5bacc"] ;
175 -> 176 ;
177 [label="dst_host_srv_diff_host_rate <= 0.75\nentropy = 0.75\nsamples = 815\nvalue = [163.0, 0.0, 0.0, 0.0, 0.0, 0.0, 0.0, 0.0, 0.0\n203469.46, 53484.14, 0.0, 0.0, 0.0, 0.0, 0.0, 0.0, 0.0\n0.0, 0.0, 0.0, 0.0, 0.0]\nclass = portsweep.", fillcolor="#39e5babc"] ;
176 -> 177 ;
178 [label="dst_host_same_src_port_rate <= 0.15\nentropy = 0.44\nsamples = 717\nvalue = [163.0, 0.0, 0.0, 0.0, 0.0, 0.0, 0.0, 0.0, 0.0\n203469.46, 19428.93, 0.0, 0.0, 0.0, 0.0, 0.0, 0.0, 0.0\n0.0, 0.0, 0.0, 0.0, 0.0]\nclass = portsweep.", fillcolor="#39e5bae6"] ;
177 -> 178 ;
179 [label="diff_srv_rate <= 0.26\nentropy = 1.01\nsamples = 227\nvalue = [150.0, 0.0, 0.0, 0.0, 0.0, 0.0, 0.0, 0.0, 0.0\n26460.15, 19428.93, 0.0, 0.0, 0.0, 0.0, 0.0, 0.0, 0.0\n0.0, 0.0, 0.0, 0.0, 0.0]\nclass = portsweep.", fillcolor="#39e5ba43"] ;
178 -> 179 ;
180 [label="dst_host_diff_srv_rate <= 0.72\nentropy = 1.01\nsamples = 196\nvalue = [150.0, 0.0, 0.0, 0.0, 0.0, 0.0, 0.0, 0.0, 0.0\n13458.18, 19428.93, 0.0, 0.0, 0.0, 0.0, 0.0, 0.0, 0.0\n0.0, 0.0, 0.0, 0.0, 0.0]\nclass = ipsweep.", fillcolor="#39e2e54e"] ;
179 -> 180 ;
181 [label="dst_host_srv_count <= 1.5\nentropy = 0.09\nsamples = 137\nvalue = [150.0, 0.0, 0.0, 0.0, 0.0, 0.0, 0.0, 0.0, 0.0\n13458.18, 0.0, 0.0, 0.0, 0.0, 0.0, 0.0, 0.0, 0.0\n0.0, 0.0, 0.0, 0.0, 0.0]\nclass = portsweep.", fillcolor="#39e5bafc"] ;
180 -> 181 ;
182 [label="dst_host_serror_rate <= 0.05\nentropy = 0.0\nsamples = 42\nvalue = [4.0, 0.0, 0.0, 0.0, 0.0, 0.0, 0.0, 0.0, 0.0\n13458.18, 0.0, 0.0, 0.0, 0.0, 0.0, 0.0, 0.0, 0.0\n0.0, 0.0, 0.0, 0.0, 0.0]\nclass = portsweep.", fillcolor="#39e5baff"] ;
181 -> 182 ;
183 [label="dst_host_same_src_port_rate <= 0.13\nentropy = 0.0\nsamples = 34\nvalue = [4.0, 0.0, 0.0, 0.0, 0.0, 0.0, 0.0, 0.0, 0.0\n10264.71, 0.0, 0.0, 0.0, 0.0, 0.0, 0.0, 0.0, 0.0\n0.0, 0.0, 0.0, 0.0, 0.0]\nclass = portsweep.", fillcolor="#39e5baff"] ;
182 -> 183 ;
184 [label="entropy = 0.0\nsamples = 30\nvalue = [0.0, 0.0, 0.0, 0.0, 0.0, 0.0, 0.0, 0.0, 0.0, 9808.51\n0.0, 0.0, 0.0, 0.0, 0.0, 0.0, 0.0, 0.0, 0.0, 0.0\n0.0, 0.0, 0.0]\nclass = portsweep.", fillcolor="#39e5baff"] ;
183 -> 184 ;
185 [label="dst_host_count <= 60.5\nentropy = 0.07\nsamples = 4\nvalue = [4.0, 0.0, 0.0, 0.0, 0.0, 0.0, 0.0, 0.0, 0.0, 456.21\n0.0, 0.0, 0.0, 0.0, 0.0, 0.0, 0.0, 0.0, 0.0, 0.0\n0.0, 0.0, 0.0]\nclass = portsweep.", fillcolor="#39e5bafd"] ;
183 -> 185 ;
186 [label="entropy = 0.0\nsamples = 2\nvalue = [4, 0, 0, 0, 0, 0, 0, 0, 0, 0, 0, 0, 0, 0\n0, 0, 0, 0, 0, 0, 0, 0, 0]\nclass = normal.", fillcolor="#e58139ff"] ;
185 -> 186 ;
187 [label="entropy = 0.0\nsamples = 2\nvalue = [0.0, 0.0, 0.0, 0.0, 0.0, 0.0, 0.0, 0.0, 0.0, 456.21\n0.0, 0.0, 0.0, 0.0, 0.0, 0.0, 0.0, 0.0, 0.0, 0.0\n0.0, 0.0, 0.0]\nclass = portsweep.", fillcolor="#39e5baff"] ;
185 -> 187 ;
188 [label="entropy = 0.0\nsamples = 8\nvalue = [0.0, 0.0, 0.0, 0.0, 0.0, 0.0, 0.0, 0.0, 0.0, 3193.47\n0.0, 0.0, 0.0, 0.0, 0.0, 0.0, 0.0, 0.0, 0.0, 0.0\n0.0, 0.0, 0.0]\nclass = portsweep.", fillcolor="#39e5baff"] ;
182 -> 188 ;
189 [label="entropy = -0.0\nsamples = 95\nvalue = [146, 0, 0, 0, 0, 0, 0, 0, 0, 0, 0, 0, 0, 0\n0, 0, 0, 0, 0, 0, 0, 0, 0]\nclass = normal.", fillcolor="#e58139ff"] ;
181 -> 189 ;
190 [label="entropy = 0.0\nsamples = 59\nvalue = [0.0, 0.0, 0.0, 0.0, 0.0, 0.0, 0.0, 0.0, 0.0, 0.0\n19428.93, 0.0, 0.0, 0.0, 0.0, 0.0, 0.0, 0.0, 0.0\n0.0, 0.0, 0.0, 0.0]\nclass = ipsweep.", fillcolor="#39e2e5ff"] ;
180 -> 190 ;
191 [label="entropy = -0.0\nsamples = 31\nvalue = [0.0, 0.0, 0.0, 0.0, 0.0, 0.0, 0.0, 0.0, 0.0\n13001.97, 0.0, 0.0, 0.0, 0.0, 0.0, 0.0, 0.0, 0.0\n0.0, 0.0, 0.0, 0.0, 0.0]\nclass = portsweep.", fillcolor="#39e5baff"] ;
179 -> 191 ;
192 [label="dst_host_diff_srv_rate <= 0.08\nentropy = 0.0\nsamples = 490\nvalue = [13.0, 0.0, 0.0, 0.0, 0.0, 0.0, 0.0, 0.0, 0.0\n177009.3, 0.0, 0.0, 0.0, 0.0, 0.0, 0.0, 0.0, 0.0\n0.0, 0.0, 0.0, 0.0, 0.0]\nclass = portsweep.", fillcolor="#39e5baff"] ;
178 -> 192 ;
193 [label="entropy = 0.0\nsamples = 1\nvalue = [1, 0, 0, 0, 0, 0, 0, 0, 0, 0, 0, 0, 0, 0\n0, 0, 0, 0, 0, 0, 0, 0, 0]\nclass = normal.", fillcolor="#e58139ff"] ;
192 -> 193 ;
194 [label="dst_host_same_srv_rate <= 0.09\nentropy = 0.0\nsamples = 489\nvalue = [12.0, 0.0, 0.0, 0.0, 0.0, 0.0, 0.0, 0.0, 0.0\n177009.3, 0.0, 0.0, 0.0, 0.0, 0.0, 0.0, 0.0, 0.0\n0.0, 0.0, 0.0, 0.0, 0.0]\nclass = portsweep.", fillcolor="#39e5baff"] ;
192 -> 194 ;
195 [label="entropy = 0.0\nsamples = 476\nvalue = [0.0, 0.0, 0.0, 0.0, 0.0, 0.0, 0.0, 0.0, 0.0\n175412.57, 0.0, 0.0, 0.0, 0.0, 0.0, 0.0, 0.0, 0.0\n0.0, 0.0, 0.0, 0.0, 0.0]\nclass = portsweep.", fillcolor="#39e5baff"] ;
194 -> 195 ;
196 [label="dst_host_srv_count <= 32.0\nentropy = 0.06\nsamples = 13\nvalue = [12.0, 0.0, 0.0, 0.0, 0.0, 0.0, 0.0, 0.0, 0.0\n1596.73, 0.0, 0.0, 0.0, 0.0, 0.0, 0.0, 0.0, 0.0, 0.0\n0.0, 0.0, 0.0, 0.0]\nclass = portsweep.", fillcolor="#39e5bafd"] ;
194 -> 196 ;
197 [label="entropy = -0.0\nsamples = 8\nvalue = [12, 0, 0, 0, 0, 0, 0, 0, 0, 0, 0, 0, 0, 0\n0, 0, 0, 0, 0, 0, 0, 0, 0]\nclass = normal.", fillcolor="#e58139ff"] ;
196 -> 197 ;
198 [label="entropy = 0.0\nsamples = 5\nvalue = [0.0, 0.0, 0.0, 0.0, 0.0, 0.0, 0.0, 0.0, 0.0, 1596.73\n0.0, 0.0, 0.0, 0.0, 0.0, 0.0, 0.0, 0.0, 0.0, 0.0\n0.0, 0.0, 0.0]\nclass = portsweep.", fillcolor="#39e5baff"] ;
196 -> 198 ;
199 [label="entropy = -0.0\nsamples = 98\nvalue = [0.0, 0.0, 0.0, 0.0, 0.0, 0.0, 0.0, 0.0, 0.0, 0.0\n34055.21, 0.0, 0.0, 0.0, 0.0, 0.0, 0.0, 0.0, 0.0\n0.0, 0.0, 0.0, 0.0]\nclass = ipsweep.", fillcolor="#39e2e5ff"] ;
177 -> 199 ;
200 [label="service <= 26.5\nentropy = 0.0\nsamples = 201\nvalue = [8.0, 0.0, 0.0, 0.0, 0.0, 0.0, 0.0, 0.0, 0.0\n63869.34, 0.0, 0.0, 0.0, 0.0, 0.0, 0.0, 0.0, 0.0\n0.0, 0.0, 0.0, 0.0, 0.0]\nclass = portsweep.", fillcolor="#39e5baff"] ;
176 -> 200 ;
201 [label="dst_host_srv_count <= 11.5\nentropy = 0.02\nsamples = 19\nvalue = [8.0, 0.0, 0.0, 0.0, 0.0, 0.0, 0.0, 0.0, 0.0, 5474.51\n0.0, 0.0, 0.0, 0.0, 0.0, 0.0, 0.0, 0.0, 0.0, 0.0\n0.0, 0.0, 0.0]\nclass = portsweep.", fillcolor="#39e5baff"] ;
200 -> 201 ;
202 [label="entropy = 0.0\nsamples = 14\nvalue = [0.0, 0.0, 0.0, 0.0, 0.0, 0.0, 0.0, 0.0, 0.0, 5246.41\n0.0, 0.0, 0.0, 0.0, 0.0, 0.0, 0.0, 0.0, 0.0, 0.0\n0.0, 0.0, 0.0]\nclass = portsweep.", fillcolor="#39e5baff"] ;
201 -> 202 ;
203 [label="dst_host_rerror_rate <= 0.84\nentropy = 0.21\nsamples = 5\nvalue = [8.0, 0.0, 0.0, 0.0, 0.0, 0.0, 0.0, 0.0, 0.0, 228.1\n0.0, 0.0, 0.0, 0.0, 0.0, 0.0, 0.0, 0.0, 0.0, 0.0\n0.0, 0.0, 0.0]\nclass = portsweep.", fillcolor="#39e5baf6"] ;
201 -> 203 ;
204 [label="entropy = 0.0\nsamples = 4\nvalue = [8, 0, 0, 0, 0, 0, 0, 0, 0, 0, 0, 0, 0, 0\n0, 0, 0, 0, 0, 0, 0, 0, 0]\nclass = normal.", fillcolor="#e58139ff"] ;
203 -> 204 ;
205 [label="entropy = 0.0\nsamples = 1\nvalue = [0.0, 0.0, 0.0, 0.0, 0.0, 0.0, 0.0, 0.0, 0.0, 228.1\n0.0, 0.0, 0.0, 0.0, 0.0, 0.0, 0.0, 0.0, 0.0, 0.0\n0.0, 0.0, 0.0]\nclass = portsweep.", fillcolor="#39e5baff"] ;
203 -> 205 ;
206 [label="entropy = 0.0\nsamples = 182\nvalue = [0.0, 0.0, 0.0, 0.0, 0.0, 0.0, 0.0, 0.0, 0.0\n58394.82, 0.0, 0.0, 0.0, 0.0, 0.0, 0.0, 0.0, 0.0\n0.0, 0.0, 0.0, 0.0, 0.0]\nclass = portsweep.", fillcolor="#39e5baff"] ;
200 -> 206 ;
207 [label="dst_host_same_src_port_rate <= 0.64\nentropy = 0.08\nsamples = 714\nvalue = [0.0, 0.0, 0.0, 0.0, 130.91, 0.0, 0.0, 0.0, 0.0\n236088.44, 2183.03, 0.0, 0.0, 0.0, 0.0, 0.0, 0.0, 0.0\n0.0, 0.0, 0.0, 0.0, 0.0]\nclass = portsweep.", fillcolor="#39e5bafd"] ;
175 -> 207 ;
208 [label="count <= 52.0\nentropy = 0.31\nsamples = 38\nvalue = [0.0, 0.0, 0.0, 0.0, 130.91, 0.0, 0.0, 0.0, 0.0, 0.0\n2183.03, 0.0, 0.0, 0.0, 0.0, 0.0, 0.0, 0.0, 0.0, 0.0\n0.0, 0.0, 0.0]\nclass = ipsweep.", fillcolor="#39e2e5f0"] ;
207 -> 208 ;
209 [label="entropy = 0.0\nsamples = 7\nvalue = [0.0, 0.0, 0.0, 0.0, 0.0, 0.0, 0.0, 0.0, 0.0, 0.0\n2183.03, 0.0, 0.0, 0.0, 0.0, 0.0, 0.0, 0.0, 0.0, 0.0\n0.0, 0.0, 0.0]\nclass = ipsweep.", fillcolor="#39e2e5ff"] ;
208 -> 209 ;
210 [label="entropy = -0.0\nsamples = 31\nvalue = [0.0, 0.0, 0.0, 0.0, 130.91, 0.0, 0.0, 0.0, 0.0, 0.0\n0.0, 0.0, 0.0, 0.0, 0.0, 0.0, 0.0, 0.0, 0.0, 0.0\n0.0, 0.0, 0.0]\nclass = neptune.", fillcolor="#98e539ff"] ;
208 -> 210 ;
211 [label="entropy = -0.0\nsamples = 676\nvalue = [0.0, 0.0, 0.0, 0.0, 0.0, 0.0, 0.0, 0.0, 0.0\n236088.44, 0.0, 0.0, 0.0, 0.0, 0.0, 0.0, 0.0, 0.0\n0.0, 0.0, 0.0, 0.0, 0.0]\nclass = portsweep.", fillcolor="#39e5baff"] ;
207 -> 211 ;
212 [label="protocol_type <= 0.5\nentropy = 2.04\nsamples = 17837\nvalue = [25173.0, 0.0, 0.0, 0.0, 218.18, 0.0, 0.0, 0.0, 0.0\n228.1, 494673.68, 284484.67, 0.0, 0.0, 548649.0, 485.75\n0.0, 382510.65, 0.0, 0.0, 0.0, 0.0, 0.0]\nclass = imap.", fillcolor="#4439e50b"] ;
2 -> 212 ;
213 [label="dst_host_count <= 2.5\nentropy = 1.0\nsamples = 1899\nvalue = [0.0, 0.0, 0.0, 0.0, 0.0, 0.0, 0.0, 0.0, 0.0, 228.1\n492708.96, 0.0, 0.0, 0.0, 0.0, 485.75, 0.0, 382510.65\n0.0, 0.0, 0.0, 0.0, 0.0]\nclass = ipsweep.", fillcolor="#39e2e539"] ;
212 -> 213 ;
214 [label="srv_diff_host_rate <= 0.5\nentropy = 0.87\nsamples = 1604\nvalue = [0.0, 0.0, 0.0, 0.0, 0.0, 0.0, 0.0, 0.0, 0.0, 228.1\n465639.44, 0.0, 0.0, 0.0, 0.0, 161.92, 0.0, 187854.07\n0.0, 0.0, 0.0, 0.0, 0.0]\nclass = ipsweep.", fillcolor="#39e2e598"] ;
213 -> 214 ;
215 [label="src_bytes <= 13.0\nentropy = 0.35\nsamples = 224\nvalue = [0.0, 0.0, 0.0, 0.0, 0.0, 0.0, 0.0, 0.0, 0.0, 228.1\n75096.09, 0.0, 0.0, 0.0, 0.0, 161.92, 0.0, 4186.16\n0.0, 0.0, 0.0, 0.0, 0.0]\nclass = ipsweep.", fillcolor="#39e2e5f0"] ;
214 -> 215 ;
216 [label="dst_host_srv_diff_host_rate <= 0.39\nentropy = 1.03\nsamples = 32\nvalue = [0.0, 0.0, 0.0, 0.0, 0.0, 0.0, 0.0, 0.0, 0.0, 228.1\n8295.5, 0.0, 0.0, 0.0, 0.0, 0.0, 0.0, 4186.16, 0.0\n0.0, 0.0, 0.0, 0.0]\nclass = ipsweep.", fillcolor="#39e2e57b"] ;
215 -> 216 ;
217 [label="srv_count <= 1.5\nentropy = 0.95\nsamples = 8\nvalue = [0.0, 0.0, 0.0, 0.0, 0.0, 0.0, 0.0, 0.0, 0.0, 228.1\n1091.51, 0.0, 0.0, 0.0, 0.0, 0.0, 0.0, 4186.16, 0.0\n0.0, 0.0, 0.0, 0.0]\nclass = nmap.", fillcolor="#cb39e5b3"] ;
216 -> 217 ;
218 [label="dst_host_srv_diff_host_rate <= 0.12\nentropy = 1.14\nsamples = 7\nvalue = [0.0, 0.0, 0.0, 0.0, 0.0, 0.0, 0.0, 0.0, 0.0, 228.1\n1091.51, 0.0, 0.0, 0.0, 0.0, 0.0, 0.0, 2616.35, 0.0\n0.0, 0.0, 0.0, 0.0]\nclass = nmap.", fillcolor="#cb39e589"] ;
217 -> 218 ;
219 [label="service <= 14.5\nentropy = 0.66\nsamples = 4\nvalue = [0.0, 0.0, 0.0, 0.0, 0.0, 0.0, 0.0, 0.0, 0.0, 228.1\n1091.51, 0.0, 0.0, 0.0, 0.0, 0.0, 0.0, 0.0, 0.0, 0.0\n0.0, 0.0, 0.0]\nclass = ipsweep.", fillcolor="#39e2e5ca"] ;
218 -> 219 ;
220 [label="entropy = 0.0\nsamples = 2\nvalue = [0.0, 0.0, 0.0, 0.0, 0.0, 0.0, 0.0, 0.0, 0.0, 0.0\n873.21, 0.0, 0.0, 0.0, 0.0, 0.0, 0.0, 0.0, 0.0, 0.0\n0.0, 0.0, 0.0]\nclass = ipsweep.", fillcolor="#39e2e5ff"] ;
219 -> 220 ;
221 [label="entropy = 1.0\nsamples = 2\nvalue = [0.0, 0.0, 0.0, 0.0, 0.0, 0.0, 0.0, 0.0, 0.0, 228.1\n218.3, 0.0, 0.0, 0.0, 0.0, 0.0, 0.0, 0.0, 0.0, 0.0\n0.0, 0.0, 0.0]\nclass = portsweep.", fillcolor="#39e5ba0b"] ;
219 -> 221 ;
222 [label="entropy = 0.0\nsamples = 3\nvalue = [0.0, 0.0, 0.0, 0.0, 0.0, 0.0, 0.0, 0.0, 0.0, 0.0\n0.0, 0.0, 0.0, 0.0, 0.0, 0.0, 0.0, 2616.35, 0.0, 0.0\n0.0, 0.0, 0.0]\nclass = nmap.", fillcolor="#cb39e5ff"] ;
218 -> 222 ;
223 [label="entropy = 0.0\nsamples = 1\nvalue = [0.0, 0.0, 0.0, 0.0, 0.0, 0.0, 0.0, 0.0, 0.0, 0.0\n0.0, 0.0, 0.0, 0.0, 0.0, 0.0, 0.0, 1569.81, 0.0, 0.0\n0.0, 0.0, 0.0]\nclass = nmap.", fillcolor="#cb39e5ff"] ;
217 -> 223 ;
224 [label="entropy = -0.0\nsamples = 24\nvalue = [0.0, 0.0, 0.0, 0.0, 0.0, 0.0, 0.0, 0.0, 0.0, 0.0\n7203.99, 0.0, 0.0, 0.0, 0.0, 0.0, 0.0, 0.0, 0.0, 0.0\n0.0, 0.0, 0.0]\nclass = ipsweep.", fillcolor="#39e2e5ff"] ;
216 -> 224 ;
225 [label="count <= 0.5\nentropy = 0.02\nsamples = 192\nvalue = [0.0, 0.0, 0.0, 0.0, 0.0, 0.0, 0.0, 0.0, 0.0, 0.0\n66800.59, 0.0, 0.0, 0.0, 0.0, 161.92, 0.0, 0.0, 0.0\n0.0, 0.0, 0.0, 0.0]\nclass = ipsweep.", fillcolor="#39e2e5fe"] ;
215 -> 225 ;
226 [label="entropy = 0.0\nsamples = 1\nvalue = [0.0, 0.0, 0.0, 0.0, 0.0, 0.0, 0.0, 0.0, 0.0, 0.0\n436.61, 0.0, 0.0, 0.0, 0.0, 0.0, 0.0, 0.0, 0.0, 0.0\n0.0, 0.0, 0.0]\nclass = ipsweep.", fillcolor="#39e2e5ff"] ;
225 -> 226 ;
227 [label="dst_host_srv_count <= 1.5\nentropy = 0.02\nsamples = 191\nvalue = [0.0, 0.0, 0.0, 0.0, 0.0, 0.0, 0.0, 0.0, 0.0, 0.0\n66363.99, 0.0, 0.0, 0.0, 0.0, 161.92, 0.0, 0.0, 0.0\n0.0, 0.0, 0.0, 0.0]\nclass = ipsweep.", fillcolor="#39e2e5fe"] ;
225 -> 227 ;
228 [label="src_bytes <= 19.0\nentropy = 0.72\nsamples = 3\nvalue = [0.0, 0.0, 0.0, 0.0, 0.0, 0.0, 0.0, 0.0, 0.0, 0.0\n654.91, 0.0, 0.0, 0.0, 0.0, 161.92, 0.0, 0.0, 0.0\n0.0, 0.0, 0.0, 0.0]\nclass = ipsweep.", fillcolor="#39e2e5c0"] ;
227 -> 228 ;
229 [label="entropy = 0.0\nsamples = 2\nvalue = [0.0, 0.0, 0.0, 0.0, 0.0, 0.0, 0.0, 0.0, 0.0, 0.0\n654.91, 0.0, 0.0, 0.0, 0.0, 0.0, 0.0, 0.0, 0.0, 0.0\n0.0, 0.0, 0.0]\nclass = ipsweep.", fillcolor="#39e2e5ff"] ;
228 -> 229 ;
230 [label="entropy = -0.0\nsamples = 1\nvalue = [0.0, 0.0, 0.0, 0.0, 0.0, 0.0, 0.0, 0.0, 0.0, 0.0\n0.0, 0.0, 0.0, 0.0, 0.0, 161.92, 0.0, 0.0, 0.0, 0.0\n0.0, 0.0, 0.0]\nclass = satan.", fillcolor="#6f39e5ff"] ;
228 -> 230 ;
231 [label="entropy = -0.0\nsamples = 188\nvalue = [0.0, 0.0, 0.0, 0.0, 0.0, 0.0, 0.0, 0.0, 0.0, 0.0\n65709.08, 0.0, 0.0, 0.0, 0.0, 0.0, 0.0, 0.0, 0.0\n0.0, 0.0, 0.0, 0.0]\nclass = ipsweep.", fillcolor="#39e2e5ff"] ;
227 -> 231 ;
232 [label="dst_host_count <= 1.5\nentropy = 0.9\nsamples = 1380\nvalue = [0.0, 0.0, 0.0, 0.0, 0.0, 0.0, 0.0, 0.0, 0.0, 0.0\n390543.34, 0.0, 0.0, 0.0, 0.0, 0.0, 0.0, 183667.91\n0.0, 0.0, 0.0, 0.0, 0.0]\nclass = ipsweep.", fillcolor="#39e2e587"] ;
214 -> 232 ;
233 [label="dst_host_srv_diff_host_rate <= 0.45\nentropy = 0.9\nsamples = 698\nvalue = [0.0, 0.0, 0.0, 0.0, 0.0, 0.0, 0.0, 0.0, 0.0, 0.0\n208042.37, 0.0, 0.0, 0.0, 0.0, 0.0, 0.0, 94188.67, 0.0\n0.0, 0.0, 0.0, 0.0]\nclass = ipsweep.", fillcolor="#39e2e58c"] ;
232 -> 233 ;
234 [label="dst_host_srv_count <= 3.0\nentropy = 0.13\nsamples = 110\nvalue = [0.0, 0.0, 0.0, 0.0, 0.0, 0.0, 0.0, 0.0, 0.0, 0.0\n1746.42, 0.0, 0.0, 0.0, 0.0, 0.0, 0.0, 94188.67, 0.0\n0.0, 0.0, 0.0, 0.0]\nclass = nmap.", fillcolor="#cb39e5fa"] ;
233 -> 234 ;
235 [label="srv_count <= 28.5\nentropy = 0.95\nsamples = 5\nvalue = [0.0, 0.0, 0.0, 0.0, 0.0, 0.0, 0.0, 0.0, 0.0, 0.0\n1746.42, 0.0, 0.0, 0.0, 0.0, 0.0, 0.0, 1046.54, 0.0\n0.0, 0.0, 0.0, 0.0]\nclass = ipsweep.", fillcolor="#39e2e566"] ;
234 -> 235 ;
236 [label="entropy = 0.0\nsamples = 2\nvalue = [0.0, 0.0, 0.0, 0.0, 0.0, 0.0, 0.0, 0.0, 0.0, 0.0\n1309.82, 0.0, 0.0, 0.0, 0.0, 0.0, 0.0, 0.0, 0.0, 0.0\n0.0, 0.0, 0.0]\nclass = ipsweep.", fillcolor="#39e2e5ff"] ;
235 -> 236 ;
237 [label="srv_count <= 46.5\nentropy = 0.87\nsamples = 3\nvalue = [0.0, 0.0, 0.0, 0.0, 0.0, 0.0, 0.0, 0.0, 0.0, 0.0\n436.61, 0.0, 0.0, 0.0, 0.0, 0.0, 0.0, 1046.54, 0.0\n0.0, 0.0, 0.0, 0.0]\nclass = nmap.", fillcolor="#cb39e595"] ;
235 -> 237 ;
238 [label="entropy = 0.0\nsamples = 2\nvalue = [0.0, 0.0, 0.0, 0.0, 0.0, 0.0, 0.0, 0.0, 0.0, 0.0\n0.0, 0.0, 0.0, 0.0, 0.0, 0.0, 0.0, 1046.54, 0.0, 0.0\n0.0, 0.0, 0.0]\nclass = nmap.", fillcolor="#cb39e5ff"] ;
237 -> 238 ;
239 [label="entropy = -0.0\nsamples = 1\nvalue = [0.0, 0.0, 0.0, 0.0, 0.0, 0.0, 0.0, 0.0, 0.0, 0.0\n436.61, 0.0, 0.0, 0.0, 0.0, 0.0, 0.0, 0.0, 0.0, 0.0\n0.0, 0.0, 0.0]\nclass = ipsweep.", fillcolor="#39e2e5ff"] ;
237 -> 239 ;
240 [label="entropy = 0.0\nsamples = 105\nvalue = [0.0, 0.0, 0.0, 0.0, 0.0, 0.0, 0.0, 0.0, 0.0, 0.0\n0.0, 0.0, 0.0, 0.0, 0.0, 0.0, 0.0, 93142.13, 0.0\n0.0, 0.0, 0.0, 0.0]\nclass = nmap.", fillcolor="#cb39e5ff"] ;
234 -> 240 ;
241 [label="entropy = 0.0\nsamples = 588\nvalue = [0.0, 0.0, 0.0, 0.0, 0.0, 0.0, 0.0, 0.0, 0.0, 0.0\n206295.95, 0.0, 0.0, 0.0, 0.0, 0.0, 0.0, 0.0, 0.0\n0.0, 0.0, 0.0, 0.0]\nclass = ipsweep.", fillcolor="#39e2e5ff"] ;
233 -> 241 ;
242 [label="dst_host_srv_diff_host_rate <= 0.42\nentropy = 0.91\nsamples = 682\nvalue = [0.0, 0.0, 0.0, 0.0, 0.0, 0.0, 0.0, 0.0, 0.0, 0.0\n182500.97, 0.0, 0.0, 0.0, 0.0, 0.0, 0.0, 89479.24, 0.0\n0.0, 0.0, 0.0, 0.0]\nclass = ipsweep.", fillcolor="#39e2e582"] ;
232 -> 242 ;
243 [label="src_dst_bytes_diff <= -13.0\nentropy = 0.15\nsamples = 120\nvalue = [0.0, 0.0, 0.0, 0.0, 0.0, 0.0, 0.0, 0.0, 0.0, 0.0\n1964.72, 0.0, 0.0, 0.0, 0.0, 0.0, 0.0, 89479.24, 0.0\n0.0, 0.0, 0.0, 0.0]\nclass = nmap.", fillcolor="#cb39e5f9"] ;
242 -> 243 ;
244 [label="entropy = 0.0\nsamples = 1\nvalue = [0.0, 0.0, 0.0, 0.0, 0.0, 0.0, 0.0, 0.0, 0.0, 0.0\n218.3, 0.0, 0.0, 0.0, 0.0, 0.0, 0.0, 0.0, 0.0, 0.0\n0.0, 0.0, 0.0]\nclass = ipsweep.", fillcolor="#39e2e5ff"] ;
243 -> 244 ;
245 [label="srv_count <= 43.5\nentropy = 0.14\nsamples = 119\nvalue = [0.0, 0.0, 0.0, 0.0, 0.0, 0.0, 0.0, 0.0, 0.0, 0.0\n1746.42, 0.0, 0.0, 0.0, 0.0, 0.0, 0.0, 89479.24, 0.0\n0.0, 0.0, 0.0, 0.0]\nclass = nmap.", fillcolor="#cb39e5fa"] ;
243 -> 245 ;
246 [label="srv_count <= 8.5\nentropy = 0.07\nsamples = 106\nvalue = [0.0, 0.0, 0.0, 0.0, 0.0, 0.0, 0.0, 0.0, 0.0, 0.0\n654.91, 0.0, 0.0, 0.0, 0.0, 0.0, 0.0, 83199.99, 0.0\n0.0, 0.0, 0.0, 0.0]\nclass = nmap.", fillcolor="#cb39e5fd"] ;
245 -> 246 ;
247 [label="dst_host_srv_diff_host_rate <= 0.12\nentropy = 0.25\nsamples = 24\nvalue = [0.0, 0.0, 0.0, 0.0, 0.0, 0.0, 0.0, 0.0, 0.0, 0.0\n654.91, 0.0, 0.0, 0.0, 0.0, 0.0, 0.0, 14651.57, 0.0\n0.0, 0.0, 0.0, 0.0]\nclass = nmap.", fillcolor="#cb39e5f4"] ;
246 -> 247 ;
248 [label="srv_count <= 4.5\nentropy = 0.99\nsamples = 4\nvalue = [0.0, 0.0, 0.0, 0.0, 0.0, 0.0, 0.0, 0.0, 0.0, 0.0\n654.91, 0.0, 0.0, 0.0, 0.0, 0.0, 0.0, 523.27, 0.0\n0.0, 0.0, 0.0, 0.0]\nclass = ipsweep.", fillcolor="#39e2e533"] ;
247 -> 248 ;
249 [label="entropy = 0.87\nsamples = 2\nvalue = [0.0, 0.0, 0.0, 0.0, 0.0, 0.0, 0.0, 0.0, 0.0, 0.0\n218.3, 0.0, 0.0, 0.0, 0.0, 0.0, 0.0, 523.27, 0.0\n0.0, 0.0, 0.0, 0.0]\nclass = nmap.", fillcolor="#cb39e595"] ;
248 -> 249 ;
250 [label="entropy = 0.0\nsamples = 2\nvalue = [0.0, 0.0, 0.0, 0.0, 0.0, 0.0, 0.0, 0.0, 0.0, 0.0\n436.61, 0.0, 0.0, 0.0, 0.0, 0.0, 0.0, 0.0, 0.0, 0.0\n0.0, 0.0, 0.0]\nclass = ipsweep.", fillcolor="#39e2e5ff"] ;
248 -> 250 ;
251 [label="entropy = -0.0\nsamples = 20\nvalue = [0.0, 0.0, 0.0, 0.0, 0.0, 0.0, 0.0, 0.0, 0.0, 0.0\n0.0, 0.0, 0.0, 0.0, 0.0, 0.0, 0.0, 14128.3, 0.0, 0.0\n0.0, 0.0, 0.0]\nclass = nmap.", fillcolor="#cb39e5ff"] ;
247 -> 251 ;
252 [label="entropy = -0.0\nsamples = 82\nvalue = [0.0, 0.0, 0.0, 0.0, 0.0, 0.0, 0.0, 0.0, 0.0, 0.0\n0.0, 0.0, 0.0, 0.0, 0.0, 0.0, 0.0, 68548.42, 0.0\n0.0, 0.0, 0.0, 0.0]\nclass = nmap.", fillcolor="#cb39e5ff"] ;
246 -> 252 ;
253 [label="srv_count <= 51.5\nentropy = 0.61\nsamples = 13\nvalue = [0.0, 0.0, 0.0, 0.0, 0.0, 0.0, 0.0, 0.0, 0.0, 0.0\n1091.51, 0.0, 0.0, 0.0, 0.0, 0.0, 0.0, 6279.24, 0.0\n0.0, 0.0, 0.0, 0.0]\nclass = nmap.", fillcolor="#cb39e5d3"] ;
245 -> 253 ;
254 [label="dst_host_srv_count <= 6.0\nentropy = 0.48\nsamples = 11\nvalue = [0.0, 0.0, 0.0, 0.0, 0.0, 0.0, 0.0, 0.0, 0.0, 0.0\n654.91, 0.0, 0.0, 0.0, 0.0, 0.0, 0.0, 5755.97, 0.0\n0.0, 0.0, 0.0, 0.0]\nclass = nmap.", fillcolor="#cb39e5e2"] ;
253 -> 254 ;
255 [label="entropy = 0.0\nsamples = 2\nvalue = [0.0, 0.0, 0.0, 0.0, 0.0, 0.0, 0.0, 0.0, 0.0, 0.0\n654.91, 0.0, 0.0, 0.0, 0.0, 0.0, 0.0, 0.0, 0.0, 0.0\n0.0, 0.0, 0.0]\nclass = ipsweep.", fillcolor="#39e2e5ff"] ;
254 -> 255 ;
256 [label="entropy = -0.0\nsamples = 9\nvalue = [0.0, 0.0, 0.0, 0.0, 0.0, 0.0, 0.0, 0.0, 0.0, 0.0\n0.0, 0.0, 0.0, 0.0, 0.0, 0.0, 0.0, 5755.97, 0.0, 0.0\n0.0, 0.0, 0.0]\nclass = nmap.", fillcolor="#cb39e5ff"] ;
254 -> 256 ;
257 [label="dst_host_srv_diff_host_rate <= 0.13\nentropy = 0.99\nsamples = 2\nvalue = [0.0, 0.0, 0.0, 0.0, 0.0, 0.0, 0.0, 0.0, 0.0, 0.0\n436.61, 0.0, 0.0, 0.0, 0.0, 0.0, 0.0, 523.27, 0.0\n0.0, 0.0, 0.0, 0.0]\nclass = nmap.", fillcolor="#cb39e52a"] ;
253 -> 257 ;
258 [label="entropy = 0.0\nsamples = 1\nvalue = [0.0, 0.0, 0.0, 0.0, 0.0, 0.0, 0.0, 0.0, 0.0, 0.0\n436.61, 0.0, 0.0, 0.0, 0.0, 0.0, 0.0, 0.0, 0.0, 0.0\n0.0, 0.0, 0.0]\nclass = ipsweep.", fillcolor="#39e2e5ff"] ;
257 -> 258 ;
259 [label="entropy = 0.0\nsamples = 1\nvalue = [0.0, 0.0, 0.0, 0.0, 0.0, 0.0, 0.0, 0.0, 0.0, 0.0\n0.0, 0.0, 0.0, 0.0, 0.0, 0.0, 0.0, 523.27, 0.0, 0.0\n0.0, 0.0, 0.0]\nclass = nmap.", fillcolor="#cb39e5ff"] ;
257 -> 259 ;
260 [label="entropy = 0.0\nsamples = 562\nvalue = [0.0, 0.0, 0.0, 0.0, 0.0, 0.0, 0.0, 0.0, 0.0, 0.0\n180536.25, 0.0, 0.0, 0.0, 0.0, 0.0, 0.0, 0.0, 0.0\n0.0, 0.0, 0.0, 0.0]\nclass = ipsweep.", fillcolor="#39e2e5ff"] ;
242 -> 260 ;
261 [label="same_srv_rate <= 0.75\nentropy = 0.55\nsamples = 295\nvalue = [0.0, 0.0, 0.0, 0.0, 0.0, 0.0, 0.0, 0.0, 0.0, 0.0\n27069.52, 0.0, 0.0, 0.0, 0.0, 323.83, 0.0, 194656.58\n0.0, 0.0, 0.0, 0.0, 0.0]\nclass = nmap.", fillcolor="#cb39e5db"] ;
213 -> 261 ;
262 [label="diff_srv_rate <= 0.52\nentropy = 1.0\nsamples = 3\nvalue = [0.0, 0.0, 0.0, 0.0, 0.0, 0.0, 0.0, 0.0, 0.0, 0.0\n1091.51, 0.0, 0.0, 0.0, 0.0, 0.0, 0.0, 1046.54, 0.0\n0.0, 0.0, 0.0, 0.0]\nclass = ipsweep.", fillcolor="#39e2e50b"] ;
261 -> 262 ;
263 [label="entropy = 0.0\nsamples = 1\nvalue = [0.0, 0.0, 0.0, 0.0, 0.0, 0.0, 0.0, 0.0, 0.0, 0.0\n0.0, 0.0, 0.0, 0.0, 0.0, 0.0, 0.0, 1046.54, 0.0, 0.0\n0.0, 0.0, 0.0]\nclass = nmap.", fillcolor="#cb39e5ff"] ;
262 -> 263 ;
264 [label="entropy = -0.0\nsamples = 2\nvalue = [0.0, 0.0, 0.0, 0.0, 0.0, 0.0, 0.0, 0.0, 0.0, 0.0\n1091.51, 0.0, 0.0, 0.0, 0.0, 0.0, 0.0, 0.0, 0.0, 0.0\n0.0, 0.0, 0.0]\nclass = ipsweep.", fillcolor="#39e2e5ff"] ;
262 -> 264 ;
265 [label="service <= 14.5\nentropy = 0.54\nsamples = 292\nvalue = [0.0, 0.0, 0.0, 0.0, 0.0, 0.0, 0.0, 0.0, 0.0, 0.0\n25978.01, 0.0, 0.0, 0.0, 0.0, 323.83, 0.0, 193610.04\n0.0, 0.0, 0.0, 0.0, 0.0]\nclass = nmap.", fillcolor="#cb39e5dc"] ;
261 -> 265 ;
266 [label="src_dst_bytes_diff <= -13.0\nentropy = 0.48\nsamples = 277\nvalue = [0.0, 0.0, 0.0, 0.0, 0.0, 0.0, 0.0, 0.0, 0.0, 0.0\n22485.17, 0.0, 0.0, 0.0, 0.0, 0.0, 0.0, 191516.96, 0.0\n0.0, 0.0, 0.0, 0.0]\nclass = nmap.", fillcolor="#cb39e5e1"] ;
265 -> 266 ;
267 [label="entropy = 0.0\nsamples = 64\nvalue = [0.0, 0.0, 0.0, 0.0, 0.0, 0.0, 0.0, 0.0, 0.0, 0.0\n22485.17, 0.0, 0.0, 0.0, 0.0, 0.0, 0.0, 0.0, 0.0\n0.0, 0.0, 0.0, 0.0]\nclass = ipsweep.", fillcolor="#39e2e5ff"] ;
266 -> 267 ;
268 [label="entropy = -0.0\nsamples = 213\nvalue = [0.0, 0.0, 0.0, 0.0, 0.0, 0.0, 0.0, 0.0, 0.0, 0.0\n0.0, 0.0, 0.0, 0.0, 0.0, 0.0, 0.0, 191516.96, 0.0\n0.0, 0.0, 0.0, 0.0]\nclass = nmap.", fillcolor="#cb39e5ff"] ;
266 -> 268 ;
269 [label="dst_host_srv_count <= 3.5\nentropy = 1.21\nsamples = 15\nvalue = [0.0, 0.0, 0.0, 0.0, 0.0, 0.0, 0.0, 0.0, 0.0, 0.0\n3492.84, 0.0, 0.0, 0.0, 0.0, 323.83, 0.0, 2093.08, 0.0\n0.0, 0.0, 0.0, 0.0]\nclass = ipsweep.", fillcolor="#39e2e55e"] ;
265 -> 269 ;
270 [label="entropy = 0.0\nsamples = 3\nvalue = [0.0, 0.0, 0.0, 0.0, 0.0, 0.0, 0.0, 0.0, 0.0, 0.0\n873.21, 0.0, 0.0, 0.0, 0.0, 0.0, 0.0, 0.0, 0.0, 0.0\n0.0, 0.0, 0.0]\nclass = ipsweep.", fillcolor="#39e2e5ff"] ;
269 -> 270 ;
271 [label="count <= 1.5\nentropy = 1.27\nsamples = 12\nvalue = [0.0, 0.0, 0.0, 0.0, 0.0, 0.0, 0.0, 0.0, 0.0, 0.0\n2619.63, 0.0, 0.0, 0.0, 0.0, 323.83, 0.0, 2093.08, 0.0\n0.0, 0.0, 0.0, 0.0]\nclass = ipsweep.", fillcolor="#39e2e52e"] ;
269 -> 271 ;
272 [label="src_bytes <= 13.0\nentropy = 0.98\nsamples = 9\nvalue = [0.0, 0.0, 0.0, 0.0, 0.0, 0.0, 0.0, 0.0, 0.0, 0.0\n1528.12, 0.0, 0.0, 0.0, 0.0, 0.0, 0.0, 2093.08, 0.0\n0.0, 0.0, 0.0, 0.0]\nclass = nmap.", fillcolor="#cb39e545"] ;
271 -> 272 ;
273 [label="dst_host_srv_count <= 4.5\nentropy = 0.66\nsamples = 4\nvalue = [0.0, 0.0, 0.0, 0.0, 0.0, 0.0, 0.0, 0.0, 0.0, 0.0\n436.61, 0.0, 0.0, 0.0, 0.0, 0.0, 0.0, 2093.08, 0.0\n0.0, 0.0, 0.0, 0.0]\nclass = nmap.", fillcolor="#cb39e5ca"] ;
272 -> 273 ;
274 [label="entropy = 0.0\nsamples = 1\nvalue = [0.0, 0.0, 0.0, 0.0, 0.0, 0.0, 0.0, 0.0, 0.0, 0.0\n0.0, 0.0, 0.0, 0.0, 0.0, 0.0, 0.0, 1046.54, 0.0, 0.0\n0.0, 0.0, 0.0]\nclass = nmap.", fillcolor="#cb39e5ff"] ;
273 -> 274 ;
275 [label="dst_host_count <= 5.5\nentropy = 0.87\nsamples = 3\nvalue = [0.0, 0.0, 0.0, 0.0, 0.0, 0.0, 0.0, 0.0, 0.0, 0.0\n436.61, 0.0, 0.0, 0.0, 0.0, 0.0, 0.0, 1046.54, 0.0\n0.0, 0.0, 0.0, 0.0]\nclass = nmap.", fillcolor="#cb39e595"] ;
273 -> 275 ;
276 [label="entropy = 0.99\nsamples = 2\nvalue = [0.0, 0.0, 0.0, 0.0, 0.0, 0.0, 0.0, 0.0, 0.0, 0.0\n436.61, 0.0, 0.0, 0.0, 0.0, 0.0, 0.0, 523.27, 0.0\n0.0, 0.0, 0.0, 0.0]\nclass = nmap.", fillcolor="#cb39e52a"] ;
275 -> 276 ;
277 [label="entropy = 0.0\nsamples = 1\nvalue = [0.0, 0.0, 0.0, 0.0, 0.0, 0.0, 0.0, 0.0, 0.0, 0.0\n0.0, 0.0, 0.0, 0.0, 0.0, 0.0, 0.0, 523.27, 0.0, 0.0\n0.0, 0.0, 0.0]\nclass = nmap.", fillcolor="#cb39e5ff"] ;
275 -> 277 ;
278 [label="entropy = 0.0\nsamples = 5\nvalue = [0.0, 0.0, 0.0, 0.0, 0.0, 0.0, 0.0, 0.0, 0.0, 0.0\n1091.51, 0.0, 0.0, 0.0, 0.0, 0.0, 0.0, 0.0, 0.0, 0.0\n0.0, 0.0, 0.0]\nclass = ipsweep.", fillcolor="#39e2e5ff"] ;
272 -> 278 ;
279 [label="srv_count <= 3.5\nentropy = 0.78\nsamples = 3\nvalue = [0.0, 0.0, 0.0, 0.0, 0.0, 0.0, 0.0, 0.0, 0.0, 0.0\n1091.51, 0.0, 0.0, 0.0, 0.0, 323.83, 0.0, 0.0, 0.0\n0.0, 0.0, 0.0, 0.0]\nclass = ipsweep.", fillcolor="#39e2e5b3"] ;
271 -> 279 ;
280 [label="entropy = 0.0\nsamples = 2\nvalue = [0.0, 0.0, 0.0, 0.0, 0.0, 0.0, 0.0, 0.0, 0.0, 0.0\n1091.51, 0.0, 0.0, 0.0, 0.0, 0.0, 0.0, 0.0, 0.0, 0.0\n0.0, 0.0, 0.0]\nclass = ipsweep.", fillcolor="#39e2e5ff"] ;
279 -> 280 ;
281 [label="entropy = -0.0\nsamples = 1\nvalue = [0.0, 0.0, 0.0, 0.0, 0.0, 0.0, 0.0, 0.0, 0.0, 0.0\n0.0, 0.0, 0.0, 0.0, 0.0, 323.83, 0.0, 0.0, 0.0, 0.0\n0.0, 0.0, 0.0]\nclass = satan.", fillcolor="#6f39e5ff"] ;
279 -> 281 ;
282 [label="srv_count <= 88.5\nentropy = 1.11\nsamples = 15938\nvalue = [25173.0, 0.0, 0.0, 0.0, 218.18, 0.0, 0.0, 0.0, 0.0\n0.0, 1964.72, 284484.67, 0.0, 0.0, 548649.0, 0.0, 0.0\n0.0, 0.0, 0.0, 0.0, 0.0, 0.0]\nclass = imap.", fillcolor="#4439e575"] ;
212 -> 282 ;
283 [label="dst_host_srv_serror_rate <= 0.11\nentropy = 0.47\nsamples = 15934\nvalue = [25173.0, 0.0, 0.0, 0.0, 218.18, 0.0, 0.0, 0.0, 0.0\n0.0, 1964.72, 284484.67, 0.0, 0.0, 0.0, 0.0, 0.0, 0.0\n0.0, 0.0, 0.0, 0.0, 0.0]\nclass = land.", fillcolor="#39b4e5e7"] ;
282 -> 283 ;
284 [label="dst_host_srv_diff_host_rate <= 0.05\nentropy = 0.39\nsamples = 15883\nvalue = [25150.0, 0.0, 0.0, 0.0, 36.92, 0.0, 0.0, 0.0, 0.0\n0.0, 1964.72, 0.0, 0.0, 0.0, 0.0, 0.0, 0.0, 0.0, 0.0\n0.0, 0.0, 0.0, 0.0]\nclass = normal.", fillcolor="#e58139eb"] ;
283 -> 284 ;
285 [label="flag <= 1.5\nentropy = 0.99\nsamples = 1828\nvalue = [2934.0, 0.0, 0.0, 0.0, 36.92, 0.0, 0.0, 0.0, 0.0\n0.0, 1528.12, 0.0, 0.0, 0.0, 0.0, 0.0, 0.0, 0.0, 0.0\n0.0, 0.0, 0.0, 0.0]\nclass = normal.", fillcolor="#e5813979"] ;
284 -> 285 ;
286 [label="srv_count <= 1.5\nentropy = 1.02\nsamples = 1579\nvalue = [2542.0, 0.0, 0.0, 0.0, 36.92, 0.0, 0.0, 0.0, 0.0\n0.0, 1528.12, 0.0, 0.0, 0.0, 0.0, 0.0, 0.0, 0.0, 0.0\n0.0, 0.0, 0.0, 0.0]\nclass = normal.", fillcolor="#e5813964"] ;
285 -> 286 ;
287 [label="dst_host_same_src_port_rate <= 0.75\nentropy = 0.99\nsamples = 1120\nvalue = [1848.0, 0.0, 0.0, 0.0, 0.0, 0.0, 0.0, 0.0, 0.0, 0.0\n1528.12, 0.0, 0.0, 0.0, 0.0, 0.0, 0.0, 0.0, 0.0, 0.0\n0.0, 0.0, 0.0]\nclass = normal.", fillcolor="#e581392c"] ;
286 -> 287 ;
288 [label="entropy = 0.0\nsamples = 1054\nvalue = [1750, 0, 0, 0, 0, 0, 0, 0, 0, 0, 0, 0, 0, 0\n0, 0, 0, 0, 0, 0, 0, 0, 0]\nclass = normal.", fillcolor="#e58139ff"] ;
287 -> 288 ;
289 [label="dst_host_srv_serror_rate <= 0.0\nentropy = 0.33\nsamples = 66\nvalue = [98.0, 0.0, 0.0, 0.0, 0.0, 0.0, 0.0, 0.0, 0.0, 0.0\n1528.12, 0.0, 0.0, 0.0, 0.0, 0.0, 0.0, 0.0, 0.0, 0.0\n0.0, 0.0, 0.0]\nclass = ipsweep.", fillcolor="#39e2e5ef"] ;
287 -> 289 ;
290 [label="dst_host_srv_rerror_rate <= 0.04\nentropy = 0.3\nsamples = 57\nvalue = [85.0, 0.0, 0.0, 0.0, 0.0, 0.0, 0.0, 0.0, 0.0, 0.0\n1528.12, 0.0, 0.0, 0.0, 0.0, 0.0, 0.0, 0.0, 0.0, 0.0\n0.0, 0.0, 0.0]\nclass = ipsweep.", fillcolor="#39e2e5f1"] ;
289 -> 290 ;
291 [label="dst_host_srv_rerror_rate <= 0.01\nentropy = 0.06\nsamples = 10\nvalue = [8.0, 0.0, 0.0, 0.0, 0.0, 0.0, 0.0, 0.0, 0.0, 0.0\n1091.51, 0.0, 0.0, 0.0, 0.0, 0.0, 0.0, 0.0, 0.0, 0.0\n0.0, 0.0, 0.0]\nclass = ipsweep.", fillcolor="#39e2e5fd"] ;
290 -> 291 ;
292 [label="entropy = 0.0\nsamples = 5\nvalue = [6, 0, 0, 0, 0, 0, 0, 0, 0, 0, 0, 0, 0, 0\n0, 0, 0, 0, 0, 0, 0, 0, 0]\nclass = normal.", fillcolor="#e58139ff"] ;
291 -> 292 ;
293 [label="dst_host_srv_diff_host_rate <= 0.02\nentropy = 0.02\nsamples = 5\nvalue = [2.0, 0.0, 0.0, 0.0, 0.0, 0.0, 0.0, 0.0, 0.0, 0.0\n1091.51, 0.0, 0.0, 0.0, 0.0, 0.0, 0.0, 0.0, 0.0, 0.0\n0.0, 0.0, 0.0]\nclass = ipsweep.", fillcolor="#39e2e5ff"] ;
291 -> 293 ;
294 [label="entropy = 0.0\nsamples = 2\nvalue = [2, 0, 0, 0, 0, 0, 0, 0, 0, 0, 0, 0, 0, 0\n0, 0, 0, 0, 0, 0, 0, 0, 0]\nclass = normal.", fillcolor="#e58139ff"] ;
293 -> 294 ;
295 [label="entropy = 0.0\nsamples = 3\nvalue = [0.0, 0.0, 0.0, 0.0, 0.0, 0.0, 0.0, 0.0, 0.0, 0.0\n1091.51, 0.0, 0.0, 0.0, 0.0, 0.0, 0.0, 0.0, 0.0, 0.0\n0.0, 0.0, 0.0]\nclass = ipsweep.", fillcolor="#39e2e5ff"] ;
293 -> 295 ;
296 [label="dst_host_srv_rerror_rate <= 0.98\nentropy = 0.61\nsamples = 47\nvalue = [77.0, 0.0, 0.0, 0.0, 0.0, 0.0, 0.0, 0.0, 0.0, 0.0\n436.61, 0.0, 0.0, 0.0, 0.0, 0.0, 0.0, 0.0, 0.0, 0.0\n0.0, 0.0, 0.0]\nclass = ipsweep.", fillcolor="#39e2e5d2"] ;
290 -> 296 ;
297 [label="entropy = 0.0\nsamples = 29\nvalue = [45, 0, 0, 0, 0, 0, 0, 0, 0, 0, 0, 0, 0, 0\n0, 0, 0, 0, 0, 0, 0, 0, 0]\nclass = normal.", fillcolor="#e58139ff"] ;
296 -> 297 ;
298 [label="dst_host_srv_count <= 31.5\nentropy = 0.36\nsamples = 18\nvalue = [32.0, 0.0, 0.0, 0.0, 0.0, 0.0, 0.0, 0.0, 0.0, 0.0\n436.61, 0.0, 0.0, 0.0, 0.0, 0.0, 0.0, 0.0, 0.0, 0.0\n0.0, 0.0, 0.0]\nclass = ipsweep.", fillcolor="#39e2e5ec"] ;
296 -> 298 ;
299 [label="entropy = 0.0\nsamples = 1\nvalue = [0.0, 0.0, 0.0, 0.0, 0.0, 0.0, 0.0, 0.0, 0.0, 0.0\n436.61, 0.0, 0.0, 0.0, 0.0, 0.0, 0.0, 0.0, 0.0, 0.0\n0.0, 0.0, 0.0]\nclass = ipsweep.", fillcolor="#39e2e5ff"] ;
298 -> 299 ;
300 [label="entropy = 0.0\nsamples = 17\nvalue = [32, 0, 0, 0, 0, 0, 0, 0, 0, 0, 0, 0, 0, 0\n0, 0, 0, 0, 0, 0, 0, 0, 0]\nclass = normal.", fillcolor="#e58139ff"] ;
298 -> 300 ;
301 [label="entropy = 0.0\nsamples = 9\nvalue = [13, 0, 0, 0, 0, 0, 0, 0, 0, 0, 0, 0, 0, 0\n0, 0, 0, 0, 0, 0, 0, 0, 0]\nclass = normal.", fillcolor="#e58139ff"] ;
289 -> 301 ;
302 [label="diff_srv_rate <= 0.03\nentropy = 0.29\nsamples = 459\nvalue = [694.0, 0.0, 0.0, 0.0, 36.92, 0.0, 0.0, 0.0, 0.0, 0.0\n0.0, 0.0, 0.0, 0.0, 0.0, 0.0, 0.0, 0.0, 0.0, 0.0\n0.0, 0.0, 0.0]\nclass = normal.", fillcolor="#e58139f1"] ;
286 -> 302 ;
303 [label="entropy = 0.0\nsamples = 453\nvalue = [694, 0, 0, 0, 0, 0, 0, 0, 0, 0, 0, 0, 0, 0\n0, 0, 0, 0, 0, 0, 0, 0, 0]\nclass = normal.", fillcolor="#e58139ff"] ;
302 -> 303 ;
304 [label="entropy = -0.0\nsamples = 6\nvalue = [0.0, 0.0, 0.0, 0.0, 36.92, 0.0, 0.0, 0.0, 0.0, 0.0\n0.0, 0.0, 0.0, 0.0, 0.0, 0.0, 0.0, 0.0, 0.0, 0.0\n0.0, 0.0, 0.0]\nclass = neptune.", fillcolor="#98e539ff"] ;
302 -> 304 ;
305 [label="entropy = 0.0\nsamples = 249\nvalue = [392, 0, 0, 0, 0, 0, 0, 0, 0, 0, 0, 0, 0, 0\n0, 0, 0, 0, 0, 0, 0, 0, 0]\nclass = normal.", fillcolor="#e58139ff"] ;
285 -> 305 ;
306 [label="dst_host_srv_rerror_rate <= 0.3\nentropy = 0.14\nsamples = 14055\nvalue = [22216.0, 0.0, 0.0, 0.0, 0.0, 0.0, 0.0, 0.0, 0.0, 0.0\n436.61, 0.0, 0.0, 0.0, 0.0, 0.0, 0.0, 0.0, 0.0, 0.0\n0.0, 0.0, 0.0]\nclass = normal.", fillcolor="#e58139fa"] ;
284 -> 306 ;
307 [label="dst_host_rerror_rate <= 0.78\nentropy = 0.84\nsamples = 106\nvalue = [160.0, 0.0, 0.0, 0.0, 0.0, 0.0, 0.0, 0.0, 0.0, 0.0\n436.61, 0.0, 0.0, 0.0, 0.0, 0.0, 0.0, 0.0, 0.0, 0.0\n0.0, 0.0, 0.0]\nclass = ipsweep.", fillcolor="#39e2e5a2"] ;
306 -> 307 ;
308 [label="entropy = 0.0\nsamples = 75\nvalue = [112, 0, 0, 0, 0, 0, 0, 0, 0, 0, 0, 0, 0, 0\n0, 0, 0, 0, 0, 0, 0, 0, 0]\nclass = normal.", fillcolor="#e58139ff"] ;
307 -> 308 ;
309 [label="dst_host_srv_count <= 67.5\nentropy = 0.47\nsamples = 31\nvalue = [48.0, 0.0, 0.0, 0.0, 0.0, 0.0, 0.0, 0.0, 0.0, 0.0\n436.61, 0.0, 0.0, 0.0, 0.0, 0.0, 0.0, 0.0, 0.0, 0.0\n0.0, 0.0, 0.0]\nclass = ipsweep.", fillcolor="#39e2e5e3"] ;
307 -> 309 ;
310 [label="dst_host_srv_count <= 6.0\nentropy = 0.06\nsamples = 4\nvalue = [3.0, 0.0, 0.0, 0.0, 0.0, 0.0, 0.0, 0.0, 0.0, 0.0\n436.61, 0.0, 0.0, 0.0, 0.0, 0.0, 0.0, 0.0, 0.0, 0.0\n0.0, 0.0, 0.0]\nclass = ipsweep.", fillcolor="#39e2e5fd"] ;
309 -> 310 ;
311 [label="entropy = 0.0\nsamples = 1\nvalue = [2, 0, 0, 0, 0, 0, 0, 0, 0, 0, 0, 0, 0, 0\n0, 0, 0, 0, 0, 0, 0, 0, 0]\nclass = normal.", fillcolor="#e58139ff"] ;
310 -> 311 ;
312 [label="dst_host_srv_count <= 14.5\nentropy = 0.02\nsamples = 3\nvalue = [1.0, 0.0, 0.0, 0.0, 0.0, 0.0, 0.0, 0.0, 0.0, 0.0\n436.61, 0.0, 0.0, 0.0, 0.0, 0.0, 0.0, 0.0, 0.0, 0.0\n0.0, 0.0, 0.0]\nclass = ipsweep.", fillcolor="#39e2e5fe"] ;
310 -> 312 ;
313 [label="entropy = 0.0\nsamples = 1\nvalue = [0.0, 0.0, 0.0, 0.0, 0.0, 0.0, 0.0, 0.0, 0.0, 0.0\n218.3, 0.0, 0.0, 0.0, 0.0, 0.0, 0.0, 0.0, 0.0, 0.0\n0.0, 0.0, 0.0]\nclass = ipsweep.", fillcolor="#39e2e5ff"] ;
312 -> 313 ;
314 [label="dst_host_srv_rerror_rate <= 0.12\nentropy = 0.04\nsamples = 2\nvalue = [1.0, 0.0, 0.0, 0.0, 0.0, 0.0, 0.0, 0.0, 0.0, 0.0\n218.3, 0.0, 0.0, 0.0, 0.0, 0.0, 0.0, 0.0, 0.0, 0.0\n0.0, 0.0, 0.0]\nclass = ipsweep.", fillcolor="#39e2e5fe"] ;
312 -> 314 ;
315 [label="entropy = 0.0\nsamples = 1\nvalue = [0.0, 0.0, 0.0, 0.0, 0.0, 0.0, 0.0, 0.0, 0.0, 0.0\n218.3, 0.0, 0.0, 0.0, 0.0, 0.0, 0.0, 0.0, 0.0, 0.0\n0.0, 0.0, 0.0]\nclass = ipsweep.", fillcolor="#39e2e5ff"] ;
314 -> 315 ;
316 [label="entropy = 0.0\nsamples = 1\nvalue = [1, 0, 0, 0, 0, 0, 0, 0, 0, 0, 0, 0, 0, 0\n0, 0, 0, 0, 0, 0, 0, 0, 0]\nclass = normal.", fillcolor="#e58139ff"] ;
314 -> 316 ;
317 [label="entropy = 0.0\nsamples = 27\nvalue = [45, 0, 0, 0, 0, 0, 0, 0, 0, 0, 0, 0, 0, 0\n0, 0, 0, 0, 0, 0, 0, 0, 0]\nclass = normal.", fillcolor="#e58139ff"] ;
309 -> 317 ;
318 [label="entropy = 0.0\nsamples = 13949\nvalue = [22056, 0, 0, 0, 0, 0, 0, 0, 0, 0, 0, 0, 0, 0\n0, 0, 0, 0, 0, 0, 0, 0, 0]\nclass = normal.", fillcolor="#e58139ff"] ;
306 -> 318 ;
319 [label="dst_host_same_src_port_rate <= 0.75\nentropy = 0.01\nsamples = 51\nvalue = [23.0, 0.0, 0.0, 0.0, 181.26, 0.0, 0.0, 0.0, 0.0, 0.0\n0.0, 284484.67, 0.0, 0.0, 0.0, 0.0, 0.0, 0.0, 0.0\n0.0, 0.0, 0.0, 0.0]\nclass = land.", fillcolor="#39b4e5ff"] ;
283 -> 319 ;
320 [label="flag <= 6.0\nentropy = 0.44\nsamples = 40\nvalue = [17.0, 0.0, 0.0, 0.0, 171.19, 0.0, 0.0, 0.0, 0.0, 0.0\n0.0, 0.0, 0.0, 0.0, 0.0, 0.0, 0.0, 0.0, 0.0, 0.0\n0.0, 0.0, 0.0]\nclass = neptune.", fillcolor="#98e539e6"] ;
319 -> 320 ;
321 [label="srv_count <= 2.5\nentropy = 0.09\nsamples = 31\nvalue = [2.0, 0.0, 0.0, 0.0, 171.19, 0.0, 0.0, 0.0, 0.0, 0.0\n0.0, 0.0, 0.0, 0.0, 0.0, 0.0, 0.0, 0.0, 0.0, 0.0\n0.0, 0.0, 0.0]\nclass = neptune.", fillcolor="#98e539fc"] ;
320 -> 321 ;
322 [label="dst_host_srv_diff_host_rate <= 0.34\nentropy = 0.44\nsamples = 4\nvalue = [2.0, 0.0, 0.0, 0.0, 20.14, 0.0, 0.0, 0.0, 0.0, 0.0\n0.0, 0.0, 0.0, 0.0, 0.0, 0.0, 0.0, 0.0, 0.0, 0.0\n0.0, 0.0, 0.0]\nclass = neptune.", fillcolor="#98e539e6"] ;
321 -> 322 ;
323 [label="service <= 61.5\nentropy = 0.56\nsamples = 3\nvalue = [2.0, 0.0, 0.0, 0.0, 13.43, 0.0, 0.0, 0.0, 0.0, 0.0\n0.0, 0.0, 0.0, 0.0, 0.0, 0.0, 0.0, 0.0, 0.0, 0.0\n0.0, 0.0, 0.0]\nclass = neptune.", fillcolor="#98e539d9"] ;
322 -> 323 ;
324 [label="entropy = 0.0\nsamples = 2\nvalue = [0.0, 0.0, 0.0, 0.0, 13.43, 0.0, 0.0, 0.0, 0.0, 0.0\n0.0, 0.0, 0.0, 0.0, 0.0, 0.0, 0.0, 0.0, 0.0, 0.0\n0.0, 0.0, 0.0]\nclass = neptune.", fillcolor="#98e539ff"] ;
323 -> 324 ;
325 [label="entropy = 0.0\nsamples = 1\nvalue = [2, 0, 0, 0, 0, 0, 0, 0, 0, 0, 0, 0, 0, 0\n0, 0, 0, 0, 0, 0, 0, 0, 0]\nclass = normal.", fillcolor="#e58139ff"] ;
323 -> 325 ;
326 [label="entropy = 0.0\nsamples = 1\nvalue = [0.0, 0.0, 0.0, 0.0, 6.71, 0.0, 0.0, 0.0, 0.0, 0.0\n0.0, 0.0, 0.0, 0.0, 0.0, 0.0, 0.0, 0.0, 0.0, 0.0\n0.0, 0.0, 0.0]\nclass = neptune.", fillcolor="#98e539ff"] ;
322 -> 326 ;
327 [label="entropy = 0.0\nsamples = 27\nvalue = [0.0, 0.0, 0.0, 0.0, 151.05, 0.0, 0.0, 0.0, 0.0, 0.0\n0.0, 0.0, 0.0, 0.0, 0.0, 0.0, 0.0, 0.0, 0.0, 0.0\n0.0, 0.0, 0.0]\nclass = neptune.", fillcolor="#98e539ff"] ;
321 -> 327 ;
328 [label="entropy = 0.0\nsamples = 9\nvalue = [15, 0, 0, 0, 0, 0, 0, 0, 0, 0, 0, 0, 0, 0\n0, 0, 0, 0, 0, 0, 0, 0, 0]\nclass = normal.", fillcolor="#e58139ff"] ;
320 -> 328 ;
329 [label="srv_diff_host_rate <= 0.5\nentropy = 0.0\nsamples = 11\nvalue = [6.0, 0.0, 0.0, 0.0, 10.07, 0.0, 0.0, 0.0, 0.0, 0.0\n0.0, 284484.67, 0.0, 0.0, 0.0, 0.0, 0.0, 0.0, 0.0\n0.0, 0.0, 0.0, 0.0]\nclass = land.", fillcolor="#39b4e5ff"] ;
319 -> 329 ;
330 [label="land <= 0.5\nentropy = 0.0\nsamples = 5\nvalue = [2.0, 0.0, 0.0, 0.0, 10.07, 0.0, 0.0, 0.0, 0.0, 0.0\n0.0, 121922.0, 0.0, 0.0, 0.0, 0.0, 0.0, 0.0, 0.0\n0.0, 0.0, 0.0, 0.0]\nclass = land.", fillcolor="#39b4e5ff"] ;
329 -> 330 ;
331 [label="dst_host_srv_serror_rate <= 0.34\nentropy = 0.65\nsamples = 3\nvalue = [2.0, 0.0, 0.0, 0.0, 10.07, 0.0, 0.0, 0.0, 0.0, 0.0\n0.0, 0.0, 0.0, 0.0, 0.0, 0.0, 0.0, 0.0, 0.0, 0.0\n0.0, 0.0, 0.0]\nclass = neptune.", fillcolor="#98e539cc"] ;
330 -> 331 ;
332 [label="entropy = 0.0\nsamples = 1\nvalue = [2, 0, 0, 0, 0, 0, 0, 0, 0, 0, 0, 0, 0, 0\n0, 0, 0, 0, 0, 0, 0, 0, 0]\nclass = normal.", fillcolor="#e58139ff"] ;
331 -> 332 ;
333 [label="entropy = 0.0\nsamples = 2\nvalue = [0.0, 0.0, 0.0, 0.0, 10.07, 0.0, 0.0, 0.0, 0.0, 0.0\n0.0, 0.0, 0.0, 0.0, 0.0, 0.0, 0.0, 0.0, 0.0, 0.0\n0.0, 0.0, 0.0]\nclass = neptune.", fillcolor="#98e539ff"] ;
331 -> 333 ;
334 [label="entropy = 0.0\nsamples = 2\nvalue = [0, 0, 0, 0, 0, 0, 0, 0, 0, 0, 0, 121922, 0\n0, 0, 0, 0, 0, 0, 0, 0, 0, 0]\nclass = land.", fillcolor="#39b4e5ff"] ;
330 -> 334 ;
335 [label="dst_host_srv_serror_rate <= 0.91\nentropy = 0.0\nsamples = 6\nvalue = [4.0, 0.0, 0.0, 0.0, 0.0, 0.0, 0.0, 0.0, 0.0, 0.0\n0.0, 162562.67, 0.0, 0.0, 0.0, 0.0, 0.0, 0.0, 0.0\n0.0, 0.0, 0.0, 0.0]\nclass = land.", fillcolor="#39b4e5ff"] ;
329 -> 335 ;
336 [label="entropy = 0.0\nsamples = 2\nvalue = [0.0, 0.0, 0.0, 0.0, 0.0, 0.0, 0.0, 0.0, 0.0, 0.0\n0.0, 81281.33, 0.0, 0.0, 0.0, 0.0, 0.0, 0.0, 0.0\n0.0, 0.0, 0.0, 0.0]\nclass = land.", fillcolor="#39b4e5ff"] ;
335 -> 336 ;
337 [label="dst_host_srv_count <= 2.5\nentropy = 0.0\nsamples = 4\nvalue = [4.0, 0.0, 0.0, 0.0, 0.0, 0.0, 0.0, 0.0, 0.0, 0.0\n0.0, 81281.33, 0.0, 0.0, 0.0, 0.0, 0.0, 0.0, 0.0\n0.0, 0.0, 0.0, 0.0]\nclass = land.", fillcolor="#39b4e5ff"] ;
335 -> 337 ;
338 [label="entropy = 0.0\nsamples = 2\nvalue = [2.0, 0.0, 0.0, 0.0, 0.0, 0.0, 0.0, 0.0, 0.0, 0.0\n0.0, 81281.33, 0.0, 0.0, 0.0, 0.0, 0.0, 0.0, 0.0\n0.0, 0.0, 0.0, 0.0]\nclass = land.", fillcolor="#39b4e5ff"] ;
337 -> 338 ;
339 [label="entropy = 0.0\nsamples = 2\nvalue = [2, 0, 0, 0, 0, 0, 0, 0, 0, 0, 0, 0, 0, 0\n0, 0, 0, 0, 0, 0, 0, 0, 0]\nclass = normal.", fillcolor="#e58139ff"] ;
337 -> 339 ;
340 [label="entropy = 0.0\nsamples = 4\nvalue = [0, 0, 0, 0, 0, 0, 0, 0, 0, 0, 0, 0, 0, 0\n548649, 0, 0, 0, 0, 0, 0, 0, 0]\nclass = imap.", fillcolor="#4439e5ff"] ;
282 -> 340 ;
341 [label="dst_host_same_srv_rate <= 0.74\nentropy = 2.5\nsamples = 26684\nvalue = [39034.0, 0.0, 0.0, 0.0, 0.0, 547973.16, 0.0, 507352.84\n571038.31, 1596.73, 0.0, 0.0, 0.0, 1681.68, 0.0, 485.75\n0.0, 79013.83, 0.0, 0.0, 372135.06, 0.0, 243844.0]\nclass = teardrop.", fillcolor="#39e58f03"] ;
1 -> 341 ;
342 [label="dst_host_rerror_rate <= 0.02\nentropy = 2.16\nsamples = 22848\nvalue = [34711.0, 0.0, 0.0, 0.0, 0.0, 241410.97, 0.0, 224179.16\n571038.31, 1596.73, 0.0, 0.0, 0.0, 0.0, 0.0, 485.75\n0.0, 11511.95, 0.0, 0.0, 25476.24, 0.0, 243844.0]\nclass = teardrop.", fillcolor="#39e58f4b"] ;
341 -> 342 ;
343 [label="wrong_fragment <= 0.5\nentropy = 2.3\nsamples = 21916\nvalue = [33660.0, 0.0, 0.0, 0.0, 0.0, 207348.5, 0.0, 224179.16\n325420.9, 0.0, 0.0, 0.0, 0.0, 0.0, 0.0, 485.75, 0.0\n11511.95, 0.0, 0.0, 25476.24, 0.0, 243844.0]\nclass = teardrop.", fillcolor="#39e58f19"] ;
342 -> 343 ;
344 [label="dst_host_srv_count <= 1.5\nentropy = 1.64\nsamples = 21653\nvalue = [33660.0, 0.0, 0.0, 0.0, 0.0, 207348.5, 0.0, 0.0, 0.0\n0.0, 0.0, 0.0, 0.0, 0.0, 0.0, 485.75, 0.0, 11511.95\n0.0, 0.0, 25476.24, 0.0, 243844.0]\nclass = rootkit.", fillcolor="#e553391e"] ;
343 -> 344 ;
345 [label="src_dst_bytes_diff <= -32.5\nentropy = 0.19\nsamples = 1652\nvalue = [2602.0, 0.0, 0.0, 0.0, 0.0, 1351.69, 0.0, 0.0, 0.0\n0.0, 0.0, 0.0, 0.0, 0.0, 0.0, 485.75, 0.0, 0.0, 0.0\n0.0, 909.87, 0.0, 243844.0]\nclass = rootkit.", fillcolor="#e55339f9"] ;
344 -> 345 ;
346 [label="protocol_type <= 0.5\nentropy = 1.76\nsamples = 1643\nvalue = [2590.0, 0.0, 0.0, 0.0, 0.0, 1351.69, 0.0, 0.0, 0.0\n0.0, 0.0, 0.0, 0.0, 0.0, 0.0, 485.75, 0.0, 0.0, 0.0\n0.0, 909.87, 0.0, 0.0]\nclass = normal.", fillcolor="#e581394f"] ;
345 -> 346 ;
347 [label="srv_count <= 264.5\nentropy = 1.02\nsamples = 48\nvalue = [66.0, 0.0, 0.0, 0.0, 0.0, 1351.69, 0.0, 0.0, 0.0\n0.0, 0.0, 0.0, 0.0, 0.0, 0.0, 485.75, 0.0, 0.0, 0.0\n0.0, 0.0, 0.0, 0.0]\nclass = smurf.", fillcolor="#6ae5399c"] ;
346 -> 347 ;
348 [label="same_srv_rate <= 0.75\nentropy = 1.19\nsamples = 47\nvalue = [66.0, 0.0, 0.0, 0.0, 0.0, 811.01, 0.0, 0.0, 0.0, 0.0\n0.0, 0.0, 0.0, 0.0, 0.0, 485.75, 0.0, 0.0, 0.0, 0.0\n0.0, 0.0, 0.0]\nclass = smurf.", fillcolor="#6ae5395f"] ;
347 -> 348 ;
349 [label="entropy = 0.0\nsamples = 17\nvalue = [21, 0, 0, 0, 0, 0, 0, 0, 0, 0, 0, 0, 0, 0\n0, 0, 0, 0, 0, 0, 0, 0, 0]\nclass = normal.", fillcolor="#e58139ff"] ;
348 -> 349 ;
350 [label="service <= 40.0\nentropy = 1.13\nsamples = 30\nvalue = [45.0, 0.0, 0.0, 0.0, 0.0, 811.01, 0.0, 0.0, 0.0, 0.0\n0.0, 0.0, 0.0, 0.0, 0.0, 485.75, 0.0, 0.0, 0.0, 0.0\n0.0, 0.0, 0.0]\nclass = smurf.", fillcolor="#6ae53961"] ;
348 -> 350 ;
351 [label="dst_host_count <= 127.5\nentropy = 0.25\nsamples = 23\nvalue = [35.0, 0.0, 0.0, 0.0, 0.0, 811.01, 0.0, 0.0, 0.0, 0.0\n0.0, 0.0, 0.0, 0.0, 0.0, 0.0, 0.0, 0.0, 0.0, 0.0\n0.0, 0.0, 0.0]\nclass = smurf.", fillcolor="#6ae539f4"] ;
350 -> 351 ;
352 [label="entropy = 0.0\nsamples = 11\nvalue = [22, 0, 0, 0, 0, 0, 0, 0, 0, 0, 0, 0, 0, 0\n0, 0, 0, 0, 0, 0, 0, 0, 0]\nclass = normal.", fillcolor="#e58139ff"] ;
351 -> 352 ;
353 [label="src_bytes <= 548.0\nentropy = 0.12\nsamples = 12\nvalue = [13.0, 0.0, 0.0, 0.0, 0.0, 811.01, 0.0, 0.0, 0.0, 0.0\n0.0, 0.0, 0.0, 0.0, 0.0, 0.0, 0.0, 0.0, 0.0, 0.0\n0.0, 0.0, 0.0]\nclass = smurf.", fillcolor="#6ae539fb"] ;
351 -> 353 ;
354 [label="entropy = 0.0\nsamples = 9\nvalue = [13, 0, 0, 0, 0, 0, 0, 0, 0, 0, 0, 0, 0, 0\n0, 0, 0, 0, 0, 0, 0, 0, 0]\nclass = normal.", fillcolor="#e58139ff"] ;
353 -> 354 ;
355 [label="entropy = 0.0\nsamples = 3\nvalue = [0.0, 0.0, 0.0, 0.0, 0.0, 811.01, 0.0, 0.0, 0.0, 0.0\n0.0, 0.0, 0.0, 0.0, 0.0, 0.0, 0.0, 0.0, 0.0, 0.0\n0.0, 0.0, 0.0]\nclass = smurf.", fillcolor="#6ae539ff"] ;
353 -> 355 ;
356 [label="src_bytes <= 57.5\nentropy = 0.14\nsamples = 7\nvalue = [10.0, 0.0, 0.0, 0.0, 0.0, 0.0, 0.0, 0.0, 0.0, 0.0\n0.0, 0.0, 0.0, 0.0, 0.0, 485.75, 0.0, 0.0, 0.0, 0.0\n0.0, 0.0, 0.0]\nclass = satan.", fillcolor="#6f39e5fa"] ;
350 -> 356 ;
357 [label="entropy = 0.0\nsamples = 1\nvalue = [0.0, 0.0, 0.0, 0.0, 0.0, 0.0, 0.0, 0.0, 0.0, 0.0\n0.0, 0.0, 0.0, 0.0, 0.0, 485.75, 0.0, 0.0, 0.0, 0.0\n0.0, 0.0, 0.0]\nclass = satan.", fillcolor="#6f39e5ff"] ;
356 -> 357 ;
358 [label="entropy = 0.0\nsamples = 6\nvalue = [10, 0, 0, 0, 0, 0, 0, 0, 0, 0, 0, 0, 0, 0\n0, 0, 0, 0, 0, 0, 0, 0, 0]\nclass = normal.", fillcolor="#e58139ff"] ;
356 -> 358 ;
359 [label="entropy = -0.0\nsamples = 1\nvalue = [0.0, 0.0, 0.0, 0.0, 0.0, 540.67, 0.0, 0.0, 0.0, 0.0\n0.0, 0.0, 0.0, 0.0, 0.0, 0.0, 0.0, 0.0, 0.0, 0.0\n0.0, 0.0, 0.0]\nclass = smurf.", fillcolor="#6ae539ff"] ;
347 -> 359 ;
360 [label="duration <= 2616.5\nentropy = 0.83\nsamples = 1595\nvalue = [2524.0, 0.0, 0.0, 0.0, 0.0, 0.0, 0.0, 0.0, 0.0, 0.0\n0.0, 0.0, 0.0, 0.0, 0.0, 0.0, 0.0, 0.0, 0.0, 0.0\n909.87, 0.0, 0.0]\nclass = normal.", fillcolor="#e58139a3"] ;
346 -> 360 ;
361 [label="entropy = 0.0\nsamples = 1594\nvalue = [2524, 0, 0, 0, 0, 0, 0, 0, 0, 0, 0, 0, 0, 0\n0, 0, 0, 0, 0, 0, 0, 0, 0]\nclass = normal.", fillcolor="#e58139ff"] ;
360 -> 361 ;
362 [label="entropy = -0.0\nsamples = 1\nvalue = [0.0, 0.0, 0.0, 0.0, 0.0, 0.0, 0.0, 0.0, 0.0, 0.0\n0.0, 0.0, 0.0, 0.0, 0.0, 0.0, 0.0, 0.0, 0.0, 0.0\n909.87, 0.0, 0.0]\nclass = warezclient.", fillcolor="#e53978ff"] ;
360 -> 362 ;
363 [label="dst_host_count <= 157.0\nentropy = 0.0\nsamples = 9\nvalue = [12, 0, 0, 0, 0, 0, 0, 0, 0, 0, 0, 0, 0, 0\n0, 0, 0, 0, 0, 0, 0, 0, 243844]\nclass = rootkit.", fillcolor="#e55339ff"] ;
345 -> 363 ;
364 [label="entropy = 0.0\nsamples = 7\nvalue = [10, 0, 0, 0, 0, 0, 0, 0, 0, 0, 0, 0, 0, 0\n0, 0, 0, 0, 0, 0, 0, 0, 0]\nclass = normal.", fillcolor="#e58139ff"] ;
363 -> 364 ;
365 [label="service <= 29.0\nentropy = 0.0\nsamples = 2\nvalue = [2, 0, 0, 0, 0, 0, 0, 0, 0, 0, 0, 0, 0, 0\n0, 0, 0, 0, 0, 0, 0, 0, 243844]\nclass = rootkit.", fillcolor="#e55339ff"] ;
363 -> 365 ;
366 [label="entropy = 0.0\nsamples = 1\nvalue = [2, 0, 0, 0, 0, 0, 0, 0, 0, 0, 0, 0, 0, 0\n0, 0, 0, 0, 0, 0, 0, 0, 0]\nclass = normal.", fillcolor="#e58139ff"] ;
365 -> 366 ;
367 [label="entropy = 0.0\nsamples = 1\nvalue = [0, 0, 0, 0, 0, 0, 0, 0, 0, 0, 0, 0, 0, 0\n0, 0, 0, 0, 0, 0, 0, 0, 243844]\nclass = rootkit.", fillcolor="#e55339ff"] ;
365 -> 367 ;
368 [label="protocol_type <= 0.5\nentropy = 1.17\nsamples = 20001\nvalue = [31058.0, 0.0, 0.0, 0.0, 0.0, 205996.82, 0.0, 0.0, 0.0\n0.0, 0.0, 0.0, 0.0, 0.0, 0.0, 0.0, 0.0, 11511.95\n0.0, 0.0, 24566.37, 0.0, 0.0]\nclass = smurf.", fillcolor="#6ae539b8"] ;
344 -> 368 ;
369 [label="src_bytes <= 798.0\nentropy = 0.08\nsamples = 1867\nvalue = [2209.0, 0.0, 0.0, 0.0, 0.0, 205996.82, 0.0, 0.0, 0.0\n0.0, 0.0, 0.0, 0.0, 0.0, 0.0, 0.0, 0.0, 0.0, 0.0\n0.0, 0.0, 0.0, 0.0]\nclass = smurf.", fillcolor="#6ae539fc"] ;
368 -> 369 ;
370 [label="entropy = -0.0\nsamples = 1389\nvalue = [2209, 0, 0, 0, 0, 0, 0, 0, 0, 0, 0, 0, 0, 0\n0, 0, 0, 0, 0, 0, 0, 0, 0]\nclass = normal.", fillcolor="#e58139ff"] ;
369 -> 370 ;
371 [label="entropy = 0.0\nsamples = 478\nvalue = [0.0, 0.0, 0.0, 0.0, 0.0, 205996.82, 0.0, 0.0, 0.0\n0.0, 0.0, 0.0, 0.0, 0.0, 0.0, 0.0, 0.0, 0.0, 0.0\n0.0, 0.0, 0.0, 0.0]\nclass = smurf.", fillcolor="#6ae539ff"] ;
369 -> 371 ;
372 [label="dst_host_srv_count <= 36.5\nentropy = 1.49\nsamples = 18134\nvalue = [28849.0, 0.0, 0.0, 0.0, 0.0, 0.0, 0.0, 0.0, 0.0, 0.0\n0.0, 0.0, 0.0, 0.0, 0.0, 0.0, 0.0, 11511.95, 0.0\n0.0, 24566.37, 0.0, 0.0]\nclass = normal.", fillcolor="#e581391b"] ;
368 -> 372 ;
373 [label="protocol_type <= 1.5\nentropy = 1.21\nsamples = 5193\nvalue = [8214.0, 0.0, 0.0, 0.0, 0.0, 0.0, 0.0, 0.0, 0.0, 0.0\n0.0, 0.0, 0.0, 0.0, 0.0, 0.0, 0.0, 10465.41, 0.0\n0.0, 909.87, 0.0, 0.0]\nclass = nmap.", fillcolor="#cb39e532"] ;
372 -> 373 ;
374 [label="src_bytes <= 353.5\nentropy = 0.64\nsamples = 2946\nvalue = [4682.0, 0.0, 0.0, 0.0, 0.0, 0.0, 0.0, 0.0, 0.0, 0.0\n0.0, 0.0, 0.0, 0.0, 0.0, 0.0, 0.0, 0.0, 0.0, 0.0\n909.87, 0.0, 0.0]\nclass = normal.", fillcolor="#e58139cd"] ;
373 -> 374 ;
375 [label="dst_host_diff_srv_rate <= 0.06\nentropy = 0.99\nsamples = 679\nvalue = [1076.0, 0.0, 0.0, 0.0, 0.0, 0.0, 0.0, 0.0, 0.0, 0.0\n0.0, 0.0, 0.0, 0.0, 0.0, 0.0, 0.0, 0.0, 0.0, 0.0\n909.87, 0.0, 0.0]\nclass = normal.", fillcolor="#e5813927"] ;
374 -> 375 ;
376 [label="entropy = 0.0\nsamples = 350\nvalue = [572, 0, 0, 0, 0, 0, 0, 0, 0, 0, 0, 0, 0, 0\n0, 0, 0, 0, 0, 0, 0, 0, 0]\nclass = normal.", fillcolor="#e58139ff"] ;
375 -> 376 ;
377 [label="src_bytes <= 326.5\nentropy = 0.94\nsamples = 329\nvalue = [504.0, 0.0, 0.0, 0.0, 0.0, 0.0, 0.0, 0.0, 0.0, 0.0\n0.0, 0.0, 0.0, 0.0, 0.0, 0.0, 0.0, 0.0, 0.0, 0.0\n909.87, 0.0, 0.0]\nclass = warezclient.", fillcolor="#e5397872"] ;
375 -> 377 ;
378 [label="entropy = 0.0\nsamples = 328\nvalue = [504, 0, 0, 0, 0, 0, 0, 0, 0, 0, 0, 0, 0, 0\n0, 0, 0, 0, 0, 0, 0, 0, 0]\nclass = normal.", fillcolor="#e58139ff"] ;
377 -> 378 ;
379 [label="entropy = 0.0\nsamples = 1\nvalue = [0.0, 0.0, 0.0, 0.0, 0.0, 0.0, 0.0, 0.0, 0.0, 0.0\n0.0, 0.0, 0.0, 0.0, 0.0, 0.0, 0.0, 0.0, 0.0, 0.0\n909.87, 0.0, 0.0]\nclass = warezclient.", fillcolor="#e53978ff"] ;
377 -> 379 ;
380 [label="entropy = 0.0\nsamples = 2267\nvalue = [3606, 0, 0, 0, 0, 0, 0, 0, 0, 0, 0, 0, 0, 0\n0, 0, 0, 0, 0, 0, 0, 0, 0]\nclass = normal.", fillcolor="#e58139ff"] ;
374 -> 380 ;
381 [label="src_bytes <= 99.5\nentropy = 0.81\nsamples = 2247\nvalue = [3532.0, 0.0, 0.0, 0.0, 0.0, 0.0, 0.0, 0.0, 0.0, 0.0\n0.0, 0.0, 0.0, 0.0, 0.0, 0.0, 0.0, 10465.41, 0.0\n0.0, 0.0, 0.0, 0.0]\nclass = nmap.", fillcolor="#cb39e5a9"] ;
373 -> 381 ;
382 [label="entropy = 0.0\nsamples = 1704\nvalue = [2708, 0, 0, 0, 0, 0, 0, 0, 0, 0, 0, 0, 0, 0\n0, 0, 0, 0, 0, 0, 0, 0, 0]\nclass = normal.", fillcolor="#e58139ff"] ;
381 -> 382 ;
383 [label="dst_host_srv_count <= 5.5\nentropy = 0.38\nsamples = 543\nvalue = [824.0, 0.0, 0.0, 0.0, 0.0, 0.0, 0.0, 0.0, 0.0, 0.0\n0.0, 0.0, 0.0, 0.0, 0.0, 0.0, 0.0, 10465.41, 0.0\n0.0, 0.0, 0.0, 0.0]\nclass = nmap.", fillcolor="#cb39e5eb"] ;
381 -> 383 ;
384 [label="entropy = 0.0\nsamples = 471\nvalue = [732, 0, 0, 0, 0, 0, 0, 0, 0, 0, 0, 0, 0, 0\n0, 0, 0, 0, 0, 0, 0, 0, 0]\nclass = normal.", fillcolor="#e58139ff"] ;
383 -> 384 ;
385 [label="src_dst_bytes_diff <= -100.5\nentropy = 0.07\nsamples = 72\nvalue = [92.0, 0.0, 0.0, 0.0, 0.0, 0.0, 0.0, 0.0, 0.0, 0.0\n0.0, 0.0, 0.0, 0.0, 0.0, 0.0, 0.0, 10465.41, 0.0\n0.0, 0.0, 0.0, 0.0]\nclass = nmap.", fillcolor="#cb39e5fd"] ;
383 -> 385 ;
386 [label="entropy = 0.0\nsamples = 55\nvalue = [86, 0, 0, 0, 0, 0, 0, 0, 0, 0, 0, 0, 0, 0\n0, 0, 0, 0, 0, 0, 0, 0, 0]\nclass = normal.", fillcolor="#e58139ff"] ;
385 -> 386 ;
387 [label="dst_host_same_src_port_rate <= 0.41\nentropy = 0.01\nsamples = 17\nvalue = [6.0, 0.0, 0.0, 0.0, 0.0, 0.0, 0.0, 0.0, 0.0, 0.0\n0.0, 0.0, 0.0, 0.0, 0.0, 0.0, 0.0, 10465.41, 0.0\n0.0, 0.0, 0.0, 0.0]\nclass = nmap.", fillcolor="#cb39e5ff"] ;
385 -> 387 ;
388 [label="entropy = 0.0\nsamples = 13\nvalue = [0.0, 0.0, 0.0, 0.0, 0.0, 0.0, 0.0, 0.0, 0.0, 0.0\n0.0, 0.0, 0.0, 0.0, 0.0, 0.0, 0.0, 10465.41, 0.0\n0.0, 0.0, 0.0, 0.0]\nclass = nmap.", fillcolor="#cb39e5ff"] ;
387 -> 388 ;
389 [label="entropy = 0.0\nsamples = 4\nvalue = [6, 0, 0, 0, 0, 0, 0, 0, 0, 0, 0, 0, 0, 0\n0, 0, 0, 0, 0, 0, 0, 0, 0]\nclass = normal.", fillcolor="#e58139ff"] ;
387 -> 389 ;
390 [label="dst_host_diff_srv_rate <= 0.06\nentropy = 1.13\nsamples = 12941\nvalue = [20635.0, 0.0, 0.0, 0.0, 0.0, 0.0, 0.0, 0.0, 0.0, 0.0\n0.0, 0.0, 0.0, 0.0, 0.0, 0.0, 0.0, 1046.54, 0.0, 0.0\n23656.51, 0.0, 0.0]\nclass = warezclient.", fillcolor="#e539781f"] ;
372 -> 390 ;
391 [label="count <= 2.5\nentropy = 1.06\nsamples = 9874\nvalue = [15798.0, 0.0, 0.0, 0.0, 0.0, 0.0, 0.0, 0.0, 0.0, 0.0\n0.0, 0.0, 0.0, 0.0, 0.0, 0.0, 0.0, 1046.54, 0.0, 0.0\n5459.19, 0.0, 0.0]\nclass = normal.", fillcolor="#e581399d"] ;
390 -> 391 ;
392 [label="srv_count <= 2.5\nentropy = 1.29\nsamples = 4666\nvalue = [7453.0, 0.0, 0.0, 0.0, 0.0, 0.0, 0.0, 0.0, 0.0, 0.0\n0.0, 0.0, 0.0, 0.0, 0.0, 0.0, 0.0, 1046.54, 0.0, 0.0\n5459.19, 0.0, 0.0]\nclass = normal.", fillcolor="#e581393c"] ;
391 -> 392 ;
393 [label="src_bytes <= 353.5\nentropy = 1.31\nsamples = 4205\nvalue = [6711.0, 0.0, 0.0, 0.0, 0.0, 0.0, 0.0, 0.0, 0.0, 0.0\n0.0, 0.0, 0.0, 0.0, 0.0, 0.0, 0.0, 1046.54, 0.0, 0.0\n5459.19, 0.0, 0.0]\nclass = normal.", fillcolor="#e5813929"] ;
392 -> 393 ;
394 [label="dst_host_count <= 178.5\nentropy = 1.31\nsamples = 1525\nvalue = [2418.0, 0.0, 0.0, 0.0, 0.0, 0.0, 0.0, 0.0, 0.0, 0.0\n0.0, 0.0, 0.0, 0.0, 0.0, 0.0, 0.0, 1046.54, 0.0, 0.0\n5459.19, 0.0, 0.0]\nclass = warezclient.", fillcolor="#e5397877"] ;
393 -> 394 ;
395 [label="entropy = 0.0\nsamples = 922\nvalue = [1464, 0, 0, 0, 0, 0, 0, 0, 0, 0, 0, 0, 0, 0\n0, 0, 0, 0, 0, 0, 0, 0, 0]\nclass = normal.", fillcolor="#e58139ff"] ;
394 -> 395 ;
396 [label="dst_host_srv_count <= 38.5\nentropy = 1.11\nsamples = 603\nvalue = [954.0, 0.0, 0.0, 0.0, 0.0, 0.0, 0.0, 0.0, 0.0, 0.0\n0.0, 0.0, 0.0, 0.0, 0.0, 0.0, 0.0, 1046.54, 0.0, 0.0\n5459.19, 0.0, 0.0]\nclass = warezclient.", fillcolor="#e53978af"] ;
394 -> 396 ;
397 [label="service <= 34.5\nentropy = 0.25\nsamples = 26\nvalue = [45.0, 0.0, 0.0, 0.0, 0.0, 0.0, 0.0, 0.0, 0.0, 0.0\n0.0, 0.0, 0.0, 0.0, 0.0, 0.0, 0.0, 1046.54, 0.0, 0.0\n0.0, 0.0, 0.0]\nclass = nmap.", fillcolor="#cb39e5f4"] ;
396 -> 397 ;
398 [label="entropy = 0.0\nsamples = 25\nvalue = [45, 0, 0, 0, 0, 0, 0, 0, 0, 0, 0, 0, 0, 0\n0, 0, 0, 0, 0, 0, 0, 0, 0]\nclass = normal.", fillcolor="#e58139ff"] ;
397 -> 398 ;
399 [label="entropy = 0.0\nsamples = 1\nvalue = [0.0, 0.0, 0.0, 0.0, 0.0, 0.0, 0.0, 0.0, 0.0, 0.0\n0.0, 0.0, 0.0, 0.0, 0.0, 0.0, 0.0, 1046.54, 0.0, 0.0\n0.0, 0.0, 0.0]\nclass = nmap.", fillcolor="#cb39e5ff"] ;
397 -> 399 ;
400 [label="protocol_type <= 1.5\nentropy = 0.59\nsamples = 577\nvalue = [909.0, 0.0, 0.0, 0.0, 0.0, 0.0, 0.0, 0.0, 0.0, 0.0\n0.0, 0.0, 0.0, 0.0, 0.0, 0.0, 0.0, 0.0, 0.0, 0.0\n5459.19, 0.0, 0.0]\nclass = warezclient.", fillcolor="#e53978d5"] ;
396 -> 400 ;
401 [label="src_dst_bytes_diff <= -326.5\nentropy = 0.52\nsamples = 465\nvalue = [728.0, 0.0, 0.0, 0.0, 0.0, 0.0, 0.0, 0.0, 0.0, 0.0\n0.0, 0.0, 0.0, 0.0, 0.0, 0.0, 0.0, 0.0, 0.0, 0.0\n5459.19, 0.0, 0.0]\nclass = warezclient.", fillcolor="#e53978dd"] ;
400 -> 401 ;
402 [label="entropy = 0.0\nsamples = 5\nvalue = [0.0, 0.0, 0.0, 0.0, 0.0, 0.0, 0.0, 0.0, 0.0, 0.0\n0.0, 0.0, 0.0, 0.0, 0.0, 0.0, 0.0, 0.0, 0.0, 0.0\n5459.19, 0.0, 0.0]\nclass = warezclient.", fillcolor="#e53978ff"] ;
401 -> 402 ;
403 [label="entropy = -0.0\nsamples = 460\nvalue = [728, 0, 0, 0, 0, 0, 0, 0, 0, 0, 0, 0, 0, 0\n0, 0, 0, 0, 0, 0, 0, 0, 0]\nclass = normal.", fillcolor="#e58139ff"] ;
401 -> 403 ;
404 [label="entropy = 0.0\nsamples = 112\nvalue = [181, 0, 0, 0, 0, 0, 0, 0, 0, 0, 0, 0, 0, 0\n0, 0, 0, 0, 0, 0, 0, 0, 0]\nclass = normal.", fillcolor="#e58139ff"] ;
400 -> 404 ;
405 [label="entropy = 0.0\nsamples = 2680\nvalue = [4293, 0, 0, 0, 0, 0, 0, 0, 0, 0, 0, 0, 0, 0\n0, 0, 0, 0, 0, 0, 0, 0, 0]\nclass = normal.", fillcolor="#e58139ff"] ;
393 -> 405 ;
406 [label="entropy = 0.0\nsamples = 461\nvalue = [742, 0, 0, 0, 0, 0, 0, 0, 0, 0, 0, 0, 0, 0\n0, 0, 0, 0, 0, 0, 0, 0, 0]\nclass = normal.", fillcolor="#e58139ff"] ;
392 -> 406 ;
407 [label="entropy = -0.0\nsamples = 5208\nvalue = [8345, 0, 0, 0, 0, 0, 0, 0, 0, 0, 0, 0, 0, 0\n0, 0, 0, 0, 0, 0, 0, 0, 0]\nclass = normal.", fillcolor="#e58139ff"] ;
391 -> 407 ;
408 [label="dst_host_same_src_port_rate <= 0.31\nentropy = 0.74\nsamples = 3067\nvalue = [4837.0, 0.0, 0.0, 0.0, 0.0, 0.0, 0.0, 0.0, 0.0, 0.0\n0.0, 0.0, 0.0, 0.0, 0.0, 0.0, 0.0, 0.0, 0.0, 0.0\n18197.31, 0.0, 0.0]\nclass = warezclient.", fillcolor="#e53978bb"] ;
390 -> 408 ;
409 [label="entropy = 0.0\nsamples = 1467\nvalue = [2337, 0, 0, 0, 0, 0, 0, 0, 0, 0, 0, 0, 0, 0\n0, 0, 0, 0, 0, 0, 0, 0, 0]\nclass = normal.", fillcolor="#e58139ff"] ;
408 -> 409 ;
410 [label="same_srv_rate <= 0.71\nentropy = 0.53\nsamples = 1600\nvalue = [2500.0, 0.0, 0.0, 0.0, 0.0, 0.0, 0.0, 0.0, 0.0, 0.0\n0.0, 0.0, 0.0, 0.0, 0.0, 0.0, 0.0, 0.0, 0.0, 0.0\n18197.31, 0.0, 0.0]\nclass = warezclient.", fillcolor="#e53978dc"] ;
408 -> 410 ;
411 [label="duration <= 2.5\nentropy = 0.07\nsamples = 39\nvalue = [67.0, 0.0, 0.0, 0.0, 0.0, 0.0, 0.0, 0.0, 0.0, 0.0\n0.0, 0.0, 0.0, 0.0, 0.0, 0.0, 0.0, 0.0, 0.0, 0.0\n7278.93, 0.0, 0.0]\nclass = warezclient.", fillcolor="#e53978fd"] ;
410 -> 411 ;
412 [label="entropy = 0.0\nsamples = 37\nvalue = [67, 0, 0, 0, 0, 0, 0, 0, 0, 0, 0, 0, 0, 0\n0, 0, 0, 0, 0, 0, 0, 0, 0]\nclass = normal.", fillcolor="#e58139ff"] ;
411 -> 412 ;
413 [label="entropy = 0.0\nsamples = 2\nvalue = [0.0, 0.0, 0.0, 0.0, 0.0, 0.0, 0.0, 0.0, 0.0, 0.0\n0.0, 0.0, 0.0, 0.0, 0.0, 0.0, 0.0, 0.0, 0.0, 0.0\n7278.93, 0.0, 0.0]\nclass = warezclient.", fillcolor="#e53978ff"] ;
411 -> 413 ;
414 [label="dst_host_srv_diff_host_rate <= 0.0\nentropy = 0.68\nsamples = 1561\nvalue = [2433.0, 0.0, 0.0, 0.0, 0.0, 0.0, 0.0, 0.0, 0.0, 0.0\n0.0, 0.0, 0.0, 0.0, 0.0, 0.0, 0.0, 0.0, 0.0, 0.0\n10918.39, 0.0, 0.0]\nclass = warezclient.", fillcolor="#e53978c6"] ;
410 -> 414 ;
415 [label="dst_host_count <= 254.5\nentropy = 0.13\nsamples = 97\nvalue = [143.0, 0.0, 0.0, 0.0, 0.0, 0.0, 0.0, 0.0, 0.0, 0.0\n0.0, 0.0, 0.0, 0.0, 0.0, 0.0, 0.0, 0.0, 0.0, 0.0\n8188.79, 0.0, 0.0]\nclass = warezclient.", fillcolor="#e53978fb"] ;
414 -> 415 ;
416 [label="entropy = 0.0\nsamples = 68\nvalue = [113, 0, 0, 0, 0, 0, 0, 0, 0, 0, 0, 0, 0, 0\n0, 0, 0, 0, 0, 0, 0, 0, 0]\nclass = normal.", fillcolor="#e58139ff"] ;
415 -> 416 ;
417 [label="dst_host_same_src_port_rate <= 0.38\nentropy = 0.03\nsamples = 29\nvalue = [30.0, 0.0, 0.0, 0.0, 0.0, 0.0, 0.0, 0.0, 0.0, 0.0\n0.0, 0.0, 0.0, 0.0, 0.0, 0.0, 0.0, 0.0, 0.0, 0.0\n8188.79, 0.0, 0.0]\nclass = warezclient.", fillcolor="#e53978fe"] ;
415 -> 417 ;
418 [label="src_dst_bytes_diff <= -245.5\nentropy = 0.02\nsamples = 18\nvalue = [15.0, 0.0, 0.0, 0.0, 0.0, 0.0, 0.0, 0.0, 0.0, 0.0\n0.0, 0.0, 0.0, 0.0, 0.0, 0.0, 0.0, 0.0, 0.0, 0.0\n8188.79, 0.0, 0.0]\nclass = warezclient.", fillcolor="#e53978ff"] ;
417 -> 418 ;
419 [label="dst_host_diff_srv_rate <= 0.1\nentropy = 0.01\nsamples = 16\nvalue = [11.0, 0.0, 0.0, 0.0, 0.0, 0.0, 0.0, 0.0, 0.0, 0.0\n0.0, 0.0, 0.0, 0.0, 0.0, 0.0, 0.0, 0.0, 0.0, 0.0\n8188.79, 0.0, 0.0]\nclass = warezclient.", fillcolor="#e53978ff"] ;
418 -> 419 ;
420 [label="src_dst_bytes_diff <= -354.0\nentropy = 0.05\nsamples = 9\nvalue = [10.0, 0.0, 0.0, 0.0, 0.0, 0.0, 0.0, 0.0, 0.0, 0.0\n0.0, 0.0, 0.0, 0.0, 0.0, 0.0, 0.0, 0.0, 0.0, 0.0\n1819.73, 0.0, 0.0]\nclass = warezclient.", fillcolor="#e53978fe"] ;
419 -> 420 ;
421 [label="entropy = 0.0\nsamples = 7\nvalue = [10, 0, 0, 0, 0, 0, 0, 0, 0, 0, 0, 0, 0, 0\n0, 0, 0, 0, 0, 0, 0, 0, 0]\nclass = normal.", fillcolor="#e58139ff"] ;
420 -> 421 ;
422 [label="entropy = 0.0\nsamples = 2\nvalue = [0.0, 0.0, 0.0, 0.0, 0.0, 0.0, 0.0, 0.0, 0.0, 0.0\n0.0, 0.0, 0.0, 0.0, 0.0, 0.0, 0.0, 0.0, 0.0, 0.0\n1819.73, 0.0, 0.0]\nclass = warezclient.", fillcolor="#e53978ff"] ;
420 -> 422 ;
423 [label="src_bytes <= 8224.5\nentropy = 0.0\nsamples = 7\nvalue = [1.0, 0.0, 0.0, 0.0, 0.0, 0.0, 0.0, 0.0, 0.0, 0.0\n0.0, 0.0, 0.0, 0.0, 0.0, 0.0, 0.0, 0.0, 0.0, 0.0\n6369.06, 0.0, 0.0]\nclass = warezclient.", fillcolor="#e53978ff"] ;
419 -> 423 ;
424 [label="entropy = 0.0\nsamples = 5\nvalue = [0.0, 0.0, 0.0, 0.0, 0.0, 0.0, 0.0, 0.0, 0.0, 0.0\n0.0, 0.0, 0.0, 0.0, 0.0, 0.0, 0.0, 0.0, 0.0, 0.0\n4549.33, 0.0, 0.0]\nclass = warezclient.", fillcolor="#e53978ff"] ;
423 -> 424 ;
