digraph Tree {
node [shape=box, style="filled, rounded", color="black", fontname=helvetica] ;
edge [fontname=helvetica] ;
0 [label="src_bytes <= 39.5\nentropy = 4.38\nsamples = 475867\nvalue = [569081.0, 514781.78, 325125.33, 243844.0, 568435.63\n571762.82, 624850.25, 499486.9, 569264.9, 567980.88\n564967.12, 772172.67, 487688.0, 579339.71, 365766.0\n578522.32, 487688.0, 566701.83, 1341142.0, 853454.0\n569575.91, 0.0, 487688.0]\nclass = multihop.", fillcolor="#e539d40a"] ;
1 [label="count <= 1.5\nentropy = 3.65\nsamples = 140829\nvalue = [42568.0, 135468.89, 162562.67, 0.0, 568435.63, 0.0, 0.0\n0.0, 569264.9, 565243.62, 564748.82, 772172.67, 121922.0\n0.0, 365766.0, 577550.83, 0.0, 491350.89, 243844.0\n812813.33, 8188.79, 0.0, 243844.0]\nclass = warezmaster.", fillcolor="#e539a602"] ;
0 -> 1 [labeldistance=2.5, labelangle=45, headlabel="True"] ;
2 [label="dst_host_srv_serror_rate <= 0.11\nentropy = 2.84\nsamples = 25904\nvalue = [36212.0, 0.0, 0.0, 0.0, 211.47, 0.0, 0.0, 0.0, 3546.82\n171306.68, 561910.88, 772172.67, 121922.0, 0.0, 60961.0\n6314.69, 0.0, 484025.11, 243844.0, 812813.33, 8188.79, 0.0\n81281.33]\nclass = warezmaster.", fillcolor="#e539a604"] ;
1 -> 2 ;
3 [label="src_dst_bytes_diff <= 151.5\nentropy = 2.57\nsamples = 25656\nvalue = [36130.0, 0.0, 0.0, 0.0, 3.36, 0.0, 0.0, 0.0, 3546.82\n169938.05, 561910.88, 0.0, 121922.0, 0.0, 0.0, 6314.69\n0.0, 358440.21, 243844.0, 812813.33, 8188.79, 0.0\n81281.33]\nclass = warezmaster.", fillcolor="#e539a623"] ;
2 -> 3 ;
4 [label="dst_host_same_srv_rate <= 0.01\nentropy = 2.21\nsamples = 24533\nvalue = [34333.0, 0.0, 0.0, 0.0, 3.36, 0.0, 0.0, 0.0, 3546.82\n169938.05, 561910.88, 0.0, 121922.0, 0.0, 0.0, 6314.69\n0.0, 358440.21, 0.0, 0.0, 8188.79, 0.0, 81281.33]\nclass = ipsweep.", fillcolor="#39e2e535"] ;
3 -> 4 ;
5 [label="flag <= 6.5\nentropy = 1.16\nsamples = 747\nvalue = [381.0, 0.0, 0.0, 0.0, 0.0, 0.0, 0.0, 0.0, 886.71\n164691.64, 4802.66, 0.0, 0.0, 0.0, 0.0, 2914.47, 0.0\n0.0, 0.0, 0.0, 0.0, 0.0, 81281.33]\nclass = portsweep.", fillcolor="#39e5ba7a"] ;
4 -> 5 ;
6 [label="dst_host_same_src_port_rate <= 0.01\nentropy = 0.22\nsamples = 497\nvalue = [18.0, 0.0, 0.0, 0.0, 0.0, 0.0, 0.0, 0.0, 0.0\n163779.23, 4584.35, 0.0, 0.0, 0.0, 0.0, 647.66, 0.0\n0.0, 0.0, 0.0, 0.0, 0.0, 0.0]\nclass = portsweep.", fillcolor="#39e5baf7"] ;
5 -> 6 ;
7 [label="service <= 28.5\nentropy = 1.19\nsamples = 34\nvalue = [18.0, 0.0, 0.0, 0.0, 0.0, 0.0, 0.0, 0.0, 0.0\n1368.63, 4584.35, 0.0, 0.0, 0.0, 0.0, 647.66, 0.0, 0.0\n0.0, 0.0, 0.0, 0.0, 0.0]\nclass = ipsweep.", fillcolor="#39e2e59c"] ;
6 -> 7 ;
8 [label="dst_host_srv_count <= 1.5\nentropy = 0.1\nsamples = 5\nvalue = [6.0, 0.0, 0.0, 0.0, 0.0, 0.0, 0.0, 0.0, 0.0, 0.0\n0.0, 0.0, 0.0, 0.0, 0.0, 485.75, 0.0, 0.0, 0.0, 0.0\n0.0, 0.0, 0.0]\nclass = satan.", fillcolor="#6f39e5fc"] ;
7 -> 8 ;
9 [label="srv_diff_host_rate <= 0.5\nentropy = 0.04\nsamples = 3\nvalue = [2.0, 0.0, 0.0, 0.0, 0.0, 0.0, 0.0, 0.0, 0.0, 0.0\n0.0, 0.0, 0.0, 0.0, 0.0, 485.75, 0.0, 0.0, 0.0, 0.0\n0.0, 0.0, 0.0]\nclass = satan.", fillcolor="#6f39e5fe"] ;
8 -> 9 ;
10 [label="dst_host_diff_srv_rate <= 0.17\nentropy = 0.02\nsamples = 2\nvalue = [1.0, 0.0, 0.0, 0.0, 0.0, 0.0, 0.0, 0.0, 0.0, 0.0\n0.0, 0.0, 0.0, 0.0, 0.0, 485.75, 0.0, 0.0, 0.0, 0.0\n0.0, 0.0, 0.0]\nclass = satan.", fillcolor="#6f39e5fe"] ;
9 -> 10 ;
11 [label="entropy = 0.0\nsamples = 1\nvalue = [1, 0, 0, 0, 0, 0, 0, 0, 0, 0, 0, 0, 0, 0\n0, 0, 0, 0, 0, 0, 0, 0, 0]\nclass = normal.", fillcolor="#e58139ff"] ;
10 -> 11 ;
12 [label="entropy = 0.0\nsamples = 1\nvalue = [0.0, 0.0, 0.0, 0.0, 0.0, 0.0, 0.0, 0.0, 0.0, 0.0\n0.0, 0.0, 0.0, 0.0, 0.0, 485.75, 0.0, 0.0, 0.0, 0.0\n0.0, 0.0, 0.0]\nclass = satan.", fillcolor="#6f39e5ff"] ;
10 -> 12 ;
13 [label="entropy = 0.0\nsamples = 1\nvalue = [1, 0, 0, 0, 0, 0, 0, 0, 0, 0, 0, 0, 0, 0\n0, 0, 0, 0, 0, 0, 0, 0, 0]\nclass = normal.", fillcolor="#e58139ff"] ;
9 -> 13 ;
14 [label="entropy = 0.0\nsamples = 2\nvalue = [4, 0, 0, 0, 0, 0, 0, 0, 0, 0, 0, 0, 0, 0\n0, 0, 0, 0, 0, 0, 0, 0, 0]\nclass = normal.", fillcolor="#e58139ff"] ;
8 -> 14 ;
15 [label="dst_host_rerror_rate <= 0.87\nentropy = 0.95\nsamples = 29\nvalue = [12.0, 0.0, 0.0, 0.0, 0.0, 0.0, 0.0, 0.0, 0.0\n1368.63, 4584.35, 0.0, 0.0, 0.0, 0.0, 161.92, 0.0, 0.0\n0.0, 0.0, 0.0, 0.0, 0.0]\nclass = ipsweep.", fillcolor="#39e2e5ac"] ;
7 -> 15 ;
16 [label="dst_host_serror_rate <= 0.0\nentropy = 0.55\nsamples = 14\nvalue = [12.0, 0.0, 0.0, 0.0, 0.0, 0.0, 0.0, 0.0, 0.0\n1368.63, 0.0, 0.0, 0.0, 0.0, 0.0, 161.92, 0.0, 0.0\n0.0, 0.0, 0.0, 0.0, 0.0]\nclass = portsweep.", fillcolor="#39e5badf"] ;
15 -> 16 ;
17 [label="dst_host_rerror_rate <= 0.06\nentropy = 0.54\nsamples = 13\nvalue = [11.0, 0.0, 0.0, 0.0, 0.0, 0.0, 0.0, 0.0, 0.0\n1368.63, 0.0, 0.0, 0.0, 0.0, 0.0, 161.92, 0.0, 0.0\n0.0, 0.0, 0.0, 0.0, 0.0]\nclass = portsweep.", fillcolor="#39e5badf"] ;
16 -> 17 ;
18 [label="src_dst_bytes_diff <= 7.0\nentropy = 0.07\nsamples = 10\nvalue = [9.0, 0.0, 0.0, 0.0, 0.0, 0.0, 0.0, 0.0, 0.0, 1140.52\n0.0, 0.0, 0.0, 0.0, 0.0, 0.0, 0.0, 0.0, 0.0, 0.0\n0.0, 0.0, 0.0]\nclass = portsweep.", fillcolor="#39e5bafd"] ;
17 -> 18 ;
19 [label="entropy = 0.0\nsamples = 4\nvalue = [0.0, 0.0, 0.0, 0.0, 0.0, 0.0, 0.0, 0.0, 0.0, 1140.52\n0.0, 0.0, 0.0, 0.0, 0.0, 0.0, 0.0, 0.0, 0.0, 0.0\n0.0, 0.0, 0.0]\nclass = portsweep.", fillcolor="#39e5baff"] ;
18 -> 19 ;
20 [label="entropy = 0.0\nsamples = 6\nvalue = [9, 0, 0, 0, 0, 0, 0, 0, 0, 0, 0, 0, 0, 0\n0, 0, 0, 0, 0, 0, 0, 0, 0]\nclass = normal.", fillcolor="#e58139ff"] ;
18 -> 20 ;
21 [label="dst_host_rerror_rate <= 0.78\nentropy = 1.02\nsamples = 3\nvalue = [2.0, 0.0, 0.0, 0.0, 0.0, 0.0, 0.0, 0.0, 0.0, 228.1\n0.0, 0.0, 0.0, 0.0, 0.0, 161.92, 0.0, 0.0, 0.0, 0.0\n0.0, 0.0, 0.0]\nclass = portsweep.", fillcolor="#39e5ba49"] ;
17 -> 21 ;
22 [label="flag <= 1.5\nentropy = 0.1\nsamples = 2\nvalue = [2.0, 0.0, 0.0, 0.0, 0.0, 0.0, 0.0, 0.0, 0.0, 0.0\n0.0, 0.0, 0.0, 0.0, 0.0, 161.92, 0.0, 0.0, 0.0, 0.0\n0.0, 0.0, 0.0]\nclass = satan.", fillcolor="#6f39e5fc"] ;
21 -> 22 ;
23 [label="entropy = 0.0\nsamples = 1\nvalue = [0.0, 0.0, 0.0, 0.0, 0.0, 0.0, 0.0, 0.0, 0.0, 0.0\n0.0, 0.0, 0.0, 0.0, 0.0, 161.92, 0.0, 0.0, 0.0, 0.0\n0.0, 0.0, 0.0]\nclass = satan.", fillcolor="#6f39e5ff"] ;
22 -> 23 ;
24 [label="entropy = 0.0\nsamples = 1\nvalue = [2, 0, 0, 0, 0, 0, 0, 0, 0, 0, 0, 0, 0, 0\n0, 0, 0, 0, 0, 0, 0, 0, 0]\nclass = normal.", fillcolor="#e58139ff"] ;
22 -> 24 ;
25 [label="entropy = 0.0\nsamples = 1\nvalue = [0.0, 0.0, 0.0, 0.0, 0.0, 0.0, 0.0, 0.0, 0.0, 228.1\n0.0, 0.0, 0.0, 0.0, 0.0, 0.0, 0.0, 0.0, 0.0, 0.0\n0.0, 0.0, 0.0]\nclass = portsweep.", fillcolor="#39e5baff"] ;
21 -> 25 ;
26 [label="entropy = 0.0\nsamples = 1\nvalue = [1, 0, 0, 0, 0, 0, 0, 0, 0, 0, 0, 0, 0, 0\n0, 0, 0, 0, 0, 0, 0, 0, 0]\nclass = normal.", fillcolor="#e58139ff"] ;
16 -> 26 ;
27 [label="entropy = 0.0\nsamples = 15\nvalue = [0.0, 0.0, 0.0, 0.0, 0.0, 0.0, 0.0, 0.0, 0.0, 0.0\n4584.35, 0.0, 0.0, 0.0, 0.0, 0.0, 0.0, 0.0, 0.0, 0.0\n0.0, 0.0, 0.0]\nclass = ipsweep.", fillcolor="#39e2e5ff"] ;
15 -> 27 ;
28 [label="entropy = -0.0\nsamples = 463\nvalue = [0.0, 0.0, 0.0, 0.0, 0.0, 0.0, 0.0, 0.0, 0.0\n162410.6, 0.0, 0.0, 0.0, 0.0, 0.0, 0.0, 0.0, 0.0\n0.0, 0.0, 0.0, 0.0, 0.0]\nclass = portsweep.", fillcolor="#39e5baff"] ;
6 -> 28 ;
29 [label="protocol_type <= 1.5\nentropy = 0.41\nsamples = 250\nvalue = [363.0, 0.0, 0.0, 0.0, 0.0, 0.0, 0.0, 0.0, 886.71\n912.42, 218.3, 0.0, 0.0, 0.0, 0.0, 2266.81, 0.0, 0.0\n0.0, 0.0, 0.0, 0.0, 81281.33]\nclass = rootkit.", fillcolor="#e55339f1"] ;
5 -> 29 ;
30 [label="src_bytes <= 8.5\nentropy = 1.73\nsamples = 216\nvalue = [320.0, 0.0, 0.0, 0.0, 0.0, 0.0, 0.0, 0.0, 0.0\n912.42, 218.3, 0.0, 0.0, 0.0, 0.0, 1133.41, 0.0, 0.0\n0.0, 0.0, 0.0, 0.0, 0.0]\nclass = satan.", fillcolor="#6f39e522"] ;
29 -> 30 ;
31 [label="dst_host_same_src_port_rate <= 0.01\nentropy = 1.35\nsamples = 38\nvalue = [52.0, 0.0, 0.0, 0.0, 0.0, 0.0, 0.0, 0.0, 0.0, 912.42\n218.3, 0.0, 0.0, 0.0, 0.0, 161.92, 0.0, 0.0, 0.0\n0.0, 0.0, 0.0, 0.0]\nclass = portsweep.", fillcolor="#39e5ba9d"] ;
30 -> 31 ;
32 [label="src_bytes <= 6.5\nentropy = 1.4\nsamples = 36\nvalue = [52.0, 0.0, 0.0, 0.0, 0.0, 0.0, 0.0, 0.0, 0.0, 0.0\n218.3, 0.0, 0.0, 0.0, 0.0, 161.92, 0.0, 0.0, 0.0\n0.0, 0.0, 0.0, 0.0]\nclass = ipsweep.", fillcolor="#39e2e535"] ;
31 -> 32 ;
33 [label="duration <= 2.5\nentropy = 0.36\nsamples = 11\nvalue = [12.0, 0.0, 0.0, 0.0, 0.0, 0.0, 0.0, 0.0, 0.0, 0.0\n0.0, 0.0, 0.0, 0.0, 0.0, 161.92, 0.0, 0.0, 0.0, 0.0\n0.0, 0.0, 0.0]\nclass = satan.", fillcolor="#6f39e5ec"] ;
32 -> 33 ;
34 [label="entropy = 0.0\nsamples = 9\nvalue = [11, 0, 0, 0, 0, 0, 0, 0, 0, 0, 0, 0, 0, 0\n0, 0, 0, 0, 0, 0, 0, 0, 0]\nclass = normal.", fillcolor="#e58139ff"] ;
33 -> 34 ;
35 [label="src_bytes <= 3.0\nentropy = 0.05\nsamples = 2\nvalue = [1.0, 0.0, 0.0, 0.0, 0.0, 0.0, 0.0, 0.0, 0.0, 0.0\n0.0, 0.0, 0.0, 0.0, 0.0, 161.92, 0.0, 0.0, 0.0, 0.0\n0.0, 0.0, 0.0]\nclass = satan.", fillcolor="#6f39e5fd"] ;
33 -> 35 ;
36 [label="entropy = 0.0\nsamples = 1\nvalue = [1, 0, 0, 0, 0, 0, 0, 0, 0, 0, 0, 0, 0, 0\n0, 0, 0, 0, 0, 0, 0, 0, 0]\nclass = normal.", fillcolor="#e58139ff"] ;
35 -> 36 ;
37 [label="entropy = 0.0\nsamples = 1\nvalue = [0.0, 0.0, 0.0, 0.0, 0.0, 0.0, 0.0, 0.0, 0.0, 0.0\n0.0, 0.0, 0.0, 0.0, 0.0, 161.92, 0.0, 0.0, 0.0, 0.0\n0.0, 0.0, 0.0]\nclass = satan.", fillcolor="#6f39e5ff"] ;
35 -> 37 ;
38 [label="protocol_type <= 0.5\nentropy = 0.62\nsamples = 25\nvalue = [40.0, 0.0, 0.0, 0.0, 0.0, 0.0, 0.0, 0.0, 0.0, 0.0\n218.3, 0.0, 0.0, 0.0, 0.0, 0.0, 0.0, 0.0, 0.0, 0.0\n0.0, 0.0, 0.0]\nclass = ipsweep.", fillcolor="#39e2e5d0"] ;
32 -> 38 ;
39 [label="entropy = 0.0\nsamples = 1\nvalue = [0.0, 0.0, 0.0, 0.0, 0.0, 0.0, 0.0, 0.0, 0.0, 0.0\n218.3, 0.0, 0.0, 0.0, 0.0, 0.0, 0.0, 0.0, 0.0, 0.0\n0.0, 0.0, 0.0]\nclass = ipsweep.", fillcolor="#39e2e5ff"] ;
38 -> 39 ;
40 [label="entropy = 0.0\nsamples = 24\nvalue = [40, 0, 0, 0, 0, 0, 0, 0, 0, 0, 0, 0, 0, 0\n0, 0, 0, 0, 0, 0, 0, 0, 0]\nclass = normal.", fillcolor="#e58139ff"] ;
38 -> 40 ;
41 [label="entropy = 0.0\nsamples = 2\nvalue = [0.0, 0.0, 0.0, 0.0, 0.0, 0.0, 0.0, 0.0, 0.0, 912.42\n0.0, 0.0, 0.0, 0.0, 0.0, 0.0, 0.0, 0.0, 0.0, 0.0\n0.0, 0.0, 0.0]\nclass = portsweep.", fillcolor="#39e5baff"] ;
31 -> 41 ;
42 [label="protocol_type <= 0.5\nentropy = 0.75\nsamples = 178\nvalue = [268.0, 0.0, 0.0, 0.0, 0.0, 0.0, 0.0, 0.0, 0.0, 0.0\n0.0, 0.0, 0.0, 0.0, 0.0, 971.49, 0.0, 0.0, 0.0, 0.0\n0.0, 0.0, 0.0]\nclass = satan.", fillcolor="#6f39e5b9"] ;
30 -> 42 ;
43 [label="dst_host_diff_srv_rate <= 0.01\nentropy = 0.13\nsamples = 16\nvalue = [17.0, 0.0, 0.0, 0.0, 0.0, 0.0, 0.0, 0.0, 0.0, 0.0\n0.0, 0.0, 0.0, 0.0, 0.0, 971.49, 0.0, 0.0, 0.0, 0.0\n0.0, 0.0, 0.0]\nclass = satan.", fillcolor="#6f39e5fb"] ;
42 -> 43 ;
44 [label="entropy = -0.0\nsamples = 11\nvalue = [16, 0, 0, 0, 0, 0, 0, 0, 0, 0, 0, 0, 0, 0\n0, 0, 0, 0, 0, 0, 0, 0, 0]\nclass = normal.", fillcolor="#e58139ff"] ;
43 -> 44 ;
45 [label="src_bytes <= 25.0\nentropy = 0.01\nsamples = 5\nvalue = [1.0, 0.0, 0.0, 0.0, 0.0, 0.0, 0.0, 0.0, 0.0, 0.0\n0.0, 0.0, 0.0, 0.0, 0.0, 971.49, 0.0, 0.0, 0.0, 0.0\n0.0, 0.0, 0.0]\nclass = satan.", fillcolor="#6f39e5ff"] ;
43 -> 45 ;
46 [label="entropy = 0.0\nsamples = 4\nvalue = [0.0, 0.0, 0.0, 0.0, 0.0, 0.0, 0.0, 0.0, 0.0, 0.0\n0.0, 0.0, 0.0, 0.0, 0.0, 971.49, 0.0, 0.0, 0.0, 0.0\n0.0, 0.0, 0.0]\nclass = satan.", fillcolor="#6f39e5ff"] ;
45 -> 46 ;
47 [label="entropy = 0.0\nsamples = 1\nvalue = [1, 0, 0, 0, 0, 0, 0, 0, 0, 0, 0, 0, 0, 0\n0, 0, 0, 0, 0, 0, 0, 0, 0]\nclass = normal.", fillcolor="#e58139ff"] ;
45 -> 47 ;
48 [label="entropy = 0.0\nsamples = 162\nvalue = [251, 0, 0, 0, 0, 0, 0, 0, 0, 0, 0, 0, 0, 0\n0, 0, 0, 0, 0, 0, 0, 0, 0]\nclass = normal.", fillcolor="#e58139ff"] ;
42 -> 48 ;
49 [label="wrong_fragment <= 0.5\nentropy = 0.19\nsamples = 34\nvalue = [43.0, 0.0, 0.0, 0.0, 0.0, 0.0, 0.0, 0.0, 886.71, 0.0\n0.0, 0.0, 0.0, 0.0, 0.0, 1133.41, 0.0, 0.0, 0.0, 0.0\n0.0, 0.0, 81281.33]\nclass = rootkit.", fillcolor="#e55339f9"] ;
29 -> 49 ;
50 [label="src_bytes <= 31.0\nentropy = 0.11\nsamples = 33\nvalue = [43.0, 0.0, 0.0, 0.0, 0.0, 0.0, 0.0, 0.0, 0.0, 0.0\n0.0, 0.0, 0.0, 0.0, 0.0, 1133.41, 0.0, 0.0, 0.0, 0.0\n0.0, 0.0, 81281.33]\nclass = rootkit.", fillcolor="#e55339fb"] ;
49 -> 50 ;
51 [label="dst_host_srv_count <= 2.5\nentropy = 0.1\nsamples = 13\nvalue = [15.0, 0.0, 0.0, 0.0, 0.0, 0.0, 0.0, 0.0, 0.0, 0.0\n0.0, 0.0, 0.0, 0.0, 0.0, 1133.41, 0.0, 0.0, 0.0, 0.0\n0.0, 0.0, 0.0]\nclass = satan.", fillcolor="#6f39e5fc"] ;
50 -> 51 ;
52 [label="service <= 28.0\nentropy = 0.06\nsamples = 10\nvalue = [8.0, 0.0, 0.0, 0.0, 0.0, 0.0, 0.0, 0.0, 0.0, 0.0\n0.0, 0.0, 0.0, 0.0, 0.0, 1133.41, 0.0, 0.0, 0.0, 0.0\n0.0, 0.0, 0.0]\nclass = satan.", fillcolor="#6f39e5fd"] ;
51 -> 52 ;
53 [label="entropy = 0.0\nsamples = 4\nvalue = [6, 0, 0, 0, 0, 0, 0, 0, 0, 0, 0, 0, 0, 0\n0, 0, 0, 0, 0, 0, 0, 0, 0]\nclass = normal.", fillcolor="#e58139ff"] ;
52 -> 53 ;
54 [label="dst_host_diff_srv_rate <= 0.09\nentropy = 0.02\nsamples = 6\nvalue = [2.0, 0.0, 0.0, 0.0, 0.0, 0.0, 0.0, 0.0, 0.0, 0.0\n0.0, 0.0, 0.0, 0.0, 0.0, 1133.41, 0.0, 0.0, 0.0, 0.0\n0.0, 0.0, 0.0]\nclass = satan.", fillcolor="#6f39e5ff"] ;
52 -> 54 ;
55 [label="dst_host_srv_count <= 1.5\nentropy = 0.1\nsamples = 2\nvalue = [2.0, 0.0, 0.0, 0.0, 0.0, 0.0, 0.0, 0.0, 0.0, 0.0\n0.0, 0.0, 0.0, 0.0, 0.0, 161.92, 0.0, 0.0, 0.0, 0.0\n0.0, 0.0, 0.0]\nclass = satan.", fillcolor="#6f39e5fc"] ;
54 -> 55 ;
56 [label="entropy = 0.0\nsamples = 1\nvalue = [2, 0, 0, 0, 0, 0, 0, 0, 0, 0, 0, 0, 0, 0\n0, 0, 0, 0, 0, 0, 0, 0, 0]\nclass = normal.", fillcolor="#e58139ff"] ;
55 -> 56 ;
57 [label="entropy = 0.0\nsamples = 1\nvalue = [0.0, 0.0, 0.0, 0.0, 0.0, 0.0, 0.0, 0.0, 0.0, 0.0\n0.0, 0.0, 0.0, 0.0, 0.0, 161.92, 0.0, 0.0, 0.0, 0.0\n0.0, 0.0, 0.0]\nclass = satan.", fillcolor="#6f39e5ff"] ;
55 -> 57 ;
58 [label="entropy = 0.0\nsamples = 4\nvalue = [0.0, 0.0, 0.0, 0.0, 0.0, 0.0, 0.0, 0.0, 0.0, 0.0\n0.0, 0.0, 0.0, 0.0, 0.0, 971.49, 0.0, 0.0, 0.0, 0.0\n0.0, 0.0, 0.0]\nclass = satan.", fillcolor="#6f39e5ff"] ;
54 -> 58 ;
59 [label="entropy = 0.0\nsamples = 3\nvalue = [7, 0, 0, 0, 0, 0, 0, 0, 0, 0, 0, 0, 0, 0\n0, 0, 0, 0, 0, 0, 0, 0, 0]\nclass = normal.", fillcolor="#e58139ff"] ;
51 -> 59 ;
60 [label="dst_bytes <= 43.0\nentropy = 0.0\nsamples = 20\nvalue = [28.0, 0.0, 0.0, 0.0, 0.0, 0.0, 0.0, 0.0, 0.0, 0.0\n0.0, 0.0, 0.0, 0.0, 0.0, 0.0, 0.0, 0.0, 0.0, 0.0\n0.0, 0.0, 81281.33]\nclass = rootkit.", fillcolor="#e55339ff"] ;
50 -> 60 ;
61 [label="src_bytes <= 32.5\nentropy = 0.0\nsamples = 18\nvalue = [25.0, 0.0, 0.0, 0.0, 0.0, 0.0, 0.0, 0.0, 0.0, 0.0\n0.0, 0.0, 0.0, 0.0, 0.0, 0.0, 0.0, 0.0, 0.0, 0.0\n0.0, 0.0, 81281.33]\nclass = rootkit.", fillcolor="#e55339ff"] ;
60 -> 61 ;
62 [label="entropy = 0.0\nsamples = 1\nvalue = [0.0, 0.0, 0.0, 0.0, 0.0, 0.0, 0.0, 0.0, 0.0, 0.0\n0.0, 0.0, 0.0, 0.0, 0.0, 0.0, 0.0, 0.0, 0.0, 0.0\n0.0, 0.0, 81281.33]\nclass = rootkit.", fillcolor="#e55339ff"] ;
61 -> 62 ;
63 [label="entropy = 0.0\nsamples = 17\nvalue = [25, 0, 0, 0, 0, 0, 0, 0, 0, 0, 0, 0, 0, 0\n0, 0, 0, 0, 0, 0, 0, 0, 0]\nclass = normal.", fillcolor="#e58139ff"] ;
61 -> 63 ;
64 [label="entropy = 0.0\nsamples = 2\nvalue = [3, 0, 0, 0, 0, 0, 0, 0, 0, 0, 0, 0, 0, 0\n0, 0, 0, 0, 0, 0, 0, 0, 0]\nclass = normal.", fillcolor="#e58139ff"] ;
60 -> 64 ;
65 [label="entropy = 0.0\nsamples = 1\nvalue = [0.0, 0.0, 0.0, 0.0, 0.0, 0.0, 0.0, 0.0, 886.71, 0.0\n0.0, 0.0, 0.0, 0.0, 0.0, 0.0, 0.0, 0.0, 0.0, 0.0\n0.0, 0.0, 0.0]\nclass = teardrop.", fillcolor="#39e58fff"] ;
49 -> 65 ;
66 [label="protocol_type <= 0.5\nentropy = 1.67\nsamples = 23786\nvalue = [33952.0, 0.0, 0.0, 0.0, 3.36, 0.0, 0.0, 0.0, 2660.12\n5246.41, 557108.23, 0.0, 121922.0, 0.0, 0.0, 3400.22\n0.0, 358440.21, 0.0, 0.0, 8188.79, 0.0, 0.0]\nclass = ipsweep.", fillcolor="#39e2e545"] ;
4 -> 66 ;
67 [label="src_bytes <= 13.0\nentropy = 1.01\nsamples = 2342\nvalue = [750.0, 0.0, 0.0, 0.0, 0.0, 0.0, 0.0, 0.0, 0.0\n456.21, 483321.95, 0.0, 0.0, 0.0, 0.0, 809.58, 0.0\n358440.21, 0.0, 0.0, 0.0, 0.0, 0.0]\nclass = ipsweep.", fillcolor="#39e2e542"] ;
66 -> 67 ;
68 [label="dst_host_srv_diff_host_rate <= 0.45\nentropy = 1.0\nsamples = 1585\nvalue = [0.0, 0.0, 0.0, 0.0, 0.0, 0.0, 0.0, 0.0, 0.0, 456.21\n395564.3, 0.0, 0.0, 0.0, 0.0, 0.0, 0.0, 358440.21, 0.0\n0.0, 0.0, 0.0, 0.0]\nclass = ipsweep.", fillcolor="#39e2e518"] ;
67 -> 68 ;
69 [label="dst_host_diff_srv_rate <= 0.2\nentropy = 0.09\nsamples = 461\nvalue = [0.0, 0.0, 0.0, 0.0, 0.0, 0.0, 0.0, 0.0, 0.0, 456.21\n3492.84, 0.0, 0.0, 0.0, 0.0, 0.0, 0.0, 358440.21, 0.0\n0.0, 0.0, 0.0, 0.0]\nclass = nmap.", fillcolor="#cb39e5fc"] ;
68 -> 69 ;
70 [label="service <= 14.5\nentropy = 0.09\nsamples = 457\nvalue = [0.0, 0.0, 0.0, 0.0, 0.0, 0.0, 0.0, 0.0, 0.0, 456.21\n3492.84, 0.0, 0.0, 0.0, 0.0, 0.0, 0.0, 354777.32, 0.0\n0.0, 0.0, 0.0, 0.0]\nclass = nmap.", fillcolor="#cb39e5fc"] ;
69 -> 70 ;
71 [label="dst_host_srv_diff_host_rate <= 0.12\nentropy = 0.07\nsamples = 453\nvalue = [0.0, 0.0, 0.0, 0.0, 0.0, 0.0, 0.0, 0.0, 0.0, 0.0\n3056.24, 0.0, 0.0, 0.0, 0.0, 0.0, 0.0, 353730.78, 0.0\n0.0, 0.0, 0.0, 0.0]\nclass = nmap.", fillcolor="#cb39e5fd"] ;
70 -> 71 ;
72 [label="srv_diff_host_rate <= 0.5\nentropy = 0.97\nsamples = 17\nvalue = [0.0, 0.0, 0.0, 0.0, 0.0, 0.0, 0.0, 0.0, 0.0, 0.0\n3056.24, 0.0, 0.0, 0.0, 0.0, 0.0, 0.0, 4709.43, 0.0\n0.0, 0.0, 0.0, 0.0]\nclass = nmap.", fillcolor="#cb39e55a"] ;
71 -> 72 ;
73 [label="dst_host_srv_count <= 1.5\nentropy = 0.94\nsamples = 3\nvalue = [0.0, 0.0, 0.0, 0.0, 0.0, 0.0, 0.0, 0.0, 0.0, 0.0\n873.21, 0.0, 0.0, 0.0, 0.0, 0.0, 0.0, 1569.81, 0.0\n0.0, 0.0, 0.0, 0.0]\nclass = nmap.", fillcolor="#cb39e571"] ;
72 -> 73 ;
74 [label="entropy = 0.54\nsamples = 2\nvalue = [0.0, 0.0, 0.0, 0.0, 0.0, 0.0, 0.0, 0.0, 0.0, 0.0\n218.3, 0.0, 0.0, 0.0, 0.0, 0.0, 0.0, 1569.81, 0.0\n0.0, 0.0, 0.0, 0.0]\nclass = nmap.", fillcolor="#cb39e5dc"] ;
73 -> 74 ;
75 [label="entropy = 0.0\nsamples = 1\nvalue = [0.0, 0.0, 0.0, 0.0, 0.0, 0.0, 0.0, 0.0, 0.0, 0.0\n654.91, 0.0, 0.0, 0.0, 0.0, 0.0, 0.0, 0.0, 0.0, 0.0\n0.0, 0.0, 0.0]\nclass = ipsweep.", fillcolor="#39e2e5ff"] ;
73 -> 75 ;
76 [label="dst_host_count <= 2.5\nentropy = 0.98\nsamples = 14\nvalue = [0.0, 0.0, 0.0, 0.0, 0.0, 0.0, 0.0, 0.0, 0.0, 0.0\n2183.03, 0.0, 0.0, 0.0, 0.0, 0.0, 0.0, 3139.62, 0.0\n0.0, 0.0, 0.0, 0.0]\nclass = nmap.", fillcolor="#cb39e54e"] ;
72 -> 76 ;
77 [label="srv_count <= 12.5\nentropy = 0.91\nsamples = 11\nvalue = [0.0, 0.0, 0.0, 0.0, 0.0, 0.0, 0.0, 0.0, 0.0, 0.0\n2183.03, 0.0, 0.0, 0.0, 0.0, 0.0, 0.0, 1046.54, 0.0\n0.0, 0.0, 0.0, 0.0]\nclass = ipsweep.", fillcolor="#39e2e585"] ;
76 -> 77 ;
78 [label="dst_host_count <= 1.5\nentropy = 0.87\nsamples = 4\nvalue = [0.0, 0.0, 0.0, 0.0, 0.0, 0.0, 0.0, 0.0, 0.0, 0.0\n436.61, 0.0, 0.0, 0.0, 0.0, 0.0, 0.0, 1046.54, 0.0\n0.0, 0.0, 0.0, 0.0]\nclass = nmap.", fillcolor="#cb39e595"] ;
77 -> 78 ;
79 [label="entropy = 0.0\nsamples = 1\nvalue = [0.0, 0.0, 0.0, 0.0, 0.0, 0.0, 0.0, 0.0, 0.0, 0.0\n218.3, 0.0, 0.0, 0.0, 0.0, 0.0, 0.0, 0.0, 0.0, 0.0\n0.0, 0.0, 0.0]\nclass = ipsweep.", fillcolor="#39e2e5ff"] ;
78 -> 79 ;
80 [label="srv_count <= 7.0\nentropy = 0.66\nsamples = 3\nvalue = [0.0, 0.0, 0.0, 0.0, 0.0, 0.0, 0.0, 0.0, 0.0, 0.0\n218.3, 0.0, 0.0, 0.0, 0.0, 0.0, 0.0, 1046.54, 0.0\n0.0, 0.0, 0.0, 0.0]\nclass = nmap.", fillcolor="#cb39e5ca"] ;
78 -> 80 ;
81 [label="entropy = 0.87\nsamples = 2\nvalue = [0.0, 0.0, 0.0, 0.0, 0.0, 0.0, 0.0, 0.0, 0.0, 0.0\n218.3, 0.0, 0.0, 0.0, 0.0, 0.0, 0.0, 523.27, 0.0\n0.0, 0.0, 0.0, 0.0]\nclass = nmap.", fillcolor="#cb39e595"] ;
80 -> 81 ;
82 [label="entropy = 0.0\nsamples = 1\nvalue = [0.0, 0.0, 0.0, 0.0, 0.0, 0.0, 0.0, 0.0, 0.0, 0.0\n0.0, 0.0, 0.0, 0.0, 0.0, 0.0, 0.0, 523.27, 0.0, 0.0\n0.0, 0.0, 0.0]\nclass = nmap.", fillcolor="#cb39e5ff"] ;
80 -> 82 ;
83 [label="entropy = -0.0\nsamples = 7\nvalue = [0.0, 0.0, 0.0, 0.0, 0.0, 0.0, 0.0, 0.0, 0.0, 0.0\n1746.42, 0.0, 0.0, 0.0, 0.0, 0.0, 0.0, 0.0, 0.0, 0.0\n0.0, 0.0, 0.0]\nclass = ipsweep.", fillcolor="#39e2e5ff"] ;
77 -> 83 ;
84 [label="entropy = 0.0\nsamples = 3\nvalue = [0.0, 0.0, 0.0, 0.0, 0.0, 0.0, 0.0, 0.0, 0.0, 0.0\n0.0, 0.0, 0.0, 0.0, 0.0, 0.0, 0.0, 2093.08, 0.0, 0.0\n0.0, 0.0, 0.0]\nclass = nmap.", fillcolor="#cb39e5ff"] ;
76 -> 84 ;
85 [label="entropy = 0.0\nsamples = 436\nvalue = [0.0, 0.0, 0.0, 0.0, 0.0, 0.0, 0.0, 0.0, 0.0, 0.0\n0.0, 0.0, 0.0, 0.0, 0.0, 0.0, 0.0, 349021.35, 0.0\n0.0, 0.0, 0.0, 0.0]\nclass = nmap.", fillcolor="#cb39e5ff"] ;
71 -> 85 ;
86 [label="dst_host_count <= 2.0\nentropy = 1.46\nsamples = 4\nvalue = [0.0, 0.0, 0.0, 0.0, 0.0, 0.0, 0.0, 0.0, 0.0, 456.21\n436.61, 0.0, 0.0, 0.0, 0.0, 0.0, 0.0, 1046.54, 0.0\n0.0, 0.0, 0.0, 0.0]\nclass = nmap.", fillcolor="#cb39e565"] ;
70 -> 86 ;
87 [label="entropy = 0.0\nsamples = 1\nvalue = [0.0, 0.0, 0.0, 0.0, 0.0, 0.0, 0.0, 0.0, 0.0, 456.21\n0.0, 0.0, 0.0, 0.0, 0.0, 0.0, 0.0, 0.0, 0.0, 0.0\n0.0, 0.0, 0.0]\nclass = portsweep.", fillcolor="#39e5baff"] ;
86 -> 87 ;
88 [label="dst_host_srv_count <= 4.5\nentropy = 0.87\nsamples = 3\nvalue = [0.0, 0.0, 0.0, 0.0, 0.0, 0.0, 0.0, 0.0, 0.0, 0.0\n436.61, 0.0, 0.0, 0.0, 0.0, 0.0, 0.0, 1046.54, 0.0\n0.0, 0.0, 0.0, 0.0]\nclass = nmap.", fillcolor="#cb39e595"] ;
86 -> 88 ;
89 [label="dst_host_count <= 3.5\nentropy = 0.66\nsamples = 2\nvalue = [0.0, 0.0, 0.0, 0.0, 0.0, 0.0, 0.0, 0.0, 0.0, 0.0\n218.3, 0.0, 0.0, 0.0, 0.0, 0.0, 0.0, 1046.54, 0.0\n0.0, 0.0, 0.0, 0.0]\nclass = nmap.", fillcolor="#cb39e5ca"] ;
88 -> 89 ;
90 [label="entropy = 0.0\nsamples = 1\nvalue = [0.0, 0.0, 0.0, 0.0, 0.0, 0.0, 0.0, 0.0, 0.0, 0.0\n218.3, 0.0, 0.0, 0.0, 0.0, 0.0, 0.0, 0.0, 0.0, 0.0\n0.0, 0.0, 0.0]\nclass = ipsweep.", fillcolor="#39e2e5ff"] ;
89 -> 90 ;
91 [label="entropy = 0.0\nsamples = 1\nvalue = [0.0, 0.0, 0.0, 0.0, 0.0, 0.0, 0.0, 0.0, 0.0, 0.0\n0.0, 0.0, 0.0, 0.0, 0.0, 0.0, 0.0, 1046.54, 0.0, 0.0\n0.0, 0.0, 0.0]\nclass = nmap.", fillcolor="#cb39e5ff"] ;
89 -> 91 ;
92 [label="entropy = -0.0\nsamples = 1\nvalue = [0.0, 0.0, 0.0, 0.0, 0.0, 0.0, 0.0, 0.0, 0.0, 0.0\n218.3, 0.0, 0.0, 0.0, 0.0, 0.0, 0.0, 0.0, 0.0, 0.0\n0.0, 0.0, 0.0]\nclass = ipsweep.", fillcolor="#39e2e5ff"] ;
88 -> 92 ;
93 [label="entropy = 0.0\nsamples = 4\nvalue = [0.0, 0.0, 0.0, 0.0, 0.0, 0.0, 0.0, 0.0, 0.0, 0.0\n0.0, 0.0, 0.0, 0.0, 0.0, 0.0, 0.0, 3662.89, 0.0, 0.0\n0.0, 0.0, 0.0]\nclass = nmap.", fillcolor="#cb39e5ff"] ;
69 -> 93 ;
94 [label="entropy = 0.0\nsamples = 1124\nvalue = [0.0, 0.0, 0.0, 0.0, 0.0, 0.0, 0.0, 0.0, 0.0, 0.0\n392071.46, 0.0, 0.0, 0.0, 0.0, 0.0, 0.0, 0.0, 0.0\n0.0, 0.0, 0.0, 0.0]\nclass = ipsweep.", fillcolor="#39e2e5ff"] ;
68 -> 94 ;
95 [label="dst_host_srv_count <= 3.5\nentropy = 0.14\nsamples = 757\nvalue = [750.0, 0.0, 0.0, 0.0, 0.0, 0.0, 0.0, 0.0, 0.0, 0.0\n87757.64, 0.0, 0.0, 0.0, 0.0, 809.58, 0.0, 0.0, 0.0\n0.0, 0.0, 0.0, 0.0]\nclass = ipsweep.", fillcolor="#39e2e5fb"] ;
67 -> 95 ;
96 [label="dst_host_same_src_port_rate <= 0.75\nentropy = 0.97\nsamples = 17\nvalue = [11.0, 0.0, 0.0, 0.0, 0.0, 0.0, 0.0, 0.0, 0.0, 0.0\n1528.12, 0.0, 0.0, 0.0, 0.0, 809.58, 0.0, 0.0, 0.0\n0.0, 0.0, 0.0, 0.0]\nclass = ipsweep.", fillcolor="#39e2e577"] ;
95 -> 96 ;
97 [label="service <= 64.5\nentropy = 0.07\nsamples = 8\nvalue = [7.0, 0.0, 0.0, 0.0, 0.0, 0.0, 0.0, 0.0, 0.0, 0.0\n0.0, 0.0, 0.0, 0.0, 0.0, 809.58, 0.0, 0.0, 0.0, 0.0\n0.0, 0.0, 0.0]\nclass = satan.", fillcolor="#6f39e5fd"] ;
96 -> 97 ;
98 [label="dst_host_count <= 75.5\nentropy = 0.09\nsamples = 7\nvalue = [7.0, 0.0, 0.0, 0.0, 0.0, 0.0, 0.0, 0.0, 0.0, 0.0\n0.0, 0.0, 0.0, 0.0, 0.0, 647.66, 0.0, 0.0, 0.0, 0.0\n0.0, 0.0, 0.0]\nclass = satan.", fillcolor="#6f39e5fc"] ;
97 -> 98 ;
99 [label="entropy = 0.0\nsamples = 5\nvalue = [7, 0, 0, 0, 0, 0, 0, 0, 0, 0, 0, 0, 0, 0\n0, 0, 0, 0, 0, 0, 0, 0, 0]\nclass = normal.", fillcolor="#e58139ff"] ;
98 -> 99 ;
100 [label="entropy = 0.0\nsamples = 2\nvalue = [0.0, 0.0, 0.0, 0.0, 0.0, 0.0, 0.0, 0.0, 0.0, 0.0\n0.0, 0.0, 0.0, 0.0, 0.0, 647.66, 0.0, 0.0, 0.0, 0.0\n0.0, 0.0, 0.0]\nclass = satan.", fillcolor="#6f39e5ff"] ;
98 -> 100 ;
101 [label="entropy = 0.0\nsamples = 1\nvalue = [0.0, 0.0, 0.0, 0.0, 0.0, 0.0, 0.0, 0.0, 0.0, 0.0\n0.0, 0.0, 0.0, 0.0, 0.0, 161.92, 0.0, 0.0, 0.0, 0.0\n0.0, 0.0, 0.0]\nclass = satan.", fillcolor="#6f39e5ff"] ;
97 -> 101 ;
102 [label="src_dst_bytes_diff <= -24.0\nentropy = 0.03\nsamples = 9\nvalue = [4.0, 0.0, 0.0, 0.0, 0.0, 0.0, 0.0, 0.0, 0.0, 0.0\n1528.12, 0.0, 0.0, 0.0, 0.0, 0.0, 0.0, 0.0, 0.0, 0.0\n0.0, 0.0, 0.0]\nclass = ipsweep.", fillcolor="#39e2e5fe"] ;
96 -> 102 ;
103 [label="entropy = 0.0\nsamples = 3\nvalue = [4, 0, 0, 0, 0, 0, 0, 0, 0, 0, 0, 0, 0, 0\n0, 0, 0, 0, 0, 0, 0, 0, 0]\nclass = normal.", fillcolor="#e58139ff"] ;
102 -> 103 ;
104 [label="entropy = 0.0\nsamples = 6\nvalue = [0.0, 0.0, 0.0, 0.0, 0.0, 0.0, 0.0, 0.0, 0.0, 0.0\n1528.12, 0.0, 0.0, 0.0, 0.0, 0.0, 0.0, 0.0, 0.0, 0.0\n0.0, 0.0, 0.0]\nclass = ipsweep.", fillcolor="#39e2e5ff"] ;
102 -> 104 ;
105 [label="dst_host_diff_srv_rate <= 0.0\nentropy = 0.07\nsamples = 740\nvalue = [739.0, 0.0, 0.0, 0.0, 0.0, 0.0, 0.0, 0.0, 0.0, 0.0\n86229.53, 0.0, 0.0, 0.0, 0.0, 0.0, 0.0, 0.0, 0.0\n0.0, 0.0, 0.0, 0.0]\nclass = ipsweep.", fillcolor="#39e2e5fd"] ;
95 -> 105 ;
106 [label="src_dst_bytes_diff <= -24.0\nentropy = 0.05\nsamples = 536\nvalue = [439.0, 0.0, 0.0, 0.0, 0.0, 0.0, 0.0, 0.0, 0.0, 0.0\n85574.62, 0.0, 0.0, 0.0, 0.0, 0.0, 0.0, 0.0, 0.0\n0.0, 0.0, 0.0, 0.0]\nclass = ipsweep.", fillcolor="#39e2e5fe"] ;
105 -> 106 ;
107 [label="entropy = 0.0\nsamples = 276\nvalue = [439, 0, 0, 0, 0, 0, 0, 0, 0, 0, 0, 0, 0, 0\n0, 0, 0, 0, 0, 0, 0, 0, 0]\nclass = normal.", fillcolor="#e58139ff"] ;
106 -> 107 ;
108 [label="entropy = 0.0\nsamples = 260\nvalue = [0.0, 0.0, 0.0, 0.0, 0.0, 0.0, 0.0, 0.0, 0.0, 0.0\n85574.62, 0.0, 0.0, 0.0, 0.0, 0.0, 0.0, 0.0, 0.0\n0.0, 0.0, 0.0, 0.0]\nclass = ipsweep.", fillcolor="#39e2e5ff"] ;
106 -> 108 ;
109 [label="service <= 39.0\nentropy = 0.9\nsamples = 204\nvalue = [300.0, 0.0, 0.0, 0.0, 0.0, 0.0, 0.0, 0.0, 0.0, 0.0\n654.91, 0.0, 0.0, 0.0, 0.0, 0.0, 0.0, 0.0, 0.0, 0.0\n0.0, 0.0, 0.0]\nclass = ipsweep.", fillcolor="#39e2e58a"] ;
105 -> 109 ;
110 [label="dst_host_count <= 13.0\nentropy = 0.79\nsamples = 140\nvalue = [205.0, 0.0, 0.0, 0.0, 0.0, 0.0, 0.0, 0.0, 0.0, 0.0\n654.91, 0.0, 0.0, 0.0, 0.0, 0.0, 0.0, 0.0, 0.0, 0.0\n0.0, 0.0, 0.0]\nclass = ipsweep.", fillcolor="#39e2e5af"] ;
109 -> 110 ;
111 [label="entropy = 0.0\nsamples = 2\nvalue = [0.0, 0.0, 0.0, 0.0, 0.0, 0.0, 0.0, 0.0, 0.0, 0.0\n654.91, 0.0, 0.0, 0.0, 0.0, 0.0, 0.0, 0.0, 0.0, 0.0\n0.0, 0.0, 0.0]\nclass = ipsweep.", fillcolor="#39e2e5ff"] ;
110 -> 111 ;
112 [label="entropy = 0.0\nsamples = 138\nvalue = [205, 0, 0, 0, 0, 0, 0, 0, 0, 0, 0, 0, 0, 0\n0, 0, 0, 0, 0, 0, 0, 0, 0]\nclass = normal.", fillcolor="#e58139ff"] ;
110 -> 112 ;
113 [label="entropy = 0.0\nsamples = 64\nvalue = [95, 0, 0, 0, 0, 0, 0, 0, 0, 0, 0, 0, 0, 0\n0, 0, 0, 0, 0, 0, 0, 0, 0]\nclass = normal.", fillcolor="#e58139ff"] ;
109 -> 113 ;
114 [label="src_dst_bytes_diff <= 4.5\nentropy = 1.83\nsamples = 21444\nvalue = [33202.0, 0.0, 0.0, 0.0, 3.36, 0.0, 0.0, 0.0, 2660.12\n4790.2, 73786.28, 0.0, 121922.0, 0.0, 0.0, 2590.64, 0.0\n0.0, 0.0, 0.0, 8188.79, 0.0, 0.0]\nclass = ftp_write.", fillcolor="#3989e547"] ;
66 -> 114 ;
115 [label="logged_in <= 0.5\nentropy = 1.67\nsamples = 18646\nvalue = [28801.0, 0.0, 0.0, 0.0, 3.36, 0.0, 0.0, 0.0, 2660.12\n4790.2, 66800.59, 0.0, 0.0, 0.0, 0.0, 2590.64, 0.0\n0.0, 0.0, 0.0, 8188.79, 0.0, 0.0]\nclass = ipsweep.", fillcolor="#39e2e572"] ;
114 -> 115 ;
116 [label="protocol_type <= 1.5\nentropy = 1.4\nsamples = 18387\nvalue = [28394.0, 0.0, 0.0, 0.0, 3.36, 0.0, 0.0, 0.0, 2660.12\n4790.2, 66582.29, 0.0, 0.0, 0.0, 0.0, 2590.64, 0.0\n0.0, 0.0, 0.0, 0.0, 0.0, 0.0]\nclass = ipsweep.", fillcolor="#39e2e57f"] ;
115 -> 116 ;
117 [label="srv_count <= 1.5\nentropy = 1.1\nsamples = 16037\nvalue = [24725.0, 0.0, 0.0, 0.0, 3.36, 0.0, 0.0, 0.0, 0.0\n4790.2, 66582.29, 0.0, 0.0, 0.0, 0.0, 161.92, 0.0, 0.0\n0.0, 0.0, 0.0, 0.0, 0.0]\nclass = ipsweep.", fillcolor="#39e2e595"] ;
116 -> 117 ;
118 [label="dst_host_same_srv_rate <= 0.58\nentropy = 1.03\nsamples = 11856\nvalue = [18184.0, 0.0, 0.0, 0.0, 0.0, 0.0, 0.0, 0.0, 0.0\n4790.2, 66582.29, 0.0, 0.0, 0.0, 0.0, 161.92, 0.0, 0.0\n0.0, 0.0, 0.0, 0.0, 0.0]\nclass = ipsweep.", fillcolor="#39e2e5ad"] ;
117 -> 118 ;
119 [label="dst_host_same_src_port_rate <= 0.12\nentropy = 0.42\nsamples = 346\nvalue = [235.0, 0.0, 0.0, 0.0, 0.0, 0.0, 0.0, 0.0, 0.0\n4790.2, 64399.27, 0.0, 0.0, 0.0, 0.0, 161.92, 0.0, 0.0\n0.0, 0.0, 0.0, 0.0, 0.0]\nclass = ipsweep.", fillcolor="#39e2e5eb"] ;
118 -> 119 ;
120 [label="dst_host_count <= 48.5\nentropy = 0.18\nsamples = 285\nvalue = [168.0, 0.0, 0.0, 0.0, 0.0, 0.0, 0.0, 0.0, 0.0\n1368.63, 62434.54, 0.0, 0.0, 0.0, 0.0, 0.0, 0.0, 0.0\n0.0, 0.0, 0.0, 0.0, 0.0]\nclass = ipsweep.", fillcolor="#39e2e5f9"] ;
119 -> 120 ;
121 [label="dst_host_diff_srv_rate <= 0.69\nentropy = 0.01\nsamples = 154\nvalue = [57.0, 0.0, 0.0, 0.0, 0.0, 0.0, 0.0, 0.0, 0.0, 0.0\n41695.8, 0.0, 0.0, 0.0, 0.0, 0.0, 0.0, 0.0, 0.0, 0.0\n0.0, 0.0, 0.0]\nclass = ipsweep.", fillcolor="#39e2e5ff"] ;
120 -> 121 ;
122 [label="entropy = 0.0\nsamples = 37\nvalue = [57, 0, 0, 0, 0, 0, 0, 0, 0, 0, 0, 0, 0, 0\n0, 0, 0, 0, 0, 0, 0, 0, 0]\nclass = normal.", fillcolor="#e58139ff"] ;
121 -> 122 ;
123 [label="entropy = 0.0\nsamples = 117\nvalue = [0.0, 0.0, 0.0, 0.0, 0.0, 0.0, 0.0, 0.0, 0.0, 0.0\n41695.8, 0.0, 0.0, 0.0, 0.0, 0.0, 0.0, 0.0, 0.0, 0.0\n0.0, 0.0, 0.0]\nclass = ipsweep.", fillcolor="#39e2e5ff"] ;
121 -> 123 ;
124 [label="flag <= 1.5\nentropy = 0.38\nsamples = 131\nvalue = [111.0, 0.0, 0.0, 0.0, 0.0, 0.0, 0.0, 0.0, 0.0\n1368.63, 20738.75, 0.0, 0.0, 0.0, 0.0, 0.0, 0.0, 0.0\n0.0, 0.0, 0.0, 0.0, 0.0]\nclass = ipsweep.", fillcolor="#39e2e5ed"] ;
120 -> 124 ;
125 [label="service <= 20.5\nentropy = 0.12\nsamples = 58\nvalue = [19.0, 0.0, 0.0, 0.0, 0.0, 0.0, 0.0, 0.0, 0.0, 228.1\n15499.48, 0.0, 0.0, 0.0, 0.0, 0.0, 0.0, 0.0, 0.0\n0.0, 0.0, 0.0, 0.0]\nclass = ipsweep.", fillcolor="#39e2e5fb"] ;
124 -> 125 ;
126 [label="dst_host_srv_count <= 3.0\nentropy = 0.65\nsamples = 9\nvalue = [8.0, 0.0, 0.0, 0.0, 0.0, 0.0, 0.0, 0.0, 0.0, 228.1\n1309.82, 0.0, 0.0, 0.0, 0.0, 0.0, 0.0, 0.0, 0.0, 0.0\n0.0, 0.0, 0.0]\nclass = ipsweep.", fillcolor="#39e2e5d1"] ;
125 -> 126 ;
127 [label="entropy = 0.0\nsamples = 3\nvalue = [0.0, 0.0, 0.0, 0.0, 0.0, 0.0, 0.0, 0.0, 0.0, 0.0\n1309.82, 0.0, 0.0, 0.0, 0.0, 0.0, 0.0, 0.0, 0.0, 0.0\n0.0, 0.0, 0.0]\nclass = ipsweep.", fillcolor="#39e2e5ff"] ;
126 -> 127 ;
128 [label="dst_host_same_srv_rate <= 0.16\nentropy = 0.21\nsamples = 6\nvalue = [8.0, 0.0, 0.0, 0.0, 0.0, 0.0, 0.0, 0.0, 0.0, 228.1\n0.0, 0.0, 0.0, 0.0, 0.0, 0.0, 0.0, 0.0, 0.0, 0.0\n0.0, 0.0, 0.0]\nclass = portsweep.", fillcolor="#39e5baf6"] ;
126 -> 128 ;
129 [label="entropy = 0.0\nsamples = 5\nvalue = [8, 0, 0, 0, 0, 0, 0, 0, 0, 0, 0, 0, 0, 0\n0, 0, 0, 0, 0, 0, 0, 0, 0]\nclass = normal.", fillcolor="#e58139ff"] ;
128 -> 129 ;
130 [label="entropy = 0.0\nsamples = 1\nvalue = [0.0, 0.0, 0.0, 0.0, 0.0, 0.0, 0.0, 0.0, 0.0, 228.1\n0.0, 0.0, 0.0, 0.0, 0.0, 0.0, 0.0, 0.0, 0.0, 0.0\n0.0, 0.0, 0.0]\nclass = portsweep.", fillcolor="#39e5baff"] ;
128 -> 130 ;
131 [label="dst_host_rerror_rate <= 0.74\nentropy = 0.01\nsamples = 49\nvalue = [11.0, 0.0, 0.0, 0.0, 0.0, 0.0, 0.0, 0.0, 0.0, 0.0\n14189.67, 0.0, 0.0, 0.0, 0.0, 0.0, 0.0, 0.0, 0.0\n0.0, 0.0, 0.0, 0.0]\nclass = ipsweep.", fillcolor="#39e2e5ff"] ;
125 -> 131 ;
132 [label="entropy = 0.0\nsamples = 7\nvalue = [11, 0, 0, 0, 0, 0, 0, 0, 0, 0, 0, 0, 0, 0\n0, 0, 0, 0, 0, 0, 0, 0, 0]\nclass = normal.", fillcolor="#e58139ff"] ;
131 -> 132 ;
133 [label="entropy = 0.0\nsamples = 42\nvalue = [0.0, 0.0, 0.0, 0.0, 0.0, 0.0, 0.0, 0.0, 0.0, 0.0\n14189.67, 0.0, 0.0, 0.0, 0.0, 0.0, 0.0, 0.0, 0.0\n0.0, 0.0, 0.0, 0.0]\nclass = ipsweep.", fillcolor="#39e2e5ff"] ;
131 -> 133 ;
134 [label="dst_host_diff_srv_rate <= 0.99\nentropy = 0.78\nsamples = 73\nvalue = [92.0, 0.0, 0.0, 0.0, 0.0, 0.0, 0.0, 0.0, 0.0\n1140.52, 5239.26, 0.0, 0.0, 0.0, 0.0, 0.0, 0.0, 0.0\n0.0, 0.0, 0.0, 0.0, 0.0]\nclass = ipsweep.", fillcolor="#39e2e5c4"] ;
124 -> 134 ;
135 [label="dst_host_same_srv_rate <= 0.02\nentropy = 0.38\nsamples = 59\nvalue = [92.0, 0.0, 0.0, 0.0, 0.0, 0.0, 0.0, 0.0, 0.0\n1140.52, 0.0, 0.0, 0.0, 0.0, 0.0, 0.0, 0.0, 0.0, 0.0\n0.0, 0.0, 0.0, 0.0]\nclass = portsweep.", fillcolor="#39e5baea"] ;
134 -> 135 ;
136 [label="src_bytes <= 3.5\nentropy = 0.11\nsamples = 13\nvalue = [17.0, 0.0, 0.0, 0.0, 0.0, 0.0, 0.0, 0.0, 0.0\n1140.52, 0.0, 0.0, 0.0, 0.0, 0.0, 0.0, 0.0, 0.0, 0.0\n0.0, 0.0, 0.0, 0.0]\nclass = portsweep.", fillcolor="#39e5bafb"] ;
135 -> 136 ;
137 [label="dst_host_srv_rerror_rate <= 0.7\nentropy = 0.08\nsamples = 9\nvalue = [11.0, 0.0, 0.0, 0.0, 0.0, 0.0, 0.0, 0.0, 0.0\n1140.52, 0.0, 0.0, 0.0, 0.0, 0.0, 0.0, 0.0, 0.0, 0.0\n0.0, 0.0, 0.0, 0.0]\nclass = portsweep.", fillcolor="#39e5bafd"] ;
136 -> 137 ;
138 [label="entropy = 0.0\nsamples = 5\nvalue = [11, 0, 0, 0, 0, 0, 0, 0, 0, 0, 0, 0, 0, 0\n0, 0, 0, 0, 0, 0, 0, 0, 0]\nclass = normal.", fillcolor="#e58139ff"] ;
137 -> 138 ;
139 [label="entropy = 0.0\nsamples = 4\nvalue = [0.0, 0.0, 0.0, 0.0, 0.0, 0.0, 0.0, 0.0, 0.0, 1140.52\n0.0, 0.0, 0.0, 0.0, 0.0, 0.0, 0.0, 0.0, 0.0, 0.0\n0.0, 0.0, 0.0]\nclass = portsweep.", fillcolor="#39e5baff"] ;
137 -> 139 ;
140 [label="entropy = 0.0\nsamples = 4\nvalue = [6, 0, 0, 0, 0, 0, 0, 0, 0, 0, 0, 0, 0, 0\n0, 0, 0, 0, 0, 0, 0, 0, 0]\nclass = normal.", fillcolor="#e58139ff"] ;
136 -> 140 ;
141 [label="entropy = 0.0\nsamples = 46\nvalue = [75, 0, 0, 0, 0, 0, 0, 0, 0, 0, 0, 0, 0, 0\n0, 0, 0, 0, 0, 0, 0, 0, 0]\nclass = normal.", fillcolor="#e58139ff"] ;
135 -> 141 ;
142 [label="entropy = -0.0\nsamples = 14\nvalue = [0.0, 0.0, 0.0, 0.0, 0.0, 0.0, 0.0, 0.0, 0.0, 0.0\n5239.26, 0.0, 0.0, 0.0, 0.0, 0.0, 0.0, 0.0, 0.0, 0.0\n0.0, 0.0, 0.0]\nclass = ipsweep.", fillcolor="#39e2e5ff"] ;
134 -> 142 ;
143 [label="dst_host_count <= 7.5\nentropy = 1.19\nsamples = 61\nvalue = [67.0, 0.0, 0.0, 0.0, 0.0, 0.0, 0.0, 0.0, 0.0\n3421.57, 1964.72, 0.0, 0.0, 0.0, 0.0, 161.92, 0.0, 0.0\n0.0, 0.0, 0.0, 0.0, 0.0]\nclass = portsweep.", fillcolor="#39e5ba66"] ;
119 -> 143 ;
144 [label="src_dst_bytes_diff <= -4.0\nentropy = 0.43\nsamples = 17\nvalue = [11.0, 0.0, 0.0, 0.0, 0.0, 0.0, 0.0, 0.0, 0.0, 0.0\n1964.72, 0.0, 0.0, 0.0, 0.0, 161.92, 0.0, 0.0, 0.0\n0.0, 0.0, 0.0, 0.0]\nclass = ipsweep.", fillcolor="#39e2e5e9"] ;
143 -> 144 ;
145 [label="entropy = 0.0\nsamples = 4\nvalue = [6, 0, 0, 0, 0, 0, 0, 0, 0, 0, 0, 0, 0, 0\n0, 0, 0, 0, 0, 0, 0, 0, 0]\nclass = normal.", fillcolor="#e58139ff"] ;
144 -> 145 ;
146 [label="dst_host_rerror_rate <= 0.55\nentropy = 0.41\nsamples = 13\nvalue = [5.0, 0.0, 0.0, 0.0, 0.0, 0.0, 0.0, 0.0, 0.0, 0.0\n1964.72, 0.0, 0.0, 0.0, 0.0, 161.92, 0.0, 0.0, 0.0\n0.0, 0.0, 0.0, 0.0]\nclass = ipsweep.", fillcolor="#39e2e5e9"] ;
144 -> 146 ;
147 [label="rerror_rate <= 0.5\nentropy = 0.19\nsamples = 6\nvalue = [5.0, 0.0, 0.0, 0.0, 0.0, 0.0, 0.0, 0.0, 0.0, 0.0\n0.0, 0.0, 0.0, 0.0, 0.0, 161.92, 0.0, 0.0, 0.0, 0.0\n0.0, 0.0, 0.0]\nclass = satan.", fillcolor="#6f39e5f7"] ;
146 -> 147 ;
148 [label="entropy = 0.0\nsamples = 1\nvalue = [0.0, 0.0, 0.0, 0.0, 0.0, 0.0, 0.0, 0.0, 0.0, 0.0\n0.0, 0.0, 0.0, 0.0, 0.0, 161.92, 0.0, 0.0, 0.0, 0.0\n0.0, 0.0, 0.0]\nclass = satan.", fillcolor="#6f39e5ff"] ;
147 -> 148 ;
149 [label="entropy = 0.0\nsamples = 5\nvalue = [5, 0, 0, 0, 0, 0, 0, 0, 0, 0, 0, 0, 0, 0\n0, 0, 0, 0, 0, 0, 0, 0, 0]\nclass = normal.", fillcolor="#e58139ff"] ;
147 -> 149 ;
150 [label="entropy = 0.0\nsamples = 7\nvalue = [0.0, 0.0, 0.0, 0.0, 0.0, 0.0, 0.0, 0.0, 0.0, 0.0\n1964.72, 0.0, 0.0, 0.0, 0.0, 0.0, 0.0, 0.0, 0.0, 0.0\n0.0, 0.0, 0.0]\nclass = ipsweep.", fillcolor="#39e2e5ff"] ;
146 -> 150 ;
151 [label="dst_host_srv_diff_host_rate <= 0.01\nentropy = 0.12\nsamples = 44\nvalue = [56.0, 0.0, 0.0, 0.0, 0.0, 0.0, 0.0, 0.0, 0.0\n3421.57, 0.0, 0.0, 0.0, 0.0, 0.0, 0.0, 0.0, 0.0, 0.0\n0.0, 0.0, 0.0, 0.0]\nclass = portsweep.", fillcolor="#39e5bafb"] ;
143 -> 151 ;
152 [label="dst_host_diff_srv_rate <= 0.12\nentropy = 0.04\nsamples = 20\nvalue = [15.0, 0.0, 0.0, 0.0, 0.0, 0.0, 0.0, 0.0, 0.0\n3421.57, 0.0, 0.0, 0.0, 0.0, 0.0, 0.0, 0.0, 0.0, 0.0\n0.0, 0.0, 0.0, 0.0]\nclass = portsweep.", fillcolor="#39e5bafe"] ;
151 -> 152 ;
153 [label="entropy = 0.0\nsamples = 10\nvalue = [15, 0, 0, 0, 0, 0, 0, 0, 0, 0, 0, 0, 0, 0\n0, 0, 0, 0, 0, 0, 0, 0, 0]\nclass = normal.", fillcolor="#e58139ff"] ;
152 -> 153 ;
154 [label="entropy = 0.0\nsamples = 10\nvalue = [0.0, 0.0, 0.0, 0.0, 0.0, 0.0, 0.0, 0.0, 0.0, 3421.57\n0.0, 0.0, 0.0, 0.0, 0.0, 0.0, 0.0, 0.0, 0.0, 0.0\n0.0, 0.0, 0.0]\nclass = portsweep.", fillcolor="#39e5baff"] ;
152 -> 154 ;
155 [label="entropy = 0.0\nsamples = 24\nvalue = [41, 0, 0, 0, 0, 0, 0, 0, 0, 0, 0, 0, 0, 0\n0, 0, 0, 0, 0, 0, 0, 0, 0]\nclass = normal.", fillcolor="#e58139ff"] ;
151 -> 155 ;
156 [label="dst_host_srv_rerror_rate <= 0.3\nentropy = 0.5\nsamples = 11510\nvalue = [17949.0, 0.0, 0.0, 0.0, 0.0, 0.0, 0.0, 0.0, 0.0, 0.0\n2183.03, 0.0, 0.0, 0.0, 0.0, 0.0, 0.0, 0.0, 0.0, 0.0\n0.0, 0.0, 0.0]\nclass = normal.", fillcolor="#e58139e0"] ;
118 -> 156 ;
157 [label="dst_host_srv_count <= 110.5\nentropy = 0.74\nsamples = 351\nvalue = [514.0, 0.0, 0.0, 0.0, 0.0, 0.0, 0.0, 0.0, 0.0, 0.0\n1964.72, 0.0, 0.0, 0.0, 0.0, 0.0, 0.0, 0.0, 0.0, 0.0\n0.0, 0.0, 0.0]\nclass = ipsweep.", fillcolor="#39e2e5bc"] ;
156 -> 157 ;
158 [label="dst_host_count <= 2.0\nentropy = 0.31\nsamples = 80\nvalue = [118.0, 0.0, 0.0, 0.0, 0.0, 0.0, 0.0, 0.0, 0.0, 0.0\n1964.72, 0.0, 0.0, 0.0, 0.0, 0.0, 0.0, 0.0, 0.0, 0.0\n0.0, 0.0, 0.0]\nclass = ipsweep.", fillcolor="#39e2e5f0"] ;
157 -> 158 ;
159 [label="flag <= 1.5\nentropy = 0.01\nsamples = 6\nvalue = [2.0, 0.0, 0.0, 0.0, 0.0, 0.0, 0.0, 0.0, 0.0, 0.0\n1964.72, 0.0, 0.0, 0.0, 0.0, 0.0, 0.0, 0.0, 0.0, 0.0\n0.0, 0.0, 0.0]\nclass = ipsweep.", fillcolor="#39e2e5ff"] ;
158 -> 159 ;
160 [label="entropy = 0.0\nsamples = 4\nvalue = [0.0, 0.0, 0.0, 0.0, 0.0, 0.0, 0.0, 0.0, 0.0, 0.0\n1964.72, 0.0, 0.0, 0.0, 0.0, 0.0, 0.0, 0.0, 0.0, 0.0\n0.0, 0.0, 0.0]\nclass = ipsweep.", fillcolor="#39e2e5ff"] ;
159 -> 160 ;
161 [label="entropy = 0.0\nsamples = 2\nvalue = [2, 0, 0, 0, 0, 0, 0, 0, 0, 0, 0, 0, 0, 0\n0, 0, 0, 0, 0, 0, 0, 0, 0]\nclass = normal.", fillcolor="#e58139ff"] ;
159 -> 161 ;
162 [label="entropy = 0.0\nsamples = 74\nvalue = [116, 0, 0, 0, 0, 0, 0, 0, 0, 0, 0, 0, 0, 0\n0, 0, 0, 0, 0, 0, 0, 0, 0]\nclass = normal.", fillcolor="#e58139ff"] ;
158 -> 162 ;
163 [label="entropy = 0.0\nsamples = 271\nvalue = [396, 0, 0, 0, 0, 0, 0, 0, 0, 0, 0, 0, 0, 0\n0, 0, 0, 0, 0, 0, 0, 0, 0]\nclass = normal.", fillcolor="#e58139ff"] ;
157 -> 163 ;
164 [label="dst_host_same_src_port_rate <= 0.75\nentropy = 0.1\nsamples = 11159\nvalue = [17435.0, 0.0, 0.0, 0.0, 0.0, 0.0, 0.0, 0.0, 0.0, 0.0\n218.3, 0.0, 0.0, 0.0, 0.0, 0.0, 0.0, 0.0, 0.0, 0.0\n0.0, 0.0, 0.0]\nclass = normal.", fillcolor="#e58139fc"] ;
156 -> 164 ;
165 [label="entropy = -0.0\nsamples = 10028\nvalue = [15651, 0, 0, 0, 0, 0, 0, 0, 0, 0, 0, 0, 0, 0\n0, 0, 0, 0, 0, 0, 0, 0, 0]\nclass = normal.", fillcolor="#e58139ff"] ;
164 -> 165 ;
166 [label="dst_host_srv_diff_host_rate <= 0.0\nentropy = 0.5\nsamples = 1131\nvalue = [1784.0, 0.0, 0.0, 0.0, 0.0, 0.0, 0.0, 0.0, 0.0, 0.0\n218.3, 0.0, 0.0, 0.0, 0.0, 0.0, 0.0, 0.0, 0.0, 0.0\n0.0, 0.0, 0.0]\nclass = normal.", fillcolor="#e58139e0"] ;
164 -> 166 ;
167 [label="service <= 32.0\nentropy = 0.04\nsamples = 2\nvalue = [1.0, 0.0, 0.0, 0.0, 0.0, 0.0, 0.0, 0.0, 0.0, 0.0\n218.3, 0.0, 0.0, 0.0, 0.0, 0.0, 0.0, 0.0, 0.0, 0.0\n0.0, 0.0, 0.0]\nclass = ipsweep.", fillcolor="#39e2e5fe"] ;
166 -> 167 ;
168 [label="entropy = 0.0\nsamples = 1\nvalue = [0.0, 0.0, 0.0, 0.0, 0.0, 0.0, 0.0, 0.0, 0.0, 0.0\n218.3, 0.0, 0.0, 0.0, 0.0, 0.0, 0.0, 0.0, 0.0, 0.0\n0.0, 0.0, 0.0]\nclass = ipsweep.", fillcolor="#39e2e5ff"] ;
167 -> 168 ;
169 [label="entropy = 0.0\nsamples = 1\nvalue = [1, 0, 0, 0, 0, 0, 0, 0, 0, 0, 0, 0, 0, 0\n0, 0, 0, 0, 0, 0, 0, 0, 0]\nclass = normal.", fillcolor="#e58139ff"] ;
167 -> 169 ;
170 [label="entropy = 0.0\nsamples = 1129\nvalue = [1783, 0, 0, 0, 0, 0, 0, 0, 0, 0, 0, 0, 0, 0\n0, 0, 0, 0, 0, 0, 0, 0, 0]\nclass = normal.", fillcolor="#e58139ff"] ;
166 -> 170 ;
171 [label="service <= 39.0\nentropy = 0.01\nsamples = 4181\nvalue = [6541.0, 0.0, 0.0, 0.0, 3.36, 0.0, 0.0, 0.0, 0.0, 0.0\n0.0, 0.0, 0.0, 0.0, 0.0, 0.0, 0.0, 0.0, 0.0, 0.0\n0.0, 0.0, 0.0]\nclass = normal.", fillcolor="#e58139ff"] ;
117 -> 171 ;
172 [label="entropy = 0.0\nsamples = 4169\nvalue = [6521, 0, 0, 0, 0, 0, 0, 0, 0, 0, 0, 0, 0, 0\n0, 0, 0, 0, 0, 0, 0, 0, 0]\nclass = normal.", fillcolor="#e58139ff"] ;
171 -> 172 ;
173 [label="dst_host_serror_rate <= 0.5\nentropy = 0.59\nsamples = 12\nvalue = [20.0, 0.0, 0.0, 0.0, 3.36, 0.0, 0.0, 0.0, 0.0, 0.0\n0.0, 0.0, 0.0, 0.0, 0.0, 0.0, 0.0, 0.0, 0.0, 0.0\n0.0, 0.0, 0.0]\nclass = normal.", fillcolor="#e58139d4"] ;
171 -> 173 ;
174 [label="entropy = 0.0\nsamples = 10\nvalue = [19, 0, 0, 0, 0, 0, 0, 0, 0, 0, 0, 0, 0, 0\n0, 0, 0, 0, 0, 0, 0, 0, 0]\nclass = normal.", fillcolor="#e58139ff"] ;
173 -> 174 ;
175 [label="dst_host_srv_diff_host_rate <= 0.01\nentropy = 0.78\nsamples = 2\nvalue = [1.0, 0.0, 0.0, 0.0, 3.36, 0.0, 0.0, 0.0, 0.0, 0.0\n0.0, 0.0, 0.0, 0.0, 0.0, 0.0, 0.0, 0.0, 0.0, 0.0\n0.0, 0.0, 0.0]\nclass = neptune.", fillcolor="#98e539b3"] ;
173 -> 175 ;
176 [label="entropy = 0.0\nsamples = 1\nvalue = [0.0, 0.0, 0.0, 0.0, 3.36, 0.0, 0.0, 0.0, 0.0, 0.0\n0.0, 0.0, 0.0, 0.0, 0.0, 0.0, 0.0, 0.0, 0.0, 0.0\n0.0, 0.0, 0.0]\nclass = neptune.", fillcolor="#98e539ff"] ;
175 -> 176 ;
177 [label="entropy = 0.0\nsamples = 1\nvalue = [1, 0, 0, 0, 0, 0, 0, 0, 0, 0, 0, 0, 0, 0\n0, 0, 0, 0, 0, 0, 0, 0, 0]\nclass = normal.", fillcolor="#e58139ff"] ;
175 -> 177 ;
178 [label="dst_host_srv_count <= 67.5\nentropy = 1.56\nsamples = 2350\nvalue = [3669.0, 0.0, 0.0, 0.0, 0.0, 0.0, 0.0, 0.0, 2660.12\n0.0, 0.0, 0.0, 0.0, 0.0, 0.0, 2428.73, 0.0, 0.0, 0.0\n0.0, 0.0, 0.0, 0.0]\nclass = normal.", fillcolor="#e581392a"] ;
116 -> 178 ;
179 [label="dst_host_srv_count <= 8.5\nentropy = 0.96\nsamples = 1975\nvalue = [3111.0, 0.0, 0.0, 0.0, 0.0, 0.0, 0.0, 0.0, 0.0, 0.0\n0.0, 0.0, 0.0, 0.0, 0.0, 1942.98, 0.0, 0.0, 0.0, 0.0\n0.0, 0.0, 0.0]\nclass = normal.", fillcolor="#e5813960"] ;
178 -> 179 ;
180 [label="dst_host_same_srv_rate <= 0.04\nentropy = 0.67\nsamples = 245\nvalue = [384.0, 0.0, 0.0, 0.0, 0.0, 0.0, 0.0, 0.0, 0.0, 0.0\n0.0, 0.0, 0.0, 0.0, 0.0, 1781.07, 0.0, 0.0, 0.0, 0.0\n0.0, 0.0, 0.0]\nclass = satan.", fillcolor="#6f39e5c8"] ;
179 -> 180 ;
181 [label="dst_host_count <= 158.0\nentropy = 0.07\nsamples = 15\nvalue = [15.0, 0.0, 0.0, 0.0, 0.0, 0.0, 0.0, 0.0, 0.0, 0.0\n0.0, 0.0, 0.0, 0.0, 0.0, 1781.07, 0.0, 0.0, 0.0, 0.0\n0.0, 0.0, 0.0]\nclass = satan.", fillcolor="#6f39e5fd"] ;
180 -> 181 ;
182 [label="entropy = 0.0\nsamples = 3\nvalue = [3, 0, 0, 0, 0, 0, 0, 0, 0, 0, 0, 0, 0, 0\n0, 0, 0, 0, 0, 0, 0, 0, 0]\nclass = normal.", fillcolor="#e58139ff"] ;
181 -> 182 ;
183 [label="dst_host_same_src_port_rate <= 0.02\nentropy = 0.06\nsamples = 12\nvalue = [12.0, 0.0, 0.0, 0.0, 0.0, 0.0, 0.0, 0.0, 0.0, 0.0\n0.0, 0.0, 0.0, 0.0, 0.0, 1781.07, 0.0, 0.0, 0.0, 0.0\n0.0, 0.0, 0.0]\nclass = satan.", fillcolor="#6f39e5fd"] ;
181 -> 183 ;
184 [label="service <= 28.0\nentropy = 0.08\nsamples = 9\nvalue = [11.0, 0.0, 0.0, 0.0, 0.0, 0.0, 0.0, 0.0, 0.0, 0.0\n0.0, 0.0, 0.0, 0.0, 0.0, 1133.41, 0.0, 0.0, 0.0, 0.0\n0.0, 0.0, 0.0]\nclass = satan.", fillcolor="#6f39e5fd"] ;
183 -> 184 ;
185 [label="entropy = 0.0\nsamples = 7\nvalue = [11, 0, 0, 0, 0, 0, 0, 0, 0, 0, 0, 0, 0, 0\n0, 0, 0, 0, 0, 0, 0, 0, 0]\nclass = normal.", fillcolor="#e58139ff"] ;
184 -> 185 ;
186 [label="entropy = 0.0\nsamples = 2\nvalue = [0.0, 0.0, 0.0, 0.0, 0.0, 0.0, 0.0, 0.0, 0.0, 0.0\n0.0, 0.0, 0.0, 0.0, 0.0, 1133.41, 0.0, 0.0, 0.0, 0.0\n0.0, 0.0, 0.0]\nclass = satan.", fillcolor="#6f39e5ff"] ;
184 -> 186 ;
187 [label="dst_host_diff_srv_rate <= 0.02\nentropy = 0.02\nsamples = 3\nvalue = [1.0, 0.0, 0.0, 0.0, 0.0, 0.0, 0.0, 0.0, 0.0, 0.0\n0.0, 0.0, 0.0, 0.0, 0.0, 647.66, 0.0, 0.0, 0.0, 0.0\n0.0, 0.0, 0.0]\nclass = satan.", fillcolor="#6f39e5ff"] ;
183 -> 187 ;
188 [label="entropy = 0.0\nsamples = 2\nvalue = [0.0, 0.0, 0.0, 0.0, 0.0, 0.0, 0.0, 0.0, 0.0, 0.0\n0.0, 0.0, 0.0, 0.0, 0.0, 647.66, 0.0, 0.0, 0.0, 0.0\n0.0, 0.0, 0.0]\nclass = satan.", fillcolor="#6f39e5ff"] ;
187 -> 188 ;
189 [label="entropy = 0.0\nsamples = 1\nvalue = [1, 0, 0, 0, 0, 0, 0, 0, 0, 0, 0, 0, 0, 0\n0, 0, 0, 0, 0, 0, 0, 0, 0]\nclass = normal.", fillcolor="#e58139ff"] ;
187 -> 189 ;
190 [label="entropy = -0.0\nsamples = 230\nvalue = [369, 0, 0, 0, 0, 0, 0, 0, 0, 0, 0, 0, 0, 0\n0, 0, 0, 0, 0, 0, 0, 0, 0]\nclass = normal.", fillcolor="#e58139ff"] ;
180 -> 190 ;
191 [label="service <= 30.5\nentropy = 0.31\nsamples = 1730\nvalue = [2727.0, 0.0, 0.0, 0.0, 0.0, 0.0, 0.0, 0.0, 0.0, 0.0\n0.0, 0.0, 0.0, 0.0, 0.0, 161.92, 0.0, 0.0, 0.0, 0.0\n0.0, 0.0, 0.0]\nclass = normal.", fillcolor="#e58139f0"] ;
179 -> 191 ;
192 [label="entropy = 0.0\nsamples = 1729\nvalue = [2727, 0, 0, 0, 0, 0, 0, 0, 0, 0, 0, 0, 0, 0\n0, 0, 0, 0, 0, 0, 0, 0, 0]\nclass = normal.", fillcolor="#e58139ff"] ;
191 -> 192 ;
193 [label="entropy = -0.0\nsamples = 1\nvalue = [0.0, 0.0, 0.0, 0.0, 0.0, 0.0, 0.0, 0.0, 0.0, 0.0\n0.0, 0.0, 0.0, 0.0, 0.0, 161.92, 0.0, 0.0, 0.0, 0.0\n0.0, 0.0, 0.0]\nclass = satan.", fillcolor="#6f39e5ff"] ;
191 -> 193 ;
194 [label="src_bytes <= 9.0\nentropy = 1.14\nsamples = 375\nvalue = [558.0, 0.0, 0.0, 0.0, 0.0, 0.0, 0.0, 0.0, 2660.12\n0.0, 0.0, 0.0, 0.0, 0.0, 0.0, 485.75, 0.0, 0.0, 0.0\n0.0, 0.0, 0.0, 0.0]\nclass = teardrop.", fillcolor="#39e58faa"] ;
178 -> 194 ;
195 [label="entropy = 0.0\nsamples = 1\nvalue = [0.0, 0.0, 0.0, 0.0, 0.0, 0.0, 0.0, 0.0, 0.0, 0.0\n0.0, 0.0, 0.0, 0.0, 0.0, 485.75, 0.0, 0.0, 0.0, 0.0\n0.0, 0.0, 0.0]\nclass = satan.", fillcolor="#6f39e5ff"] ;
194 -> 195 ;
196 [label="wrong_fragment <= 0.5\nentropy = 0.67\nsamples = 374\nvalue = [558.0, 0.0, 0.0, 0.0, 0.0, 0.0, 0.0, 0.0, 2660.12\n0.0, 0.0, 0.0, 0.0, 0.0, 0.0, 0.0, 0.0, 0.0, 0.0\n0.0, 0.0, 0.0, 0.0]\nclass = teardrop.", fillcolor="#39e58fca"] ;
194 -> 196 ;
197 [label="entropy = 0.0\nsamples = 373\nvalue = [558, 0, 0, 0, 0, 0, 0, 0, 0, 0, 0, 0, 0, 0\n0, 0, 0, 0, 0, 0, 0, 0, 0]\nclass = normal.", fillcolor="#e58139ff"] ;
196 -> 197 ;
198 [label="entropy = 0.0\nsamples = 1\nvalue = [0.0, 0.0, 0.0, 0.0, 0.0, 0.0, 0.0, 0.0, 2660.12, 0.0\n0.0, 0.0, 0.0, 0.0, 0.0, 0.0, 0.0, 0.0, 0.0, 0.0\n0.0, 0.0, 0.0]\nclass = teardrop.", fillcolor="#39e58fff"] ;
196 -> 198 ;
199 [label="dst_host_same_srv_rate <= 0.85\nentropy = 0.44\nsamples = 259\nvalue = [407.0, 0.0, 0.0, 0.0, 0.0, 0.0, 0.0, 0.0, 0.0, 0.0\n218.3, 0.0, 0.0, 0.0, 0.0, 0.0, 0.0, 0.0, 0.0, 0.0\n8188.79, 0.0, 0.0]\nclass = warezclient.", fillcolor="#e53978ec"] ;
115 -> 199 ;
200 [label="dst_host_srv_rerror_rate <= 0.26\nentropy = 0.95\nsamples = 238\nvalue = [381.0, 0.0, 0.0, 0.0, 0.0, 0.0, 0.0, 0.0, 0.0, 0.0\n218.3, 0.0, 0.0, 0.0, 0.0, 0.0, 0.0, 0.0, 0.0, 0.0\n0.0, 0.0, 0.0]\nclass = normal.", fillcolor="#e581396d"] ;
199 -> 200 ;
201 [label="entropy = -0.0\nsamples = 237\nvalue = [381, 0, 0, 0, 0, 0, 0, 0, 0, 0, 0, 0, 0, 0\n0, 0, 0, 0, 0, 0, 0, 0, 0]\nclass = normal.", fillcolor="#e58139ff"] ;
200 -> 201 ;
202 [label="entropy = 0.0\nsamples = 1\nvalue = [0.0, 0.0, 0.0, 0.0, 0.0, 0.0, 0.0, 0.0, 0.0, 0.0\n218.3, 0.0, 0.0, 0.0, 0.0, 0.0, 0.0, 0.0, 0.0, 0.0\n0.0, 0.0, 0.0]\nclass = ipsweep.", fillcolor="#39e2e5ff"] ;
200 -> 202 ;
203 [label="dst_host_srv_diff_host_rate <= 0.06\nentropy = 0.03\nsamples = 21\nvalue = [26.0, 0.0, 0.0, 0.0, 0.0, 0.0, 0.0, 0.0, 0.0, 0.0\n0.0, 0.0, 0.0, 0.0, 0.0, 0.0, 0.0, 0.0, 0.0, 0.0\n8188.79, 0.0, 0.0]\nclass = warezclient.", fillcolor="#e53978fe"] ;
199 -> 203 ;
204 [label="entropy = -0.0\nsamples = 15\nvalue = [26, 0, 0, 0, 0, 0, 0, 0, 0, 0, 0, 0, 0, 0\n0, 0, 0, 0, 0, 0, 0, 0, 0]\nclass = normal.", fillcolor="#e58139ff"] ;
203 -> 204 ;
205 [label="entropy = 0.0\nsamples = 6\nvalue = [0.0, 0.0, 0.0, 0.0, 0.0, 0.0, 0.0, 0.0, 0.0, 0.0\n0.0, 0.0, 0.0, 0.0, 0.0, 0.0, 0.0, 0.0, 0.0, 0.0\n8188.79, 0.0, 0.0]\nclass = warezclient.", fillcolor="#e53978ff"] ;
203 -> 205 ;
206 [label="dst_host_srv_rerror_rate <= 0.0\nentropy = 0.5\nsamples = 2798\nvalue = [4401.0, 0.0, 0.0, 0.0, 0.0, 0.0, 0.0, 0.0, 0.0, 0.0\n6985.68, 0.0, 121922.0, 0.0, 0.0, 0.0, 0.0, 0.0, 0.0\n0.0, 0.0, 0.0, 0.0]\nclass = ftp_write.", fillcolor="#3989e5e8"] ;
114 -> 206 ;
207 [label="srv_count <= 1.5\nentropy = 0.34\nsamples = 2771\nvalue = [4376.0, 0.0, 0.0, 0.0, 0.0, 0.0, 0.0, 0.0, 0.0, 0.0\n2183.03, 0.0, 121922.0, 0.0, 0.0, 0.0, 0.0, 0.0, 0.0\n0.0, 0.0, 0.0, 0.0]\nclass = ftp_write.", fillcolor="#3989e5f2"] ;
206 -> 207 ;
208 [label="dst_host_diff_srv_rate <= 0.0\nentropy = 0.3\nsamples = 2193\nvalue = [3468.0, 0.0, 0.0, 0.0, 0.0, 0.0, 0.0, 0.0, 0.0, 0.0\n2183.03, 0.0, 121922.0, 0.0, 0.0, 0.0, 0.0, 0.0, 0.0\n0.0, 0.0, 0.0, 0.0]\nclass = ftp_write.", fillcolor="#3989e5f3"] ;
207 -> 208 ;
209 [label="dst_host_srv_diff_host_rate <= 0.35\nentropy = 0.01\nsamples = 83\nvalue = [132, 0, 0, 0, 0, 0, 0, 0, 0, 0, 0, 0, 121922\n0, 0, 0, 0, 0, 0, 0, 0, 0, 0]\nclass = ftp_write.", fillcolor="#3989e5ff"] ;
208 -> 209 ;
210 [label="entropy = 0.0\nsamples = 81\nvalue = [131, 0, 0, 0, 0, 0, 0, 0, 0, 0, 0, 0, 0, 0\n0, 0, 0, 0, 0, 0, 0, 0, 0]\nclass = normal.", fillcolor="#e58139ff"] ;
209 -> 210 ;
211 [label="src_bytes <= 7.0\nentropy = 0.0\nsamples = 2\nvalue = [1, 0, 0, 0, 0, 0, 0, 0, 0, 0, 0, 0, 121922\n0, 0, 0, 0, 0, 0, 0, 0, 0, 0]\nclass = ftp_write.", fillcolor="#3989e5ff"] ;
209 -> 211 ;
212 [label="entropy = 0.0\nsamples = 1\nvalue = [0, 0, 0, 0, 0, 0, 0, 0, 0, 0, 0, 0, 121922\n0, 0, 0, 0, 0, 0, 0, 0, 0, 0]\nclass = ftp_write.", fillcolor="#3989e5ff"] ;
211 -> 212 ;
213 [label="entropy = 0.0\nsamples = 1\nvalue = [1, 0, 0, 0, 0, 0, 0, 0, 0, 0, 0, 0, 0, 0\n0, 0, 0, 0, 0, 0, 0, 0, 0]\nclass = normal.", fillcolor="#e58139ff"] ;
211 -> 213 ;
214 [label="src_bytes <= 2.5\nentropy = 0.97\nsamples = 2110\nvalue = [3336.0, 0.0, 0.0, 0.0, 0.0, 0.0, 0.0, 0.0, 0.0, 0.0\n2183.03, 0.0, 0.0, 0.0, 0.0, 0.0, 0.0, 0.0, 0.0, 0.0\n0.0, 0.0, 0.0]\nclass = normal.", fillcolor="#e5813958"] ;
208 -> 214 ;
215 [label="entropy = 0.0\nsamples = 6\nvalue = [0.0, 0.0, 0.0, 0.0, 0.0, 0.0, 0.0, 0.0, 0.0, 0.0\n2183.03, 0.0, 0.0, 0.0, 0.0, 0.0, 0.0, 0.0, 0.0, 0.0\n0.0, 0.0, 0.0]\nclass = ipsweep.", fillcolor="#39e2e5ff"] ;
214 -> 215 ;
216 [label="entropy = 0.0\nsamples = 2104\nvalue = [3336, 0, 0, 0, 0, 0, 0, 0, 0, 0, 0, 0, 0, 0\n0, 0, 0, 0, 0, 0, 0, 0, 0]\nclass = normal.", fillcolor="#e58139ff"] ;
214 -> 216 ;
217 [label="entropy = 0.0\nsamples = 578\nvalue = [908, 0, 0, 0, 0, 0, 0, 0, 0, 0, 0, 0, 0, 0\n0, 0, 0, 0, 0, 0, 0, 0, 0]\nclass = normal.", fillcolor="#e58139ff"] ;
207 -> 217 ;
218 [label="dst_host_rerror_rate <= 0.28\nentropy = 0.05\nsamples = 27\nvalue = [25.0, 0.0, 0.0, 0.0, 0.0, 0.0, 0.0, 0.0, 0.0, 0.0\n4802.66, 0.0, 0.0, 0.0, 0.0, 0.0, 0.0, 0.0, 0.0, 0.0\n0.0, 0.0, 0.0]\nclass = ipsweep.", fillcolor="#39e2e5fe"] ;
206 -> 218 ;
219 [label="entropy = 0.0\nsamples = 11\nvalue = [20, 0, 0, 0, 0, 0, 0, 0, 0, 0, 0, 0, 0, 0\n0, 0, 0, 0, 0, 0, 0, 0, 0]\nclass = normal.", fillcolor="#e58139ff"] ;
218 -> 219 ;
220 [label="dst_host_diff_srv_rate <= 0.5\nentropy = 0.01\nsamples = 16\nvalue = [5.0, 0.0, 0.0, 0.0, 0.0, 0.0, 0.0, 0.0, 0.0, 0.0\n4802.66, 0.0, 0.0, 0.0, 0.0, 0.0, 0.0, 0.0, 0.0, 0.0\n0.0, 0.0, 0.0]\nclass = ipsweep.", fillcolor="#39e2e5ff"] ;
218 -> 220 ;
221 [label="entropy = 0.0\nsamples = 2\nvalue = [5, 0, 0, 0, 0, 0, 0, 0, 0, 0, 0, 0, 0, 0\n0, 0, 0, 0, 0, 0, 0, 0, 0]\nclass = normal.", fillcolor="#e58139ff"] ;
220 -> 221 ;
222 [label="entropy = 0.0\nsamples = 14\nvalue = [0.0, 0.0, 0.0, 0.0, 0.0, 0.0, 0.0, 0.0, 0.0, 0.0\n4802.66, 0.0, 0.0, 0.0, 0.0, 0.0, 0.0, 0.0, 0.0, 0.0\n0.0, 0.0, 0.0]\nclass = ipsweep.", fillcolor="#39e2e5ff"] ;
220 -> 222 ;
223 [label="dst_host_count <= 3.5\nentropy = 0.8\nsamples = 1123\nvalue = [1797.0, 0.0, 0.0, 0.0, 0.0, 0.0, 0.0, 0.0, 0.0, 0.0\n0.0, 0.0, 0.0, 0.0, 0.0, 0.0, 0.0, 0.0, 243844.0\n812813.33, 0.0, 0.0, 0.0]\nclass = warezmaster.", fillcolor="#e539a6b2"] ;
3 -> 223 ;
224 [label="dst_host_srv_rerror_rate <= 0.04\nentropy = 0.0\nsamples = 15\nvalue = [20, 0, 0, 0, 0, 0, 0, 0, 0, 0, 0, 0, 0, 0\n0, 0, 0, 0, 243844, 0, 0, 0, 0]\nclass = multihop.", fillcolor="#e539d4ff"] ;
223 -> 224 ;
225 [label="dst_host_diff_srv_rate <= 0.34\nentropy = 0.0\nsamples = 13\nvalue = [16, 0, 0, 0, 0, 0, 0, 0, 0, 0, 0, 0, 0, 0\n0, 0, 0, 0, 243844, 0, 0, 0, 0]\nclass = multihop.", fillcolor="#e539d4ff"] ;
224 -> 225 ;
226 [label="dst_host_srv_diff_host_rate <= 0.03\nentropy = 0.0\nsamples = 6\nvalue = [8, 0, 0, 0, 0, 0, 0, 0, 0, 0, 0, 0, 0, 0\n0, 0, 0, 0, 243844, 0, 0, 0, 0]\nclass = multihop.", fillcolor="#e539d4ff"] ;
225 -> 226 ;
227 [label="src_bytes <= 3.0\nentropy = 0.0\nsamples = 2\nvalue = [2, 0, 0, 0, 0, 0, 0, 0, 0, 0, 0, 0, 0, 0\n0, 0, 0, 0, 243844, 0, 0, 0, 0]\nclass = multihop.", fillcolor="#e539d4ff"] ;
226 -> 227 ;
228 [label="entropy = 0.0\nsamples = 1\nvalue = [0, 0, 0, 0, 0, 0, 0, 0, 0, 0, 0, 0, 0, 0\n0, 0, 0, 0, 243844, 0, 0, 0, 0]\nclass = multihop.", fillcolor="#e539d4ff"] ;
227 -> 228 ;
229 [label="entropy = 0.0\nsamples = 1\nvalue = [2, 0, 0, 0, 0, 0, 0, 0, 0, 0, 0, 0, 0, 0\n0, 0, 0, 0, 0, 0, 0, 0, 0]\nclass = normal.", fillcolor="#e58139ff"] ;
227 -> 229 ;
230 [label="entropy = 0.0\nsamples = 4\nvalue = [6, 0, 0, 0, 0, 0, 0, 0, 0, 0, 0, 0, 0, 0\n0, 0, 0, 0, 0, 0, 0, 0, 0]\nclass = normal.", fillcolor="#e58139ff"] ;
226 -> 230 ;
231 [label="entropy = 0.0\nsamples = 7\nvalue = [8, 0, 0, 0, 0, 0, 0, 0, 0, 0, 0, 0, 0, 0\n0, 0, 0, 0, 0, 0, 0, 0, 0]\nclass = normal.", fillcolor="#e58139ff"] ;
225 -> 231 ;
232 [label="entropy = 0.0\nsamples = 2\nvalue = [4, 0, 0, 0, 0, 0, 0, 0, 0, 0, 0, 0, 0, 0\n0, 0, 0, 0, 0, 0, 0, 0, 0]\nclass = normal.", fillcolor="#e58139ff"] ;
224 -> 232 ;
233 [label="dst_host_srv_diff_host_rate <= 0.01\nentropy = 0.02\nsamples = 1108\nvalue = [1777.0, 0.0, 0.0, 0.0, 0.0, 0.0, 0.0, 0.0, 0.0, 0.0\n0.0, 0.0, 0.0, 0.0, 0.0, 0.0, 0.0, 0.0, 0.0\n812813.33, 0.0, 0.0, 0.0]\nclass = warezmaster.", fillcolor="#e539a6fe"] ;
223 -> 233 ;
234 [label="dst_host_same_srv_rate <= 0.74\nentropy = 0.01\nsamples = 363\nvalue = [567.0, 0.0, 0.0, 0.0, 0.0, 0.0, 0.0, 0.0, 0.0, 0.0\n0.0, 0.0, 0.0, 0.0, 0.0, 0.0, 0.0, 0.0, 0.0\n812813.33, 0.0, 0.0, 0.0]\nclass = warezmaster.", fillcolor="#e539a6ff"] ;
233 -> 234 ;
235 [label="dst_host_srv_count <= 1.5\nentropy = 0.04\nsamples = 354\nvalue = [565, 0, 0, 0, 0, 0, 0, 0, 0, 0, 0, 0, 0, 0\n0, 0, 0, 0, 0, 121922, 0, 0, 0]\nclass = warezmaster.", fillcolor="#e539a6fe"] ;
234 -> 235 ;
236 [label="dst_host_serror_rate <= 0.2\nentropy = 0.01\nsamples = 41\nvalue = [73, 0, 0, 0, 0, 0, 0, 0, 0, 0, 0, 0, 0, 0\n0, 0, 0, 0, 0, 121922, 0, 0, 0]\nclass = warezmaster.", fillcolor="#e539a6ff"] ;
235 -> 236 ;
237 [label="entropy = 0.0\nsamples = 40\nvalue = [73, 0, 0, 0, 0, 0, 0, 0, 0, 0, 0, 0, 0, 0\n0, 0, 0, 0, 0, 0, 0, 0, 0]\nclass = normal.", fillcolor="#e58139ff"] ;
236 -> 237 ;
238 [label="entropy = 0.0\nsamples = 1\nvalue = [0, 0, 0, 0, 0, 0, 0, 0, 0, 0, 0, 0, 0, 0\n0, 0, 0, 0, 0, 121922, 0, 0, 0]\nclass = warezmaster.", fillcolor="#e539a6ff"] ;
236 -> 238 ;
239 [label="entropy = 0.0\nsamples = 313\nvalue = [492, 0, 0, 0, 0, 0, 0, 0, 0, 0, 0, 0, 0, 0\n0, 0, 0, 0, 0, 0, 0, 0, 0]\nclass = normal.", fillcolor="#e58139ff"] ;
235 -> 239 ;
240 [label="dst_bytes <= 2583526.5\nentropy = 0.0\nsamples = 9\nvalue = [2.0, 0.0, 0.0, 0.0, 0.0, 0.0, 0.0, 0.0, 0.0, 0.0\n0.0, 0.0, 0.0, 0.0, 0.0, 0.0, 0.0, 0.0, 0.0\n690891.33, 0.0, 0.0, 0.0]\nclass = warezmaster.", fillcolor="#e539a6ff"] ;
234 -> 240 ;
241 [label="entropy = 0.0\nsamples = 1\nvalue = [2, 0, 0, 0, 0, 0, 0, 0, 0, 0, 0, 0, 0, 0\n0, 0, 0, 0, 0, 0, 0, 0, 0]\nclass = normal.", fillcolor="#e58139ff"] ;
240 -> 241 ;
242 [label="entropy = 0.0\nsamples = 8\nvalue = [0.0, 0.0, 0.0, 0.0, 0.0, 0.0, 0.0, 0.0, 0.0, 0.0\n0.0, 0.0, 0.0, 0.0, 0.0, 0.0, 0.0, 0.0, 0.0\n690891.33, 0.0, 0.0, 0.0]\nclass = warezmaster.", fillcolor="#e539a6ff"] ;
240 -> 242 ;
243 [label="entropy = 0.0\nsamples = 745\nvalue = [1210, 0, 0, 0, 0, 0, 0, 0, 0, 0, 0, 0, 0, 0\n0, 0, 0, 0, 0, 0, 0, 0, 0]\nclass = normal.", fillcolor="#e58139ff"] ;
233 -> 243 ;
244 [label="land <= 0.5\nentropy = 0.91\nsamples = 248\nvalue = [82.0, 0.0, 0.0, 0.0, 208.11, 0.0, 0.0, 0.0, 0.0\n1368.63, 0.0, 772172.67, 0.0, 0.0, 60961.0, 0.0, 0.0\n125584.89, 0.0, 0.0, 0.0, 0.0, 0.0]\nclass = land.", fillcolor="#39b4e5c6"] ;
2 -> 244 ;
245 [label="srv_serror_rate <= 0.88\nentropy = 0.98\nsamples = 235\nvalue = [77.0, 0.0, 0.0, 0.0, 208.11, 0.0, 0.0, 0.0, 0.0\n1368.63, 0.0, 0.0, 0.0, 0.0, 60961.0, 0.0, 0.0\n125584.89, 0.0, 0.0, 0.0, 0.0, 0.0]\nclass = nmap.", fillcolor="#cb39e582"] ;
244 -> 245 ;
246 [label="srv_count <= 61.5\nentropy = 0.01\nsamples = 38\nvalue = [55, 0, 0, 0, 0, 0, 0, 0, 0, 0, 0, 0, 0, 0\n60961, 0, 0, 0, 0, 0, 0, 0, 0]\nclass = imap.", fillcolor="#4439e5ff"] ;
245 -> 246 ;
247 [label="entropy = 0.0\nsamples = 37\nvalue = [55, 0, 0, 0, 0, 0, 0, 0, 0, 0, 0, 0, 0, 0\n0, 0, 0, 0, 0, 0, 0, 0, 0]\nclass = normal.", fillcolor="#e58139ff"] ;
246 -> 247 ;
248 [label="entropy = 0.0\nsamples = 1\nvalue = [0, 0, 0, 0, 0, 0, 0, 0, 0, 0, 0, 0, 0, 0\n60961, 0, 0, 0, 0, 0, 0, 0, 0]\nclass = imap.", fillcolor="#4439e5ff"] ;
246 -> 248 ;
249 [label="hot <= 0.5\nentropy = 0.11\nsamples = 197\nvalue = [22.0, 0.0, 0.0, 0.0, 208.11, 0.0, 0.0, 0.0, 0.0\n1368.63, 0.0, 0.0, 0.0, 0.0, 0.0, 0.0, 0.0, 125584.89\n0.0, 0.0, 0.0, 0.0, 0.0]\nclass = nmap.", fillcolor="#cb39e5fc"] ;
245 -> 249 ;
250 [label="flag <= 8.5\nentropy = 0.11\nsamples = 194\nvalue = [18.0, 0.0, 0.0, 0.0, 208.11, 0.0, 0.0, 0.0, 0.0\n1368.63, 0.0, 0.0, 0.0, 0.0, 0.0, 0.0, 0.0, 125584.89\n0.0, 0.0, 0.0, 0.0, 0.0]\nclass = nmap.", fillcolor="#cb39e5fc"] ;
249 -> 250 ;
251 [label="dst_host_diff_srv_rate <= 0.75\nentropy = 0.65\nsamples = 57\nvalue = [18.0, 0.0, 0.0, 0.0, 208.11, 0.0, 0.0, 0.0, 0.0\n1368.63, 0.0, 0.0, 0.0, 0.0, 0.0, 0.0, 0.0, 0.0, 0.0\n0.0, 0.0, 0.0, 0.0]\nclass = portsweep.", fillcolor="#39e5bad5"] ;
250 -> 251 ;
252 [label="service <= 39.5\nentropy = 1.2\nsamples = 53\nvalue = [18.0, 0.0, 0.0, 0.0, 208.11, 0.0, 0.0, 0.0, 0.0\n228.1, 0.0, 0.0, 0.0, 0.0, 0.0, 0.0, 0.0, 0.0, 0.0\n0.0, 0.0, 0.0, 0.0]\nclass = portsweep.", fillcolor="#39e5ba15"] ;
251 -> 252 ;
253 [label="dst_host_count <= 125.0\nentropy = 0.34\nsamples = 20\nvalue = [5.0, 0.0, 0.0, 0.0, 73.85, 0.0, 0.0, 0.0, 0.0, 0.0\n0.0, 0.0, 0.0, 0.0, 0.0, 0.0, 0.0, 0.0, 0.0, 0.0\n0.0, 0.0, 0.0]\nclass = neptune.", fillcolor="#98e539ee"] ;
252 -> 253 ;
254 [label="src_bytes <= 3.5\nentropy = 0.97\nsamples = 4\nvalue = [5.0, 0.0, 0.0, 0.0, 3.36, 0.0, 0.0, 0.0, 0.0, 0.0\n0.0, 0.0, 0.0, 0.0, 0.0, 0.0, 0.0, 0.0, 0.0, 0.0\n0.0, 0.0, 0.0]\nclass = normal.", fillcolor="#e5813954"] ;
253 -> 254 ;
255 [label="entropy = 0.0\nsamples = 1\nvalue = [0.0, 0.0, 0.0, 0.0, 3.36, 0.0, 0.0, 0.0, 0.0, 0.0\n0.0, 0.0, 0.0, 0.0, 0.0, 0.0, 0.0, 0.0, 0.0, 0.0\n0.0, 0.0, 0.0]\nclass = neptune.", fillcolor="#98e539ff"] ;
254 -> 255 ;
256 [label="entropy = 0.0\nsamples = 3\nvalue = [5, 0, 0, 0, 0, 0, 0, 0, 0, 0, 0, 0, 0, 0\n0, 0, 0, 0, 0, 0, 0, 0, 0]\nclass = normal.", fillcolor="#e58139ff"] ;
254 -> 256 ;
257 [label="entropy = 0.0\nsamples = 16\nvalue = [0.0, 0.0, 0.0, 0.0, 70.49, 0.0, 0.0, 0.0, 0.0, 0.0\n0.0, 0.0, 0.0, 0.0, 0.0, 0.0, 0.0, 0.0, 0.0, 0.0\n0.0, 0.0, 0.0]\nclass = neptune.", fillcolor="#98e539ff"] ;
253 -> 257 ;
258 [label="src_dst_bytes_diff <= 2.5\nentropy = 1.14\nsamples = 33\nvalue = [13.0, 0.0, 0.0, 0.0, 134.27, 0.0, 0.0, 0.0, 0.0\n228.1, 0.0, 0.0, 0.0, 0.0, 0.0, 0.0, 0.0, 0.0, 0.0\n0.0, 0.0, 0.0, 0.0]\nclass = portsweep.", fillcolor="#39e5ba63"] ;
252 -> 258 ;
259 [label="dst_host_srv_serror_rate <= 0.99\nentropy = 1.13\nsamples = 32\nvalue = [12.0, 0.0, 0.0, 0.0, 134.27, 0.0, 0.0, 0.0, 0.0\n228.1, 0.0, 0.0, 0.0, 0.0, 0.0, 0.0, 0.0, 0.0, 0.0\n0.0, 0.0, 0.0, 0.0]\nclass = portsweep.", fillcolor="#39e5ba64"] ;
258 -> 259 ;
260 [label="dst_host_srv_diff_host_rate <= 0.05\nentropy = 0.56\nsamples = 7\nvalue = [4.0, 0.0, 0.0, 0.0, 26.85, 0.0, 0.0, 0.0, 0.0, 0.0\n0.0, 0.0, 0.0, 0.0, 0.0, 0.0, 0.0, 0.0, 0.0, 0.0\n0.0, 0.0, 0.0]\nclass = neptune.", fillcolor="#98e539d9"] ;
259 -> 260 ;
261 [label="dst_host_srv_serror_rate <= 0.83\nentropy = 0.65\nsamples = 6\nvalue = [4.0, 0.0, 0.0, 0.0, 20.14, 0.0, 0.0, 0.0, 0.0, 0.0\n0.0, 0.0, 0.0, 0.0, 0.0, 0.0, 0.0, 0.0, 0.0, 0.0\n0.0, 0.0, 0.0]\nclass = neptune.", fillcolor="#98e539cc"] ;
260 -> 261 ;
262 [label="dst_host_diff_srv_rate <= 0.09\nentropy = 0.99\nsamples = 3\nvalue = [4.0, 0.0, 0.0, 0.0, 3.36, 0.0, 0.0, 0.0, 0.0, 0.0\n0.0, 0.0, 0.0, 0.0, 0.0, 0.0, 0.0, 0.0, 0.0, 0.0\n0.0, 0.0, 0.0]\nclass = normal.", fillcolor="#e5813929"] ;
261 -> 262 ;
263 [label="entropy = 0.0\nsamples = 1\nvalue = [0.0, 0.0, 0.0, 0.0, 3.36, 0.0, 0.0, 0.0, 0.0, 0.0\n0.0, 0.0, 0.0, 0.0, 0.0, 0.0, 0.0, 0.0, 0.0, 0.0\n0.0, 0.0, 0.0]\nclass = neptune.", fillcolor="#98e539ff"] ;
262 -> 263 ;
264 [label="entropy = 0.0\nsamples = 2\nvalue = [4, 0, 0, 0, 0, 0, 0, 0, 0, 0, 0, 0, 0, 0\n0, 0, 0, 0, 0, 0, 0, 0, 0]\nclass = normal.", fillcolor="#e58139ff"] ;
262 -> 264 ;
265 [label="entropy = 0.0\nsamples = 3\nvalue = [0.0, 0.0, 0.0, 0.0, 16.78, 0.0, 0.0, 0.0, 0.0, 0.0\n0.0, 0.0, 0.0, 0.0, 0.0, 0.0, 0.0, 0.0, 0.0, 0.0\n0.0, 0.0, 0.0]\nclass = neptune.", fillcolor="#98e539ff"] ;
261 -> 265 ;
266 [label="entropy = 0.0\nsamples = 1\nvalue = [0.0, 0.0, 0.0, 0.0, 6.71, 0.0, 0.0, 0.0, 0.0, 0.0\n0.0, 0.0, 0.0, 0.0, 0.0, 0.0, 0.0, 0.0, 0.0, 0.0\n0.0, 0.0, 0.0]\nclass = neptune.", fillcolor="#98e539ff"] ;
260 -> 266 ;
267 [label="dst_host_serror_rate <= 0.0\nentropy = 1.04\nsamples = 25\nvalue = [8.0, 0.0, 0.0, 0.0, 107.41, 0.0, 0.0, 0.0, 0.0\n228.1, 0.0, 0.0, 0.0, 0.0, 0.0, 0.0, 0.0, 0.0, 0.0\n0.0, 0.0, 0.0, 0.0]\nclass = portsweep.", fillcolor="#39e5ba82"] ;
259 -> 267 ;
268 [label="entropy = 0.0\nsamples = 1\nvalue = [0.0, 0.0, 0.0, 0.0, 0.0, 0.0, 0.0, 0.0, 0.0, 228.1\n0.0, 0.0, 0.0, 0.0, 0.0, 0.0, 0.0, 0.0, 0.0, 0.0\n0.0, 0.0, 0.0]\nclass = portsweep.", fillcolor="#39e5baff"] ;
267 -> 268 ;
269 [label="flag <= 5.5\nentropy = 0.36\nsamples = 24\nvalue = [8.0, 0.0, 0.0, 0.0, 107.41, 0.0, 0.0, 0.0, 0.0, 0.0\n0.0, 0.0, 0.0, 0.0, 0.0, 0.0, 0.0, 0.0, 0.0, 0.0\n0.0, 0.0, 0.0]\nclass = neptune.", fillcolor="#98e539ec"] ;
267 -> 269 ;
270 [label="entropy = 0.0\nsamples = 19\nvalue = [0.0, 0.0, 0.0, 0.0, 107.41, 0.0, 0.0, 0.0, 0.0, 0.0\n0.0, 0.0, 0.0, 0.0, 0.0, 0.0, 0.0, 0.0, 0.0, 0.0\n0.0, 0.0, 0.0]\nclass = neptune.", fillcolor="#98e539ff"] ;
269 -> 270 ;
271 [label="entropy = 0.0\nsamples = 5\nvalue = [8, 0, 0, 0, 0, 0, 0, 0, 0, 0, 0, 0, 0, 0\n0, 0, 0, 0, 0, 0, 0, 0, 0]\nclass = normal.", fillcolor="#e58139ff"] ;
269 -> 271 ;
272 [label="entropy = 0.0\nsamples = 1\nvalue = [1, 0, 0, 0, 0, 0, 0, 0, 0, 0, 0, 0, 0, 0\n0, 0, 0, 0, 0, 0, 0, 0, 0]\nclass = normal.", fillcolor="#e58139ff"] ;
258 -> 272 ;
273 [label="entropy = 0.0\nsamples = 4\nvalue = [0.0, 0.0, 0.0, 0.0, 0.0, 0.0, 0.0, 0.0, 0.0, 1140.52\n0.0, 0.0, 0.0, 0.0, 0.0, 0.0, 0.0, 0.0, 0.0, 0.0\n0.0, 0.0, 0.0]\nclass = portsweep.", fillcolor="#39e5baff"] ;
251 -> 273 ;
274 [label="entropy = -0.0\nsamples = 137\nvalue = [0.0, 0.0, 0.0, 0.0, 0.0, 0.0, 0.0, 0.0, 0.0, 0.0\n0.0, 0.0, 0.0, 0.0, 0.0, 0.0, 0.0, 125584.89, 0.0\n0.0, 0.0, 0.0, 0.0]\nclass = nmap.", fillcolor="#cb39e5ff"] ;
250 -> 274 ;
275 [label="entropy = 0.0\nsamples = 3\nvalue = [4, 0, 0, 0, 0, 0, 0, 0, 0, 0, 0, 0, 0, 0\n0, 0, 0, 0, 0, 0, 0, 0, 0]\nclass = normal.", fillcolor="#e58139ff"] ;
249 -> 275 ;
276 [label="dst_host_diff_srv_rate <= 0.09\nentropy = 0.0\nsamples = 13\nvalue = [5.0, 0.0, 0.0, 0.0, 0.0, 0.0, 0.0, 0.0, 0.0, 0.0\n0.0, 772172.67, 0.0, 0.0, 0.0, 0.0, 0.0, 0.0, 0.0\n0.0, 0.0, 0.0, 0.0]\nclass = land.", fillcolor="#39b4e5ff"] ;
244 -> 276 ;
277 [label="srv_count <= 1.5\nentropy = 0.0\nsamples = 12\nvalue = [5.0, 0.0, 0.0, 0.0, 0.0, 0.0, 0.0, 0.0, 0.0, 0.0\n0.0, 731532.0, 0.0, 0.0, 0.0, 0.0, 0.0, 0.0, 0.0\n0.0, 0.0, 0.0, 0.0]\nclass = land.", fillcolor="#39b4e5ff"] ;
276 -> 277 ;
278 [label="entropy = 0.0\nsamples = 4\nvalue = [0.0, 0.0, 0.0, 0.0, 0.0, 0.0, 0.0, 0.0, 0.0, 0.0\n0.0, 284484.67, 0.0, 0.0, 0.0, 0.0, 0.0, 0.0, 0.0\n0.0, 0.0, 0.0, 0.0]\nclass = land.", fillcolor="#39b4e5ff"] ;
277 -> 278 ;
279 [label="dst_host_srv_diff_host_rate <= 0.5\nentropy = 0.0\nsamples = 8\nvalue = [5.0, 0.0, 0.0, 0.0, 0.0, 0.0, 0.0, 0.0, 0.0, 0.0\n0.0, 447047.33, 0.0, 0.0, 0.0, 0.0, 0.0, 0.0, 0.0\n0.0, 0.0, 0.0, 0.0]\nclass = land.", fillcolor="#39b4e5ff"] ;
277 -> 279 ;
280 [label="entropy = 0.0\nsamples = 1\nvalue = [0.0, 0.0, 0.0, 0.0, 0.0, 0.0, 0.0, 0.0, 0.0, 0.0\n0.0, 81281.33, 0.0, 0.0, 0.0, 0.0, 0.0, 0.0, 0.0\n0.0, 0.0, 0.0, 0.0]\nclass = land.", fillcolor="#39b4e5ff"] ;
279 -> 280 ;
281 [label="dst_host_srv_serror_rate <= 0.91\nentropy = 0.0\nsamples = 7\nvalue = [5, 0, 0, 0, 0, 0, 0, 0, 0, 0, 0, 365766, 0\n0, 0, 0, 0, 0, 0, 0, 0, 0, 0]\nclass = land.", fillcolor="#39b4e5ff"] ;
279 -> 281 ;
282 [label="entropy = 0.0\nsamples = 2\nvalue = [0, 0, 0, 0, 0, 0, 0, 0, 0, 0, 0, 243844, 0\n0, 0, 0, 0, 0, 0, 0, 0, 0, 0]\nclass = land.", fillcolor="#39b4e5ff"] ;
281 -> 282 ;
283 [label="dst_host_srv_count <= 4.0\nentropy = 0.0\nsamples = 5\nvalue = [5, 0, 0, 0, 0, 0, 0, 0, 0, 0, 0, 121922, 0\n0, 0, 0, 0, 0, 0, 0, 0, 0, 0]\nclass = land.", fillcolor="#39b4e5ff"] ;
281 -> 283 ;
284 [label="dst_host_srv_count <= 2.5\nentropy = 0.0\nsamples = 3\nvalue = [3.0, 0.0, 0.0, 0.0, 0.0, 0.0, 0.0, 0.0, 0.0, 0.0\n0.0, 40640.67, 0.0, 0.0, 0.0, 0.0, 0.0, 0.0, 0.0\n0.0, 0.0, 0.0, 0.0]\nclass = land.", fillcolor="#39b4e5ff"] ;
283 -> 284 ;
285 [label="entropy = 0.0\nsamples = 2\nvalue = [1.0, 0.0, 0.0, 0.0, 0.0, 0.0, 0.0, 0.0, 0.0, 0.0\n0.0, 40640.67, 0.0, 0.0, 0.0, 0.0, 0.0, 0.0, 0.0\n0.0, 0.0, 0.0, 0.0]\nclass = land.", fillcolor="#39b4e5ff"] ;
284 -> 285 ;
286 [label="entropy = 0.0\nsamples = 1\nvalue = [2, 0, 0, 0, 0, 0, 0, 0, 0, 0, 0, 0, 0, 0\n0, 0, 0, 0, 0, 0, 0, 0, 0]\nclass = normal.", fillcolor="#e58139ff"] ;
284 -> 286 ;
287 [label="entropy = 0.0\nsamples = 2\nvalue = [2.0, 0.0, 0.0, 0.0, 0.0, 0.0, 0.0, 0.0, 0.0, 0.0\n0.0, 81281.33, 0.0, 0.0, 0.0, 0.0, 0.0, 0.0, 0.0\n0.0, 0.0, 0.0, 0.0]\nclass = land.", fillcolor="#39b4e5ff"] ;
283 -> 287 ;
288 [label="entropy = 0.0\nsamples = 1\nvalue = [0.0, 0.0, 0.0, 0.0, 0.0, 0.0, 0.0, 0.0, 0.0, 0.0\n0.0, 40640.67, 0.0, 0.0, 0.0, 0.0, 0.0, 0.0, 0.0\n0.0, 0.0, 0.0, 0.0]\nclass = land.", fillcolor="#39b4e5ff"] ;
276 -> 288 ;
289 [label="src_bytes <= 2.5\nentropy = 2.85\nsamples = 114925\nvalue = [6356.0, 135468.89, 162562.67, 0.0, 568224.16, 0.0, 0.0\n0.0, 565718.08, 393936.94, 2837.93, 0.0, 0.0, 0.0\n304805.0, 571236.14, 0.0, 7325.79, 0.0, 0.0, 0.0, 0.0\n162562.67]\nclass = satan.", fillcolor="#6f39e500"] ;
1 -> 289 ;
290 [label="srv_count <= 3.5\nentropy = 2.43\nsamples = 111354\nvalue = [1359.0, 135468.89, 162562.67, 0.0, 568224.16, 0.0, 0.0\n0.0, 0.0, 393936.94, 0.0, 0.0, 0.0, 0.0, 304805.0\n558768.69, 0.0, 4709.43, 0.0, 0.0, 0.0, 0.0, 0.0]\nclass = neptune.", fillcolor="#98e53902"] ;
289 -> 290 ;
291 [label="dst_host_rerror_rate <= 0.0\nentropy = 2.1\nsamples = 19087\nvalue = [811.0, 135468.89, 162562.67, 0.0, 83392.67, 0.0, 0.0\n0.0, 0.0, 393936.94, 0.0, 0.0, 0.0, 0.0, 0.0\n442675.63, 0.0, 4709.43, 0.0, 0.0, 0.0, 0.0, 0.0]\nclass = satan.", fillcolor="#6f39e50f"] ;
290 -> 291 ;
292 [label="dst_host_count <= 4.5\nentropy = 1.83\nsamples = 13470\nvalue = [178.0, 135468.89, 162562.67, 0.0, 69898.93, 0.0, 0.0\n0.0, 0.0, 228.1, 0.0, 0.0, 0.0, 0.0, 0.0, 23639.59\n0.0, 4709.43, 0.0, 0.0, 0.0, 0.0, 0.0]\nclass = loadmodule.", fillcolor="#e5da391a"] ;
291 -> 292 ;
293 [label="dst_host_serror_rate <= 0.12\nentropy = 1.0\nsamples = 35\nvalue = [33.0, 135468.89, 162562.67, 0.0, 36.92, 0.0, 0.0, 0.0\n0.0, 0.0, 0.0, 0.0, 0.0, 0.0, 0.0, 0.0, 0.0, 0.0\n0.0, 0.0, 0.0, 0.0, 0.0]\nclass = loadmodule.", fillcolor="#e5da392a"] ;
292 -> 293 ;
294 [label="same_srv_rate <= 0.88\nentropy = 0.99\nsamples = 5\nvalue = [0.0, 135468.89, 162562.67, 0.0, 0.0, 0.0, 0.0, 0.0\n0.0, 0.0, 0.0, 0.0, 0.0, 0.0, 0.0, 0.0, 0.0, 0.0\n0.0, 0.0, 0.0, 0.0, 0.0]\nclass = loadmodule.", fillcolor="#e5da392b"] ;
293 -> 294 ;
295 [label="entropy = 0.0\nsamples = 2\nvalue = [0.0, 0.0, 162562.67, 0.0, 0.0, 0.0, 0.0, 0.0, 0.0\n0.0, 0.0, 0.0, 0.0, 0.0, 0.0, 0.0, 0.0, 0.0, 0.0\n0.0, 0.0, 0.0, 0.0]\nclass = loadmodule.", fillcolor="#e5da39ff"] ;
294 -> 295 ;
296 [label="entropy = 0.0\nsamples = 3\nvalue = [0.0, 135468.89, 0.0, 0.0, 0.0, 0.0, 0.0, 0.0, 0.0\n0.0, 0.0, 0.0, 0.0, 0.0, 0.0, 0.0, 0.0, 0.0, 0.0\n0.0, 0.0, 0.0, 0.0]\nclass = buffer_overflow.", fillcolor="#e5ac39ff"] ;
294 -> 296 ;
297 [label="dst_host_srv_count <= 8.0\nentropy = 1.0\nsamples = 30\nvalue = [33.0, 0.0, 0.0, 0.0, 36.92, 0.0, 0.0, 0.0, 0.0, 0.0\n0.0, 0.0, 0.0, 0.0, 0.0, 0.0, 0.0, 0.0, 0.0, 0.0\n0.0, 0.0, 0.0]\nclass = neptune.", fillcolor="#98e5391b"] ;
293 -> 297 ;
298 [label="entropy = 0.0\nsamples = 6\nvalue = [0.0, 0.0, 0.0, 0.0, 36.92, 0.0, 0.0, 0.0, 0.0, 0.0\n0.0, 0.0, 0.0, 0.0, 0.0, 0.0, 0.0, 0.0, 0.0, 0.0\n0.0, 0.0, 0.0]\nclass = neptune.", fillcolor="#98e539ff"] ;
297 -> 298 ;
299 [label="entropy = 0.0\nsamples = 24\nvalue = [33, 0, 0, 0, 0, 0, 0, 0, 0, 0, 0, 0, 0, 0\n0, 0, 0, 0, 0, 0, 0, 0, 0]\nclass = normal.", fillcolor="#e58139ff"] ;
297 -> 299 ;
300 [label="protocol_type <= 1.5\nentropy = 1.09\nsamples = 13435\nvalue = [145.0, 0.0, 0.0, 0.0, 69862.0, 0.0, 0.0, 0.0, 0.0\n228.1, 0.0, 0.0, 0.0, 0.0, 0.0, 23639.59, 0.0, 4709.43\n0.0, 0.0, 0.0, 0.0, 0.0]\nclass = neptune.", fillcolor="#98e5399d"] ;
292 -> 300 ;
301 [label="dst_host_serror_rate <= 0.66\nentropy = 0.39\nsamples = 13336\nvalue = [139.0, 0.0, 0.0, 0.0, 69862.0, 0.0, 0.0, 0.0, 0.0\n228.1, 0.0, 0.0, 0.0, 0.0, 0.0, 0.0, 0.0, 4709.43\n0.0, 0.0, 0.0, 0.0, 0.0]\nclass = neptune.", fillcolor="#98e539ed"] ;
300 -> 301 ;
302 [label="rerror_rate <= 0.1\nentropy = 0.5\nsamples = 96\nvalue = [137.0, 0.0, 0.0, 0.0, 10.07, 0.0, 0.0, 0.0, 0.0\n228.1, 0.0, 0.0, 0.0, 0.0, 0.0, 0.0, 0.0, 4186.16\n0.0, 0.0, 0.0, 0.0, 0.0]\nclass = nmap.", fillcolor="#cb39e5e9"] ;
301 -> 302 ;
303 [label="dst_host_diff_srv_rate <= 0.63\nentropy = 0.22\nsamples = 89\nvalue = [128.0, 0.0, 0.0, 0.0, 10.07, 0.0, 0.0, 0.0, 0.0, 0.0\n0.0, 0.0, 0.0, 0.0, 0.0, 0.0, 0.0, 4186.16, 0.0, 0.0\n0.0, 0.0, 0.0]\nclass = nmap.", fillcolor="#cb39e5f7"] ;
302 -> 303 ;
304 [label="dst_host_serror_rate <= 0.4\nentropy = 0.38\nsamples = 83\nvalue = [126.0, 0.0, 0.0, 0.0, 10.07, 0.0, 0.0, 0.0, 0.0, 0.0\n0.0, 0.0, 0.0, 0.0, 0.0, 0.0, 0.0, 0.0, 0.0, 0.0\n0.0, 0.0, 0.0]\nclass = normal.", fillcolor="#e58139eb"] ;
303 -> 304 ;
305 [label="entropy = 0.0\nsamples = 82\nvalue = [126, 0, 0, 0, 0, 0, 0, 0, 0, 0, 0, 0, 0, 0\n0, 0, 0, 0, 0, 0, 0, 0, 0]\nclass = normal.", fillcolor="#e58139ff"] ;
304 -> 305 ;
306 [label="entropy = -0.0\nsamples = 1\nvalue = [0.0, 0.0, 0.0, 0.0, 10.07, 0.0, 0.0, 0.0, 0.0, 0.0\n0.0, 0.0, 0.0, 0.0, 0.0, 0.0, 0.0, 0.0, 0.0, 0.0\n0.0, 0.0, 0.0]\nclass = neptune.", fillcolor="#98e539ff"] ;
304 -> 306 ;
307 [label="count <= 2.5\nentropy = 0.01\nsamples = 6\nvalue = [2.0, 0.0, 0.0, 0.0, 0.0, 0.0, 0.0, 0.0, 0.0, 0.0\n0.0, 0.0, 0.0, 0.0, 0.0, 0.0, 0.0, 4186.16, 0.0, 0.0\n0.0, 0.0, 0.0]\nclass = nmap.", fillcolor="#cb39e5ff"] ;
303 -> 307 ;
308 [label="serror_rate <= 0.75\nentropy = 0.01\nsamples = 4\nvalue = [2.0, 0.0, 0.0, 0.0, 0.0, 0.0, 0.0, 0.0, 0.0, 0.0\n0.0, 0.0, 0.0, 0.0, 0.0, 0.0, 0.0, 2616.35, 0.0, 0.0\n0.0, 0.0, 0.0]\nclass = nmap.", fillcolor="#cb39e5ff"] ;
307 -> 308 ;
309 [label="entropy = 0.0\nsamples = 1\nvalue = [2, 0, 0, 0, 0, 0, 0, 0, 0, 0, 0, 0, 0, 0\n0, 0, 0, 0, 0, 0, 0, 0, 0]\nclass = normal.", fillcolor="#e58139ff"] ;
308 -> 309 ;
310 [label="entropy = 0.0\nsamples = 3\nvalue = [0.0, 0.0, 0.0, 0.0, 0.0, 0.0, 0.0, 0.0, 0.0, 0.0\n0.0, 0.0, 0.0, 0.0, 0.0, 0.0, 0.0, 2616.35, 0.0, 0.0\n0.0, 0.0, 0.0]\nclass = nmap.", fillcolor="#cb39e5ff"] ;
308 -> 310 ;
311 [label="entropy = 0.0\nsamples = 2\nvalue = [0.0, 0.0, 0.0, 0.0, 0.0, 0.0, 0.0, 0.0, 0.0, 0.0\n0.0, 0.0, 0.0, 0.0, 0.0, 0.0, 0.0, 1569.81, 0.0, 0.0\n0.0, 0.0, 0.0]\nclass = nmap.", fillcolor="#cb39e5ff"] ;
307 -> 311 ;
312 [label="diff_srv_rate <= 0.55\nentropy = 0.23\nsamples = 7\nvalue = [9.0, 0.0, 0.0, 0.0, 0.0, 0.0, 0.0, 0.0, 0.0, 228.1\n0.0, 0.0, 0.0, 0.0, 0.0, 0.0, 0.0, 0.0, 0.0, 0.0\n0.0, 0.0, 0.0]\nclass = portsweep.", fillcolor="#39e5baf5"] ;
302 -> 312 ;
313 [label="entropy = 0.0\nsamples = 4\nvalue = [7, 0, 0, 0, 0, 0, 0, 0, 0, 0, 0, 0, 0, 0\n0, 0, 0, 0, 0, 0, 0, 0, 0]\nclass = normal.", fillcolor="#e58139ff"] ;
312 -> 313 ;
314 [label="srv_rerror_rate <= 0.5\nentropy = 0.07\nsamples = 3\nvalue = [2.0, 0.0, 0.0, 0.0, 0.0, 0.0, 0.0, 0.0, 0.0, 228.1\n0.0, 0.0, 0.0, 0.0, 0.0, 0.0, 0.0, 0.0, 0.0, 0.0\n0.0, 0.0, 0.0]\nclass = portsweep.", fillcolor="#39e5bafd"] ;
312 -> 314 ;
315 [label="entropy = 0.0\nsamples = 1\nvalue = [0.0, 0.0, 0.0, 0.0, 0.0, 0.0, 0.0, 0.0, 0.0, 228.1\n0.0, 0.0, 0.0, 0.0, 0.0, 0.0, 0.0, 0.0, 0.0, 0.0\n0.0, 0.0, 0.0]\nclass = portsweep.", fillcolor="#39e5baff"] ;
314 -> 315 ;
316 [label="entropy = 0.0\nsamples = 2\nvalue = [2, 0, 0, 0, 0, 0, 0, 0, 0, 0, 0, 0, 0, 0\n0, 0, 0, 0, 0, 0, 0, 0, 0]\nclass = normal.", fillcolor="#e58139ff"] ;
314 -> 316 ;
317 [label="flag <= 7.5\nentropy = 0.06\nsamples = 13240\nvalue = [2.0, 0.0, 0.0, 0.0, 69851.93, 0.0, 0.0, 0.0, 0.0\n0.0, 0.0, 0.0, 0.0, 0.0, 0.0, 0.0, 0.0, 523.27, 0.0\n0.0, 0.0, 0.0, 0.0]\nclass = neptune.", fillcolor="#98e539fd"] ;
301 -> 317 ;
318 [label="dst_host_same_srv_rate <= 0.78\nentropy = 0.0\nsamples = 13239\nvalue = [2.0, 0.0, 0.0, 0.0, 69851.93, 0.0, 0.0, 0.0, 0.0\n0.0, 0.0, 0.0, 0.0, 0.0, 0.0, 0.0, 0.0, 0.0, 0.0\n0.0, 0.0, 0.0, 0.0]\nclass = neptune.", fillcolor="#98e539ff"] ;
317 -> 318 ;
319 [label="entropy = 0.0\nsamples = 13238\nvalue = [0.0, 0.0, 0.0, 0.0, 69851.93, 0.0, 0.0, 0.0, 0.0\n0.0, 0.0, 0.0, 0.0, 0.0, 0.0, 0.0, 0.0, 0.0, 0.0\n0.0, 0.0, 0.0, 0.0]\nclass = neptune.", fillcolor="#98e539ff"] ;
318 -> 319 ;
320 [label="entropy = 0.0\nsamples = 1\nvalue = [2, 0, 0, 0, 0, 0, 0, 0, 0, 0, 0, 0, 0, 0\n0, 0, 0, 0, 0, 0, 0, 0, 0]\nclass = normal.", fillcolor="#e58139ff"] ;
318 -> 320 ;
321 [label="entropy = 0.0\nsamples = 1\nvalue = [0.0, 0.0, 0.0, 0.0, 0.0, 0.0, 0.0, 0.0, 0.0, 0.0\n0.0, 0.0, 0.0, 0.0, 0.0, 0.0, 0.0, 523.27, 0.0, 0.0\n0.0, 0.0, 0.0]\nclass = nmap.", fillcolor="#cb39e5ff"] ;
317 -> 321 ;
322 [label="same_srv_rate <= 0.08\nentropy = 0.0\nsamples = 99\nvalue = [6.0, 0.0, 0.0, 0.0, 0.0, 0.0, 0.0, 0.0, 0.0, 0.0\n0.0, 0.0, 0.0, 0.0, 0.0, 23639.59, 0.0, 0.0, 0.0\n0.0, 0.0, 0.0, 0.0]\nclass = satan.", fillcolor="#6f39e5ff"] ;
300 -> 322 ;
323 [label="dst_host_same_src_port_rate <= 0.52\nentropy = 0.01\nsamples = 41\nvalue = [6.0, 0.0, 0.0, 0.0, 0.0, 0.0, 0.0, 0.0, 0.0, 0.0\n0.0, 0.0, 0.0, 0.0, 0.0, 9229.16, 0.0, 0.0, 0.0, 0.0\n0.0, 0.0, 0.0]\nclass = satan.", fillcolor="#6f39e5ff"] ;
322 -> 323 ;
324 [label="entropy = 0.0\nsamples = 3\nvalue = [6, 0, 0, 0, 0, 0, 0, 0, 0, 0, 0, 0, 0, 0\n0, 0, 0, 0, 0, 0, 0, 0, 0]\nclass = normal.", fillcolor="#e58139ff"] ;
323 -> 324 ;
325 [label="entropy = 0.0\nsamples = 38\nvalue = [0.0, 0.0, 0.0, 0.0, 0.0, 0.0, 0.0, 0.0, 0.0, 0.0\n0.0, 0.0, 0.0, 0.0, 0.0, 9229.16, 0.0, 0.0, 0.0, 0.0\n0.0, 0.0, 0.0]\nclass = satan.", fillcolor="#6f39e5ff"] ;
323 -> 325 ;
326 [label="entropy = 0.0\nsamples = 58\nvalue = [0.0, 0.0, 0.0, 0.0, 0.0, 0.0, 0.0, 0.0, 0.0, 0.0\n0.0, 0.0, 0.0, 0.0, 0.0, 14410.44, 0.0, 0.0, 0.0\n0.0, 0.0, 0.0, 0.0]\nclass = satan.", fillcolor="#6f39e5ff"] ;
322 -> 326 ;
327 [label="diff_srv_rate <= 0.61\nentropy = 1.11\nsamples = 5617\nvalue = [633.0, 0.0, 0.0, 0.0, 13493.74, 0.0, 0.0, 0.0, 0.0\n393708.83, 0.0, 0.0, 0.0, 0.0, 0.0, 419036.04, 0.0\n0.0, 0.0, 0.0, 0.0, 0.0, 0.0]\nclass = satan.", fillcolor="#6f39e50f"] ;
291 -> 327 ;
328 [label="dst_host_srv_serror_rate <= 0.04\nentropy = 0.76\nsamples = 3990\nvalue = [629.0, 0.0, 0.0, 0.0, 13493.74, 0.0, 0.0, 0.0, 0.0\n329155.18, 0.0, 0.0, 0.0, 0.0, 0.0, 46955.35, 0.0, 0.0\n0.0, 0.0, 0.0, 0.0, 0.0]\nclass = portsweep.", fillcolor="#39e5bad2"] ;
327 -> 328 ;
329 [label="duration <= 0.5\nentropy = 0.82\nsamples = 3857\nvalue = [623.0, 0.0, 0.0, 0.0, 13433.32, 0.0, 0.0, 0.0, 0.0\n287640.12, 0.0, 0.0, 0.0, 0.0, 0.0, 46955.35, 0.0, 0.0\n0.0, 0.0, 0.0, 0.0, 0.0]\nclass = portsweep.", fillcolor="#39e5bacb"] ;
328 -> 329 ;
330 [label="protocol_type <= 1.5\nentropy = 1.44\nsamples = 3216\nvalue = [623.0, 0.0, 0.0, 0.0, 13433.32, 0.0, 0.0, 0.0, 0.0\n55885.67, 0.0, 0.0, 0.0, 0.0, 0.0, 46955.35, 0.0, 0.0\n0.0, 0.0, 0.0, 0.0, 0.0]\nclass = portsweep.", fillcolor="#39e5ba21"] ;
329 -> 330 ;
331 [label="dst_host_same_srv_rate <= 0.0\nentropy = 0.83\nsamples = 3046\nvalue = [623.0, 0.0, 0.0, 0.0, 13433.32, 0.0, 0.0, 0.0, 0.0\n55885.67, 0.0, 0.0, 0.0, 0.0, 0.0, 485.75, 0.0, 0.0\n0.0, 0.0, 0.0, 0.0, 0.0]\nclass = portsweep.", fillcolor="#39e5babe"] ;
330 -> 331 ;
332 [label="srv_diff_host_rate <= 0.5\nentropy = 0.39\nsamples = 971\nvalue = [0.0, 0.0, 0.0, 0.0, 4420.71, 0.0, 0.0, 0.0, 0.0\n53832.73, 0.0, 0.0, 0.0, 0.0, 0.0, 0.0, 0.0, 0.0\n0.0, 0.0, 0.0, 0.0, 0.0]\nclass = portsweep.", fillcolor="#39e5baea"] ;
331 -> 332 ;
333 [label="diff_srv_rate <= 0.09\nentropy = 0.39\nsamples = 970\nvalue = [0.0, 0.0, 0.0, 0.0, 4414.0, 0.0, 0.0, 0.0, 0.0\n53832.73, 0.0, 0.0, 0.0, 0.0, 0.0, 0.0, 0.0, 0.0\n0.0, 0.0, 0.0, 0.0, 0.0]\nclass = portsweep.", fillcolor="#39e5baea"] ;
332 -> 333 ;
334 [label="dst_host_same_src_port_rate <= 0.5\nentropy = 0.29\nsamples = 807\nvalue = [0.0, 0.0, 0.0, 0.0, 4346.86, 0.0, 0.0, 0.0, 0.0\n228.1, 0.0, 0.0, 0.0, 0.0, 0.0, 0.0, 0.0, 0.0, 0.0\n0.0, 0.0, 0.0, 0.0]\nclass = neptune.", fillcolor="#98e539f2"] ;
333 -> 334 ;
335 [label="entropy = 0.0\nsamples = 806\nvalue = [0.0, 0.0, 0.0, 0.0, 4346.86, 0.0, 0.0, 0.0, 0.0, 0.0\n0.0, 0.0, 0.0, 0.0, 0.0, 0.0, 0.0, 0.0, 0.0, 0.0\n0.0, 0.0, 0.0]\nclass = neptune.", fillcolor="#98e539ff"] ;
334 -> 335 ;
336 [label="entropy = 0.0\nsamples = 1\nvalue = [0.0, 0.0, 0.0, 0.0, 0.0, 0.0, 0.0, 0.0, 0.0, 228.1\n0.0, 0.0, 0.0, 0.0, 0.0, 0.0, 0.0, 0.0, 0.0, 0.0\n0.0, 0.0, 0.0]\nclass = portsweep.", fillcolor="#39e5baff"] ;
334 -> 336 ;
337 [label="diff_srv_rate <= 0.11\nentropy = 0.01\nsamples = 163\nvalue = [0.0, 0.0, 0.0, 0.0, 67.13, 0.0, 0.0, 0.0, 0.0\n53604.62, 0.0, 0.0, 0.0, 0.0, 0.0, 0.0, 0.0, 0.0\n0.0, 0.0, 0.0, 0.0, 0.0]\nclass = portsweep.", fillcolor="#39e5baff"] ;
333 -> 337 ;
338 [label="rerror_rate <= 0.52\nentropy = 0.76\nsamples = 14\nvalue = [0.0, 0.0, 0.0, 0.0, 63.78, 0.0, 0.0, 0.0, 0.0, 228.1\n0.0, 0.0, 0.0, 0.0, 0.0, 0.0, 0.0, 0.0, 0.0, 0.0\n0.0, 0.0, 0.0]\nclass = portsweep.", fillcolor="#39e5bab8"] ;
337 -> 338 ;
339 [label="entropy = 0.0\nsamples = 1\nvalue = [0.0, 0.0, 0.0, 0.0, 0.0, 0.0, 0.0, 0.0, 0.0, 228.1\n0.0, 0.0, 0.0, 0.0, 0.0, 0.0, 0.0, 0.0, 0.0, 0.0\n0.0, 0.0, 0.0]\nclass = portsweep.", fillcolor="#39e5baff"] ;
338 -> 339 ;
340 [label="entropy = 0.0\nsamples = 13\nvalue = [0.0, 0.0, 0.0, 0.0, 63.78, 0.0, 0.0, 0.0, 0.0, 0.0\n0.0, 0.0, 0.0, 0.0, 0.0, 0.0, 0.0, 0.0, 0.0, 0.0\n0.0, 0.0, 0.0]\nclass = neptune.", fillcolor="#98e539ff"] ;
338 -> 340 ;
341 [label="diff_srv_rate <= 0.5\nentropy = 0.0\nsamples = 149\nvalue = [0.0, 0.0, 0.0, 0.0, 3.36, 0.0, 0.0, 0.0, 0.0\n53376.52, 0.0, 0.0, 0.0, 0.0, 0.0, 0.0, 0.0, 0.0\n0.0, 0.0, 0.0, 0.0, 0.0]\nclass = portsweep.", fillcolor="#39e5baff"] ;
337 -> 341 ;
342 [label="rerror_rate <= 0.62\nentropy = 0.06\nsamples = 3\nvalue = [0.0, 0.0, 0.0, 0.0, 3.36, 0.0, 0.0, 0.0, 0.0, 456.21\n0.0, 0.0, 0.0, 0.0, 0.0, 0.0, 0.0, 0.0, 0.0, 0.0\n0.0, 0.0, 0.0]\nclass = portsweep.", fillcolor="#39e5bafd"] ;
341 -> 342 ;
343 [label="entropy = 0.0\nsamples = 2\nvalue = [0.0, 0.0, 0.0, 0.0, 0.0, 0.0, 0.0, 0.0, 0.0, 456.21\n0.0, 0.0, 0.0, 0.0, 0.0, 0.0, 0.0, 0.0, 0.0, 0.0\n0.0, 0.0, 0.0]\nclass = portsweep.", fillcolor="#39e5baff"] ;
342 -> 343 ;
344 [label="entropy = -0.0\nsamples = 1\nvalue = [0.0, 0.0, 0.0, 0.0, 3.36, 0.0, 0.0, 0.0, 0.0, 0.0\n0.0, 0.0, 0.0, 0.0, 0.0, 0.0, 0.0, 0.0, 0.0, 0.0\n0.0, 0.0, 0.0]\nclass = neptune.", fillcolor="#98e539ff"] ;
342 -> 344 ;
345 [label="entropy = 0.0\nsamples = 146\nvalue = [0.0, 0.0, 0.0, 0.0, 0.0, 0.0, 0.0, 0.0, 0.0\n52920.31, 0.0, 0.0, 0.0, 0.0, 0.0, 0.0, 0.0, 0.0\n0.0, 0.0, 0.0, 0.0, 0.0]\nclass = portsweep.", fillcolor="#39e5baff"] ;
341 -> 345 ;
346 [label="entropy = 0.0\nsamples = 1\nvalue = [0.0, 0.0, 0.0, 0.0, 6.71, 0.0, 0.0, 0.0, 0.0, 0.0\n0.0, 0.0, 0.0, 0.0, 0.0, 0.0, 0.0, 0.0, 0.0, 0.0\n0.0, 0.0, 0.0]\nclass = neptune.", fillcolor="#98e539ff"] ;
332 -> 346 ;
347 [label="dst_host_same_src_port_rate <= 0.0\nentropy = 1.16\nsamples = 2075\nvalue = [623.0, 0.0, 0.0, 0.0, 9012.61, 0.0, 0.0, 0.0, 0.0\n2052.94, 0.0, 0.0, 0.0, 0.0, 0.0, 485.75, 0.0, 0.0\n0.0, 0.0, 0.0, 0.0, 0.0]\nclass = neptune.", fillcolor="#98e539af"] ;
331 -> 347 ;
348 [label="rerror_rate <= 0.87\nentropy = 0.02\nsamples = 1672\nvalue = [18.0, 0.0, 0.0, 0.0, 8925.34, 0.0, 0.0, 0.0, 0.0\n0.0, 0.0, 0.0, 0.0, 0.0, 0.0, 0.0, 0.0, 0.0, 0.0\n0.0, 0.0, 0.0, 0.0]\nclass = neptune.", fillcolor="#98e539fe"] ;
347 -> 348 ;
349 [label="entropy = 0.0\nsamples = 6\nvalue = [8, 0, 0, 0, 0, 0, 0, 0, 0, 0, 0, 0, 0, 0\n0, 0, 0, 0, 0, 0, 0, 0, 0]\nclass = normal.", fillcolor="#e58139ff"] ;
348 -> 349 ;
350 [label="dst_host_same_srv_rate <= 0.41\nentropy = 0.01\nsamples = 1666\nvalue = [10.0, 0.0, 0.0, 0.0, 8925.34, 0.0, 0.0, 0.0, 0.0\n0.0, 0.0, 0.0, 0.0, 0.0, 0.0, 0.0, 0.0, 0.0, 0.0\n0.0, 0.0, 0.0, 0.0]\nclass = neptune.", fillcolor="#98e539ff"] ;
348 -> 350 ;
351 [label="entropy = -0.0\nsamples = 1660\nvalue = [0.0, 0.0, 0.0, 0.0, 8925.34, 0.0, 0.0, 0.0, 0.0, 0.0\n0.0, 0.0, 0.0, 0.0, 0.0, 0.0, 0.0, 0.0, 0.0, 0.0\n0.0, 0.0, 0.0]\nclass = neptune.", fillcolor="#98e539ff"] ;
350 -> 351 ;
352 [label="entropy = 0.0\nsamples = 6\nvalue = [10, 0, 0, 0, 0, 0, 0, 0, 0, 0, 0, 0, 0, 0\n0, 0, 0, 0, 0, 0, 0, 0, 0]\nclass = normal.", fillcolor="#e58139ff"] ;
350 -> 352 ;
353 [label="diff_srv_rate <= 0.51\nentropy = 1.42\nsamples = 403\nvalue = [605.0, 0.0, 0.0, 0.0, 87.27, 0.0, 0.0, 0.0, 0.0\n2052.94, 0.0, 0.0, 0.0, 0.0, 0.0, 485.75, 0.0, 0.0\n0.0, 0.0, 0.0, 0.0, 0.0]\nclass = portsweep.", fillcolor="#39e5ba8d"] ;
347 -> 353 ;
354 [label="dst_host_srv_count <= 4.0\nentropy = 1.28\nsamples = 394\nvalue = [605.0, 0.0, 0.0, 0.0, 87.27, 0.0, 0.0, 0.0, 0.0, 0.0\n0.0, 0.0, 0.0, 0.0, 0.0, 323.83, 0.0, 0.0, 0.0, 0.0\n0.0, 0.0, 0.0]\nclass = normal.", fillcolor="#e5813968"] ;
353 -> 354 ;
355 [label="count <= 52.0\nentropy = 0.86\nsamples = 24\nvalue = [7.0, 0.0, 0.0, 0.0, 87.27, 0.0, 0.0, 0.0, 0.0, 0.0\n0.0, 0.0, 0.0, 0.0, 0.0, 323.83, 0.0, 0.0, 0.0, 0.0\n0.0, 0.0, 0.0]\nclass = satan.", fillcolor="#6f39e5b6"] ;
354 -> 355 ;
356 [label="rerror_rate <= 0.38\nentropy = 0.15\nsamples = 5\nvalue = [7.0, 0.0, 0.0, 0.0, 0.0, 0.0, 0.0, 0.0, 0.0, 0.0\n0.0, 0.0, 0.0, 0.0, 0.0, 323.83, 0.0, 0.0, 0.0, 0.0\n0.0, 0.0, 0.0]\nclass = satan.", fillcolor="#6f39e5f9"] ;
355 -> 356 ;
357 [label="entropy = 0.0\nsamples = 1\nvalue = [0.0, 0.0, 0.0, 0.0, 0.0, 0.0, 0.0, 0.0, 0.0, 0.0\n0.0, 0.0, 0.0, 0.0, 0.0, 323.83, 0.0, 0.0, 0.0, 0.0\n0.0, 0.0, 0.0]\nclass = satan.", fillcolor="#6f39e5ff"] ;
356 -> 357 ;
358 [label="entropy = 0.0\nsamples = 4\nvalue = [7, 0, 0, 0, 0, 0, 0, 0, 0, 0, 0, 0, 0, 0\n0, 0, 0, 0, 0, 0, 0, 0, 0]\nclass = normal.", fillcolor="#e58139ff"] ;
356 -> 358 ;
359 [label="entropy = 0.0\nsamples = 19\nvalue = [0.0, 0.0, 0.0, 0.0, 87.27, 0.0, 0.0, 0.0, 0.0, 0.0\n0.0, 0.0, 0.0, 0.0, 0.0, 0.0, 0.0, 0.0, 0.0, 0.0\n0.0, 0.0, 0.0]\nclass = neptune.", fillcolor="#98e539ff"] ;
355 -> 359 ;
360 [label="entropy = 0.0\nsamples = 370\nvalue = [598, 0, 0, 0, 0, 0, 0, 0, 0, 0, 0, 0, 0, 0\n0, 0, 0, 0, 0, 0, 0, 0, 0]\nclass = normal.", fillcolor="#e58139ff"] ;
354 -> 360 ;
361 [label="same_srv_rate <= 0.16\nentropy = 0.38\nsamples = 9\nvalue = [0.0, 0.0, 0.0, 0.0, 0.0, 0.0, 0.0, 0.0, 0.0, 2052.94\n0.0, 0.0, 0.0, 0.0, 0.0, 161.92, 0.0, 0.0, 0.0, 0.0\n0.0, 0.0, 0.0]\nclass = portsweep.", fillcolor="#39e5baeb"] ;
353 -> 361 ;
362 [label="entropy = 0.0\nsamples = 8\nvalue = [0.0, 0.0, 0.0, 0.0, 0.0, 0.0, 0.0, 0.0, 0.0, 2052.94\n0.0, 0.0, 0.0, 0.0, 0.0, 0.0, 0.0, 0.0, 0.0, 0.0\n0.0, 0.0, 0.0]\nclass = portsweep.", fillcolor="#39e5baff"] ;
361 -> 362 ;
363 [label="entropy = -0.0\nsamples = 1\nvalue = [0.0, 0.0, 0.0, 0.0, 0.0, 0.0, 0.0, 0.0, 0.0, 0.0\n0.0, 0.0, 0.0, 0.0, 0.0, 161.92, 0.0, 0.0, 0.0, 0.0\n0.0, 0.0, 0.0]\nclass = satan.", fillcolor="#6f39e5ff"] ;
361 -> 363 ;
364 [label="entropy = -0.0\nsamples = 170\nvalue = [0.0, 0.0, 0.0, 0.0, 0.0, 0.0, 0.0, 0.0, 0.0, 0.0\n0.0, 0.0, 0.0, 0.0, 0.0, 46469.61, 0.0, 0.0, 0.0\n0.0, 0.0, 0.0, 0.0]\nclass = satan.", fillcolor="#6f39e5ff"] ;
330 -> 364 ;
365 [label="entropy = -0.0\nsamples = 641\nvalue = [0.0, 0.0, 0.0, 0.0, 0.0, 0.0, 0.0, 0.0, 0.0\n231754.45, 0.0, 0.0, 0.0, 0.0, 0.0, 0.0, 0.0, 0.0\n0.0, 0.0, 0.0, 0.0, 0.0]\nclass = portsweep.", fillcolor="#39e5baff"] ;
329 -> 365 ;
366 [label="serror_rate <= 0.9\nentropy = 0.02\nsamples = 133\nvalue = [6.0, 0.0, 0.0, 0.0, 60.42, 0.0, 0.0, 0.0, 0.0\n41515.07, 0.0, 0.0, 0.0, 0.0, 0.0, 0.0, 0.0, 0.0\n0.0, 0.0, 0.0, 0.0, 0.0]\nclass = portsweep.", fillcolor="#39e5baff"] ;
328 -> 366 ;
367 [label="diff_srv_rate <= 0.18\nentropy = 0.0\nsamples = 121\nvalue = [3.0, 0.0, 0.0, 0.0, 0.0, 0.0, 0.0, 0.0, 0.0\n41515.07, 0.0, 0.0, 0.0, 0.0, 0.0, 0.0, 0.0, 0.0\n0.0, 0.0, 0.0, 0.0, 0.0]\nclass = portsweep.", fillcolor="#39e5baff"] ;
366 -> 367 ;
368 [label="entropy = 0.0\nsamples = 2\nvalue = [3, 0, 0, 0, 0, 0, 0, 0, 0, 0, 0, 0, 0, 0\n0, 0, 0, 0, 0, 0, 0, 0, 0]\nclass = normal.", fillcolor="#e58139ff"] ;
367 -> 368 ;
369 [label="entropy = 0.0\nsamples = 119\nvalue = [0.0, 0.0, 0.0, 0.0, 0.0, 0.0, 0.0, 0.0, 0.0\n41515.07, 0.0, 0.0, 0.0, 0.0, 0.0, 0.0, 0.0, 0.0\n0.0, 0.0, 0.0, 0.0, 0.0]\nclass = portsweep.", fillcolor="#39e5baff"] ;
367 -> 369 ;
370 [label="dst_host_srv_serror_rate <= 0.55\nentropy = 0.27\nsamples = 12\nvalue = [3.0, 0.0, 0.0, 0.0, 60.42, 0.0, 0.0, 0.0, 0.0, 0.0\n0.0, 0.0, 0.0, 0.0, 0.0, 0.0, 0.0, 0.0, 0.0, 0.0\n0.0, 0.0, 0.0]\nclass = neptune.", fillcolor="#98e539f2"] ;
366 -> 370 ;
371 [label="entropy = 0.0\nsamples = 1\nvalue = [3, 0, 0, 0, 0, 0, 0, 0, 0, 0, 0, 0, 0, 0\n0, 0, 0, 0, 0, 0, 0, 0, 0]\nclass = normal.", fillcolor="#e58139ff"] ;
370 -> 371 ;
372 [label="entropy = 0.0\nsamples = 11\nvalue = [0.0, 0.0, 0.0, 0.0, 60.42, 0.0, 0.0, 0.0, 0.0, 0.0\n0.0, 0.0, 0.0, 0.0, 0.0, 0.0, 0.0, 0.0, 0.0, 0.0\n0.0, 0.0, 0.0]\nclass = neptune.", fillcolor="#98e539ff"] ;
370 -> 372 ;
373 [label="same_srv_rate <= 0.29\nentropy = 0.6\nsamples = 1627\nvalue = [4.0, 0.0, 0.0, 0.0, 0.0, 0.0, 0.0, 0.0, 0.0\n64553.65, 0.0, 0.0, 0.0, 0.0, 0.0, 372080.69, 0.0, 0.0\n0.0, 0.0, 0.0, 0.0, 0.0]\nclass = satan.", fillcolor="#6f39e5d3"] ;
327 -> 373 ;
374 [label="dst_host_diff_srv_rate <= 0.06\nentropy = 0.01\nsamples = 1441\nvalue = [0.0, 0.0, 0.0, 0.0, 0.0, 0.0, 0.0, 0.0, 0.0, 228.1\n0.0, 0.0, 0.0, 0.0, 0.0, 370623.45, 0.0, 0.0, 0.0\n0.0, 0.0, 0.0, 0.0]\nclass = satan.", fillcolor="#6f39e5ff"] ;
373 -> 374 ;
375 [label="diff_srv_rate <= 0.63\nentropy = 0.54\nsamples = 8\nvalue = [0.0, 0.0, 0.0, 0.0, 0.0, 0.0, 0.0, 0.0, 0.0, 228.1\n0.0, 0.0, 0.0, 0.0, 0.0, 1619.15, 0.0, 0.0, 0.0, 0.0\n0.0, 0.0, 0.0]\nclass = satan.", fillcolor="#6f39e5db"] ;
374 -> 375 ;
376 [label="entropy = 0.0\nsamples = 1\nvalue = [0.0, 0.0, 0.0, 0.0, 0.0, 0.0, 0.0, 0.0, 0.0, 228.1\n0.0, 0.0, 0.0, 0.0, 0.0, 0.0, 0.0, 0.0, 0.0, 0.0\n0.0, 0.0, 0.0]\nclass = portsweep.", fillcolor="#39e5baff"] ;
375 -> 376 ;
377 [label="entropy = 0.0\nsamples = 7\nvalue = [0.0, 0.0, 0.0, 0.0, 0.0, 0.0, 0.0, 0.0, 0.0, 0.0\n0.0, 0.0, 0.0, 0.0, 0.0, 1619.15, 0.0, 0.0, 0.0, 0.0\n0.0, 0.0, 0.0]\nclass = satan.", fillcolor="#6f39e5ff"] ;
375 -> 377 ;
378 [label="entropy = 0.0\nsamples = 1433\nvalue = [0.0, 0.0, 0.0, 0.0, 0.0, 0.0, 0.0, 0.0, 0.0, 0.0\n0.0, 0.0, 0.0, 0.0, 0.0, 369004.3, 0.0, 0.0, 0.0\n0.0, 0.0, 0.0, 0.0]\nclass = satan.", fillcolor="#6f39e5ff"] ;
374 -> 378 ;
379 [label="protocol_type <= 1.5\nentropy = 0.15\nsamples = 186\nvalue = [4.0, 0.0, 0.0, 0.0, 0.0, 0.0, 0.0, 0.0, 0.0\n64325.55, 0.0, 0.0, 0.0, 0.0, 0.0, 1457.24, 0.0, 0.0\n0.0, 0.0, 0.0, 0.0, 0.0]\nclass = portsweep.", fillcolor="#39e5baf9"] ;
373 -> 379 ;
380 [label="count <= 2.5\nentropy = 0.11\nsamples = 185\nvalue = [4.0, 0.0, 0.0, 0.0, 0.0, 0.0, 0.0, 0.0, 0.0\n64325.55, 0.0, 0.0, 0.0, 0.0, 0.0, 971.49, 0.0, 0.0\n0.0, 0.0, 0.0, 0.0, 0.0]\nclass = portsweep.", fillcolor="#39e5bafb"] ;
379 -> 380 ;
381 [label="dst_host_rerror_rate <= 0.11\nentropy = 0.07\nsamples = 176\nvalue = [3.0, 0.0, 0.0, 0.0, 0.0, 0.0, 0.0, 0.0, 0.0\n62500.71, 0.0, 0.0, 0.0, 0.0, 0.0, 485.75, 0.0, 0.0\n0.0, 0.0, 0.0, 0.0, 0.0]\nclass = portsweep.", fillcolor="#39e5bafd"] ;
380 -> 381 ;
382 [label="flag <= 1.5\nentropy = 0.28\nsamples = 26\nvalue = [2.0, 0.0, 0.0, 0.0, 0.0, 0.0, 0.0, 0.0, 0.0, 9580.4\n0.0, 0.0, 0.0, 0.0, 0.0, 485.75, 0.0, 0.0, 0.0, 0.0\n0.0, 0.0, 0.0]\nclass = portsweep.", fillcolor="#39e5baf2"] ;
381 -> 382 ;
383 [label="dst_host_same_src_port_rate <= 0.0\nentropy = 0.29\nsamples = 25\nvalue = [2.0, 0.0, 0.0, 0.0, 0.0, 0.0, 0.0, 0.0, 0.0, 9124.19\n0.0, 0.0, 0.0, 0.0, 0.0, 485.75, 0.0, 0.0, 0.0, 0.0\n0.0, 0.0, 0.0]\nclass = portsweep.", fillcolor="#39e5baf1"] ;
382 -> 383 ;
384 [label="dst_host_diff_srv_rate <= 0.21\nentropy = 0.9\nsamples = 3\nvalue = [0.0, 0.0, 0.0, 0.0, 0.0, 0.0, 0.0, 0.0, 0.0, 228.1\n0.0, 0.0, 0.0, 0.0, 0.0, 485.75, 0.0, 0.0, 0.0, 0.0\n0.0, 0.0, 0.0]\nclass = satan.", fillcolor="#6f39e587"] ;
383 -> 384 ;
385 [label="dst_host_serror_rate <= 0.26\nentropy = 0.98\nsamples = 2\nvalue = [0.0, 0.0, 0.0, 0.0, 0.0, 0.0, 0.0, 0.0, 0.0, 228.1\n0.0, 0.0, 0.0, 0.0, 0.0, 161.92, 0.0, 0.0, 0.0, 0.0\n0.0, 0.0, 0.0]\nclass = portsweep.", fillcolor="#39e5ba4a"] ;
384 -> 385 ;
386 [label="entropy = 0.0\nsamples = 1\nvalue = [0.0, 0.0, 0.0, 0.0, 0.0, 0.0, 0.0, 0.0, 0.0, 0.0\n0.0, 0.0, 0.0, 0.0, 0.0, 161.92, 0.0, 0.0, 0.0, 0.0\n0.0, 0.0, 0.0]\nclass = satan.", fillcolor="#6f39e5ff"] ;
385 -> 386 ;
387 [label="entropy = 0.0\nsamples = 1\nvalue = [0.0, 0.0, 0.0, 0.0, 0.0, 0.0, 0.0, 0.0, 0.0, 228.1\n0.0, 0.0, 0.0, 0.0, 0.0, 0.0, 0.0, 0.0, 0.0, 0.0\n0.0, 0.0, 0.0]\nclass = portsweep.", fillcolor="#39e5baff"] ;
385 -> 387 ;
388 [label="entropy = 0.0\nsamples = 1\nvalue = [0.0, 0.0, 0.0, 0.0, 0.0, 0.0, 0.0, 0.0, 0.0, 0.0\n0.0, 0.0, 0.0, 0.0, 0.0, 323.83, 0.0, 0.0, 0.0, 0.0\n0.0, 0.0, 0.0]\nclass = satan.", fillcolor="#6f39e5ff"] ;
384 -> 388 ;
389 [label="dst_host_diff_srv_rate <= 0.04\nentropy = 0.0\nsamples = 22\nvalue = [2.0, 0.0, 0.0, 0.0, 0.0, 0.0, 0.0, 0.0, 0.0, 8896.09\n0.0, 0.0, 0.0, 0.0, 0.0, 0.0, 0.0, 0.0, 0.0, 0.0\n0.0, 0.0, 0.0]\nclass = portsweep.", fillcolor="#39e5baff"] ;
383 -> 389 ;
390 [label="entropy = 0.0\nsamples = 1\nvalue = [2, 0, 0, 0, 0, 0, 0, 0, 0, 0, 0, 0, 0, 0\n0, 0, 0, 0, 0, 0, 0, 0, 0]\nclass = normal.", fillcolor="#e58139ff"] ;
389 -> 390 ;
391 [label="entropy = 0.0\nsamples = 21\nvalue = [0.0, 0.0, 0.0, 0.0, 0.0, 0.0, 0.0, 0.0, 0.0, 8896.09\n0.0, 0.0, 0.0, 0.0, 0.0, 0.0, 0.0, 0.0, 0.0, 0.0\n0.0, 0.0, 0.0]\nclass = portsweep.", fillcolor="#39e5baff"] ;
389 -> 391 ;
392 [label="entropy = 0.0\nsamples = 1\nvalue = [0.0, 0.0, 0.0, 0.0, 0.0, 0.0, 0.0, 0.0, 0.0, 456.21\n0.0, 0.0, 0.0, 0.0, 0.0, 0.0, 0.0, 0.0, 0.0, 0.0\n0.0, 0.0, 0.0]\nclass = portsweep.", fillcolor="#39e5baff"] ;
382 -> 392 ;
393 [label="dst_host_same_srv_rate <= 0.46\nentropy = 0.0\nsamples = 150\nvalue = [1.0, 0.0, 0.0, 0.0, 0.0, 0.0, 0.0, 0.0, 0.0\n52920.31, 0.0, 0.0, 0.0, 0.0, 0.0, 0.0, 0.0, 0.0\n0.0, 0.0, 0.0, 0.0, 0.0]\nclass = portsweep.", fillcolor="#39e5baff"] ;
381 -> 393 ;
394 [label="entropy = 0.0\nsamples = 149\nvalue = [0.0, 0.0, 0.0, 0.0, 0.0, 0.0, 0.0, 0.0, 0.0\n52920.31, 0.0, 0.0, 0.0, 0.0, 0.0, 0.0, 0.0, 0.0\n0.0, 0.0, 0.0, 0.0, 0.0]\nclass = portsweep.", fillcolor="#39e5baff"] ;
393 -> 394 ;
395 [label="entropy = 0.0\nsamples = 1\nvalue = [1, 0, 0, 0, 0, 0, 0, 0, 0, 0, 0, 0, 0, 0\n0, 0, 0, 0, 0, 0, 0, 0, 0]\nclass = normal.", fillcolor="#e58139ff"] ;
393 -> 395 ;
396 [label="rerror_rate <= 0.5\nentropy = 0.75\nsamples = 9\nvalue = [1.0, 0.0, 0.0, 0.0, 0.0, 0.0, 0.0, 0.0, 0.0, 1824.84\n0.0, 0.0, 0.0, 0.0, 0.0, 485.75, 0.0, 0.0, 0.0, 0.0\n0.0, 0.0, 0.0]\nclass = portsweep.", fillcolor="#39e5babb"] ;
380 -> 396 ;
397 [label="entropy = 0.0\nsamples = 2\nvalue = [0.0, 0.0, 0.0, 0.0, 0.0, 0.0, 0.0, 0.0, 0.0, 456.21\n0.0, 0.0, 0.0, 0.0, 0.0, 0.0, 0.0, 0.0, 0.0, 0.0\n0.0, 0.0, 0.0]\nclass = portsweep.", fillcolor="#39e5baff"] ;
396 -> 397 ;
398 [label="dst_host_count <= 147.0\nentropy = 0.84\nsamples = 7\nvalue = [1.0, 0.0, 0.0, 0.0, 0.0, 0.0, 0.0, 0.0, 0.0, 1368.63\n0.0, 0.0, 0.0, 0.0, 0.0, 485.75, 0.0, 0.0, 0.0, 0.0\n0.0, 0.0, 0.0]\nclass = portsweep.", fillcolor="#39e5baa4"] ;
396 -> 398 ;
399 [label="same_srv_rate <= 0.5\nentropy = 0.03\nsamples = 2\nvalue = [1.0, 0.0, 0.0, 0.0, 0.0, 0.0, 0.0, 0.0, 0.0, 0.0\n0.0, 0.0, 0.0, 0.0, 0.0, 323.83, 0.0, 0.0, 0.0, 0.0\n0.0, 0.0, 0.0]\nclass = satan.", fillcolor="#6f39e5fe"] ;
398 -> 399 ;
400 [label="entropy = 0.0\nsamples = 1\nvalue = [0.0, 0.0, 0.0, 0.0, 0.0, 0.0, 0.0, 0.0, 0.0, 0.0\n0.0, 0.0, 0.0, 0.0, 0.0, 323.83, 0.0, 0.0, 0.0, 0.0\n0.0, 0.0, 0.0]\nclass = satan.", fillcolor="#6f39e5ff"] ;
399 -> 400 ;
401 [label="entropy = 0.0\nsamples = 1\nvalue = [1, 0, 0, 0, 0, 0, 0, 0, 0, 0, 0, 0, 0, 0\n0, 0, 0, 0, 0, 0, 0, 0, 0]\nclass = normal.", fillcolor="#e58139ff"] ;
399 -> 401 ;
402 [label="dst_host_same_src_port_rate <= 0.0\nentropy = 0.49\nsamples = 5\nvalue = [0.0, 0.0, 0.0, 0.0, 0.0, 0.0, 0.0, 0.0, 0.0, 1368.63\n0.0, 0.0, 0.0, 0.0, 0.0, 161.92, 0.0, 0.0, 0.0, 0.0\n0.0, 0.0, 0.0]\nclass = portsweep.", fillcolor="#39e5bae1"] ;
398 -> 402 ;
403 [label="entropy = 0.0\nsamples = 1\nvalue = [0.0, 0.0, 0.0, 0.0, 0.0, 0.0, 0.0, 0.0, 0.0, 0.0\n0.0, 0.0, 0.0, 0.0, 0.0, 161.92, 0.0, 0.0, 0.0, 0.0\n0.0, 0.0, 0.0]\nclass = satan.", fillcolor="#6f39e5ff"] ;
402 -> 403 ;
404 [label="entropy = 0.0\nsamples = 4\nvalue = [0.0, 0.0, 0.0, 0.0, 0.0, 0.0, 0.0, 0.0, 0.0, 1368.63\n0.0, 0.0, 0.0, 0.0, 0.0, 0.0, 0.0, 0.0, 0.0, 0.0\n0.0, 0.0, 0.0]\nclass = portsweep.", fillcolor="#39e5baff"] ;
402 -> 404 ;
405 [label="entropy = -0.0\nsamples = 1\nvalue = [0.0, 0.0, 0.0, 0.0, 0.0, 0.0, 0.0, 0.0, 0.0, 0.0\n0.0, 0.0, 0.0, 0.0, 0.0, 485.75, 0.0, 0.0, 0.0, 0.0\n0.0, 0.0, 0.0]\nclass = satan.", fillcolor="#6f39e5ff"] ;
379 -> 405 ;
406 [label="flag <= 8.0\nentropy = 1.4\nsamples = 92267\nvalue = [548.0, 0.0, 0.0, 0.0, 484831.49, 0.0, 0.0, 0.0, 0.0\n0.0, 0.0, 0.0, 0.0, 0.0, 304805.0, 116093.06, 0.0, 0.0\n0.0, 0.0, 0.0, 0.0, 0.0]\nclass = neptune.", fillcolor="#98e5394c"] ;
290 -> 406 ;
407 [label="srv_rerror_rate <= 0.01\nentropy = 0.05\nsamples = 91759\nvalue = [460.0, 0.0, 0.0, 0.0, 484831.49, 0.0, 0.0, 0.0, 0.0\n0.0, 0.0, 0.0, 0.0, 0.0, 0.0, 1781.07, 0.0, 0.0, 0.0\n0.0, 0.0, 0.0, 0.0]\nclass = neptune.", fillcolor="#98e539fe"] ;
406 -> 407 ;
408 [label="dst_host_serror_rate <= 0.53\nentropy = 0.0\nsamples = 76254\nvalue = [69.0, 0.0, 0.0, 0.0, 404137.57, 0.0, 0.0, 0.0, 0.0\n0.0, 0.0, 0.0, 0.0, 0.0, 0.0, 0.0, 0.0, 0.0, 0.0\n0.0, 0.0, 0.0, 0.0]\nclass = neptune.", fillcolor="#98e539ff"] ;
407 -> 408 ;
409 [label="diff_srv_rate <= 0.04\nentropy = 0.28\nsamples = 44\nvalue = [67.0, 0.0, 0.0, 0.0, 3.36, 0.0, 0.0, 0.0, 0.0, 0.0\n0.0, 0.0, 0.0, 0.0, 0.0, 0.0, 0.0, 0.0, 0.0, 0.0\n0.0, 0.0, 0.0]\nclass = normal.", fillcolor="#e58139f2"] ;
408 -> 409 ;
410 [label="entropy = 0.0\nsamples = 43\nvalue = [67, 0, 0, 0, 0, 0, 0, 0, 0, 0, 0, 0, 0, 0\n0, 0, 0, 0, 0, 0, 0, 0, 0]\nclass = normal.", fillcolor="#e58139ff"] ;
409 -> 410 ;
411 [label="entropy = -0.0\nsamples = 1\nvalue = [0.0, 0.0, 0.0, 0.0, 3.36, 0.0, 0.0, 0.0, 0.0, 0.0\n0.0, 0.0, 0.0, 0.0, 0.0, 0.0, 0.0, 0.0, 0.0, 0.0\n0.0, 0.0, 0.0]\nclass = neptune.", fillcolor="#98e539ff"] ;
409 -> 411 ;
412 [label="srv_serror_rate <= 0.76\nentropy = 0.0\nsamples = 76210\nvalue = [2.0, 0.0, 0.0, 0.0, 404134.21, 0.0, 0.0, 0.0, 0.0\n0.0, 0.0, 0.0, 0.0, 0.0, 0.0, 0.0, 0.0, 0.0, 0.0\n0.0, 0.0, 0.0, 0.0]\nclass = neptune.", fillcolor="#98e539ff"] ;
408 -> 412 ;
413 [label="srv_serror_rate <= 0.22\nentropy = 0.08\nsamples = 41\nvalue = [2.0, 0.0, 0.0, 0.0, 208.11, 0.0, 0.0, 0.0, 0.0, 0.0\n0.0, 0.0, 0.0, 0.0, 0.0, 0.0, 0.0, 0.0, 0.0, 0.0\n0.0, 0.0, 0.0]\nclass = neptune.", fillcolor="#98e539fd"] ;
412 -> 413 ;
414 [label="dst_host_same_srv_rate <= 0.51\nentropy = 0.22\nsamples = 6\nvalue = [1.0, 0.0, 0.0, 0.0, 26.85, 0.0, 0.0, 0.0, 0.0, 0.0\n0.0, 0.0, 0.0, 0.0, 0.0, 0.0, 0.0, 0.0, 0.0, 0.0\n0.0, 0.0, 0.0]\nclass = neptune.", fillcolor="#98e539f6"] ;
413 -> 414 ;
415 [label="entropy = 0.0\nsamples = 5\nvalue = [0.0, 0.0, 0.0, 0.0, 26.85, 0.0, 0.0, 0.0, 0.0, 0.0\n0.0, 0.0, 0.0, 0.0, 0.0, 0.0, 0.0, 0.0, 0.0, 0.0\n0.0, 0.0, 0.0]\nclass = neptune.", fillcolor="#98e539ff"] ;
414 -> 415 ;
416 [label="entropy = 0.0\nsamples = 1\nvalue = [1, 0, 0, 0, 0, 0, 0, 0, 0, 0, 0, 0, 0, 0\n0, 0, 0, 0, 0, 0, 0, 0, 0]\nclass = normal.", fillcolor="#e58139ff"] ;
414 -> 416 ;
417 [label="srv_serror_rate <= 0.74\nentropy = 0.05\nsamples = 35\nvalue = [1.0, 0.0, 0.0, 0.0, 181.26, 0.0, 0.0, 0.0, 0.0, 0.0\n0.0, 0.0, 0.0, 0.0, 0.0, 0.0, 0.0, 0.0, 0.0, 0.0\n0.0, 0.0, 0.0]\nclass = neptune.", fillcolor="#98e539fe"] ;
413 -> 417 ;
418 [label="entropy = 0.0\nsamples = 29\nvalue = [0.0, 0.0, 0.0, 0.0, 151.05, 0.0, 0.0, 0.0, 0.0, 0.0\n0.0, 0.0, 0.0, 0.0, 0.0, 0.0, 0.0, 0.0, 0.0, 0.0\n0.0, 0.0, 0.0]\nclass = neptune.", fillcolor="#98e539ff"] ;
417 -> 418 ;
419 [label="dst_host_same_src_port_rate <= 0.17\nentropy = 0.2\nsamples = 6\nvalue = [1.0, 0.0, 0.0, 0.0, 30.21, 0.0, 0.0, 0.0, 0.0, 0.0\n0.0, 0.0, 0.0, 0.0, 0.0, 0.0, 0.0, 0.0, 0.0, 0.0\n0.0, 0.0, 0.0]\nclass = neptune.", fillcolor="#98e539f7"] ;
417 -> 419 ;
420 [label="entropy = 0.0\nsamples = 5\nvalue = [0.0, 0.0, 0.0, 0.0, 30.21, 0.0, 0.0, 0.0, 0.0, 0.0\n0.0, 0.0, 0.0, 0.0, 0.0, 0.0, 0.0, 0.0, 0.0, 0.0\n0.0, 0.0, 0.0]\nclass = neptune.", fillcolor="#98e539ff"] ;
419 -> 420 ;
421 [label="entropy = 0.0\nsamples = 1\nvalue = [1, 0, 0, 0, 0, 0, 0, 0, 0, 0, 0, 0, 0, 0\n0, 0, 0, 0, 0, 0, 0, 0, 0]\nclass = normal.", fillcolor="#e58139ff"] ;
419 -> 421 ;
422 [label="entropy = 0.0\nsamples = 76169\nvalue = [0.0, 0.0, 0.0, 0.0, 403926.1, 0.0, 0.0, 0.0, 0.0\n0.0, 0.0, 0.0, 0.0, 0.0, 0.0, 0.0, 0.0, 0.0, 0.0\n0.0, 0.0, 0.0, 0.0]\nclass = neptune.", fillcolor="#98e539ff"] ;
412 -> 422 ;
423 [label="rerror_rate <= 0.98\nentropy = 0.19\nsamples = 15505\nvalue = [391.0, 0.0, 0.0, 0.0, 80693.92, 0.0, 0.0, 0.0, 0.0\n0.0, 0.0, 0.0, 0.0, 0.0, 0.0, 1781.07, 0.0, 0.0, 0.0\n0.0, 0.0, 0.0, 0.0]\nclass = neptune.", fillcolor="#98e539f8"] ;
407 -> 423 ;
424 [label="diff_srv_rate <= 0.78\nentropy = 1.13\nsamples = 265\nvalue = [315.0, 0.0, 0.0, 0.0, 375.95, 0.0, 0.0, 0.0, 0.0\n0.0, 0.0, 0.0, 0.0, 0.0, 0.0, 1781.07, 0.0, 0.0, 0.0\n0.0, 0.0, 0.0, 0.0]\nclass = satan.", fillcolor="#6f39e5ab"] ;
423 -> 424 ;
425 [label="dst_host_srv_diff_host_rate <= 0.0\nentropy = 0.99\nsamples = 260\nvalue = [315.0, 0.0, 0.0, 0.0, 375.95, 0.0, 0.0, 0.0, 0.0\n0.0, 0.0, 0.0, 0.0, 0.0, 0.0, 0.0, 0.0, 0.0, 0.0\n0.0, 0.0, 0.0, 0.0]\nclass = neptune.", fillcolor="#98e53929"] ;
424 -> 425 ;
426 [label="flag <= 3.5\nentropy = 0.17\nsamples = 71\nvalue = [10.0, 0.0, 0.0, 0.0, 375.95, 0.0, 0.0, 0.0, 0.0, 0.0\n0.0, 0.0, 0.0, 0.0, 0.0, 0.0, 0.0, 0.0, 0.0, 0.0\n0.0, 0.0, 0.0]\nclass = neptune.", fillcolor="#98e539f8"] ;
425 -> 426 ;
427 [label="entropy = 0.0\nsamples = 4\nvalue = [9, 0, 0, 0, 0, 0, 0, 0, 0, 0, 0, 0, 0, 0\n0, 0, 0, 0, 0, 0, 0, 0, 0]\nclass = normal.", fillcolor="#e58139ff"] ;
426 -> 427 ;
428 [label="serror_rate <= 0.59\nentropy = 0.03\nsamples = 67\nvalue = [1.0, 0.0, 0.0, 0.0, 375.95, 0.0, 0.0, 0.0, 0.0, 0.0\n0.0, 0.0, 0.0, 0.0, 0.0, 0.0, 0.0, 0.0, 0.0, 0.0\n0.0, 0.0, 0.0]\nclass = neptune.", fillcolor="#98e539fe"] ;
426 -> 428 ;
429 [label="entropy = 0.0\nsamples = 1\nvalue = [1, 0, 0, 0, 0, 0, 0, 0, 0, 0, 0, 0, 0, 0\n0, 0, 0, 0, 0, 0, 0, 0, 0]\nclass = normal.", fillcolor="#e58139ff"] ;
428 -> 429 ;
