digraph Tree {
node [shape=box, style="filled, rounded", color="black", fontname=helvetica] ;
edge [fontname=helvetica] ;
0 [label="dst_bytes <= 4.5\nentropy = 4.4\nsamples = 475585\nvalue = [568585.0, 541875.56, 487688.0, 243844.0, 569996.47\n561219.67, 487688.0, 574213.29, 556851.03, 575280.23\n573480.92, 650250.67, 487688.0, 590270.65, 243844.0\n579169.98, 975376.0, 574550.88, 609610.0, 365766.0\n561387.12, 0.0, 325125.33]\nclass = phf.", fillcolor="#9d39e508"] ;
1 [label="dst_host_serror_rate <= 0.5\nentropy = 3.55\nsamples = 156630\nvalue = [65319.0, 0.0, 0.0, 0.0, 569996.47, 561219.67, 0.0\n574213.29, 555077.61, 574139.71, 564530.51, 650250.67, 0.0\n840.84, 121922.0, 567674.01, 0.0, 573504.34, 0.0, 0.0\n374864.66, 0.0, 243844.0]\nclass = land.", fillcolor="#39b4e504"] ;
0 -> 1 [labeldistance=2.5, labelangle=45, headlabel="True"] ;
2 [label="service <= 15.5\nentropy = 3.28\nsamples = 66982\nvalue = [65069.0, 0.0, 0.0, 0.0, 94768.36, 561219.67, 0.0\n503419.87, 555077.61, 565015.52, 564530.51, 0.0, 0.0\n840.84, 0.0, 565407.2, 0.0, 455768.51, 0.0, 0.0\n373954.79, 0.0, 243844.0]\nclass = satan.", fillcolor="#6f39e500"] ;
1 -> 2 ;
3 [label="service <= 14.5\nentropy = 2.12\nsamples = 8383\nvalue = [6554.0, 0.0, 0.0, 0.0, 4474.42, 561219.67, 0.0, 499486.9\n0.0, 17335.96, 506462.02, 0.0, 0.0, 0.0, 0.0, 8905.33\n0.0, 366812.54, 0.0, 0.0, 0.0, 0.0, 0.0]\nclass = smurf.", fillcolor="#6ae5390a"] ;
2 -> 3 ;
4 [label="dst_host_srv_diff_host_rate <= 0.5\nentropy = 1.26\nsamples = 6725\nvalue = [6179.0, 0.0, 0.0, 0.0, 4474.42, 0.0, 0.0, 0.0, 0.0\n17107.86, 502314.27, 0.0, 0.0, 0.0, 0.0, 8419.58, 0.0\n364719.46, 0.0, 0.0, 0.0, 0.0, 0.0]\nclass = ipsweep.", fillcolor="#39e2e541"] ;
3 -> 4 ;
5 [label="dst_host_count <= 5.5\nentropy = 1.02\nsamples = 5417\nvalue = [6162.0, 0.0, 0.0, 0.0, 4474.42, 0.0, 0.0, 0.0, 0.0\n16879.75, 47153.36, 0.0, 0.0, 0.0, 0.0, 8419.58, 0.0\n364719.46, 0.0, 0.0, 0.0, 0.0, 0.0]\nclass = nmap.", fillcolor="#cb39e5ca"] ;
4 -> 5 ;
6 [label="dst_host_diff_srv_rate <= 0.2\nentropy = 0.51\nsamples = 666\nvalue = [161.0, 0.0, 0.0, 0.0, 0.0, 0.0, 0.0, 0.0, 0.0, 0.0\n46498.45, 0.0, 0.0, 0.0, 0.0, 0.0, 0.0, 364719.46, 0.0\n0.0, 0.0, 0.0, 0.0]\nclass = nmap.", fillcolor="#cb39e5de"] ;
5 -> 6 ;
7 [label="srv_count <= 1.5\nentropy = 0.52\nsamples = 620\nvalue = [87.0, 0.0, 0.0, 0.0, 0.0, 0.0, 0.0, 0.0, 0.0, 0.0\n46498.45, 0.0, 0.0, 0.0, 0.0, 0.0, 0.0, 360533.3, 0.0\n0.0, 0.0, 0.0, 0.0]\nclass = nmap.", fillcolor="#cb39e5de"] ;
6 -> 7 ;
8 [label="service <= 13.0\nentropy = 0.57\nsamples = 146\nvalue = [22.0, 0.0, 0.0, 0.0, 0.0, 0.0, 0.0, 0.0, 0.0, 0.0\n41259.19, 0.0, 0.0, 0.0, 0.0, 0.0, 0.0, 6279.24, 0.0\n0.0, 0.0, 0.0, 0.0]\nclass = ipsweep.", fillcolor="#39e2e5d8"] ;
7 -> 8 ;
9 [label="entropy = 0.0\nsamples = 7\nvalue = [12, 0, 0, 0, 0, 0, 0, 0, 0, 0, 0, 0, 0, 0\n0, 0, 0, 0, 0, 0, 0, 0, 0]\nclass = normal.", fillcolor="#e58139ff"] ;
8 -> 9 ;
10 [label="dst_host_srv_count <= 120.0\nentropy = 0.57\nsamples = 139\nvalue = [10.0, 0.0, 0.0, 0.0, 0.0, 0.0, 0.0, 0.0, 0.0, 0.0\n41259.19, 0.0, 0.0, 0.0, 0.0, 0.0, 0.0, 6279.24, 0.0\n0.0, 0.0, 0.0, 0.0]\nclass = ipsweep.", fillcolor="#39e2e5d8"] ;
8 -> 10 ;
11 [label="dst_host_srv_count <= 6.5\nentropy = 0.82\nsamples = 73\nvalue = [10.0, 0.0, 0.0, 0.0, 0.0, 0.0, 0.0, 0.0, 0.0, 0.0\n18555.72, 0.0, 0.0, 0.0, 0.0, 0.0, 0.0, 6279.24, 0.0\n0.0, 0.0, 0.0, 0.0]\nclass = ipsweep.", fillcolor="#39e2e5a9"] ;
10 -> 11 ;
12 [label="dst_host_count <= 3.5\nentropy = 0.97\nsamples = 10\nvalue = [7.0, 0.0, 0.0, 0.0, 0.0, 0.0, 0.0, 0.0, 0.0, 0.0\n1528.12, 0.0, 0.0, 0.0, 0.0, 0.0, 0.0, 2616.35, 0.0\n0.0, 0.0, 0.0, 0.0]\nclass = nmap.", fillcolor="#cb39e56a"] ;
11 -> 12 ;
13 [label="count <= 1.5\nentropy = 1.01\nsamples = 7\nvalue = [2.0, 0.0, 0.0, 0.0, 0.0, 0.0, 0.0, 0.0, 0.0, 0.0\n1528.12, 0.0, 0.0, 0.0, 0.0, 0.0, 0.0, 1569.81, 0.0\n0.0, 0.0, 0.0, 0.0]\nclass = nmap.", fillcolor="#cb39e507"] ;
12 -> 13 ;
14 [label="src_bytes <= 13.0\nentropy = 1.0\nsamples = 6\nvalue = [2.0, 0.0, 0.0, 0.0, 0.0, 0.0, 0.0, 0.0, 0.0, 0.0\n1309.82, 0.0, 0.0, 0.0, 0.0, 0.0, 0.0, 1569.81, 0.0\n0.0, 0.0, 0.0, 0.0]\nclass = nmap.", fillcolor="#cb39e52a"] ;
13 -> 14 ;
15 [label="dst_host_count <= 1.5\nentropy = 0.87\nsamples = 3\nvalue = [0.0, 0.0, 0.0, 0.0, 0.0, 0.0, 0.0, 0.0, 0.0, 0.0\n654.91, 0.0, 0.0, 0.0, 0.0, 0.0, 0.0, 1569.81, 0.0\n0.0, 0.0, 0.0, 0.0]\nclass = nmap.", fillcolor="#cb39e595"] ;
14 -> 15 ;
16 [label="entropy = 0.54\nsamples = 2\nvalue = [0.0, 0.0, 0.0, 0.0, 0.0, 0.0, 0.0, 0.0, 0.0, 0.0\n218.3, 0.0, 0.0, 0.0, 0.0, 0.0, 0.0, 1569.81, 0.0\n0.0, 0.0, 0.0, 0.0]\nclass = nmap.", fillcolor="#cb39e5dc"] ;
15 -> 16 ;
17 [label="entropy = -0.0\nsamples = 1\nvalue = [0.0, 0.0, 0.0, 0.0, 0.0, 0.0, 0.0, 0.0, 0.0, 0.0\n436.61, 0.0, 0.0, 0.0, 0.0, 0.0, 0.0, 0.0, 0.0, 0.0\n0.0, 0.0, 0.0]\nclass = ipsweep.", fillcolor="#39e2e5ff"] ;
15 -> 17 ;
18 [label="src_bytes <= 24.0\nentropy = 0.03\nsamples = 3\nvalue = [2.0, 0.0, 0.0, 0.0, 0.0, 0.0, 0.0, 0.0, 0.0, 0.0\n654.91, 0.0, 0.0, 0.0, 0.0, 0.0, 0.0, 0.0, 0.0, 0.0\n0.0, 0.0, 0.0]\nclass = ipsweep.", fillcolor="#39e2e5fe"] ;
14 -> 18 ;
19 [label="entropy = 0.0\nsamples = 2\nvalue = [0.0, 0.0, 0.0, 0.0, 0.0, 0.0, 0.0, 0.0, 0.0, 0.0\n654.91, 0.0, 0.0, 0.0, 0.0, 0.0, 0.0, 0.0, 0.0, 0.0\n0.0, 0.0, 0.0]\nclass = ipsweep.", fillcolor="#39e2e5ff"] ;
18 -> 19 ;
20 [label="entropy = 0.0\nsamples = 1\nvalue = [2, 0, 0, 0, 0, 0, 0, 0, 0, 0, 0, 0, 0, 0\n0, 0, 0, 0, 0, 0, 0, 0, 0]\nclass = normal.", fillcolor="#e58139ff"] ;
18 -> 20 ;
21 [label="entropy = 0.0\nsamples = 1\nvalue = [0.0, 0.0, 0.0, 0.0, 0.0, 0.0, 0.0, 0.0, 0.0, 0.0\n218.3, 0.0, 0.0, 0.0, 0.0, 0.0, 0.0, 0.0, 0.0, 0.0\n0.0, 0.0, 0.0]\nclass = ipsweep.", fillcolor="#39e2e5ff"] ;
13 -> 21 ;
22 [label="src_dst_bytes_diff <= -19.0\nentropy = 0.04\nsamples = 3\nvalue = [5.0, 0.0, 0.0, 0.0, 0.0, 0.0, 0.0, 0.0, 0.0, 0.0\n0.0, 0.0, 0.0, 0.0, 0.0, 0.0, 0.0, 1046.54, 0.0, 0.0\n0.0, 0.0, 0.0]\nclass = nmap.", fillcolor="#cb39e5fe"] ;
12 -> 22 ;
23 [label="entropy = 0.0\nsamples = 2\nvalue = [5, 0, 0, 0, 0, 0, 0, 0, 0, 0, 0, 0, 0, 0\n0, 0, 0, 0, 0, 0, 0, 0, 0]\nclass = normal.", fillcolor="#e58139ff"] ;
22 -> 23 ;
24 [label="entropy = 0.0\nsamples = 1\nvalue = [0.0, 0.0, 0.0, 0.0, 0.0, 0.0, 0.0, 0.0, 0.0, 0.0\n0.0, 0.0, 0.0, 0.0, 0.0, 0.0, 0.0, 1046.54, 0.0, 0.0\n0.0, 0.0, 0.0]\nclass = nmap.", fillcolor="#cb39e5ff"] ;
22 -> 24 ;
25 [label="same_srv_rate <= 0.75\nentropy = 0.68\nsamples = 63\nvalue = [3.0, 0.0, 0.0, 0.0, 0.0, 0.0, 0.0, 0.0, 0.0, 0.0\n17027.6, 0.0, 0.0, 0.0, 0.0, 0.0, 0.0, 3662.89, 0.0\n0.0, 0.0, 0.0, 0.0]\nclass = ipsweep.", fillcolor="#39e2e5c8"] ;
11 -> 25 ;
26 [label="entropy = 0.0\nsamples = 2\nvalue = [0.0, 0.0, 0.0, 0.0, 0.0, 0.0, 0.0, 0.0, 0.0, 0.0\n436.61, 0.0, 0.0, 0.0, 0.0, 0.0, 0.0, 0.0, 0.0, 0.0\n0.0, 0.0, 0.0]\nclass = ipsweep.", fillcolor="#39e2e5ff"] ;
25 -> 26 ;
27 [label="src_dst_bytes_diff <= -13.0\nentropy = 0.68\nsamples = 61\nvalue = [3.0, 0.0, 0.0, 0.0, 0.0, 0.0, 0.0, 0.0, 0.0, 0.0\n16591.0, 0.0, 0.0, 0.0, 0.0, 0.0, 0.0, 3662.89, 0.0\n0.0, 0.0, 0.0, 0.0]\nclass = ipsweep.", fillcolor="#39e2e5c7"] ;
25 -> 27 ;
28 [label="dst_host_srv_diff_host_rate <= 0.44\nentropy = 0.0\nsamples = 56\nvalue = [3.0, 0.0, 0.0, 0.0, 0.0, 0.0, 0.0, 0.0, 0.0, 0.0\n16591.0, 0.0, 0.0, 0.0, 0.0, 0.0, 0.0, 0.0, 0.0, 0.0\n0.0, 0.0, 0.0]\nclass = ipsweep.", fillcolor="#39e2e5ff"] ;
27 -> 28 ;
29 [label="entropy = 0.0\nsamples = 54\nvalue = [0.0, 0.0, 0.0, 0.0, 0.0, 0.0, 0.0, 0.0, 0.0, 0.0\n16591.0, 0.0, 0.0, 0.0, 0.0, 0.0, 0.0, 0.0, 0.0, 0.0\n0.0, 0.0, 0.0]\nclass = ipsweep.", fillcolor="#39e2e5ff"] ;
28 -> 29 ;
30 [label="entropy = 0.0\nsamples = 2\nvalue = [3, 0, 0, 0, 0, 0, 0, 0, 0, 0, 0, 0, 0, 0\n0, 0, 0, 0, 0, 0, 0, 0, 0]\nclass = normal.", fillcolor="#e58139ff"] ;
28 -> 30 ;
31 [label="entropy = -0.0\nsamples = 5\nvalue = [0.0, 0.0, 0.0, 0.0, 0.0, 0.0, 0.0, 0.0, 0.0, 0.0\n0.0, 0.0, 0.0, 0.0, 0.0, 0.0, 0.0, 3662.89, 0.0, 0.0\n0.0, 0.0, 0.0]\nclass = nmap.", fillcolor="#cb39e5ff"] ;
27 -> 31 ;
32 [label="entropy = -0.0\nsamples = 66\nvalue = [0.0, 0.0, 0.0, 0.0, 0.0, 0.0, 0.0, 0.0, 0.0, 0.0\n22703.47, 0.0, 0.0, 0.0, 0.0, 0.0, 0.0, 0.0, 0.0\n0.0, 0.0, 0.0, 0.0]\nclass = ipsweep.", fillcolor="#39e2e5ff"] ;
10 -> 32 ;
33 [label="src_dst_bytes_diff <= -12.5\nentropy = 0.11\nsamples = 474\nvalue = [65.0, 0.0, 0.0, 0.0, 0.0, 0.0, 0.0, 0.0, 0.0, 0.0\n5239.26, 0.0, 0.0, 0.0, 0.0, 0.0, 0.0, 354254.05, 0.0\n0.0, 0.0, 0.0, 0.0]\nclass = nmap.", fillcolor="#cb39e5fb"] ;
7 -> 33 ;
34 [label="dst_host_srv_diff_host_rate <= 0.22\nentropy = 0.22\nsamples = 46\nvalue = [65.0, 0.0, 0.0, 0.0, 0.0, 0.0, 0.0, 0.0, 0.0, 0.0\n1746.42, 0.0, 0.0, 0.0, 0.0, 0.0, 0.0, 0.0, 0.0, 0.0\n0.0, 0.0, 0.0]\nclass = ipsweep.", fillcolor="#39e2e5f6"] ;
33 -> 34 ;
35 [label="src_dst_bytes_diff <= -23.5\nentropy = 0.55\nsamples = 41\nvalue = [63.0, 0.0, 0.0, 0.0, 0.0, 0.0, 0.0, 0.0, 0.0, 0.0\n436.61, 0.0, 0.0, 0.0, 0.0, 0.0, 0.0, 0.0, 0.0, 0.0\n0.0, 0.0, 0.0]\nclass = ipsweep.", fillcolor="#39e2e5da"] ;
34 -> 35 ;
36 [label="entropy = 0.0\nsamples = 39\nvalue = [62, 0, 0, 0, 0, 0, 0, 0, 0, 0, 0, 0, 0, 0\n0, 0, 0, 0, 0, 0, 0, 0, 0]\nclass = normal.", fillcolor="#e58139ff"] ;
35 -> 36 ;
37 [label="dst_host_count <= 2.5\nentropy = 0.02\nsamples = 2\nvalue = [1.0, 0.0, 0.0, 0.0, 0.0, 0.0, 0.0, 0.0, 0.0, 0.0\n436.61, 0.0, 0.0, 0.0, 0.0, 0.0, 0.0, 0.0, 0.0, 0.0\n0.0, 0.0, 0.0]\nclass = ipsweep.", fillcolor="#39e2e5fe"] ;
35 -> 37 ;
38 [label="entropy = 0.0\nsamples = 1\nvalue = [1, 0, 0, 0, 0, 0, 0, 0, 0, 0, 0, 0, 0, 0\n0, 0, 0, 0, 0, 0, 0, 0, 0]\nclass = normal.", fillcolor="#e58139ff"] ;
37 -> 38 ;
39 [label="entropy = 0.0\nsamples = 1\nvalue = [0.0, 0.0, 0.0, 0.0, 0.0, 0.0, 0.0, 0.0, 0.0, 0.0\n436.61, 0.0, 0.0, 0.0, 0.0, 0.0, 0.0, 0.0, 0.0, 0.0\n0.0, 0.0, 0.0]\nclass = ipsweep.", fillcolor="#39e2e5ff"] ;
37 -> 39 ;
40 [label="protocol_type <= 1.0\nentropy = 0.02\nsamples = 5\nvalue = [2.0, 0.0, 0.0, 0.0, 0.0, 0.0, 0.0, 0.0, 0.0, 0.0\n1309.82, 0.0, 0.0, 0.0, 0.0, 0.0, 0.0, 0.0, 0.0, 0.0\n0.0, 0.0, 0.0]\nclass = ipsweep.", fillcolor="#39e2e5ff"] ;
34 -> 40 ;
41 [label="entropy = 0.0\nsamples = 4\nvalue = [0.0, 0.0, 0.0, 0.0, 0.0, 0.0, 0.0, 0.0, 0.0, 0.0\n1309.82, 0.0, 0.0, 0.0, 0.0, 0.0, 0.0, 0.0, 0.0, 0.0\n0.0, 0.0, 0.0]\nclass = ipsweep.", fillcolor="#39e2e5ff"] ;
40 -> 41 ;
42 [label="entropy = 0.0\nsamples = 1\nvalue = [2, 0, 0, 0, 0, 0, 0, 0, 0, 0, 0, 0, 0, 0\n0, 0, 0, 0, 0, 0, 0, 0, 0]\nclass = normal.", fillcolor="#e58139ff"] ;
40 -> 42 ;
43 [label="dst_host_srv_diff_host_rate <= 0.12\nentropy = 0.08\nsamples = 428\nvalue = [0.0, 0.0, 0.0, 0.0, 0.0, 0.0, 0.0, 0.0, 0.0, 0.0\n3492.84, 0.0, 0.0, 0.0, 0.0, 0.0, 0.0, 354254.05, 0.0\n0.0, 0.0, 0.0, 0.0]\nclass = nmap.", fillcolor="#cb39e5fc"] ;
33 -> 43 ;
44 [label="dst_host_count <= 1.5\nentropy = 0.98\nsamples = 14\nvalue = [0.0, 0.0, 0.0, 0.0, 0.0, 0.0, 0.0, 0.0, 0.0, 0.0\n3492.84, 0.0, 0.0, 0.0, 0.0, 0.0, 0.0, 4709.43, 0.0\n0.0, 0.0, 0.0, 0.0]\nclass = nmap.", fillcolor="#cb39e542"] ;
43 -> 44 ;
45 [label="entropy = 0.0\nsamples = 5\nvalue = [0.0, 0.0, 0.0, 0.0, 0.0, 0.0, 0.0, 0.0, 0.0, 0.0\n1964.72, 0.0, 0.0, 0.0, 0.0, 0.0, 0.0, 0.0, 0.0, 0.0\n0.0, 0.0, 0.0]\nclass = ipsweep.", fillcolor="#39e2e5ff"] ;
44 -> 45 ;
46 [label="srv_count <= 45.5\nentropy = 0.8\nsamples = 9\nvalue = [0.0, 0.0, 0.0, 0.0, 0.0, 0.0, 0.0, 0.0, 0.0, 0.0\n1528.12, 0.0, 0.0, 0.0, 0.0, 0.0, 0.0, 4709.43, 0.0\n0.0, 0.0, 0.0, 0.0]\nclass = nmap.", fillcolor="#cb39e5ac"] ;
44 -> 46 ;
47 [label="dst_host_srv_count <= 2.5\nentropy = 0.42\nsamples = 7\nvalue = [0.0, 0.0, 0.0, 0.0, 0.0, 0.0, 0.0, 0.0, 0.0, 0.0\n436.61, 0.0, 0.0, 0.0, 0.0, 0.0, 0.0, 4709.43, 0.0\n0.0, 0.0, 0.0, 0.0]\nclass = nmap.", fillcolor="#cb39e5e7"] ;
46 -> 47 ;
48 [label="srv_count <= 28.0\nentropy = 0.59\nsamples = 4\nvalue = [0.0, 0.0, 0.0, 0.0, 0.0, 0.0, 0.0, 0.0, 0.0, 0.0\n436.61, 0.0, 0.0, 0.0, 0.0, 0.0, 0.0, 2616.35, 0.0\n0.0, 0.0, 0.0, 0.0]\nclass = nmap.", fillcolor="#cb39e5d4"] ;
47 -> 48 ;
49 [label="srv_count <= 5.0\nentropy = 0.39\nsamples = 3\nvalue = [0.0, 0.0, 0.0, 0.0, 0.0, 0.0, 0.0, 0.0, 0.0, 0.0\n218.3, 0.0, 0.0, 0.0, 0.0, 0.0, 0.0, 2616.35, 0.0\n0.0, 0.0, 0.0, 0.0]\nclass = nmap.", fillcolor="#cb39e5ea"] ;
48 -> 49 ;
50 [label="entropy = 0.0\nsamples = 1\nvalue = [0.0, 0.0, 0.0, 0.0, 0.0, 0.0, 0.0, 0.0, 0.0, 0.0\n0.0, 0.0, 0.0, 0.0, 0.0, 0.0, 0.0, 1569.81, 0.0, 0.0\n0.0, 0.0, 0.0]\nclass = nmap.", fillcolor="#cb39e5ff"] ;
49 -> 50 ;
51 [label="srv_count <= 10.0\nentropy = 0.66\nsamples = 2\nvalue = [0.0, 0.0, 0.0, 0.0, 0.0, 0.0, 0.0, 0.0, 0.0, 0.0\n218.3, 0.0, 0.0, 0.0, 0.0, 0.0, 0.0, 1046.54, 0.0\n0.0, 0.0, 0.0, 0.0]\nclass = nmap.", fillcolor="#cb39e5ca"] ;
49 -> 51 ;
52 [label="entropy = 0.0\nsamples = 1\nvalue = [0.0, 0.0, 0.0, 0.0, 0.0, 0.0, 0.0, 0.0, 0.0, 0.0\n218.3, 0.0, 0.0, 0.0, 0.0, 0.0, 0.0, 0.0, 0.0, 0.0\n0.0, 0.0, 0.0]\nclass = ipsweep.", fillcolor="#39e2e5ff"] ;
51 -> 52 ;
53 [label="entropy = 0.0\nsamples = 1\nvalue = [0.0, 0.0, 0.0, 0.0, 0.0, 0.0, 0.0, 0.0, 0.0, 0.0\n0.0, 0.0, 0.0, 0.0, 0.0, 0.0, 0.0, 1046.54, 0.0, 0.0\n0.0, 0.0, 0.0]\nclass = nmap.", fillcolor="#cb39e5ff"] ;
51 -> 53 ;
54 [label="entropy = -0.0\nsamples = 1\nvalue = [0.0, 0.0, 0.0, 0.0, 0.0, 0.0, 0.0, 0.0, 0.0, 0.0\n218.3, 0.0, 0.0, 0.0, 0.0, 0.0, 0.0, 0.0, 0.0, 0.0\n0.0, 0.0, 0.0]\nclass = ipsweep.", fillcolor="#39e2e5ff"] ;
48 -> 54 ;
55 [label="entropy = 0.0\nsamples = 3\nvalue = [0.0, 0.0, 0.0, 0.0, 0.0, 0.0, 0.0, 0.0, 0.0, 0.0\n0.0, 0.0, 0.0, 0.0, 0.0, 0.0, 0.0, 2093.08, 0.0, 0.0\n0.0, 0.0, 0.0]\nclass = nmap.", fillcolor="#cb39e5ff"] ;
47 -> 55 ;
56 [label="entropy = 0.0\nsamples = 2\nvalue = [0.0, 0.0, 0.0, 0.0, 0.0, 0.0, 0.0, 0.0, 0.0, 0.0\n1091.51, 0.0, 0.0, 0.0, 0.0, 0.0, 0.0, 0.0, 0.0, 0.0\n0.0, 0.0, 0.0]\nclass = ipsweep.", fillcolor="#39e2e5ff"] ;
46 -> 56 ;
57 [label="entropy = 0.0\nsamples = 414\nvalue = [0.0, 0.0, 0.0, 0.0, 0.0, 0.0, 0.0, 0.0, 0.0, 0.0\n0.0, 0.0, 0.0, 0.0, 0.0, 0.0, 0.0, 349544.62, 0.0\n0.0, 0.0, 0.0, 0.0]\nclass = nmap.", fillcolor="#cb39e5ff"] ;
43 -> 57 ;
58 [label="service <= 13.0\nentropy = 0.13\nsamples = 46\nvalue = [74.0, 0.0, 0.0, 0.0, 0.0, 0.0, 0.0, 0.0, 0.0, 0.0\n0.0, 0.0, 0.0, 0.0, 0.0, 0.0, 0.0, 4186.16, 0.0, 0.0\n0.0, 0.0, 0.0]\nclass = nmap.", fillcolor="#cb39e5fa"] ;
6 -> 58 ;
59 [label="entropy = 0.0\nsamples = 40\nvalue = [72, 0, 0, 0, 0, 0, 0, 0, 0, 0, 0, 0, 0, 0\n0, 0, 0, 0, 0, 0, 0, 0, 0]\nclass = normal.", fillcolor="#e58139ff"] ;
58 -> 59 ;
60 [label="src_dst_bytes_diff <= -19.0\nentropy = 0.01\nsamples = 6\nvalue = [2.0, 0.0, 0.0, 0.0, 0.0, 0.0, 0.0, 0.0, 0.0, 0.0\n0.0, 0.0, 0.0, 0.0, 0.0, 0.0, 0.0, 4186.16, 0.0, 0.0\n0.0, 0.0, 0.0]\nclass = nmap.", fillcolor="#cb39e5ff"] ;
58 -> 60 ;
61 [label="entropy = 0.0\nsamples = 1\nvalue = [2, 0, 0, 0, 0, 0, 0, 0, 0, 0, 0, 0, 0, 0\n0, 0, 0, 0, 0, 0, 0, 0, 0]\nclass = normal.", fillcolor="#e58139ff"] ;
60 -> 61 ;
62 [label="entropy = 0.0\nsamples = 5\nvalue = [0.0, 0.0, 0.0, 0.0, 0.0, 0.0, 0.0, 0.0, 0.0, 0.0\n0.0, 0.0, 0.0, 0.0, 0.0, 0.0, 0.0, 4186.16, 0.0, 0.0\n0.0, 0.0, 0.0]\nclass = nmap.", fillcolor="#cb39e5ff"] ;
60 -> 62 ;
63 [label="rerror_rate <= 0.99\nentropy = 1.91\nsamples = 4751\nvalue = [6001.0, 0.0, 0.0, 0.0, 4474.42, 0.0, 0.0, 0.0, 0.0\n16879.75, 654.91, 0.0, 0.0, 0.0, 0.0, 8419.58, 0.0\n0.0, 0.0, 0.0, 0.0, 0.0, 0.0]\nclass = portsweep.", fillcolor="#39e5ba4d"] ;
5 -> 63 ;
64 [label="diff_srv_rate <= 0.06\nentropy = 1.37\nsamples = 3830\nvalue = [5980.0, 0.0, 0.0, 0.0, 0.0, 0.0, 0.0, 0.0, 0.0\n456.21, 654.91, 0.0, 0.0, 0.0, 0.0, 7933.84, 0.0, 0.0\n0.0, 0.0, 0.0, 0.0, 0.0]\nclass = satan.", fillcolor="#6f39e537"] ;
63 -> 64 ;
65 [label="src_bytes <= 24.5\nentropy = 1.11\nsamples = 3606\nvalue = [5666.0, 0.0, 0.0, 0.0, 0.0, 0.0, 0.0, 0.0, 0.0, 0.0\n654.91, 0.0, 0.0, 0.0, 0.0, 1619.15, 0.0, 0.0, 0.0\n0.0, 0.0, 0.0, 0.0]\nclass = normal.", fillcolor="#e58139a3"] ;
64 -> 65 ;
66 [label="dst_host_srv_diff_host_rate <= 0.12\nentropy = 0.88\nsamples = 11\nvalue = [4.0, 0.0, 0.0, 0.0, 0.0, 0.0, 0.0, 0.0, 0.0, 0.0\n654.91, 0.0, 0.0, 0.0, 0.0, 1619.15, 0.0, 0.0, 0.0\n0.0, 0.0, 0.0, 0.0]\nclass = satan.", fillcolor="#6f39e597"] ;
65 -> 66 ;
67 [label="dst_host_same_src_port_rate <= 0.02\nentropy = 0.76\nsamples = 10\nvalue = [4.0, 0.0, 0.0, 0.0, 0.0, 0.0, 0.0, 0.0, 0.0, 0.0\n436.61, 0.0, 0.0, 0.0, 0.0, 1619.15, 0.0, 0.0, 0.0\n0.0, 0.0, 0.0, 0.0]\nclass = satan.", fillcolor="#6f39e5ba"] ;
66 -> 67 ;
68 [label="dst_host_diff_srv_rate <= 0.01\nentropy = 0.02\nsamples = 8\nvalue = [4.0, 0.0, 0.0, 0.0, 0.0, 0.0, 0.0, 0.0, 0.0, 0.0\n0.0, 0.0, 0.0, 0.0, 0.0, 1619.15, 0.0, 0.0, 0.0, 0.0\n0.0, 0.0, 0.0]\nclass = satan.", fillcolor="#6f39e5fe"] ;
67 -> 68 ;
69 [label="entropy = 0.0\nsamples = 1\nvalue = [3, 0, 0, 0, 0, 0, 0, 0, 0, 0, 0, 0, 0, 0\n0, 0, 0, 0, 0, 0, 0, 0, 0]\nclass = normal.", fillcolor="#e58139ff"] ;
68 -> 69 ;
70 [label="service <= 7.0\nentropy = 0.01\nsamples = 7\nvalue = [1.0, 0.0, 0.0, 0.0, 0.0, 0.0, 0.0, 0.0, 0.0, 0.0\n0.0, 0.0, 0.0, 0.0, 0.0, 1619.15, 0.0, 0.0, 0.0, 0.0\n0.0, 0.0, 0.0]\nclass = satan.", fillcolor="#6f39e5ff"] ;
68 -> 70 ;
71 [label="entropy = 0.0\nsamples = 1\nvalue = [1, 0, 0, 0, 0, 0, 0, 0, 0, 0, 0, 0, 0, 0\n0, 0, 0, 0, 0, 0, 0, 0, 0]\nclass = normal.", fillcolor="#e58139ff"] ;
70 -> 71 ;
72 [label="entropy = 0.0\nsamples = 6\nvalue = [0.0, 0.0, 0.0, 0.0, 0.0, 0.0, 0.0, 0.0, 0.0, 0.0\n0.0, 0.0, 0.0, 0.0, 0.0, 1619.15, 0.0, 0.0, 0.0, 0.0\n0.0, 0.0, 0.0]\nclass = satan.", fillcolor="#6f39e5ff"] ;
70 -> 72 ;
73 [label="entropy = -0.0\nsamples = 2\nvalue = [0.0, 0.0, 0.0, 0.0, 0.0, 0.0, 0.0, 0.0, 0.0, 0.0\n436.61, 0.0, 0.0, 0.0, 0.0, 0.0, 0.0, 0.0, 0.0, 0.0\n0.0, 0.0, 0.0]\nclass = ipsweep.", fillcolor="#39e2e5ff"] ;
67 -> 73 ;
74 [label="entropy = -0.0\nsamples = 1\nvalue = [0.0, 0.0, 0.0, 0.0, 0.0, 0.0, 0.0, 0.0, 0.0, 0.0\n218.3, 0.0, 0.0, 0.0, 0.0, 0.0, 0.0, 0.0, 0.0, 0.0\n0.0, 0.0, 0.0]\nclass = ipsweep.", fillcolor="#39e2e5ff"] ;
66 -> 74 ;
75 [label="entropy = 0.0\nsamples = 3595\nvalue = [5662, 0, 0, 0, 0, 0, 0, 0, 0, 0, 0, 0, 0, 0\n0, 0, 0, 0, 0, 0, 0, 0, 0]\nclass = normal.", fillcolor="#e58139ff"] ;
65 -> 75 ;
76 [label="dst_host_rerror_rate <= 0.01\nentropy = 0.6\nsamples = 224\nvalue = [314.0, 0.0, 0.0, 0.0, 0.0, 0.0, 0.0, 0.0, 0.0\n456.21, 0.0, 0.0, 0.0, 0.0, 0.0, 6314.69, 0.0, 0.0\n0.0, 0.0, 0.0, 0.0, 0.0]\nclass = satan.", fillcolor="#6f39e5e1"] ;
64 -> 76 ;
77 [label="entropy = 0.0\nsamples = 198\nvalue = [306, 0, 0, 0, 0, 0, 0, 0, 0, 0, 0, 0, 0, 0\n0, 0, 0, 0, 0, 0, 0, 0, 0]\nclass = normal.", fillcolor="#e58139ff"] ;
76 -> 77 ;
78 [label="diff_srv_rate <= 0.84\nentropy = 0.37\nsamples = 26\nvalue = [8.0, 0.0, 0.0, 0.0, 0.0, 0.0, 0.0, 0.0, 0.0, 456.21\n0.0, 0.0, 0.0, 0.0, 0.0, 6314.69, 0.0, 0.0, 0.0, 0.0\n0.0, 0.0, 0.0]\nclass = satan.", fillcolor="#6f39e5ec"] ;
76 -> 78 ;
79 [label="dst_host_diff_srv_rate <= 0.64\nentropy = 0.98\nsamples = 6\nvalue = [5.0, 0.0, 0.0, 0.0, 0.0, 0.0, 0.0, 0.0, 0.0, 456.21\n0.0, 0.0, 0.0, 0.0, 0.0, 809.58, 0.0, 0.0, 0.0, 0.0\n0.0, 0.0, 0.0]\nclass = satan.", fillcolor="#6f39e56f"] ;
78 -> 79 ;
80 [label="same_srv_rate <= 0.34\nentropy = 0.09\nsamples = 4\nvalue = [5.0, 0.0, 0.0, 0.0, 0.0, 0.0, 0.0, 0.0, 0.0, 456.21\n0.0, 0.0, 0.0, 0.0, 0.0, 0.0, 0.0, 0.0, 0.0, 0.0\n0.0, 0.0, 0.0]\nclass = portsweep.", fillcolor="#39e5bafc"] ;
79 -> 80 ;
81 [label="entropy = 0.0\nsamples = 1\nvalue = [0.0, 0.0, 0.0, 0.0, 0.0, 0.0, 0.0, 0.0, 0.0, 456.21\n0.0, 0.0, 0.0, 0.0, 0.0, 0.0, 0.0, 0.0, 0.0, 0.0\n0.0, 0.0, 0.0]\nclass = portsweep.", fillcolor="#39e5baff"] ;
80 -> 81 ;
82 [label="entropy = 0.0\nsamples = 3\nvalue = [5, 0, 0, 0, 0, 0, 0, 0, 0, 0, 0, 0, 0, 0\n0, 0, 0, 0, 0, 0, 0, 0, 0]\nclass = normal.", fillcolor="#e58139ff"] ;
80 -> 82 ;
83 [label="entropy = 0.0\nsamples = 2\nvalue = [0.0, 0.0, 0.0, 0.0, 0.0, 0.0, 0.0, 0.0, 0.0, 0.0\n0.0, 0.0, 0.0, 0.0, 0.0, 809.58, 0.0, 0.0, 0.0, 0.0\n0.0, 0.0, 0.0]\nclass = satan.", fillcolor="#6f39e5ff"] ;
79 -> 83 ;
84 [label="srv_diff_host_rate <= 0.5\nentropy = 0.01\nsamples = 20\nvalue = [3.0, 0.0, 0.0, 0.0, 0.0, 0.0, 0.0, 0.0, 0.0, 0.0\n0.0, 0.0, 0.0, 0.0, 0.0, 5505.11, 0.0, 0.0, 0.0, 0.0\n0.0, 0.0, 0.0]\nclass = satan.", fillcolor="#6f39e5ff"] ;
78 -> 84 ;
85 [label="dst_host_same_srv_rate <= 0.07\nentropy = 0.0\nsamples = 19\nvalue = [2.0, 0.0, 0.0, 0.0, 0.0, 0.0, 0.0, 0.0, 0.0, 0.0\n0.0, 0.0, 0.0, 0.0, 0.0, 5505.11, 0.0, 0.0, 0.0, 0.0\n0.0, 0.0, 0.0]\nclass = satan.", fillcolor="#6f39e5ff"] ;
84 -> 85 ;
86 [label="entropy = 0.0\nsamples = 18\nvalue = [0.0, 0.0, 0.0, 0.0, 0.0, 0.0, 0.0, 0.0, 0.0, 0.0\n0.0, 0.0, 0.0, 0.0, 0.0, 5505.11, 0.0, 0.0, 0.0, 0.0\n0.0, 0.0, 0.0]\nclass = satan.", fillcolor="#6f39e5ff"] ;
85 -> 86 ;
87 [label="entropy = 0.0\nsamples = 1\nvalue = [2, 0, 0, 0, 0, 0, 0, 0, 0, 0, 0, 0, 0, 0\n0, 0, 0, 0, 0, 0, 0, 0, 0]\nclass = normal.", fillcolor="#e58139ff"] ;
85 -> 87 ;
88 [label="entropy = 0.0\nsamples = 1\nvalue = [1, 0, 0, 0, 0, 0, 0, 0, 0, 0, 0, 0, 0, 0\n0, 0, 0, 0, 0, 0, 0, 0, 0]\nclass = normal.", fillcolor="#e58139ff"] ;
84 -> 88 ;
89 [label="dst_host_serror_rate <= 0.0\nentropy = 0.9\nsamples = 921\nvalue = [21.0, 0.0, 0.0, 0.0, 4474.42, 0.0, 0.0, 0.0, 0.0\n16423.54, 0.0, 0.0, 0.0, 0.0, 0.0, 485.75, 0.0, 0.0\n0.0, 0.0, 0.0, 0.0, 0.0]\nclass = portsweep.", fillcolor="#39e5bab4"] ;
63 -> 89 ;
90 [label="count <= 97.5\nentropy = 0.97\nsamples = 910\nvalue = [16.0, 0.0, 0.0, 0.0, 4474.42, 0.0, 0.0, 0.0, 0.0\n13686.29, 0.0, 0.0, 0.0, 0.0, 0.0, 485.75, 0.0, 0.0\n0.0, 0.0, 0.0, 0.0, 0.0]\nclass = portsweep.", fillcolor="#39e5baa6"] ;
89 -> 90 ;
91 [label="service <= 1.5\nentropy = 0.26\nsamples = 40\nvalue = [16.0, 0.0, 0.0, 0.0, 0.0, 0.0, 0.0, 0.0, 0.0\n11177.13, 0.0, 0.0, 0.0, 0.0, 0.0, 485.75, 0.0, 0.0\n0.0, 0.0, 0.0, 0.0, 0.0]\nclass = portsweep.", fillcolor="#39e5baf4"] ;
90 -> 91 ;
92 [label="dst_host_same_src_port_rate <= 0.0\nentropy = 0.2\nsamples = 12\nvalue = [16.0, 0.0, 0.0, 0.0, 0.0, 0.0, 0.0, 0.0, 0.0, 0.0\n0.0, 0.0, 0.0, 0.0, 0.0, 485.75, 0.0, 0.0, 0.0, 0.0\n0.0, 0.0, 0.0]\nclass = satan.", fillcolor="#6f39e5f7"] ;
91 -> 92 ;
93 [label="srv_count <= 2.0\nentropy = 0.02\nsamples = 2\nvalue = [1.0, 0.0, 0.0, 0.0, 0.0, 0.0, 0.0, 0.0, 0.0, 0.0\n0.0, 0.0, 0.0, 0.0, 0.0, 485.75, 0.0, 0.0, 0.0, 0.0\n0.0, 0.0, 0.0]\nclass = satan.", fillcolor="#6f39e5fe"] ;
92 -> 93 ;
94 [label="entropy = 0.0\nsamples = 1\nvalue = [0.0, 0.0, 0.0, 0.0, 0.0, 0.0, 0.0, 0.0, 0.0, 0.0\n0.0, 0.0, 0.0, 0.0, 0.0, 485.75, 0.0, 0.0, 0.0, 0.0\n0.0, 0.0, 0.0]\nclass = satan.", fillcolor="#6f39e5ff"] ;
93 -> 94 ;
95 [label="entropy = 0.0\nsamples = 1\nvalue = [1, 0, 0, 0, 0, 0, 0, 0, 0, 0, 0, 0, 0, 0\n0, 0, 0, 0, 0, 0, 0, 0, 0]\nclass = normal.", fillcolor="#e58139ff"] ;
93 -> 95 ;
96 [label="entropy = 0.0\nsamples = 10\nvalue = [15, 0, 0, 0, 0, 0, 0, 0, 0, 0, 0, 0, 0, 0\n0, 0, 0, 0, 0, 0, 0, 0, 0]\nclass = normal.", fillcolor="#e58139ff"] ;
92 -> 96 ;
97 [label="entropy = 0.0\nsamples = 28\nvalue = [0.0, 0.0, 0.0, 0.0, 0.0, 0.0, 0.0, 0.0, 0.0\n11177.13, 0.0, 0.0, 0.0, 0.0, 0.0, 0.0, 0.0, 0.0\n0.0, 0.0, 0.0, 0.0, 0.0]\nclass = portsweep.", fillcolor="#39e5baff"] ;
91 -> 97 ;
98 [label="dst_host_srv_count <= 2.5\nentropy = 0.94\nsamples = 870\nvalue = [0.0, 0.0, 0.0, 0.0, 4474.42, 0.0, 0.0, 0.0, 0.0\n2509.15, 0.0, 0.0, 0.0, 0.0, 0.0, 0.0, 0.0, 0.0, 0.0\n0.0, 0.0, 0.0, 0.0]\nclass = neptune.", fillcolor="#98e53970"] ;
90 -> 98 ;
99 [label="dst_host_same_srv_rate <= 0.0\nentropy = 0.67\nsamples = 104\nvalue = [0.0, 0.0, 0.0, 0.0, 526.99, 0.0, 0.0, 0.0, 0.0\n2509.15, 0.0, 0.0, 0.0, 0.0, 0.0, 0.0, 0.0, 0.0, 0.0\n0.0, 0.0, 0.0, 0.0]\nclass = portsweep.", fillcolor="#39e5bac9"] ;
98 -> 99 ;
100 [label="dst_host_diff_srv_rate <= 0.23\nentropy = 0.71\nsamples = 55\nvalue = [0.0, 0.0, 0.0, 0.0, 271.89, 0.0, 0.0, 0.0, 0.0\n1140.52, 0.0, 0.0, 0.0, 0.0, 0.0, 0.0, 0.0, 0.0, 0.0\n0.0, 0.0, 0.0, 0.0]\nclass = portsweep.", fillcolor="#39e5bac2"] ;
99 -> 100 ;
101 [label="entropy = 0.0\nsamples = 52\nvalue = [0.0, 0.0, 0.0, 0.0, 271.89, 0.0, 0.0, 0.0, 0.0, 0.0\n0.0, 0.0, 0.0, 0.0, 0.0, 0.0, 0.0, 0.0, 0.0, 0.0\n0.0, 0.0, 0.0]\nclass = neptune.", fillcolor="#98e539ff"] ;
100 -> 101 ;
102 [label="entropy = 0.0\nsamples = 3\nvalue = [0.0, 0.0, 0.0, 0.0, 0.0, 0.0, 0.0, 0.0, 0.0, 1140.52\n0.0, 0.0, 0.0, 0.0, 0.0, 0.0, 0.0, 0.0, 0.0, 0.0\n0.0, 0.0, 0.0]\nclass = portsweep.", fillcolor="#39e5baff"] ;
100 -> 102 ;
103 [label="dst_host_diff_srv_rate <= 0.16\nentropy = 0.63\nsamples = 49\nvalue = [0.0, 0.0, 0.0, 0.0, 255.11, 0.0, 0.0, 0.0, 0.0\n1368.63, 0.0, 0.0, 0.0, 0.0, 0.0, 0.0, 0.0, 0.0, 0.0\n0.0, 0.0, 0.0, 0.0]\nclass = portsweep.", fillcolor="#39e5bacf"] ;
99 -> 103 ;
104 [label="entropy = 0.0\nsamples = 46\nvalue = [0.0, 0.0, 0.0, 0.0, 255.11, 0.0, 0.0, 0.0, 0.0, 0.0\n0.0, 0.0, 0.0, 0.0, 0.0, 0.0, 0.0, 0.0, 0.0, 0.0\n0.0, 0.0, 0.0]\nclass = neptune.", fillcolor="#98e539ff"] ;
103 -> 104 ;
105 [label="entropy = 0.0\nsamples = 3\nvalue = [0.0, 0.0, 0.0, 0.0, 0.0, 0.0, 0.0, 0.0, 0.0, 1368.63\n0.0, 0.0, 0.0, 0.0, 0.0, 0.0, 0.0, 0.0, 0.0, 0.0\n0.0, 0.0, 0.0]\nclass = portsweep.", fillcolor="#39e5baff"] ;
103 -> 105 ;
106 [label="entropy = 0.0\nsamples = 766\nvalue = [0.0, 0.0, 0.0, 0.0, 3947.42, 0.0, 0.0, 0.0, 0.0, 0.0\n0.0, 0.0, 0.0, 0.0, 0.0, 0.0, 0.0, 0.0, 0.0, 0.0\n0.0, 0.0, 0.0]\nclass = neptune.", fillcolor="#98e539ff"] ;
98 -> 106 ;
107 [label="dst_host_rerror_rate <= 0.11\nentropy = 0.02\nsamples = 11\nvalue = [5.0, 0.0, 0.0, 0.0, 0.0, 0.0, 0.0, 0.0, 0.0, 2737.26\n0.0, 0.0, 0.0, 0.0, 0.0, 0.0, 0.0, 0.0, 0.0, 0.0\n0.0, 0.0, 0.0]\nclass = portsweep.", fillcolor="#39e5baff"] ;
89 -> 107 ;
108 [label="entropy = 0.0\nsamples = 4\nvalue = [5, 0, 0, 0, 0, 0, 0, 0, 0, 0, 0, 0, 0, 0\n0, 0, 0, 0, 0, 0, 0, 0, 0]\nclass = normal.", fillcolor="#e58139ff"] ;
107 -> 108 ;
109 [label="entropy = 0.0\nsamples = 7\nvalue = [0.0, 0.0, 0.0, 0.0, 0.0, 0.0, 0.0, 0.0, 0.0, 2737.26\n0.0, 0.0, 0.0, 0.0, 0.0, 0.0, 0.0, 0.0, 0.0, 0.0\n0.0, 0.0, 0.0]\nclass = portsweep.", fillcolor="#39e5baff"] ;
107 -> 109 ;
110 [label="srv_diff_host_rate <= 0.88\nentropy = 0.01\nsamples = 1308\nvalue = [17.0, 0.0, 0.0, 0.0, 0.0, 0.0, 0.0, 0.0, 0.0, 228.1\n455160.91, 0.0, 0.0, 0.0, 0.0, 0.0, 0.0, 0.0, 0.0\n0.0, 0.0, 0.0, 0.0]\nclass = ipsweep.", fillcolor="#39e2e5ff"] ;
4 -> 110 ;
111 [label="dst_host_same_srv_rate <= 0.01\nentropy = 0.04\nsamples = 148\nvalue = [10.0, 0.0, 0.0, 0.0, 0.0, 0.0, 0.0, 0.0, 0.0, 228.1\n49554.69, 0.0, 0.0, 0.0, 0.0, 0.0, 0.0, 0.0, 0.0\n0.0, 0.0, 0.0, 0.0]\nclass = ipsweep.", fillcolor="#39e2e5fe"] ;
110 -> 111 ;
112 [label="entropy = 0.0\nsamples = 1\nvalue = [0.0, 0.0, 0.0, 0.0, 0.0, 0.0, 0.0, 0.0, 0.0, 228.1\n0.0, 0.0, 0.0, 0.0, 0.0, 0.0, 0.0, 0.0, 0.0, 0.0\n0.0, 0.0, 0.0]\nclass = portsweep.", fillcolor="#39e5baff"] ;
111 -> 112 ;
113 [label="srv_diff_host_rate <= 0.38\nentropy = 0.0\nsamples = 147\nvalue = [10.0, 0.0, 0.0, 0.0, 0.0, 0.0, 0.0, 0.0, 0.0, 0.0\n49554.69, 0.0, 0.0, 0.0, 0.0, 0.0, 0.0, 0.0, 0.0\n0.0, 0.0, 0.0, 0.0]\nclass = ipsweep.", fillcolor="#39e2e5ff"] ;
111 -> 113 ;
114 [label="dst_host_count <= 91.5\nentropy = 0.0\nsamples = 146\nvalue = [8.0, 0.0, 0.0, 0.0, 0.0, 0.0, 0.0, 0.0, 0.0, 0.0\n49554.69, 0.0, 0.0, 0.0, 0.0, 0.0, 0.0, 0.0, 0.0\n0.0, 0.0, 0.0, 0.0]\nclass = ipsweep.", fillcolor="#39e2e5ff"] ;
113 -> 114 ;
115 [label="duration <= 3.0\nentropy = 0.0\nsamples = 144\nvalue = [4.0, 0.0, 0.0, 0.0, 0.0, 0.0, 0.0, 0.0, 0.0, 0.0\n49554.69, 0.0, 0.0, 0.0, 0.0, 0.0, 0.0, 0.0, 0.0\n0.0, 0.0, 0.0, 0.0]\nclass = ipsweep.", fillcolor="#39e2e5ff"] ;
114 -> 115 ;
116 [label="src_dst_bytes_diff <= -24.0\nentropy = 0.0\nsamples = 143\nvalue = [4.0, 0.0, 0.0, 0.0, 0.0, 0.0, 0.0, 0.0, 0.0, 0.0\n49336.39, 0.0, 0.0, 0.0, 0.0, 0.0, 0.0, 0.0, 0.0\n0.0, 0.0, 0.0, 0.0]\nclass = ipsweep.", fillcolor="#39e2e5ff"] ;
115 -> 116 ;
117 [label="entropy = 0.0\nsamples = 3\nvalue = [4, 0, 0, 0, 0, 0, 0, 0, 0, 0, 0, 0, 0, 0\n0, 0, 0, 0, 0, 0, 0, 0, 0]\nclass = normal.", fillcolor="#e58139ff"] ;
116 -> 117 ;
118 [label="entropy = 0.0\nsamples = 140\nvalue = [0.0, 0.0, 0.0, 0.0, 0.0, 0.0, 0.0, 0.0, 0.0, 0.0\n49336.39, 0.0, 0.0, 0.0, 0.0, 0.0, 0.0, 0.0, 0.0\n0.0, 0.0, 0.0, 0.0]\nclass = ipsweep.", fillcolor="#39e2e5ff"] ;
116 -> 118 ;
119 [label="entropy = 0.0\nsamples = 1\nvalue = [0.0, 0.0, 0.0, 0.0, 0.0, 0.0, 0.0, 0.0, 0.0, 0.0\n218.3, 0.0, 0.0, 0.0, 0.0, 0.0, 0.0, 0.0, 0.0, 0.0\n0.0, 0.0, 0.0]\nclass = ipsweep.", fillcolor="#39e2e5ff"] ;
115 -> 119 ;
120 [label="entropy = 0.0\nsamples = 2\nvalue = [4, 0, 0, 0, 0, 0, 0, 0, 0, 0, 0, 0, 0, 0\n0, 0, 0, 0, 0, 0, 0, 0, 0]\nclass = normal.", fillcolor="#e58139ff"] ;
114 -> 120 ;
121 [label="entropy = 0.0\nsamples = 1\nvalue = [2, 0, 0, 0, 0, 0, 0, 0, 0, 0, 0, 0, 0, 0\n0, 0, 0, 0, 0, 0, 0, 0, 0]\nclass = normal.", fillcolor="#e58139ff"] ;
113 -> 121 ;
122 [label="protocol_type <= 1.0\nentropy = 0.0\nsamples = 1160\nvalue = [7.0, 0.0, 0.0, 0.0, 0.0, 0.0, 0.0, 0.0, 0.0, 0.0\n405606.22, 0.0, 0.0, 0.0, 0.0, 0.0, 0.0, 0.0, 0.0\n0.0, 0.0, 0.0, 0.0]\nclass = ipsweep.", fillcolor="#39e2e5ff"] ;
110 -> 122 ;
123 [label="entropy = 0.0\nsamples = 1157\nvalue = [0.0, 0.0, 0.0, 0.0, 0.0, 0.0, 0.0, 0.0, 0.0, 0.0\n405606.22, 0.0, 0.0, 0.0, 0.0, 0.0, 0.0, 0.0, 0.0\n0.0, 0.0, 0.0, 0.0]\nclass = ipsweep.", fillcolor="#39e2e5ff"] ;
122 -> 123 ;
124 [label="entropy = 0.0\nsamples = 3\nvalue = [7, 0, 0, 0, 0, 0, 0, 0, 0, 0, 0, 0, 0, 0\n0, 0, 0, 0, 0, 0, 0, 0, 0]\nclass = normal.", fillcolor="#e58139ff"] ;
122 -> 124 ;
125 [label="src_dst_bytes_diff <= -1256.0\nentropy = 1.06\nsamples = 1658\nvalue = [375.0, 0.0, 0.0, 0.0, 0.0, 561219.67, 0.0, 499486.9\n0.0, 228.1, 4147.75, 0.0, 0.0, 0.0, 0.0, 485.75, 0.0\n2093.08, 0.0, 0.0, 0.0, 0.0, 0.0]\nclass = smurf.", fillcolor="#6ae5391c"] ;
3 -> 125 ;
126 [label="entropy = 0.0\nsamples = 83\nvalue = [0.0, 0.0, 0.0, 0.0, 0.0, 0.0, 0.0, 499486.9, 0.0\n0.0, 0.0, 0.0, 0.0, 0.0, 0.0, 0.0, 0.0, 0.0, 0.0\n0.0, 0.0, 0.0, 0.0]\nclass = pod.", fillcolor="#39e561ff"] ;
125 -> 126 ;
127 [label="dst_host_same_srv_rate <= 1.0\nentropy = 0.12\nsamples = 1575\nvalue = [375.0, 0.0, 0.0, 0.0, 0.0, 561219.67, 0.0, 0.0, 0.0\n228.1, 4147.75, 0.0, 0.0, 0.0, 0.0, 485.75, 0.0\n2093.08, 0.0, 0.0, 0.0, 0.0, 0.0]\nclass = smurf.", fillcolor="#6ae539fc"] ;
125 -> 127 ;
128 [label="dst_host_diff_srv_rate <= 0.38\nentropy = 0.01\nsamples = 802\nvalue = [34.0, 0.0, 0.0, 0.0, 0.0, 330351.85, 0.0, 0.0, 0.0\n0.0, 0.0, 0.0, 0.0, 0.0, 0.0, 161.92, 0.0, 0.0, 0.0\n0.0, 0.0, 0.0, 0.0]\nclass = smurf.", fillcolor="#6ae539ff"] ;
127 -> 128 ;
129 [label="src_dst_bytes_diff <= -548.0\nentropy = 0.0\nsamples = 798\nvalue = [30.0, 0.0, 0.0, 0.0, 0.0, 330351.85, 0.0, 0.0, 0.0\n0.0, 0.0, 0.0, 0.0, 0.0, 0.0, 0.0, 0.0, 0.0, 0.0\n0.0, 0.0, 0.0, 0.0]\nclass = smurf.", fillcolor="#6ae539ff"] ;
128 -> 129 ;
130 [label="entropy = 0.0\nsamples = 780\nvalue = [0.0, 0.0, 0.0, 0.0, 0.0, 330351.85, 0.0, 0.0, 0.0\n0.0, 0.0, 0.0, 0.0, 0.0, 0.0, 0.0, 0.0, 0.0, 0.0\n0.0, 0.0, 0.0, 0.0]\nclass = smurf.", fillcolor="#6ae539ff"] ;
129 -> 130 ;
131 [label="entropy = 0.0\nsamples = 18\nvalue = [30, 0, 0, 0, 0, 0, 0, 0, 0, 0, 0, 0, 0, 0\n0, 0, 0, 0, 0, 0, 0, 0, 0]\nclass = normal.", fillcolor="#e58139ff"] ;
129 -> 131 ;
132 [label="dst_host_srv_count <= 1.5\nentropy = 0.16\nsamples = 4\nvalue = [4.0, 0.0, 0.0, 0.0, 0.0, 0.0, 0.0, 0.0, 0.0, 0.0\n0.0, 0.0, 0.0, 0.0, 0.0, 161.92, 0.0, 0.0, 0.0, 0.0\n0.0, 0.0, 0.0]\nclass = satan.", fillcolor="#6f39e5f9"] ;
128 -> 132 ;
133 [label="dst_host_count <= 38.0\nentropy = 0.13\nsamples = 3\nvalue = [3.0, 0.0, 0.0, 0.0, 0.0, 0.0, 0.0, 0.0, 0.0, 0.0\n0.0, 0.0, 0.0, 0.0, 0.0, 161.92, 0.0, 0.0, 0.0, 0.0\n0.0, 0.0, 0.0]\nclass = satan.", fillcolor="#6f39e5fa"] ;
132 -> 133 ;
134 [label="entropy = 0.0\nsamples = 1\nvalue = [0.0, 0.0, 0.0, 0.0, 0.0, 0.0, 0.0, 0.0, 0.0, 0.0\n0.0, 0.0, 0.0, 0.0, 0.0, 161.92, 0.0, 0.0, 0.0, 0.0\n0.0, 0.0, 0.0]\nclass = satan.", fillcolor="#6f39e5ff"] ;
133 -> 134 ;
135 [label="entropy = 0.0\nsamples = 2\nvalue = [3, 0, 0, 0, 0, 0, 0, 0, 0, 0, 0, 0, 0, 0\n0, 0, 0, 0, 0, 0, 0, 0, 0]\nclass = normal.", fillcolor="#e58139ff"] ;
133 -> 135 ;
136 [label="entropy = 0.0\nsamples = 1\nvalue = [1, 0, 0, 0, 0, 0, 0, 0, 0, 0, 0, 0, 0, 0\n0, 0, 0, 0, 0, 0, 0, 0, 0]\nclass = normal.", fillcolor="#e58139ff"] ;
132 -> 136 ;
137 [label="src_dst_bytes_diff <= -275.0\nentropy = 0.24\nsamples = 773\nvalue = [341.0, 0.0, 0.0, 0.0, 0.0, 230867.82, 0.0, 0.0, 0.0\n228.1, 4147.75, 0.0, 0.0, 0.0, 0.0, 323.83, 0.0\n2093.08, 0.0, 0.0, 0.0, 0.0, 0.0]\nclass = smurf.", fillcolor="#6ae539f7"] ;
127 -> 137 ;
138 [label="entropy = 0.0\nsamples = 554\nvalue = [0.0, 0.0, 0.0, 0.0, 0.0, 230867.82, 0.0, 0.0, 0.0\n0.0, 0.0, 0.0, 0.0, 0.0, 0.0, 0.0, 0.0, 0.0, 0.0\n0.0, 0.0, 0.0, 0.0]\nclass = smurf.", fillcolor="#6ae539ff"] ;
137 -> 138 ;
139 [label="dst_host_srv_count <= 6.5\nentropy = 1.54\nsamples = 219\nvalue = [341.0, 0.0, 0.0, 0.0, 0.0, 0.0, 0.0, 0.0, 0.0, 228.1\n4147.75, 0.0, 0.0, 0.0, 0.0, 323.83, 0.0, 2093.08, 0.0\n0.0, 0.0, 0.0, 0.0]\nclass = ipsweep.", fillcolor="#39e2e568"] ;
137 -> 139 ;
140 [label="src_bytes <= 19.0\nentropy = 1.55\nsamples = 15\nvalue = [8.0, 0.0, 0.0, 0.0, 0.0, 0.0, 0.0, 0.0, 0.0, 228.1\n1746.42, 0.0, 0.0, 0.0, 0.0, 323.83, 0.0, 2093.08, 0.0\n0.0, 0.0, 0.0, 0.0]\nclass = nmap.", fillcolor="#cb39e521"] ;
139 -> 140 ;
141 [label="srv_count <= 1.5\nentropy = 1.25\nsamples = 8\nvalue = [0.0, 0.0, 0.0, 0.0, 0.0, 0.0, 0.0, 0.0, 0.0, 228.1\n1746.42, 0.0, 0.0, 0.0, 0.0, 0.0, 0.0, 2093.08, 0.0\n0.0, 0.0, 0.0, 0.0]\nclass = nmap.", fillcolor="#cb39e526"] ;
140 -> 141 ;
142 [label="dst_host_count <= 3.5\nentropy = 1.18\nsamples = 6\nvalue = [0.0, 0.0, 0.0, 0.0, 0.0, 0.0, 0.0, 0.0, 0.0, 228.1\n873.21, 0.0, 0.0, 0.0, 0.0, 0.0, 0.0, 2093.08, 0.0\n0.0, 0.0, 0.0, 0.0]\nclass = nmap.", fillcolor="#cb39e586"] ;
141 -> 142 ;
143 [label="src_bytes <= 13.0\nentropy = 0.82\nsamples = 3\nvalue = [0.0, 0.0, 0.0, 0.0, 0.0, 0.0, 0.0, 0.0, 0.0, 228.1\n654.91, 0.0, 0.0, 0.0, 0.0, 0.0, 0.0, 0.0, 0.0, 0.0\n0.0, 0.0, 0.0]\nclass = ipsweep.", fillcolor="#39e2e5a6"] ;
142 -> 143 ;
144 [label="dst_host_srv_count <= 1.5\nentropy = 0.93\nsamples = 2\nvalue = [0.0, 0.0, 0.0, 0.0, 0.0, 0.0, 0.0, 0.0, 0.0, 228.1\n436.61, 0.0, 0.0, 0.0, 0.0, 0.0, 0.0, 0.0, 0.0, 0.0\n0.0, 0.0, 0.0]\nclass = ipsweep.", fillcolor="#39e2e57a"] ;
143 -> 144 ;
145 [label="entropy = 0.0\nsamples = 1\nvalue = [0.0, 0.0, 0.0, 0.0, 0.0, 0.0, 0.0, 0.0, 0.0, 228.1\n0.0, 0.0, 0.0, 0.0, 0.0, 0.0, 0.0, 0.0, 0.0, 0.0\n0.0, 0.0, 0.0]\nclass = portsweep.", fillcolor="#39e5baff"] ;
144 -> 145 ;
146 [label="entropy = 0.0\nsamples = 1\nvalue = [0.0, 0.0, 0.0, 0.0, 0.0, 0.0, 0.0, 0.0, 0.0, 0.0\n436.61, 0.0, 0.0, 0.0, 0.0, 0.0, 0.0, 0.0, 0.0, 0.0\n0.0, 0.0, 0.0]\nclass = ipsweep.", fillcolor="#39e2e5ff"] ;
144 -> 146 ;
147 [label="entropy = -0.0\nsamples = 1\nvalue = [0.0, 0.0, 0.0, 0.0, 0.0, 0.0, 0.0, 0.0, 0.0, 0.0\n218.3, 0.0, 0.0, 0.0, 0.0, 0.0, 0.0, 0.0, 0.0, 0.0\n0.0, 0.0, 0.0]\nclass = ipsweep.", fillcolor="#39e2e5ff"] ;
143 -> 147 ;
148 [label="dst_host_srv_count <= 4.5\nentropy = 0.45\nsamples = 3\nvalue = [0.0, 0.0, 0.0, 0.0, 0.0, 0.0, 0.0, 0.0, 0.0, 0.0\n218.3, 0.0, 0.0, 0.0, 0.0, 0.0, 0.0, 2093.08, 0.0\n0.0, 0.0, 0.0, 0.0]\nclass = nmap.", fillcolor="#cb39e5e4"] ;
142 -> 148 ;
149 [label="entropy = 0.0\nsamples = 1\nvalue = [0.0, 0.0, 0.0, 0.0, 0.0, 0.0, 0.0, 0.0, 0.0, 0.0\n0.0, 0.0, 0.0, 0.0, 0.0, 0.0, 0.0, 1046.54, 0.0, 0.0\n0.0, 0.0, 0.0]\nclass = nmap.", fillcolor="#cb39e5ff"] ;
148 -> 149 ;
150 [label="dst_host_srv_count <= 5.5\nentropy = 0.66\nsamples = 2\nvalue = [0.0, 0.0, 0.0, 0.0, 0.0, 0.0, 0.0, 0.0, 0.0, 0.0\n218.3, 0.0, 0.0, 0.0, 0.0, 0.0, 0.0, 1046.54, 0.0\n0.0, 0.0, 0.0, 0.0]\nclass = nmap.", fillcolor="#cb39e5ca"] ;
148 -> 150 ;
151 [label="entropy = 0.0\nsamples = 1\nvalue = [0.0, 0.0, 0.0, 0.0, 0.0, 0.0, 0.0, 0.0, 0.0, 0.0\n218.3, 0.0, 0.0, 0.0, 0.0, 0.0, 0.0, 0.0, 0.0, 0.0\n0.0, 0.0, 0.0]\nclass = ipsweep.", fillcolor="#39e2e5ff"] ;
150 -> 151 ;
152 [label="entropy = 0.0\nsamples = 1\nvalue = [0.0, 0.0, 0.0, 0.0, 0.0, 0.0, 0.0, 0.0, 0.0, 0.0\n0.0, 0.0, 0.0, 0.0, 0.0, 0.0, 0.0, 1046.54, 0.0, 0.0\n0.0, 0.0, 0.0]\nclass = nmap.", fillcolor="#cb39e5ff"] ;
150 -> 152 ;
153 [label="entropy = -0.0\nsamples = 2\nvalue = [0.0, 0.0, 0.0, 0.0, 0.0, 0.0, 0.0, 0.0, 0.0, 0.0\n873.21, 0.0, 0.0, 0.0, 0.0, 0.0, 0.0, 0.0, 0.0, 0.0\n0.0, 0.0, 0.0]\nclass = ipsweep.", fillcolor="#39e2e5ff"] ;
141 -> 153 ;
154 [label="dst_host_srv_diff_host_rate <= 0.2\nentropy = 0.16\nsamples = 7\nvalue = [8.0, 0.0, 0.0, 0.0, 0.0, 0.0, 0.0, 0.0, 0.0, 0.0\n0.0, 0.0, 0.0, 0.0, 0.0, 323.83, 0.0, 0.0, 0.0, 0.0\n0.0, 0.0, 0.0]\nclass = satan.", fillcolor="#6f39e5f9"] ;
140 -> 154 ;
155 [label="src_dst_bytes_diff <= -25.0\nentropy = 0.13\nsamples = 5\nvalue = [6.0, 0.0, 0.0, 0.0, 0.0, 0.0, 0.0, 0.0, 0.0, 0.0\n0.0, 0.0, 0.0, 0.0, 0.0, 323.83, 0.0, 0.0, 0.0, 0.0\n0.0, 0.0, 0.0]\nclass = satan.", fillcolor="#6f39e5fa"] ;
154 -> 155 ;
156 [label="entropy = 0.0\nsamples = 3\nvalue = [5, 0, 0, 0, 0, 0, 0, 0, 0, 0, 0, 0, 0, 0\n0, 0, 0, 0, 0, 0, 0, 0, 0]\nclass = normal.", fillcolor="#e58139ff"] ;
155 -> 156 ;
157 [label="srv_count <= 2.5\nentropy = 0.03\nsamples = 2\nvalue = [1.0, 0.0, 0.0, 0.0, 0.0, 0.0, 0.0, 0.0, 0.0, 0.0\n0.0, 0.0, 0.0, 0.0, 0.0, 323.83, 0.0, 0.0, 0.0, 0.0\n0.0, 0.0, 0.0]\nclass = satan.", fillcolor="#6f39e5fe"] ;
155 -> 157 ;
158 [label="entropy = 0.0\nsamples = 1\nvalue = [1, 0, 0, 0, 0, 0, 0, 0, 0, 0, 0, 0, 0, 0\n0, 0, 0, 0, 0, 0, 0, 0, 0]\nclass = normal.", fillcolor="#e58139ff"] ;
157 -> 158 ;
159 [label="entropy = 0.0\nsamples = 1\nvalue = [0.0, 0.0, 0.0, 0.0, 0.0, 0.0, 0.0, 0.0, 0.0, 0.0\n0.0, 0.0, 0.0, 0.0, 0.0, 323.83, 0.0, 0.0, 0.0, 0.0\n0.0, 0.0, 0.0]\nclass = satan.", fillcolor="#6f39e5ff"] ;
157 -> 159 ;
160 [label="entropy = 0.0\nsamples = 2\nvalue = [2, 0, 0, 0, 0, 0, 0, 0, 0, 0, 0, 0, 0, 0\n0, 0, 0, 0, 0, 0, 0, 0, 0]\nclass = normal.", fillcolor="#e58139ff"] ;
154 -> 160 ;
161 [label="dst_host_count <= 16.5\nentropy = 0.53\nsamples = 204\nvalue = [333.0, 0.0, 0.0, 0.0, 0.0, 0.0, 0.0, 0.0, 0.0, 0.0\n2401.33, 0.0, 0.0, 0.0, 0.0, 0.0, 0.0, 0.0, 0.0, 0.0\n0.0, 0.0, 0.0]\nclass = ipsweep.", fillcolor="#39e2e5dc"] ;
139 -> 161 ;
162 [label="dst_host_srv_diff_host_rate <= 0.06\nentropy = 0.09\nsamples = 20\nvalue = [28.0, 0.0, 0.0, 0.0, 0.0, 0.0, 0.0, 0.0, 0.0, 0.0\n2401.33, 0.0, 0.0, 0.0, 0.0, 0.0, 0.0, 0.0, 0.0, 0.0\n0.0, 0.0, 0.0]\nclass = ipsweep.", fillcolor="#39e2e5fc"] ;
161 -> 162 ;
163 [label="srv_count <= 1.5\nentropy = 0.07\nsamples = 16\nvalue = [19.0, 0.0, 0.0, 0.0, 0.0, 0.0, 0.0, 0.0, 0.0, 0.0\n2401.33, 0.0, 0.0, 0.0, 0.0, 0.0, 0.0, 0.0, 0.0, 0.0\n0.0, 0.0, 0.0]\nclass = ipsweep.", fillcolor="#39e2e5fd"] ;
162 -> 163 ;
164 [label="dst_host_srv_count <= 14.5\nentropy = 0.05\nsamples = 13\nvalue = [13.0, 0.0, 0.0, 0.0, 0.0, 0.0, 0.0, 0.0, 0.0, 0.0\n2401.33, 0.0, 0.0, 0.0, 0.0, 0.0, 0.0, 0.0, 0.0, 0.0\n0.0, 0.0, 0.0]\nclass = ipsweep.", fillcolor="#39e2e5fe"] ;
163 -> 164 ;
165 [label="dst_host_srv_count <= 12.5\nentropy = 0.06\nsamples = 12\nvalue = [13.0, 0.0, 0.0, 0.0, 0.0, 0.0, 0.0, 0.0, 0.0, 0.0\n1746.42, 0.0, 0.0, 0.0, 0.0, 0.0, 0.0, 0.0, 0.0, 0.0\n0.0, 0.0, 0.0]\nclass = ipsweep.", fillcolor="#39e2e5fd"] ;
164 -> 165 ;
166 [label="dst_host_count <= 8.5\nentropy = 0.05\nsamples = 11\nvalue = [11.0, 0.0, 0.0, 0.0, 0.0, 0.0, 0.0, 0.0, 0.0, 0.0\n1746.42, 0.0, 0.0, 0.0, 0.0, 0.0, 0.0, 0.0, 0.0, 0.0\n0.0, 0.0, 0.0]\nclass = ipsweep.", fillcolor="#39e2e5fd"] ;
165 -> 166 ;
167 [label="dst_host_srv_count <= 7.5\nentropy = 0.09\nsamples = 4\nvalue = [5.0, 0.0, 0.0, 0.0, 0.0, 0.0, 0.0, 0.0, 0.0, 0.0\n436.61, 0.0, 0.0, 0.0, 0.0, 0.0, 0.0, 0.0, 0.0, 0.0\n0.0, 0.0, 0.0]\nclass = ipsweep.", fillcolor="#39e2e5fc"] ;
166 -> 167 ;
168 [label="src_bytes <= 24.0\nentropy = 0.07\nsamples = 2\nvalue = [2.0, 0.0, 0.0, 0.0, 0.0, 0.0, 0.0, 0.0, 0.0, 0.0\n218.3, 0.0, 0.0, 0.0, 0.0, 0.0, 0.0, 0.0, 0.0, 0.0\n0.0, 0.0, 0.0]\nclass = ipsweep.", fillcolor="#39e2e5fd"] ;
167 -> 168 ;
169 [label="entropy = 0.0\nsamples = 1\nvalue = [0.0, 0.0, 0.0, 0.0, 0.0, 0.0, 0.0, 0.0, 0.0, 0.0\n218.3, 0.0, 0.0, 0.0, 0.0, 0.0, 0.0, 0.0, 0.0, 0.0\n0.0, 0.0, 0.0]\nclass = ipsweep.", fillcolor="#39e2e5ff"] ;
168 -> 169 ;
170 [label="entropy = 0.0\nsamples = 1\nvalue = [2, 0, 0, 0, 0, 0, 0, 0, 0, 0, 0, 0, 0, 0\n0, 0, 0, 0, 0, 0, 0, 0, 0]\nclass = normal.", fillcolor="#e58139ff"] ;
168 -> 170 ;
171 [label="src_dst_bytes_diff <= -24.0\nentropy = 0.1\nsamples = 2\nvalue = [3.0, 0.0, 0.0, 0.0, 0.0, 0.0, 0.0, 0.0, 0.0, 0.0\n218.3, 0.0, 0.0, 0.0, 0.0, 0.0, 0.0, 0.0, 0.0, 0.0\n0.0, 0.0, 0.0]\nclass = ipsweep.", fillcolor="#39e2e5fb"] ;
167 -> 171 ;
172 [label="entropy = 0.0\nsamples = 1\nvalue = [3, 0, 0, 0, 0, 0, 0, 0, 0, 0, 0, 0, 0, 0\n0, 0, 0, 0, 0, 0, 0, 0, 0]\nclass = normal.", fillcolor="#e58139ff"] ;
171 -> 172 ;
173 [label="entropy = 0.0\nsamples = 1\nvalue = [0.0, 0.0, 0.0, 0.0, 0.0, 0.0, 0.0, 0.0, 0.0, 0.0\n218.3, 0.0, 0.0, 0.0, 0.0, 0.0, 0.0, 0.0, 0.0, 0.0\n0.0, 0.0, 0.0]\nclass = ipsweep.", fillcolor="#39e2e5ff"] ;
171 -> 173 ;
174 [label="dst_host_count <= 9.5\nentropy = 0.04\nsamples = 7\nvalue = [6.0, 0.0, 0.0, 0.0, 0.0, 0.0, 0.0, 0.0, 0.0, 0.0\n1309.82, 0.0, 0.0, 0.0, 0.0, 0.0, 0.0, 0.0, 0.0, 0.0\n0.0, 0.0, 0.0]\nclass = ipsweep.", fillcolor="#39e2e5fe"] ;
166 -> 174 ;
175 [label="entropy = 0.0\nsamples = 1\nvalue = [0.0, 0.0, 0.0, 0.0, 0.0, 0.0, 0.0, 0.0, 0.0, 0.0\n218.3, 0.0, 0.0, 0.0, 0.0, 0.0, 0.0, 0.0, 0.0, 0.0\n0.0, 0.0, 0.0]\nclass = ipsweep.", fillcolor="#39e2e5ff"] ;
174 -> 175 ;
176 [label="src_bytes <= 24.0\nentropy = 0.05\nsamples = 6\nvalue = [6.0, 0.0, 0.0, 0.0, 0.0, 0.0, 0.0, 0.0, 0.0, 0.0\n1091.51, 0.0, 0.0, 0.0, 0.0, 0.0, 0.0, 0.0, 0.0, 0.0\n0.0, 0.0, 0.0]\nclass = ipsweep.", fillcolor="#39e2e5fe"] ;
174 -> 176 ;
177 [label="entropy = 0.0\nsamples = 3\nvalue = [0.0, 0.0, 0.0, 0.0, 0.0, 0.0, 0.0, 0.0, 0.0, 0.0\n1091.51, 0.0, 0.0, 0.0, 0.0, 0.0, 0.0, 0.0, 0.0, 0.0\n0.0, 0.0, 0.0]\nclass = ipsweep.", fillcolor="#39e2e5ff"] ;
176 -> 177 ;
178 [label="entropy = 0.0\nsamples = 3\nvalue = [6, 0, 0, 0, 0, 0, 0, 0, 0, 0, 0, 0, 0, 0\n0, 0, 0, 0, 0, 0, 0, 0, 0]\nclass = normal.", fillcolor="#e58139ff"] ;
176 -> 178 ;
179 [label="entropy = 0.0\nsamples = 1\nvalue = [2, 0, 0, 0, 0, 0, 0, 0, 0, 0, 0, 0, 0, 0\n0, 0, 0, 0, 0, 0, 0, 0, 0]\nclass = normal.", fillcolor="#e58139ff"] ;
165 -> 179 ;
180 [label="entropy = 0.0\nsamples = 1\nvalue = [0.0, 0.0, 0.0, 0.0, 0.0, 0.0, 0.0, 0.0, 0.0, 0.0\n654.91, 0.0, 0.0, 0.0, 0.0, 0.0, 0.0, 0.0, 0.0, 0.0\n0.0, 0.0, 0.0]\nclass = ipsweep.", fillcolor="#39e2e5ff"] ;
164 -> 180 ;
181 [label="entropy = 0.0\nsamples = 3\nvalue = [6, 0, 0, 0, 0, 0, 0, 0, 0, 0, 0, 0, 0, 0\n0, 0, 0, 0, 0, 0, 0, 0, 0]\nclass = normal.", fillcolor="#e58139ff"] ;
163 -> 181 ;
182 [label="entropy = 0.0\nsamples = 4\nvalue = [9, 0, 0, 0, 0, 0, 0, 0, 0, 0, 0, 0, 0, 0\n0, 0, 0, 0, 0, 0, 0, 0, 0]\nclass = normal.", fillcolor="#e58139ff"] ;
162 -> 182 ;
183 [label="entropy = 0.0\nsamples = 184\nvalue = [305, 0, 0, 0, 0, 0, 0, 0, 0, 0, 0, 0, 0, 0\n0, 0, 0, 0, 0, 0, 0, 0, 0]\nclass = normal.", fillcolor="#e58139ff"] ;
161 -> 183 ;
184 [label="src_bytes <= 2.5\nentropy = 2.76\nsamples = 58599\nvalue = [58515.0, 0.0, 0.0, 0.0, 90293.94, 0.0, 0.0, 3932.97\n555077.61, 547679.55, 58068.49, 0.0, 0.0, 840.84, 0.0\n556501.88, 0.0, 88955.97, 0.0, 0.0, 373954.79, 0.0\n243844.0]\nclass = satan.", fillcolor="#6f39e500"] ;
2 -> 184 ;
185 [label="dst_host_count <= 71.5\nentropy = 1.66\nsamples = 37211\nvalue = [25943.0, 0.0, 0.0, 0.0, 90293.94, 0.0, 0.0, 0.0, 0.0\n546995.24, 58068.49, 0.0, 0.0, 0.0, 0.0, 549863.36, 0.0\n4709.43, 0.0, 0.0, 0.0, 0.0, 0.0]\nclass = satan.", fillcolor="#6f39e501"] ;
184 -> 185 ;
186 [label="dst_host_same_src_port_rate <= 0.11\nentropy = 1.39\nsamples = 14709\nvalue = [22823.0, 0.0, 0.0, 0.0, 204.76, 0.0, 0.0, 0.0, 0.0\n3877.78, 58068.49, 0.0, 0.0, 0.0, 0.0, 485.75, 0.0\n4709.43, 0.0, 0.0, 0.0, 0.0, 0.0]\nclass = ipsweep.", fillcolor="#39e2e585"] ;
185 -> 186 ;
187 [label="dst_host_diff_srv_rate <= 0.67\nentropy = 0.82\nsamples = 7393\nvalue = [11406.0, 0.0, 0.0, 0.0, 177.9, 0.0, 0.0, 0.0, 0.0\n1140.52, 55230.56, 0.0, 0.0, 0.0, 0.0, 161.92, 0.0\n0.0, 0.0, 0.0, 0.0, 0.0, 0.0]\nclass = ipsweep.", fillcolor="#39e2e5c5"] ;
186 -> 187 ;
188 [label="dst_host_serror_rate <= 0.11\nentropy = 0.63\nsamples = 7224\nvalue = [11406.0, 0.0, 0.0, 0.0, 177.9, 0.0, 0.0, 0.0, 0.0\n1140.52, 0.0, 0.0, 0.0, 0.0, 0.0, 161.92, 0.0, 0.0\n0.0, 0.0, 0.0, 0.0, 0.0]\nclass = normal.", fillcolor="#e58139df"] ;
187 -> 188 ;
189 [label="dst_host_diff_srv_rate <= 0.06\nentropy = 0.21\nsamples = 7209\nvalue = [11396.0, 0.0, 0.0, 0.0, 167.83, 0.0, 0.0, 0.0, 0.0\n0.0, 0.0, 0.0, 0.0, 0.0, 0.0, 161.92, 0.0, 0.0, 0.0\n0.0, 0.0, 0.0, 0.0]\nclass = normal.", fillcolor="#e58139f8"] ;
188 -> 189 ;
190 [label="diff_srv_rate <= 0.03\nentropy = 0.0\nsamples = 7066\nvalue = [11220.0, 0.0, 0.0, 0.0, 3.36, 0.0, 0.0, 0.0, 0.0\n0.0, 0.0, 0.0, 0.0, 0.0, 0.0, 0.0, 0.0, 0.0, 0.0\n0.0, 0.0, 0.0, 0.0]\nclass = normal.", fillcolor="#e58139ff"] ;
189 -> 190 ;
191 [label="entropy = 0.0\nsamples = 7063\nvalue = [11216, 0, 0, 0, 0, 0, 0, 0, 0, 0, 0, 0, 0, 0\n0, 0, 0, 0, 0, 0, 0, 0, 0]\nclass = normal.", fillcolor="#e58139ff"] ;
190 -> 191 ;
192 [label="dst_host_diff_srv_rate <= 0.03\nentropy = 0.99\nsamples = 3\nvalue = [4.0, 0.0, 0.0, 0.0, 3.36, 0.0, 0.0, 0.0, 0.0, 0.0\n0.0, 0.0, 0.0, 0.0, 0.0, 0.0, 0.0, 0.0, 0.0, 0.0\n0.0, 0.0, 0.0]\nclass = normal.", fillcolor="#e5813929"] ;
190 -> 192 ;
193 [label="entropy = 0.0\nsamples = 1\nvalue = [0.0, 0.0, 0.0, 0.0, 3.36, 0.0, 0.0, 0.0, 0.0, 0.0\n0.0, 0.0, 0.0, 0.0, 0.0, 0.0, 0.0, 0.0, 0.0, 0.0\n0.0, 0.0, 0.0]\nclass = neptune.", fillcolor="#98e539ff"] ;
192 -> 193 ;
194 [label="entropy = 0.0\nsamples = 2\nvalue = [4, 0, 0, 0, 0, 0, 0, 0, 0, 0, 0, 0, 0, 0\n0, 0, 0, 0, 0, 0, 0, 0, 0]\nclass = normal.", fillcolor="#e58139ff"] ;
192 -> 194 ;
195 [label="count <= 60.5\nentropy = 1.58\nsamples = 143\nvalue = [176.0, 0.0, 0.0, 0.0, 164.48, 0.0, 0.0, 0.0, 0.0\n0.0, 0.0, 0.0, 0.0, 0.0, 0.0, 161.92, 0.0, 0.0, 0.0\n0.0, 0.0, 0.0, 0.0]\nclass = normal.", fillcolor="#e5813909"] ;
189 -> 195 ;
196 [label="dst_host_same_srv_rate <= 0.05\nentropy = 1.0\nsamples = 111\nvalue = [176.0, 0.0, 0.0, 0.0, 0.0, 0.0, 0.0, 0.0, 0.0, 0.0\n0.0, 0.0, 0.0, 0.0, 0.0, 161.92, 0.0, 0.0, 0.0, 0.0\n0.0, 0.0, 0.0]\nclass = normal.", fillcolor="#e5813914"] ;
195 -> 196 ;
197 [label="src_bytes <= 0.5\nentropy = 0.1\nsamples = 2\nvalue = [2.0, 0.0, 0.0, 0.0, 0.0, 0.0, 0.0, 0.0, 0.0, 0.0\n0.0, 0.0, 0.0, 0.0, 0.0, 161.92, 0.0, 0.0, 0.0, 0.0\n0.0, 0.0, 0.0]\nclass = satan.", fillcolor="#6f39e5fc"] ;
196 -> 197 ;
198 [label="entropy = 0.0\nsamples = 1\nvalue = [2, 0, 0, 0, 0, 0, 0, 0, 0, 0, 0, 0, 0, 0\n0, 0, 0, 0, 0, 0, 0, 0, 0]\nclass = normal.", fillcolor="#e58139ff"] ;
197 -> 198 ;
199 [label="entropy = 0.0\nsamples = 1\nvalue = [0.0, 0.0, 0.0, 0.0, 0.0, 0.0, 0.0, 0.0, 0.0, 0.0\n0.0, 0.0, 0.0, 0.0, 0.0, 161.92, 0.0, 0.0, 0.0, 0.0\n0.0, 0.0, 0.0]\nclass = satan.", fillcolor="#6f39e5ff"] ;
197 -> 199 ;
200 [label="entropy = 0.0\nsamples = 109\nvalue = [174, 0, 0, 0, 0, 0, 0, 0, 0, 0, 0, 0, 0, 0\n0, 0, 0, 0, 0, 0, 0, 0, 0]\nclass = normal.", fillcolor="#e58139ff"] ;
196 -> 200 ;
201 [label="entropy = -0.0\nsamples = 32\nvalue = [0.0, 0.0, 0.0, 0.0, 164.48, 0.0, 0.0, 0.0, 0.0, 0.0\n0.0, 0.0, 0.0, 0.0, 0.0, 0.0, 0.0, 0.0, 0.0, 0.0\n0.0, 0.0, 0.0]\nclass = neptune.", fillcolor="#98e539ff"] ;
195 -> 201 ;
202 [label="srv_rerror_rate <= 0.5\nentropy = 0.14\nsamples = 15\nvalue = [10.0, 0.0, 0.0, 0.0, 10.07, 0.0, 0.0, 0.0, 0.0\n1140.52, 0.0, 0.0, 0.0, 0.0, 0.0, 0.0, 0.0, 0.0, 0.0\n0.0, 0.0, 0.0, 0.0]\nclass = portsweep.", fillcolor="#39e5bafb"] ;
188 -> 202 ;
203 [label="dst_host_count <= 15.5\nentropy = 0.92\nsamples = 7\nvalue = [5.0, 0.0, 0.0, 0.0, 10.07, 0.0, 0.0, 0.0, 0.0, 0.0\n0.0, 0.0, 0.0, 0.0, 0.0, 0.0, 0.0, 0.0, 0.0, 0.0\n0.0, 0.0, 0.0]\nclass = neptune.", fillcolor="#98e53980"] ;
202 -> 203 ;
204 [label="entropy = 0.0\nsamples = 1\nvalue = [1, 0, 0, 0, 0, 0, 0, 0, 0, 0, 0, 0, 0, 0\n0, 0, 0, 0, 0, 0, 0, 0, 0]\nclass = normal.", fillcolor="#e58139ff"] ;
203 -> 204 ;
205 [label="count <= 88.5\nentropy = 0.86\nsamples = 6\nvalue = [4.0, 0.0, 0.0, 0.0, 10.07, 0.0, 0.0, 0.0, 0.0, 0.0\n0.0, 0.0, 0.0, 0.0, 0.0, 0.0, 0.0, 0.0, 0.0, 0.0\n0.0, 0.0, 0.0]\nclass = neptune.", fillcolor="#98e5399a"] ;
203 -> 205 ;
206 [label="entropy = 0.0\nsamples = 4\nvalue = [4, 0, 0, 0, 0, 0, 0, 0, 0, 0, 0, 0, 0, 0\n0, 0, 0, 0, 0, 0, 0, 0, 0]\nclass = normal.", fillcolor="#e58139ff"] ;
205 -> 206 ;
207 [label="entropy = 0.0\nsamples = 2\nvalue = [0.0, 0.0, 0.0, 0.0, 10.07, 0.0, 0.0, 0.0, 0.0, 0.0\n0.0, 0.0, 0.0, 0.0, 0.0, 0.0, 0.0, 0.0, 0.0, 0.0\n0.0, 0.0, 0.0]\nclass = neptune.", fillcolor="#98e539ff"] ;
205 -> 207 ;
208 [label="dst_host_srv_diff_host_rate <= 0.12\nentropy = 0.04\nsamples = 8\nvalue = [5.0, 0.0, 0.0, 0.0, 0.0, 0.0, 0.0, 0.0, 0.0, 1140.52\n0.0, 0.0, 0.0, 0.0, 0.0, 0.0, 0.0, 0.0, 0.0, 0.0\n0.0, 0.0, 0.0]\nclass = portsweep.", fillcolor="#39e5bafe"] ;
202 -> 208 ;
209 [label="entropy = 0.0\nsamples = 4\nvalue = [0.0, 0.0, 0.0, 0.0, 0.0, 0.0, 0.0, 0.0, 0.0, 1140.52\n0.0, 0.0, 0.0, 0.0, 0.0, 0.0, 0.0, 0.0, 0.0, 0.0\n0.0, 0.0, 0.0]\nclass = portsweep.", fillcolor="#39e5baff"] ;
208 -> 209 ;
210 [label="entropy = 0.0\nsamples = 4\nvalue = [5, 0, 0, 0, 0, 0, 0, 0, 0, 0, 0, 0, 0, 0\n0, 0, 0, 0, 0, 0, 0, 0, 0]\nclass = normal.", fillcolor="#e58139ff"] ;
208 -> 210 ;
211 [label="entropy = -0.0\nsamples = 169\nvalue = [0.0, 0.0, 0.0, 0.0, 0.0, 0.0, 0.0, 0.0, 0.0, 0.0\n55230.56, 0.0, 0.0, 0.0, 0.0, 0.0, 0.0, 0.0, 0.0\n0.0, 0.0, 0.0, 0.0]\nclass = ipsweep.", fillcolor="#39e2e5ff"] ;
187 -> 211 ;
212 [label="same_srv_rate <= 0.75\nentropy = 1.82\nsamples = 7316\nvalue = [11417.0, 0.0, 0.0, 0.0, 26.85, 0.0, 0.0, 0.0, 0.0\n2737.26, 2837.93, 0.0, 0.0, 0.0, 0.0, 323.83, 0.0\n4709.43, 0.0, 0.0, 0.0, 0.0, 0.0]\nclass = normal.", fillcolor="#e5813963"] ;
186 -> 212 ;
213 [label="same_srv_rate <= 0.2\nentropy = 0.05\nsamples = 9\nvalue = [0.0, 0.0, 0.0, 0.0, 23.5, 0.0, 0.0, 0.0, 0.0, 0.0\n0.0, 0.0, 0.0, 0.0, 0.0, 0.0, 0.0, 4709.43, 0.0, 0.0\n0.0, 0.0, 0.0]\nclass = nmap.", fillcolor="#cb39e5fe"] ;
212 -> 213 ;
214 [label="entropy = 0.0\nsamples = 5\nvalue = [0.0, 0.0, 0.0, 0.0, 23.5, 0.0, 0.0, 0.0, 0.0, 0.0\n0.0, 0.0, 0.0, 0.0, 0.0, 0.0, 0.0, 0.0, 0.0, 0.0\n0.0, 0.0, 0.0]\nclass = neptune.", fillcolor="#98e539ff"] ;
213 -> 214 ;
215 [label="entropy = 0.0\nsamples = 4\nvalue = [0.0, 0.0, 0.0, 0.0, 0.0, 0.0, 0.0, 0.0, 0.0, 0.0\n0.0, 0.0, 0.0, 0.0, 0.0, 0.0, 0.0, 4709.43, 0.0, 0.0\n0.0, 0.0, 0.0]\nclass = nmap.", fillcolor="#cb39e5ff"] ;
213 -> 215 ;
216 [label="dst_host_rerror_rate <= 0.32\nentropy = 1.35\nsamples = 7307\nvalue = [11417.0, 0.0, 0.0, 0.0, 3.36, 0.0, 0.0, 0.0, 0.0\n2737.26, 2837.93, 0.0, 0.0, 0.0, 0.0, 323.83, 0.0, 0.0\n0.0, 0.0, 0.0, 0.0, 0.0]\nclass = normal.", fillcolor="#e5813997"] ;
212 -> 216 ;
217 [label="dst_host_count <= 36.5\nentropy = 0.77\nsamples = 120\nvalue = [171.0, 0.0, 0.0, 0.0, 3.36, 0.0, 0.0, 0.0, 0.0\n2737.26, 0.0, 0.0, 0.0, 0.0, 0.0, 323.83, 0.0, 0.0\n0.0, 0.0, 0.0, 0.0, 0.0]\nclass = portsweep.", fillcolor="#39e5bad3"] ;
216 -> 217 ;
218 [label="dst_host_same_srv_rate <= 0.21\nentropy = 0.98\nsamples = 113\nvalue = [171.0, 0.0, 0.0, 0.0, 3.36, 0.0, 0.0, 0.0, 0.0, 0.0\n0.0, 0.0, 0.0, 0.0, 0.0, 323.83, 0.0, 0.0, 0.0, 0.0\n0.0, 0.0, 0.0]\nclass = satan.", fillcolor="#6f39e577"] ;
217 -> 218 ;
219 [label="rerror_rate <= 0.5\nentropy = 0.08\nsamples = 4\nvalue = [3.0, 0.0, 0.0, 0.0, 0.0, 0.0, 0.0, 0.0, 0.0, 0.0\n0.0, 0.0, 0.0, 0.0, 0.0, 323.83, 0.0, 0.0, 0.0, 0.0\n0.0, 0.0, 0.0]\nclass = satan.", fillcolor="#6f39e5fd"] ;
218 -> 219 ;
220 [label="entropy = 0.0\nsamples = 1\nvalue = [0.0, 0.0, 0.0, 0.0, 0.0, 0.0, 0.0, 0.0, 0.0, 0.0\n0.0, 0.0, 0.0, 0.0, 0.0, 323.83, 0.0, 0.0, 0.0, 0.0\n0.0, 0.0, 0.0]\nclass = satan.", fillcolor="#6f39e5ff"] ;
219 -> 220 ;
221 [label="entropy = 0.0\nsamples = 3\nvalue = [3, 0, 0, 0, 0, 0, 0, 0, 0, 0, 0, 0, 0, 0\n0, 0, 0, 0, 0, 0, 0, 0, 0]\nclass = normal.", fillcolor="#e58139ff"] ;
219 -> 221 ;
222 [label="serror_rate <= 0.75\nentropy = 0.14\nsamples = 109\nvalue = [168.0, 0.0, 0.0, 0.0, 3.36, 0.0, 0.0, 0.0, 0.0, 0.0\n0.0, 0.0, 0.0, 0.0, 0.0, 0.0, 0.0, 0.0, 0.0, 0.0\n0.0, 0.0, 0.0]\nclass = normal.", fillcolor="#e58139fa"] ;
218 -> 222 ;
223 [label="entropy = -0.0\nsamples = 107\nvalue = [166, 0, 0, 0, 0, 0, 0, 0, 0, 0, 0, 0, 0, 0\n0, 0, 0, 0, 0, 0, 0, 0, 0]\nclass = normal.", fillcolor="#e58139ff"] ;
222 -> 223 ;
224 [label="srv_count <= 1.5\nentropy = 0.95\nsamples = 2\nvalue = [2.0, 0.0, 0.0, 0.0, 3.36, 0.0, 0.0, 0.0, 0.0, 0.0\n0.0, 0.0, 0.0, 0.0, 0.0, 0.0, 0.0, 0.0, 0.0, 0.0\n0.0, 0.0, 0.0]\nclass = neptune.", fillcolor="#98e53967"] ;
222 -> 224 ;
225 [label="entropy = 0.0\nsamples = 1\nvalue = [0.0, 0.0, 0.0, 0.0, 3.36, 0.0, 0.0, 0.0, 0.0, 0.0\n0.0, 0.0, 0.0, 0.0, 0.0, 0.0, 0.0, 0.0, 0.0, 0.0\n0.0, 0.0, 0.0]\nclass = neptune.", fillcolor="#98e539ff"] ;
224 -> 225 ;
226 [label="entropy = 0.0\nsamples = 1\nvalue = [2, 0, 0, 0, 0, 0, 0, 0, 0, 0, 0, 0, 0, 0\n0, 0, 0, 0, 0, 0, 0, 0, 0]\nclass = normal.", fillcolor="#e58139ff"] ;
224 -> 226 ;
227 [label="entropy = 0.0\nsamples = 7\nvalue = [0.0, 0.0, 0.0, 0.0, 0.0, 0.0, 0.0, 0.0, 0.0, 2737.26\n0.0, 0.0, 0.0, 0.0, 0.0, 0.0, 0.0, 0.0, 0.0, 0.0\n0.0, 0.0, 0.0]\nclass = portsweep.", fillcolor="#39e5baff"] ;
217 -> 227 ;
228 [label="dst_host_diff_srv_rate <= 0.88\nentropy = 0.72\nsamples = 7187\nvalue = [11246.0, 0.0, 0.0, 0.0, 0.0, 0.0, 0.0, 0.0, 0.0, 0.0\n2837.93, 0.0, 0.0, 0.0, 0.0, 0.0, 0.0, 0.0, 0.0, 0.0\n0.0, 0.0, 0.0]\nclass = normal.", fillcolor="#e58139bf"] ;
216 -> 228 ;
229 [label="dst_host_srv_count <= 110.5\nentropy = 0.37\nsamples = 7178\nvalue = [11244.0, 0.0, 0.0, 0.0, 0.0, 0.0, 0.0, 0.0, 0.0, 0.0\n873.21, 0.0, 0.0, 0.0, 0.0, 0.0, 0.0, 0.0, 0.0, 0.0\n0.0, 0.0, 0.0]\nclass = normal.", fillcolor="#e58139eb"] ;
228 -> 229 ;
230 [label="dst_host_srv_serror_rate <= 0.0\nentropy = 0.82\nsamples = 1671\nvalue = [2532.0, 0.0, 0.0, 0.0, 0.0, 0.0, 0.0, 0.0, 0.0, 0.0\n873.21, 0.0, 0.0, 0.0, 0.0, 0.0, 0.0, 0.0, 0.0, 0.0\n0.0, 0.0, 0.0]\nclass = normal.", fillcolor="#e58139a7"] ;
229 -> 230 ;
231 [label="dst_host_srv_rerror_rate <= 0.04\nentropy = 0.83\nsamples = 1612\nvalue = [2439.0, 0.0, 0.0, 0.0, 0.0, 0.0, 0.0, 0.0, 0.0, 0.0\n873.21, 0.0, 0.0, 0.0, 0.0, 0.0, 0.0, 0.0, 0.0, 0.0\n0.0, 0.0, 0.0]\nclass = normal.", fillcolor="#e58139a4"] ;
230 -> 231 ;
232 [label="entropy = 0.0\nsamples = 3\nvalue = [0.0, 0.0, 0.0, 0.0, 0.0, 0.0, 0.0, 0.0, 0.0, 0.0\n654.91, 0.0, 0.0, 0.0, 0.0, 0.0, 0.0, 0.0, 0.0, 0.0\n0.0, 0.0, 0.0]\nclass = ipsweep.", fillcolor="#39e2e5ff"] ;
231 -> 232 ;
233 [label="srv_rerror_rate <= 0.84\nentropy = 0.41\nsamples = 1609\nvalue = [2439.0, 0.0, 0.0, 0.0, 0.0, 0.0, 0.0, 0.0, 0.0, 0.0\n218.3, 0.0, 0.0, 0.0, 0.0, 0.0, 0.0, 0.0, 0.0, 0.0\n0.0, 0.0, 0.0]\nclass = normal.", fillcolor="#e58139e8"] ;
231 -> 233 ;
234 [label="entropy = 0.0\nsamples = 40\nvalue = [66, 0, 0, 0, 0, 0, 0, 0, 0, 0, 0, 0, 0, 0\n0, 0, 0, 0, 0, 0, 0, 0, 0]\nclass = normal.", fillcolor="#e58139ff"] ;
233 -> 234 ;
235 [label="dst_host_srv_count <= 1.5\nentropy = 0.42\nsamples = 1569\nvalue = [2373.0, 0.0, 0.0, 0.0, 0.0, 0.0, 0.0, 0.0, 0.0, 0.0\n218.3, 0.0, 0.0, 0.0, 0.0, 0.0, 0.0, 0.0, 0.0, 0.0\n0.0, 0.0, 0.0]\nclass = normal.", fillcolor="#e58139e8"] ;
233 -> 235 ;
236 [label="service <= 22.0\nentropy = 0.13\nsamples = 4\nvalue = [4.0, 0.0, 0.0, 0.0, 0.0, 0.0, 0.0, 0.0, 0.0, 0.0\n218.3, 0.0, 0.0, 0.0, 0.0, 0.0, 0.0, 0.0, 0.0, 0.0\n0.0, 0.0, 0.0]\nclass = ipsweep.", fillcolor="#39e2e5fa"] ;
235 -> 236 ;
237 [label="entropy = 0.0\nsamples = 1\nvalue = [0.0, 0.0, 0.0, 0.0, 0.0, 0.0, 0.0, 0.0, 0.0, 0.0\n218.3, 0.0, 0.0, 0.0, 0.0, 0.0, 0.0, 0.0, 0.0, 0.0\n0.0, 0.0, 0.0]\nclass = ipsweep.", fillcolor="#39e2e5ff"] ;
236 -> 237 ;
238 [label="entropy = 0.0\nsamples = 3\nvalue = [4, 0, 0, 0, 0, 0, 0, 0, 0, 0, 0, 0, 0, 0\n0, 0, 0, 0, 0, 0, 0, 0, 0]\nclass = normal.", fillcolor="#e58139ff"] ;
236 -> 238 ;
239 [label="entropy = 0.0\nsamples = 1565\nvalue = [2369, 0, 0, 0, 0, 0, 0, 0, 0, 0, 0, 0, 0, 0\n0, 0, 0, 0, 0, 0, 0, 0, 0]\nclass = normal.", fillcolor="#e58139ff"] ;
235 -> 239 ;
240 [label="entropy = 0.0\nsamples = 59\nvalue = [93, 0, 0, 0, 0, 0, 0, 0, 0, 0, 0, 0, 0, 0\n0, 0, 0, 0, 0, 0, 0, 0, 0]\nclass = normal.", fillcolor="#e58139ff"] ;
230 -> 240 ;
241 [label="entropy = 0.0\nsamples = 5507\nvalue = [8712, 0, 0, 0, 0, 0, 0, 0, 0, 0, 0, 0, 0, 0\n0, 0, 0, 0, 0, 0, 0, 0, 0]\nclass = normal.", fillcolor="#e58139ff"] ;
229 -> 241 ;
242 [label="dst_host_count <= 2.5\nentropy = 0.01\nsamples = 9\nvalue = [2.0, 0.0, 0.0, 0.0, 0.0, 0.0, 0.0, 0.0, 0.0, 0.0\n1964.72, 0.0, 0.0, 0.0, 0.0, 0.0, 0.0, 0.0, 0.0, 0.0\n0.0, 0.0, 0.0]\nclass = ipsweep.", fillcolor="#39e2e5ff"] ;
228 -> 242 ;
243 [label="entropy = 0.0\nsamples = 1\nvalue = [2, 0, 0, 0, 0, 0, 0, 0, 0, 0, 0, 0, 0, 0\n0, 0, 0, 0, 0, 0, 0, 0, 0]\nclass = normal.", fillcolor="#e58139ff"] ;
242 -> 243 ;
244 [label="entropy = 0.0\nsamples = 8\nvalue = [0.0, 0.0, 0.0, 0.0, 0.0, 0.0, 0.0, 0.0, 0.0, 0.0\n1964.72, 0.0, 0.0, 0.0, 0.0, 0.0, 0.0, 0.0, 0.0, 0.0\n0.0, 0.0, 0.0]\nclass = ipsweep.", fillcolor="#39e2e5ff"] ;
242 -> 244 ;
245 [label="diff_srv_rate <= 0.0\nentropy = 1.34\nsamples = 22502\nvalue = [3120.0, 0.0, 0.0, 0.0, 90089.19, 0.0, 0.0, 0.0, 0.0\n543117.46, 0.0, 0.0, 0.0, 0.0, 0.0, 549377.62, 0.0\n0.0, 0.0, 0.0, 0.0, 0.0, 0.0]\nclass = satan.", fillcolor="#6f39e502"] ;
185 -> 245 ;
246 [label="src_bytes <= 0.5\nentropy = 0.44\nsamples = 3002\nvalue = [3112.0, 0.0, 0.0, 0.0, 13.43, 0.0, 0.0, 0.0, 0.0\n337138.85, 0.0, 0.0, 0.0, 0.0, 0.0, 25744.49, 0.0, 0.0\n0.0, 0.0, 0.0, 0.0, 0.0]\nclass = portsweep.", fillcolor="#39e5bae9"] ;
245 -> 246 ;
247 [label="dst_host_srv_rerror_rate <= 1.0\nentropy = 0.14\nsamples = 2433\nvalue = [3112.0, 0.0, 0.0, 0.0, 13.43, 0.0, 0.0, 0.0, 0.0\n166060.27, 0.0, 0.0, 0.0, 0.0, 0.0, 161.92, 0.0, 0.0\n0.0, 0.0, 0.0, 0.0, 0.0]\nclass = portsweep.", fillcolor="#39e5bafa"] ;
246 -> 247 ;
248 [label="service <= 33.0\nentropy = 0.69\nsamples = 1118\nvalue = [1706.0, 0.0, 0.0, 0.0, 0.0, 0.0, 0.0, 0.0, 0.0\n7527.46, 0.0, 0.0, 0.0, 0.0, 0.0, 0.0, 0.0, 0.0, 0.0\n0.0, 0.0, 0.0, 0.0]\nclass = portsweep.", fillcolor="#39e5bac5"] ;
247 -> 248 ;
249 [label="dst_host_serror_rate <= 0.0\nentropy = 0.55\nsamples = 1011\nvalue = [1573.0, 0.0, 0.0, 0.0, 0.0, 0.0, 0.0, 0.0, 0.0\n228.1, 0.0, 0.0, 0.0, 0.0, 0.0, 0.0, 0.0, 0.0, 0.0\n0.0, 0.0, 0.0, 0.0]\nclass = normal.", fillcolor="#e58139da"] ;
248 -> 249 ;
250 [label="entropy = 0.0\nsamples = 849\nvalue = [1339, 0, 0, 0, 0, 0, 0, 0, 0, 0, 0, 0, 0, 0\n0, 0, 0, 0, 0, 0, 0, 0, 0]\nclass = normal.", fillcolor="#e58139ff"] ;
249 -> 250 ;
251 [label="dst_host_same_srv_rate <= 0.47\nentropy = 1.0\nsamples = 162\nvalue = [234.0, 0.0, 0.0, 0.0, 0.0, 0.0, 0.0, 0.0, 0.0, 228.1\n0.0, 0.0, 0.0, 0.0, 0.0, 0.0, 0.0, 0.0, 0.0, 0.0\n0.0, 0.0, 0.0]\nclass = normal.", fillcolor="#e5813906"] ;
249 -> 251 ;
252 [label="dst_host_count <= 135.0\nentropy = 0.04\nsamples = 2\nvalue = [1.0, 0.0, 0.0, 0.0, 0.0, 0.0, 0.0, 0.0, 0.0, 228.1\n0.0, 0.0, 0.0, 0.0, 0.0, 0.0, 0.0, 0.0, 0.0, 0.0\n0.0, 0.0, 0.0]\nclass = portsweep.", fillcolor="#39e5bafe"] ;
251 -> 252 ;
253 [label="entropy = 0.0\nsamples = 1\nvalue = [1, 0, 0, 0, 0, 0, 0, 0, 0, 0, 0, 0, 0, 0\n0, 0, 0, 0, 0, 0, 0, 0, 0]\nclass = normal.", fillcolor="#e58139ff"] ;
252 -> 253 ;
254 [label="entropy = 0.0\nsamples = 1\nvalue = [0.0, 0.0, 0.0, 0.0, 0.0, 0.0, 0.0, 0.0, 0.0, 228.1\n0.0, 0.0, 0.0, 0.0, 0.0, 0.0, 0.0, 0.0, 0.0, 0.0\n0.0, 0.0, 0.0]\nclass = portsweep.", fillcolor="#39e5baff"] ;
252 -> 254 ;
255 [label="entropy = 0.0\nsamples = 160\nvalue = [233, 0, 0, 0, 0, 0, 0, 0, 0, 0, 0, 0, 0, 0\n0, 0, 0, 0, 0, 0, 0, 0, 0]\nclass = normal.", fillcolor="#e58139ff"] ;
251 -> 255 ;
256 [label="dst_host_srv_count <= 71.5\nentropy = 0.13\nsamples = 107\nvalue = [133.0, 0.0, 0.0, 0.0, 0.0, 0.0, 0.0, 0.0, 0.0\n7299.35, 0.0, 0.0, 0.0, 0.0, 0.0, 0.0, 0.0, 0.0, 0.0\n0.0, 0.0, 0.0, 0.0]\nclass = portsweep.", fillcolor="#39e5bafa"] ;
248 -> 256 ;
257 [label="dst_host_same_src_port_rate <= 0.06\nentropy = 0.03\nsamples = 35\nvalue = [20.0, 0.0, 0.0, 0.0, 0.0, 0.0, 0.0, 0.0, 0.0\n7299.35, 0.0, 0.0, 0.0, 0.0, 0.0, 0.0, 0.0, 0.0, 0.0\n0.0, 0.0, 0.0, 0.0]\nclass = portsweep.", fillcolor="#39e5bafe"] ;
256 -> 257 ;
258 [label="serror_rate <= 0.75\nentropy = 0.4\nsamples = 13\nvalue = [20.0, 0.0, 0.0, 0.0, 0.0, 0.0, 0.0, 0.0, 0.0, 228.1\n0.0, 0.0, 0.0, 0.0, 0.0, 0.0, 0.0, 0.0, 0.0, 0.0\n0.0, 0.0, 0.0]\nclass = portsweep.", fillcolor="#39e5bae9"] ;
257 -> 258 ;
259 [label="entropy = 0.0\nsamples = 9\nvalue = [15, 0, 0, 0, 0, 0, 0, 0, 0, 0, 0, 0, 0, 0\n0, 0, 0, 0, 0, 0, 0, 0, 0]\nclass = normal.", fillcolor="#e58139ff"] ;
258 -> 259 ;
260 [label="flag <= 5.5\nentropy = 0.15\nsamples = 4\nvalue = [5.0, 0.0, 0.0, 0.0, 0.0, 0.0, 0.0, 0.0, 0.0, 228.1\n0.0, 0.0, 0.0, 0.0, 0.0, 0.0, 0.0, 0.0, 0.0, 0.0\n0.0, 0.0, 0.0]\nclass = portsweep.", fillcolor="#39e5baf9"] ;
258 -> 260 ;
261 [label="entropy = 0.0\nsamples = 1\nvalue = [0.0, 0.0, 0.0, 0.0, 0.0, 0.0, 0.0, 0.0, 0.0, 228.1\n0.0, 0.0, 0.0, 0.0, 0.0, 0.0, 0.0, 0.0, 0.0, 0.0\n0.0, 0.0, 0.0]\nclass = portsweep.", fillcolor="#39e5baff"] ;
260 -> 261 ;
262 [label="entropy = 0.0\nsamples = 3\nvalue = [5, 0, 0, 0, 0, 0, 0, 0, 0, 0, 0, 0, 0, 0\n0, 0, 0, 0, 0, 0, 0, 0, 0]\nclass = normal.", fillcolor="#e58139ff"] ;
260 -> 262 ;
263 [label="entropy = 0.0\nsamples = 22\nvalue = [0.0, 0.0, 0.0, 0.0, 0.0, 0.0, 0.0, 0.0, 0.0, 7071.25\n0.0, 0.0, 0.0, 0.0, 0.0, 0.0, 0.0, 0.0, 0.0, 0.0\n0.0, 0.0, 0.0]\nclass = portsweep.", fillcolor="#39e5baff"] ;
257 -> 263 ;
264 [label="entropy = 0.0\nsamples = 72\nvalue = [113, 0, 0, 0, 0, 0, 0, 0, 0, 0, 0, 0, 0, 0\n0, 0, 0, 0, 0, 0, 0, 0, 0]\nclass = normal.", fillcolor="#e58139ff"] ;
256 -> 264 ;
265 [label="dst_host_rerror_rate <= 0.67\nentropy = 0.09\nsamples = 1315\nvalue = [1406.0, 0.0, 0.0, 0.0, 13.43, 0.0, 0.0, 0.0, 0.0\n158532.82, 0.0, 0.0, 0.0, 0.0, 0.0, 161.92, 0.0, 0.0\n0.0, 0.0, 0.0, 0.0, 0.0]\nclass = portsweep.", fillcolor="#39e5bafc"] ;
247 -> 265 ;
266 [label="srv_count <= 1.5\nentropy = 0.02\nsamples = 275\nvalue = [19.0, 0.0, 0.0, 0.0, 0.0, 0.0, 0.0, 0.0, 0.0\n98085.05, 0.0, 0.0, 0.0, 0.0, 0.0, 161.92, 0.0, 0.0\n0.0, 0.0, 0.0, 0.0, 0.0]\nclass = portsweep.", fillcolor="#39e5baff"] ;
265 -> 266 ;
267 [label="dst_host_same_srv_rate <= 0.26\nentropy = 0.02\nsamples = 272\nvalue = [17.0, 0.0, 0.0, 0.0, 0.0, 0.0, 0.0, 0.0, 0.0\n97628.84, 0.0, 0.0, 0.0, 0.0, 0.0, 161.92, 0.0, 0.0\n0.0, 0.0, 0.0, 0.0, 0.0]\nclass = portsweep.", fillcolor="#39e5baff"] ;
266 -> 267 ;
268 [label="dst_host_diff_srv_rate <= 0.34\nentropy = 0.02\nsamples = 261\nvalue = [0.0, 0.0, 0.0, 0.0, 0.0, 0.0, 0.0, 0.0, 0.0\n97628.84, 0.0, 0.0, 0.0, 0.0, 0.0, 161.92, 0.0, 0.0\n0.0, 0.0, 0.0, 0.0, 0.0]\nclass = portsweep.", fillcolor="#39e5baff"] ;
267 -> 268 ;
269 [label="dst_host_count <= 254.0\nentropy = 0.04\nsamples = 112\nvalue = [0.0, 0.0, 0.0, 0.0, 0.0, 0.0, 0.0, 0.0, 0.0\n43568.01, 0.0, 0.0, 0.0, 0.0, 0.0, 161.92, 0.0, 0.0\n0.0, 0.0, 0.0, 0.0, 0.0]\nclass = portsweep.", fillcolor="#39e5bafe"] ;
268 -> 269 ;
270 [label="entropy = 0.0\nsamples = 67\nvalue = [0.0, 0.0, 0.0, 0.0, 0.0, 0.0, 0.0, 0.0, 0.0\n24863.42, 0.0, 0.0, 0.0, 0.0, 0.0, 0.0, 0.0, 0.0\n0.0, 0.0, 0.0, 0.0, 0.0]\nclass = portsweep.", fillcolor="#39e5baff"] ;
269 -> 270 ;
271 [label="dst_host_rerror_rate <= 0.11\nentropy = 0.07\nsamples = 45\nvalue = [0.0, 0.0, 0.0, 0.0, 0.0, 0.0, 0.0, 0.0, 0.0\n18704.59, 0.0, 0.0, 0.0, 0.0, 0.0, 161.92, 0.0, 0.0\n0.0, 0.0, 0.0, 0.0, 0.0]\nclass = portsweep.", fillcolor="#39e5bafd"] ;
269 -> 271 ;
272 [label="service <= 52.5\nentropy = 0.29\nsamples = 6\nvalue = [0.0, 0.0, 0.0, 0.0, 0.0, 0.0, 0.0, 0.0, 0.0, 2965.36\n0.0, 0.0, 0.0, 0.0, 0.0, 161.92, 0.0, 0.0, 0.0, 0.0\n0.0, 0.0, 0.0]\nclass = portsweep.", fillcolor="#39e5baf1"] ;
271 -> 272 ;
273 [label="dst_host_diff_srv_rate <= 0.22\nentropy = 0.38\nsamples = 5\nvalue = [0.0, 0.0, 0.0, 0.0, 0.0, 0.0, 0.0, 0.0, 0.0, 2052.94\n0.0, 0.0, 0.0, 0.0, 0.0, 161.92, 0.0, 0.0, 0.0, 0.0\n0.0, 0.0, 0.0]\nclass = portsweep.", fillcolor="#39e5baeb"] ;
272 -> 273 ;
274 [label="entropy = 0.0\nsamples = 4\nvalue = [0.0, 0.0, 0.0, 0.0, 0.0, 0.0, 0.0, 0.0, 0.0, 2052.94\n0.0, 0.0, 0.0, 0.0, 0.0, 0.0, 0.0, 0.0, 0.0, 0.0\n0.0, 0.0, 0.0]\nclass = portsweep.", fillcolor="#39e5baff"] ;
273 -> 274 ;
275 [label="entropy = -0.0\nsamples = 1\nvalue = [0.0, 0.0, 0.0, 0.0, 0.0, 0.0, 0.0, 0.0, 0.0, 0.0\n0.0, 0.0, 0.0, 0.0, 0.0, 161.92, 0.0, 0.0, 0.0, 0.0\n0.0, 0.0, 0.0]\nclass = satan.", fillcolor="#6f39e5ff"] ;
273 -> 275 ;
276 [label="entropy = 0.0\nsamples = 1\nvalue = [0.0, 0.0, 0.0, 0.0, 0.0, 0.0, 0.0, 0.0, 0.0, 912.42\n0.0, 0.0, 0.0, 0.0, 0.0, 0.0, 0.0, 0.0, 0.0, 0.0\n0.0, 0.0, 0.0]\nclass = portsweep.", fillcolor="#39e5baff"] ;
272 -> 276 ;
277 [label="entropy = 0.0\nsamples = 39\nvalue = [0.0, 0.0, 0.0, 0.0, 0.0, 0.0, 0.0, 0.0, 0.0\n15739.23, 0.0, 0.0, 0.0, 0.0, 0.0, 0.0, 0.0, 0.0\n0.0, 0.0, 0.0, 0.0, 0.0]\nclass = portsweep.", fillcolor="#39e5baff"] ;
271 -> 277 ;
278 [label="entropy = 0.0\nsamples = 149\nvalue = [0.0, 0.0, 0.0, 0.0, 0.0, 0.0, 0.0, 0.0, 0.0\n54060.83, 0.0, 0.0, 0.0, 0.0, 0.0, 0.0, 0.0, 0.0\n0.0, 0.0, 0.0, 0.0, 0.0]\nclass = portsweep.", fillcolor="#39e5baff"] ;
268 -> 278 ;
279 [label="entropy = 0.0\nsamples = 11\nvalue = [17, 0, 0, 0, 0, 0, 0, 0, 0, 0, 0, 0, 0, 0\n0, 0, 0, 0, 0, 0, 0, 0, 0]\nclass = normal.", fillcolor="#e58139ff"] ;
267 -> 279 ;
280 [label="dst_host_srv_count <= 32.0\nentropy = 0.04\nsamples = 3\nvalue = [2.0, 0.0, 0.0, 0.0, 0.0, 0.0, 0.0, 0.0, 0.0, 456.21\n0.0, 0.0, 0.0, 0.0, 0.0, 0.0, 0.0, 0.0, 0.0, 0.0\n0.0, 0.0, 0.0]\nclass = portsweep.", fillcolor="#39e5bafe"] ;
266 -> 280 ;
281 [label="entropy = 0.0\nsamples = 1\nvalue = [0.0, 0.0, 0.0, 0.0, 0.0, 0.0, 0.0, 0.0, 0.0, 456.21\n0.0, 0.0, 0.0, 0.0, 0.0, 0.0, 0.0, 0.0, 0.0, 0.0\n0.0, 0.0, 0.0]\nclass = portsweep.", fillcolor="#39e5baff"] ;
280 -> 281 ;
282 [label="entropy = 0.0\nsamples = 2\nvalue = [2, 0, 0, 0, 0, 0, 0, 0, 0, 0, 0, 0, 0, 0\n0, 0, 0, 0, 0, 0, 0, 0, 0]\nclass = normal.", fillcolor="#e58139ff"] ;
280 -> 282 ;
283 [label="dst_host_srv_count <= 13.0\nentropy = 0.16\nsamples = 1040\nvalue = [1387.0, 0.0, 0.0, 0.0, 13.43, 0.0, 0.0, 0.0, 0.0\n60447.76, 0.0, 0.0, 0.0, 0.0, 0.0, 0.0, 0.0, 0.0\n0.0, 0.0, 0.0, 0.0, 0.0]\nclass = portsweep.", fillcolor="#39e5baf9"] ;
265 -> 283 ;
284 [label="entropy = 0.0\nsamples = 173\nvalue = [0.0, 0.0, 0.0, 0.0, 0.0, 0.0, 0.0, 0.0, 0.0\n60447.76, 0.0, 0.0, 0.0, 0.0, 0.0, 0.0, 0.0, 0.0\n0.0, 0.0, 0.0, 0.0, 0.0]\nclass = portsweep.", fillcolor="#39e5baff"] ;
283 -> 284 ;
285 [label="dst_host_same_srv_rate <= 0.39\nentropy = 0.08\nsamples = 867\nvalue = [1387.0, 0.0, 0.0, 0.0, 13.43, 0.0, 0.0, 0.0, 0.0\n0.0, 0.0, 0.0, 0.0, 0.0, 0.0, 0.0, 0.0, 0.0, 0.0\n0.0, 0.0, 0.0, 0.0]\nclass = normal.", fillcolor="#e58139fd"] ;
283 -> 285 ;
286 [label="entropy = 0.0\nsamples = 2\nvalue = [0.0, 0.0, 0.0, 0.0, 13.43, 0.0, 0.0, 0.0, 0.0, 0.0\n0.0, 0.0, 0.0, 0.0, 0.0, 0.0, 0.0, 0.0, 0.0, 0.0\n0.0, 0.0, 0.0]\nclass = neptune.", fillcolor="#98e539ff"] ;
285 -> 286 ;
287 [label="entropy = 0.0\nsamples = 865\nvalue = [1387, 0, 0, 0, 0, 0, 0, 0, 0, 0, 0, 0, 0, 0\n0, 0, 0, 0, 0, 0, 0, 0, 0]\nclass = normal.", fillcolor="#e58139ff"] ;
285 -> 287 ;
288 [label="dst_host_srv_rerror_rate <= 0.5\nentropy = 0.56\nsamples = 569\nvalue = [0.0, 0.0, 0.0, 0.0, 0.0, 0.0, 0.0, 0.0, 0.0\n171078.58, 0.0, 0.0, 0.0, 0.0, 0.0, 25582.57, 0.0, 0.0\n0.0, 0.0, 0.0, 0.0, 0.0]\nclass = portsweep.", fillcolor="#39e5bad9"] ;
246 -> 288 ;
289 [label="entropy = 0.0\nsamples = 101\nvalue = [0.0, 0.0, 0.0, 0.0, 0.0, 0.0, 0.0, 0.0, 0.0, 0.0\n0.0, 0.0, 0.0, 0.0, 0.0, 25582.57, 0.0, 0.0, 0.0\n0.0, 0.0, 0.0, 0.0]\nclass = satan.", fillcolor="#6f39e5ff"] ;
288 -> 289 ;
290 [label="entropy = -0.0\nsamples = 468\nvalue = [0.0, 0.0, 0.0, 0.0, 0.0, 0.0, 0.0, 0.0, 0.0\n171078.58, 0.0, 0.0, 0.0, 0.0, 0.0, 0.0, 0.0, 0.0\n0.0, 0.0, 0.0, 0.0, 0.0]\nclass = portsweep.", fillcolor="#39e5baff"] ;
288 -> 290 ;
291 [label="rerror_rate <= 0.99\nentropy = 1.26\nsamples = 19500\nvalue = [8.0, 0.0, 0.0, 0.0, 90075.76, 0.0, 0.0, 0.0, 0.0\n205978.61, 0.0, 0.0, 0.0, 0.0, 0.0, 523633.13, 0.0\n0.0, 0.0, 0.0, 0.0, 0.0, 0.0]\nclass = satan.", fillcolor="#6f39e584"] ;
245 -> 291 ;
292 [label="srv_serror_rate <= 0.32\nentropy = 0.42\nsamples = 2165\nvalue = [8.0, 0.0, 0.0, 0.0, 0.0, 0.0, 0.0, 0.0, 0.0, 47902.0\n0.0, 0.0, 0.0, 0.0, 0.0, 519423.34, 0.0, 0.0, 0.0\n0.0, 0.0, 0.0, 0.0]\nclass = satan.", fillcolor="#6f39e5e7"] ;
291 -> 292 ;
293 [label="dst_host_same_src_port_rate <= 0.05\nentropy = 0.13\nsamples = 1689\nvalue = [3.0, 0.0, 0.0, 0.0, 0.0, 0.0, 0.0, 0.0, 0.0, 8211.77\n0.0, 0.0, 0.0, 0.0, 0.0, 429884.34, 0.0, 0.0, 0.0\n0.0, 0.0, 0.0, 0.0]\nclass = satan.", fillcolor="#6f39e5fa"] ;
292 -> 293 ;
294 [label="dst_host_serror_rate <= 0.0\nentropy = 0.0\nsamples = 1051\nvalue = [3.0, 0.0, 0.0, 0.0, 0.0, 0.0, 0.0, 0.0, 0.0, 0.0\n0.0, 0.0, 0.0, 0.0, 0.0, 270883.81, 0.0, 0.0, 0.0\n0.0, 0.0, 0.0, 0.0]\nclass = satan.", fillcolor="#6f39e5ff"] ;
293 -> 294 ;
295 [label="service <= 28.5\nentropy = 0.0\nsamples = 144\nvalue = [3.0, 0.0, 0.0, 0.0, 0.0, 0.0, 0.0, 0.0, 0.0, 0.0\n0.0, 0.0, 0.0, 0.0, 0.0, 37240.45, 0.0, 0.0, 0.0\n0.0, 0.0, 0.0, 0.0]\nclass = satan.", fillcolor="#6f39e5ff"] ;
294 -> 295 ;
296 [label="dst_host_same_srv_rate <= 0.5\nentropy = 0.04\nsamples = 4\nvalue = [3.0, 0.0, 0.0, 0.0, 0.0, 0.0, 0.0, 0.0, 0.0, 0.0\n0.0, 0.0, 0.0, 0.0, 0.0, 647.66, 0.0, 0.0, 0.0, 0.0\n0.0, 0.0, 0.0]\nclass = satan.", fillcolor="#6f39e5fe"] ;
295 -> 296 ;
297 [label="entropy = 0.0\nsamples = 3\nvalue = [0.0, 0.0, 0.0, 0.0, 0.0, 0.0, 0.0, 0.0, 0.0, 0.0\n0.0, 0.0, 0.0, 0.0, 0.0, 647.66, 0.0, 0.0, 0.0, 0.0\n0.0, 0.0, 0.0]\nclass = satan.", fillcolor="#6f39e5ff"] ;
296 -> 297 ;
298 [label="entropy = 0.0\nsamples = 1\nvalue = [3, 0, 0, 0, 0, 0, 0, 0, 0, 0, 0, 0, 0, 0\n0, 0, 0, 0, 0, 0, 0, 0, 0]\nclass = normal.", fillcolor="#e58139ff"] ;
296 -> 298 ;
299 [label="entropy = 0.0\nsamples = 140\nvalue = [0.0, 0.0, 0.0, 0.0, 0.0, 0.0, 0.0, 0.0, 0.0, 0.0\n0.0, 0.0, 0.0, 0.0, 0.0, 36592.79, 0.0, 0.0, 0.0\n0.0, 0.0, 0.0, 0.0]\nclass = satan.", fillcolor="#6f39e5ff"] ;
295 -> 299 ;
300 [label="entropy = 0.0\nsamples = 907\nvalue = [0.0, 0.0, 0.0, 0.0, 0.0, 0.0, 0.0, 0.0, 0.0, 0.0\n0.0, 0.0, 0.0, 0.0, 0.0, 233643.35, 0.0, 0.0, 0.0\n0.0, 0.0, 0.0, 0.0]\nclass = satan.", fillcolor="#6f39e5ff"] ;
294 -> 300 ;
301 [label="dst_host_srv_count <= 1.5\nentropy = 0.28\nsamples = 638\nvalue = [0.0, 0.0, 0.0, 0.0, 0.0, 0.0, 0.0, 0.0, 0.0, 8211.77\n0.0, 0.0, 0.0, 0.0, 0.0, 159000.54, 0.0, 0.0, 0.0\n0.0, 0.0, 0.0, 0.0]\nclass = satan.", fillcolor="#6f39e5f2"] ;
293 -> 301 ;
302 [label="srv_rerror_rate <= 0.5\nentropy = 0.75\nsamples = 122\nvalue = [0.0, 0.0, 0.0, 0.0, 0.0, 0.0, 0.0, 0.0, 0.0, 7299.35\n0.0, 0.0, 0.0, 0.0, 0.0, 27039.81, 0.0, 0.0, 0.0\n0.0, 0.0, 0.0, 0.0]\nclass = satan.", fillcolor="#6f39e5ba"] ;
301 -> 302 ;
303 [label="entropy = 0.0\nsamples = 103\nvalue = [0.0, 0.0, 0.0, 0.0, 0.0, 0.0, 0.0, 0.0, 0.0, 0.0\n0.0, 0.0, 0.0, 0.0, 0.0, 27039.81, 0.0, 0.0, 0.0\n0.0, 0.0, 0.0, 0.0]\nclass = satan.", fillcolor="#6f39e5ff"] ;
302 -> 303 ;
304 [label="entropy = -0.0\nsamples = 19\nvalue = [0.0, 0.0, 0.0, 0.0, 0.0, 0.0, 0.0, 0.0, 0.0, 7299.35\n0.0, 0.0, 0.0, 0.0, 0.0, 0.0, 0.0, 0.0, 0.0, 0.0\n0.0, 0.0, 0.0]\nclass = portsweep.", fillcolor="#39e5baff"] ;
302 -> 304 ;
305 [label="dst_bytes <= 0.5\nentropy = 0.06\nsamples = 516\nvalue = [0.0, 0.0, 0.0, 0.0, 0.0, 0.0, 0.0, 0.0, 0.0, 912.42\n0.0, 0.0, 0.0, 0.0, 0.0, 131960.73, 0.0, 0.0, 0.0\n0.0, 0.0, 0.0, 0.0]\nclass = satan.", fillcolor="#6f39e5fd"] ;
301 -> 305 ;
306 [label="dst_host_srv_count <= 2.5\nentropy = 0.06\nsamples = 506\nvalue = [0.0, 0.0, 0.0, 0.0, 0.0, 0.0, 0.0, 0.0, 0.0, 912.42\n0.0, 0.0, 0.0, 0.0, 0.0, 129370.09, 0.0, 0.0, 0.0\n0.0, 0.0, 0.0, 0.0]\nclass = satan.", fillcolor="#6f39e5fd"] ;
305 -> 306 ;
307 [label="count <= 3.5\nentropy = 0.24\nsamples = 87\nvalue = [0.0, 0.0, 0.0, 0.0, 0.0, 0.0, 0.0, 0.0, 0.0, 912.42\n0.0, 0.0, 0.0, 0.0, 0.0, 21858.53, 0.0, 0.0, 0.0\n0.0, 0.0, 0.0, 0.0]\nclass = satan.", fillcolor="#6f39e5f4"] ;
306 -> 307 ;
308 [label="entropy = 0.0\nsamples = 2\nvalue = [0.0, 0.0, 0.0, 0.0, 0.0, 0.0, 0.0, 0.0, 0.0, 912.42\n0.0, 0.0, 0.0, 0.0, 0.0, 0.0, 0.0, 0.0, 0.0, 0.0\n0.0, 0.0, 0.0]\nclass = portsweep.", fillcolor="#39e5baff"] ;
307 -> 308 ;
309 [label="entropy = 0.0\nsamples = 85\nvalue = [0.0, 0.0, 0.0, 0.0, 0.0, 0.0, 0.0, 0.0, 0.0, 0.0\n0.0, 0.0, 0.0, 0.0, 0.0, 21858.53, 0.0, 0.0, 0.0\n0.0, 0.0, 0.0, 0.0]\nclass = satan.", fillcolor="#6f39e5ff"] ;
307 -> 309 ;
310 [label="entropy = -0.0\nsamples = 419\nvalue = [0.0, 0.0, 0.0, 0.0, 0.0, 0.0, 0.0, 0.0, 0.0, 0.0\n0.0, 0.0, 0.0, 0.0, 0.0, 107511.56, 0.0, 0.0, 0.0\n0.0, 0.0, 0.0, 0.0]\nclass = satan.", fillcolor="#6f39e5ff"] ;
306 -> 310 ;
311 [label="entropy = 0.0\nsamples = 10\nvalue = [0.0, 0.0, 0.0, 0.0, 0.0, 0.0, 0.0, 0.0, 0.0, 0.0\n0.0, 0.0, 0.0, 0.0, 0.0, 2590.64, 0.0, 0.0, 0.0, 0.0\n0.0, 0.0, 0.0]\nclass = satan.", fillcolor="#6f39e5ff"] ;
305 -> 311 ;
312 [label="dst_host_diff_srv_rate <= 0.41\nentropy = 0.89\nsamples = 476\nvalue = [5.0, 0.0, 0.0, 0.0, 0.0, 0.0, 0.0, 0.0, 0.0\n39690.23, 0.0, 0.0, 0.0, 0.0, 0.0, 89539.0, 0.0, 0.0\n0.0, 0.0, 0.0, 0.0, 0.0]\nclass = satan.", fillcolor="#6f39e58e"] ;
292 -> 312 ;
313 [label="dst_host_rerror_rate <= 0.0\nentropy = 0.0\nsamples = 105\nvalue = [4.0, 0.0, 0.0, 0.0, 0.0, 0.0, 0.0, 0.0, 0.0\n39234.02, 0.0, 0.0, 0.0, 0.0, 0.0, 0.0, 0.0, 0.0\n0.0, 0.0, 0.0, 0.0, 0.0]\nclass = portsweep.", fillcolor="#39e5baff"] ;
312 -> 313 ;
314 [label="entropy = 0.0\nsamples = 1\nvalue = [4, 0, 0, 0, 0, 0, 0, 0, 0, 0, 0, 0, 0, 0\n0, 0, 0, 0, 0, 0, 0, 0, 0]\nclass = normal.", fillcolor="#e58139ff"] ;
313 -> 314 ;
315 [label="entropy = 0.0\nsamples = 104\nvalue = [0.0, 0.0, 0.0, 0.0, 0.0, 0.0, 0.0, 0.0, 0.0\n39234.02, 0.0, 0.0, 0.0, 0.0, 0.0, 0.0, 0.0, 0.0\n0.0, 0.0, 0.0, 0.0, 0.0]\nclass = portsweep.", fillcolor="#39e5baff"] ;
313 -> 315 ;
316 [label="dst_host_rerror_rate <= 0.94\nentropy = 0.05\nsamples = 371\nvalue = [1.0, 0.0, 0.0, 0.0, 0.0, 0.0, 0.0, 0.0, 0.0, 456.21\n0.0, 0.0, 0.0, 0.0, 0.0, 89539.0, 0.0, 0.0, 0.0, 0.0\n0.0, 0.0, 0.0]\nclass = satan.", fillcolor="#6f39e5fe"] ;
312 -> 316 ;
317 [label="rerror_rate <= 0.29\nentropy = 0.0\nsamples = 346\nvalue = [1.0, 0.0, 0.0, 0.0, 0.0, 0.0, 0.0, 0.0, 0.0, 0.0\n0.0, 0.0, 0.0, 0.0, 0.0, 85005.38, 0.0, 0.0, 0.0\n0.0, 0.0, 0.0, 0.0]\nclass = satan.", fillcolor="#6f39e5ff"] ;
316 -> 317 ;
318 [label="entropy = 0.0\nsamples = 1\nvalue = [1, 0, 0, 0, 0, 0, 0, 0, 0, 0, 0, 0, 0, 0\n0, 0, 0, 0, 0, 0, 0, 0, 0]\nclass = normal.", fillcolor="#e58139ff"] ;
317 -> 318 ;
319 [label="entropy = 0.0\nsamples = 345\nvalue = [0.0, 0.0, 0.0, 0.0, 0.0, 0.0, 0.0, 0.0, 0.0, 0.0\n0.0, 0.0, 0.0, 0.0, 0.0, 85005.38, 0.0, 0.0, 0.0\n0.0, 0.0, 0.0, 0.0]\nclass = satan.", fillcolor="#6f39e5ff"] ;
317 -> 319 ;
320 [label="dst_host_rerror_rate <= 0.98\nentropy = 0.44\nsamples = 25\nvalue = [0.0, 0.0, 0.0, 0.0, 0.0, 0.0, 0.0, 0.0, 0.0, 456.21\n0.0, 0.0, 0.0, 0.0, 0.0, 4533.62, 0.0, 0.0, 0.0, 0.0\n0.0, 0.0, 0.0]\nclass = satan.", fillcolor="#6f39e5e5"] ;
316 -> 320 ;
321 [label="service <= 46.5\nentropy = 0.54\nsamples = 18\nvalue = [0.0, 0.0, 0.0, 0.0, 0.0, 0.0, 0.0, 0.0, 0.0, 456.21\n0.0, 0.0, 0.0, 0.0, 0.0, 3238.3, 0.0, 0.0, 0.0, 0.0\n0.0, 0.0, 0.0]\nclass = satan.", fillcolor="#6f39e5db"] ;
320 -> 321 ;
322 [label="entropy = -0.0\nsamples = 11\nvalue = [0.0, 0.0, 0.0, 0.0, 0.0, 0.0, 0.0, 0.0, 0.0, 0.0\n0.0, 0.0, 0.0, 0.0, 0.0, 2104.9, 0.0, 0.0, 0.0, 0.0\n0.0, 0.0, 0.0]\nclass = satan.", fillcolor="#6f39e5ff"] ;
321 -> 322 ;
323 [label="dst_host_rerror_rate <= 0.97\nentropy = 0.86\nsamples = 7\nvalue = [0.0, 0.0, 0.0, 0.0, 0.0, 0.0, 0.0, 0.0, 0.0, 456.21\n0.0, 0.0, 0.0, 0.0, 0.0, 1133.41, 0.0, 0.0, 0.0, 0.0\n0.0, 0.0, 0.0]\nclass = satan.", fillcolor="#6f39e598"] ;
321 -> 323 ;
324 [label="dst_host_serror_rate <= 0.05\nentropy = 0.7\nsamples = 5\nvalue = [0.0, 0.0, 0.0, 0.0, 0.0, 0.0, 0.0, 0.0, 0.0, 228.1\n0.0, 0.0, 0.0, 0.0, 0.0, 971.49, 0.0, 0.0, 0.0, 0.0\n0.0, 0.0, 0.0]\nclass = satan.", fillcolor="#6f39e5c3"] ;
323 -> 324 ;
325 [label="entropy = 0.0\nsamples = 2\nvalue = [0.0, 0.0, 0.0, 0.0, 0.0, 0.0, 0.0, 0.0, 0.0, 0.0\n0.0, 0.0, 0.0, 0.0, 0.0, 485.75, 0.0, 0.0, 0.0, 0.0\n0.0, 0.0, 0.0]\nclass = satan.", fillcolor="#6f39e5ff"] ;
324 -> 325 ;
326 [label="count <= 180.5\nentropy = 0.9\nsamples = 3\nvalue = [0.0, 0.0, 0.0, 0.0, 0.0, 0.0, 0.0, 0.0, 0.0, 228.1\n0.0, 0.0, 0.0, 0.0, 0.0, 485.75, 0.0, 0.0, 0.0, 0.0\n0.0, 0.0, 0.0]\nclass = satan.", fillcolor="#6f39e587"] ;
324 -> 326 ;
327 [label="entropy = 0.0\nsamples = 1\nvalue = [0.0, 0.0, 0.0, 0.0, 0.0, 0.0, 0.0, 0.0, 0.0, 228.1\n0.0, 0.0, 0.0, 0.0, 0.0, 0.0, 0.0, 0.0, 0.0, 0.0\n0.0, 0.0, 0.0]\nclass = portsweep.", fillcolor="#39e5baff"] ;
326 -> 327 ;
328 [label="entropy = 0.0\nsamples = 2\nvalue = [0.0, 0.0, 0.0, 0.0, 0.0, 0.0, 0.0, 0.0, 0.0, 0.0\n0.0, 0.0, 0.0, 0.0, 0.0, 485.75, 0.0, 0.0, 0.0, 0.0\n0.0, 0.0, 0.0]\nclass = satan.", fillcolor="#6f39e5ff"] ;
326 -> 328 ;
329 [label="dst_host_serror_rate <= 0.02\nentropy = 0.98\nsamples = 2\nvalue = [0.0, 0.0, 0.0, 0.0, 0.0, 0.0, 0.0, 0.0, 0.0, 228.1\n0.0, 0.0, 0.0, 0.0, 0.0, 161.92, 0.0, 0.0, 0.0, 0.0\n0.0, 0.0, 0.0]\nclass = portsweep.", fillcolor="#39e5ba4a"] ;
323 -> 329 ;
330 [label="entropy = 0.0\nsamples = 1\nvalue = [0.0, 0.0, 0.0, 0.0, 0.0, 0.0, 0.0, 0.0, 0.0, 0.0\n0.0, 0.0, 0.0, 0.0, 0.0, 161.92, 0.0, 0.0, 0.0, 0.0\n0.0, 0.0, 0.0]\nclass = satan.", fillcolor="#6f39e5ff"] ;
329 -> 330 ;
331 [label="entropy = 0.0\nsamples = 1\nvalue = [0.0, 0.0, 0.0, 0.0, 0.0, 0.0, 0.0, 0.0, 0.0, 228.1\n0.0, 0.0, 0.0, 0.0, 0.0, 0.0, 0.0, 0.0, 0.0, 0.0\n0.0, 0.0, 0.0]\nclass = portsweep.", fillcolor="#39e5baff"] ;
329 -> 331 ;
332 [label="entropy = 0.0\nsamples = 7\nvalue = [0.0, 0.0, 0.0, 0.0, 0.0, 0.0, 0.0, 0.0, 0.0, 0.0\n0.0, 0.0, 0.0, 0.0, 0.0, 1295.32, 0.0, 0.0, 0.0, 0.0\n0.0, 0.0, 0.0]\nclass = satan.", fillcolor="#6f39e5ff"] ;
320 -> 332 ;
333 [label="srv_count <= 2.5\nentropy = 1.05\nsamples = 17335\nvalue = [0.0, 0.0, 0.0, 0.0, 90075.76, 0.0, 0.0, 0.0, 0.0\n158076.61, 0.0, 0.0, 0.0, 0.0, 0.0, 4209.79, 0.0, 0.0\n0.0, 0.0, 0.0, 0.0, 0.0]\nclass = portsweep.", fillcolor="#39e5ba6b"] ;
291 -> 333 ;
334 [label="diff_srv_rate <= 0.47\nentropy = 0.44\nsamples = 2012\nvalue = [0.0, 0.0, 0.0, 0.0, 8156.66, 0.0, 0.0, 0.0, 0.0\n158076.61, 0.0, 0.0, 0.0, 0.0, 0.0, 4209.79, 0.0, 0.0\n0.0, 0.0, 0.0, 0.0, 0.0]\nclass = portsweep.", fillcolor="#39e5baec"] ;
333 -> 334 ;
335 [label="entropy = -0.0\nsamples = 1555\nvalue = [0.0, 0.0, 0.0, 0.0, 8156.66, 0.0, 0.0, 0.0, 0.0, 0.0\n0.0, 0.0, 0.0, 0.0, 0.0, 0.0, 0.0, 0.0, 0.0, 0.0\n0.0, 0.0, 0.0]\nclass = neptune.", fillcolor="#98e539ff"] ;
334 -> 335 ;
336 [label="srv_serror_rate <= 0.5\nentropy = 0.17\nsamples = 457\nvalue = [0.0, 0.0, 0.0, 0.0, 0.0, 0.0, 0.0, 0.0, 0.0\n158076.61, 0.0, 0.0, 0.0, 0.0, 0.0, 4209.79, 0.0, 0.0\n0.0, 0.0, 0.0, 0.0, 0.0]\nclass = portsweep.", fillcolor="#39e5baf8"] ;
334 -> 336 ;
337 [label="dst_host_same_src_port_rate <= 0.0\nentropy = 0.15\nsamples = 455\nvalue = [0.0, 0.0, 0.0, 0.0, 0.0, 0.0, 0.0, 0.0, 0.0\n158076.61, 0.0, 0.0, 0.0, 0.0, 0.0, 3400.22, 0.0, 0.0\n0.0, 0.0, 0.0, 0.0, 0.0]\nclass = portsweep.", fillcolor="#39e5bafa"] ;
336 -> 337 ;
338 [label="entropy = 0.0\nsamples = 12\nvalue = [0.0, 0.0, 0.0, 0.0, 0.0, 0.0, 0.0, 0.0, 0.0, 0.0\n0.0, 0.0, 0.0, 0.0, 0.0, 3400.22, 0.0, 0.0, 0.0, 0.0\n0.0, 0.0, 0.0]\nclass = satan.", fillcolor="#6f39e5ff"] ;
337 -> 338 ;
339 [label="entropy = -0.0\nsamples = 443\nvalue = [0.0, 0.0, 0.0, 0.0, 0.0, 0.0, 0.0, 0.0, 0.0\n158076.61, 0.0, 0.0, 0.0, 0.0, 0.0, 0.0, 0.0, 0.0\n0.0, 0.0, 0.0, 0.0, 0.0]\nclass = portsweep.", fillcolor="#39e5baff"] ;
337 -> 339 ;
340 [label="entropy = -0.0\nsamples = 2\nvalue = [0.0, 0.0, 0.0, 0.0, 0.0, 0.0, 0.0, 0.0, 0.0, 0.0\n0.0, 0.0, 0.0, 0.0, 0.0, 809.58, 0.0, 0.0, 0.0, 0.0\n0.0, 0.0, 0.0]\nclass = satan.", fillcolor="#6f39e5ff"] ;
336 -> 340 ;
341 [label="entropy = 0.0\nsamples = 15323\nvalue = [0.0, 0.0, 0.0, 0.0, 81919.1, 0.0, 0.0, 0.0, 0.0, 0.0\n0.0, 0.0, 0.0, 0.0, 0.0, 0.0, 0.0, 0.0, 0.0, 0.0\n0.0, 0.0, 0.0]\nclass = neptune.", fillcolor="#98e539ff"] ;
333 -> 341 ;
342 [label="wrong_fragment <= 0.5\nentropy = 1.96\nsamples = 21388\nvalue = [32572.0, 0.0, 0.0, 0.0, 0.0, 0.0, 0.0, 3932.97\n555077.61, 684.31, 0.0, 0.0, 0.0, 840.84, 0.0, 6638.52\n0.0, 84246.53, 0.0, 0.0, 373954.79, 0.0, 243844.0]\nclass = teardrop.", fillcolor="#39e58f32"] ;
184 -> 342 ;
343 [label="dst_host_srv_diff_host_rate <= 0.05\nentropy = 1.7\nsamples = 20994\nvalue = [32572.0, 0.0, 0.0, 0.0, 0.0, 0.0, 0.0, 3932.97, 0.0\n684.31, 0.0, 0.0, 0.0, 840.84, 0.0, 6638.52, 0.0\n84246.53, 0.0, 0.0, 373954.79, 0.0, 243844.0]\nclass = warezclient.", fillcolor="#e5397842"] ;
342 -> 343 ;
344 [label="protocol_type <= 1.5\nentropy = 1.74\nsamples = 19434\nvalue = [30505.0, 0.0, 0.0, 0.0, 0.0, 0.0, 0.0, 3932.97, 0.0\n684.31, 0.0, 0.0, 0.0, 840.84, 0.0, 5828.94, 0.0\n84246.53, 0.0, 0.0, 50042.61, 0.0, 243844.0]\nclass = rootkit.", fillcolor="#e5533979"] ;
343 -> 344 ;
345 [label="service <= 45.5\nentropy = 1.5\nsamples = 16855\nvalue = [26578.0, 0.0, 0.0, 0.0, 0.0, 0.0, 0.0, 3932.97, 0.0\n684.31, 0.0, 0.0, 0.0, 840.84, 0.0, 3724.05, 0.0, 0.0\n0.0, 0.0, 50042.61, 0.0, 0.0]\nclass = warezclient.", fillcolor="#e5397865"] ;
344 -> 345 ;
346 [label="src_dst_bytes_diff <= -335.0\nentropy = 1.1\nsamples = 15624\nvalue = [24627.0, 0.0, 0.0, 0.0, 0.0, 0.0, 0.0, 0.0, 0.0\n228.1, 0.0, 0.0, 0.0, 840.84, 0.0, 971.49, 0.0, 0.0\n0.0, 0.0, 50042.61, 0.0, 0.0]\nclass = warezclient.", fillcolor="#e539787c"] ;
345 -> 346 ;
347 [label="dst_host_same_srv_rate <= 0.99\nentropy = 1.01\nsamples = 12244\nvalue = [19304.0, 0.0, 0.0, 0.0, 0.0, 0.0, 0.0, 0.0, 0.0\n228.1, 0.0, 0.0, 0.0, 840.84, 0.0, 0.0, 0.0, 0.0\n0.0, 0.0, 5459.19, 0.0, 0.0]\nclass = normal.", fillcolor="#e58139ad"] ;
346 -> 347 ;
348 [label="dst_host_srv_count <= 1.5\nentropy = 0.71\nsamples = 12160\nvalue = [19182.0, 0.0, 0.0, 0.0, 0.0, 0.0, 0.0, 0.0, 0.0\n228.1, 0.0, 0.0, 0.0, 0.0, 0.0, 0.0, 0.0, 0.0, 0.0\n0.0, 3639.46, 0.0, 0.0]\nclass = normal.", fillcolor="#e58139cc"] ;
347 -> 348 ;
349 [label="duration <= 2616.5\nentropy = 1.35\nsamples = 238\nvalue = [381.0, 0.0, 0.0, 0.0, 0.0, 0.0, 0.0, 0.0, 0.0, 228.1\n0.0, 0.0, 0.0, 0.0, 0.0, 0.0, 0.0, 0.0, 0.0, 0.0\n909.87, 0.0, 0.0]\nclass = warezclient.", fillcolor="#e5397877"] ;
348 -> 349 ;
350 [label="entropy = -0.0\nsamples = 236\nvalue = [381, 0, 0, 0, 0, 0, 0, 0, 0, 0, 0, 0, 0, 0\n0, 0, 0, 0, 0, 0, 0, 0, 0]\nclass = normal.", fillcolor="#e58139ff"] ;
349 -> 350 ;
351 [label="duration <= 8856.5\nentropy = 0.72\nsamples = 2\nvalue = [0.0, 0.0, 0.0, 0.0, 0.0, 0.0, 0.0, 0.0, 0.0, 228.1\n0.0, 0.0, 0.0, 0.0, 0.0, 0.0, 0.0, 0.0, 0.0, 0.0\n909.87, 0.0, 0.0]\nclass = warezclient.", fillcolor="#e53978bf"] ;
349 -> 351 ;
352 [label="entropy = 0.0\nsamples = 1\nvalue = [0.0, 0.0, 0.0, 0.0, 0.0, 0.0, 0.0, 0.0, 0.0, 0.0\n0.0, 0.0, 0.0, 0.0, 0.0, 0.0, 0.0, 0.0, 0.0, 0.0\n909.87, 0.0, 0.0]\nclass = warezclient.", fillcolor="#e53978ff"] ;
351 -> 352 ;
353 [label="entropy = -0.0\nsamples = 1\nvalue = [0.0, 0.0, 0.0, 0.0, 0.0, 0.0, 0.0, 0.0, 0.0, 228.1\n0.0, 0.0, 0.0, 0.0, 0.0, 0.0, 0.0, 0.0, 0.0, 0.0\n0.0, 0.0, 0.0]\nclass = portsweep.", fillcolor="#39e5baff"] ;
351 -> 353 ;
354 [label="dst_host_srv_serror_rate <= 0.05\nentropy = 0.55\nsamples = 11922\nvalue = [18801.0, 0.0, 0.0, 0.0, 0.0, 0.0, 0.0, 0.0, 0.0, 0.0\n0.0, 0.0, 0.0, 0.0, 0.0, 0.0, 0.0, 0.0, 0.0, 0.0\n2729.6, 0.0, 0.0]\nclass = normal.", fillcolor="#e58139da"] ;
348 -> 354 ;
355 [label="entropy = 0.0\nsamples = 11847\nvalue = [18685, 0, 0, 0, 0, 0, 0, 0, 0, 0, 0, 0, 0, 0\n0, 0, 0, 0, 0, 0, 0, 0, 0]\nclass = normal.", fillcolor="#e58139ff"] ;
354 -> 355 ;
356 [label="srv_count <= 2.5\nentropy = 0.25\nsamples = 75\nvalue = [116.0, 0.0, 0.0, 0.0, 0.0, 0.0, 0.0, 0.0, 0.0, 0.0\n0.0, 0.0, 0.0, 0.0, 0.0, 0.0, 0.0, 0.0, 0.0, 0.0\n2729.6, 0.0, 0.0]\nclass = warezclient.", fillcolor="#e53978f4"] ;
354 -> 356 ;
357 [label="src_dst_bytes_diff <= -790.0\nentropy = 0.12\nsamples = 31\nvalue = [44.0, 0.0, 0.0, 0.0, 0.0, 0.0, 0.0, 0.0, 0.0, 0.0\n0.0, 0.0, 0.0, 0.0, 0.0, 0.0, 0.0, 0.0, 0.0, 0.0\n2729.6, 0.0, 0.0]\nclass = warezclient.", fillcolor="#e53978fb"] ;
356 -> 357 ;
358 [label="duration <= 2.0\nentropy = 0.05\nsamples = 14\nvalue = [17.0, 0.0, 0.0, 0.0, 0.0, 0.0, 0.0, 0.0, 0.0, 0.0\n0.0, 0.0, 0.0, 0.0, 0.0, 0.0, 0.0, 0.0, 0.0, 0.0\n2729.6, 0.0, 0.0]\nclass = warezclient.", fillcolor="#e53978fd"] ;
357 -> 358 ;
359 [label="entropy = 0.0\nsamples = 12\nvalue = [17, 0, 0, 0, 0, 0, 0, 0, 0, 0, 0, 0, 0, 0\n0, 0, 0, 0, 0, 0, 0, 0, 0]\nclass = normal.", fillcolor="#e58139ff"] ;
358 -> 359 ;
360 [label="entropy = 0.0\nsamples = 2\nvalue = [0.0, 0.0, 0.0, 0.0, 0.0, 0.0, 0.0, 0.0, 0.0, 0.0\n0.0, 0.0, 0.0, 0.0, 0.0, 0.0, 0.0, 0.0, 0.0, 0.0\n2729.6, 0.0, 0.0]\nclass = warezclient.", fillcolor="#e53978ff"] ;
358 -> 360 ;
361 [label="entropy = 0.0\nsamples = 17\nvalue = [27, 0, 0, 0, 0, 0, 0, 0, 0, 0, 0, 0, 0, 0\n0, 0, 0, 0, 0, 0, 0, 0, 0]\nclass = normal.", fillcolor="#e58139ff"] ;
357 -> 361 ;
362 [label="entropy = 0.0\nsamples = 44\nvalue = [72, 0, 0, 0, 0, 0, 0, 0, 0, 0, 0, 0, 0, 0\n0, 0, 0, 0, 0, 0, 0, 0, 0]\nclass = normal.", fillcolor="#e58139ff"] ;
356 -> 362 ;
363 [label="dst_host_serror_rate <= 0.0\nentropy = 1.12\nsamples = 84\nvalue = [122.0, 0.0, 0.0, 0.0, 0.0, 0.0, 0.0, 0.0, 0.0, 0.0\n0.0, 0.0, 0.0, 840.84, 0.0, 0.0, 0.0, 0.0, 0.0, 0.0\n1819.73, 0.0, 0.0]\nclass = warezclient.", fillcolor="#e5397881"] ;
347 -> 363 ;
364 [label="dst_host_count <= 7.5\nentropy = 0.33\nsamples = 82\nvalue = [120.0, 0.0, 0.0, 0.0, 0.0, 0.0, 0.0, 0.0, 0.0, 0.0\n0.0, 0.0, 0.0, 0.0, 0.0, 0.0, 0.0, 0.0, 0.0, 0.0\n1819.73, 0.0, 0.0]\nclass = warezclient.", fillcolor="#e53978ee"] ;
363 -> 364 ;
365 [label="entropy = 0.0\nsamples = 37\nvalue = [56, 0, 0, 0, 0, 0, 0, 0, 0, 0, 0, 0, 0, 0\n0, 0, 0, 0, 0, 0, 0, 0, 0]\nclass = normal.", fillcolor="#e58139ff"] ;
364 -> 365 ;
366 [label="logged_in <= 0.5\nentropy = 0.21\nsamples = 45\nvalue = [64.0, 0.0, 0.0, 0.0, 0.0, 0.0, 0.0, 0.0, 0.0, 0.0\n0.0, 0.0, 0.0, 0.0, 0.0, 0.0, 0.0, 0.0, 0.0, 0.0\n1819.73, 0.0, 0.0]\nclass = warezclient.", fillcolor="#e53978f6"] ;
364 -> 366 ;
367 [label="entropy = 0.0\nsamples = 8\nvalue = [11, 0, 0, 0, 0, 0, 0, 0, 0, 0, 0, 0, 0, 0\n0, 0, 0, 0, 0, 0, 0, 0, 0]\nclass = normal.", fillcolor="#e58139ff"] ;
366 -> 367 ;
368 [label="duration <= 6.0\nentropy = 0.19\nsamples = 37\nvalue = [53.0, 0.0, 0.0, 0.0, 0.0, 0.0, 0.0, 0.0, 0.0, 0.0\n0.0, 0.0, 0.0, 0.0, 0.0, 0.0, 0.0, 0.0, 0.0, 0.0\n1819.73, 0.0, 0.0]\nclass = warezclient.", fillcolor="#e53978f8"] ;
366 -> 368 ;
369 [label="entropy = 0.0\nsamples = 36\nvalue = [53, 0, 0, 0, 0, 0, 0, 0, 0, 0, 0, 0, 0, 0\n0, 0, 0, 0, 0, 0, 0, 0, 0]\nclass = normal.", fillcolor="#e58139ff"] ;
368 -> 369 ;
370 [label="entropy = 0.0\nsamples = 1\nvalue = [0.0, 0.0, 0.0, 0.0, 0.0, 0.0, 0.0, 0.0, 0.0, 0.0\n0.0, 0.0, 0.0, 0.0, 0.0, 0.0, 0.0, 0.0, 0.0, 0.0\n1819.73, 0.0, 0.0]\nclass = warezclient.", fillcolor="#e53978ff"] ;
368 -> 370 ;
371 [label="dst_host_count <= 196.0\nentropy = 0.02\nsamples = 2\nvalue = [2.0, 0.0, 0.0, 0.0, 0.0, 0.0, 0.0, 0.0, 0.0, 0.0\n0.0, 0.0, 0.0, 840.84, 0.0, 0.0, 0.0, 0.0, 0.0, 0.0\n0.0, 0.0, 0.0]\nclass = back.", fillcolor="#395be5fe"] ;
363 -> 371 ;
372 [label="entropy = 0.0\nsamples = 1\nvalue = [2, 0, 0, 0, 0, 0, 0, 0, 0, 0, 0, 0, 0, 0\n0, 0, 0, 0, 0, 0, 0, 0, 0]\nclass = normal.", fillcolor="#e58139ff"] ;
371 -> 372 ;
373 [label="entropy = 0.0\nsamples = 1\nvalue = [0.0, 0.0, 0.0, 0.0, 0.0, 0.0, 0.0, 0.0, 0.0, 0.0\n0.0, 0.0, 0.0, 840.84, 0.0, 0.0, 0.0, 0.0, 0.0, 0.0\n0.0, 0.0, 0.0]\nclass = back.", fillcolor="#395be5ff"] ;
371 -> 373 ;
374 [label="dst_host_same_srv_rate <= 0.0\nentropy = 0.62\nsamples = 3380\nvalue = [5323.0, 0.0, 0.0, 0.0, 0.0, 0.0, 0.0, 0.0, 0.0, 0.0\n0.0, 0.0, 0.0, 0.0, 0.0, 971.49, 0.0, 0.0, 0.0, 0.0\n44583.42, 0.0, 0.0]\nclass = warezclient.", fillcolor="#e53978dc"] ;
346 -> 374 ;
375 [label="diff_srv_rate <= 0.88\nentropy = 0.1\nsamples = 14\nvalue = [12.0, 0.0, 0.0, 0.0, 0.0, 0.0, 0.0, 0.0, 0.0, 0.0\n0.0, 0.0, 0.0, 0.0, 0.0, 971.49, 0.0, 0.0, 0.0, 0.0\n0.0, 0.0, 0.0]\nclass = satan.", fillcolor="#6f39e5fc"] ;
374 -> 375 ;
376 [label="entropy = 0.0\nsamples = 9\nvalue = [12, 0, 0, 0, 0, 0, 0, 0, 0, 0, 0, 0, 0, 0\n0, 0, 0, 0, 0, 0, 0, 0, 0]\nclass = normal.", fillcolor="#e58139ff"] ;
375 -> 376 ;
377 [label="entropy = 0.0\nsamples = 5\nvalue = [0.0, 0.0, 0.0, 0.0, 0.0, 0.0, 0.0, 0.0, 0.0, 0.0\n0.0, 0.0, 0.0, 0.0, 0.0, 971.49, 0.0, 0.0, 0.0, 0.0\n0.0, 0.0, 0.0]\nclass = satan.", fillcolor="#6f39e5ff"] ;
375 -> 377 ;
378 [label="src_bytes <= 245.5\nentropy = 0.49\nsamples = 3366\nvalue = [5311.0, 0.0, 0.0, 0.0, 0.0, 0.0, 0.0, 0.0, 0.0, 0.0\n0.0, 0.0, 0.0, 0.0, 0.0, 0.0, 0.0, 0.0, 0.0, 0.0\n44583.42, 0.0, 0.0]\nclass = warezclient.", fillcolor="#e53978e1"] ;
374 -> 378 ;
379 [label="entropy = 0.0\nsamples = 2914\nvalue = [4630, 0, 0, 0, 0, 0, 0, 0, 0, 0, 0, 0, 0, 0\n0, 0, 0, 0, 0, 0, 0, 0, 0]\nclass = normal.", fillcolor="#e58139ff"] ;
378 -> 379 ;
380 [label="num_root <= 0.5\nentropy = 0.11\nsamples = 452\nvalue = [681.0, 0.0, 0.0, 0.0, 0.0, 0.0, 0.0, 0.0, 0.0, 0.0\n0.0, 0.0, 0.0, 0.0, 0.0, 0.0, 0.0, 0.0, 0.0, 0.0\n44583.42, 0.0, 0.0]\nclass = warezclient.", fillcolor="#e53978fb"] ;
378 -> 380 ;
381 [label="src_dst_bytes_diff <= -332.0\nentropy = 0.07\nsamples = 271\nvalue = [379.0, 0.0, 0.0, 0.0, 0.0, 0.0, 0.0, 0.0, 0.0, 0.0\n0.0, 0.0, 0.0, 0.0, 0.0, 0.0, 0.0, 0.0, 0.0, 0.0\n44583.42, 0.0, 0.0]\nclass = warezclient.", fillcolor="#e53978fd"] ;
380 -> 381 ;
382 [label="dst_host_diff_srv_rate <= 0.01\nentropy = 0.0\nsamples = 29\nvalue = [1.0, 0.0, 0.0, 0.0, 0.0, 0.0, 0.0, 0.0, 0.0, 0.0\n0.0, 0.0, 0.0, 0.0, 0.0, 0.0, 0.0, 0.0, 0.0, 0.0\n40034.09, 0.0, 0.0]\nclass = warezclient.", fillcolor="#e53978ff"] ;
381 -> 382 ;
383 [label="dst_host_count <= 1.5\nentropy = 0.0\nsamples = 11\nvalue = [1.0, 0.0, 0.0, 0.0, 0.0, 0.0, 0.0, 0.0, 0.0, 0.0\n0.0, 0.0, 0.0, 0.0, 0.0, 0.0, 0.0, 0.0, 0.0, 0.0\n12738.12, 0.0, 0.0]\nclass = warezclient.", fillcolor="#e53978ff"] ;
382 -> 383 ;
384 [label="entropy = 0.0\nsamples = 1\nvalue = [1, 0, 0, 0, 0, 0, 0, 0, 0, 0, 0, 0, 0, 0\n0, 0, 0, 0, 0, 0, 0, 0, 0]\nclass = normal.", fillcolor="#e58139ff"] ;
383 -> 384 ;
385 [label="entropy = 0.0\nsamples = 10\nvalue = [0.0, 0.0, 0.0, 0.0, 0.0, 0.0, 0.0, 0.0, 0.0, 0.0\n0.0, 0.0, 0.0, 0.0, 0.0, 0.0, 0.0, 0.0, 0.0, 0.0\n12738.12, 0.0, 0.0]\nclass = warezclient.", fillcolor="#e53978ff"] ;
383 -> 385 ;
386 [label="entropy = 0.0\nsamples = 18\nvalue = [0.0, 0.0, 0.0, 0.0, 0.0, 0.0, 0.0, 0.0, 0.0, 0.0\n0.0, 0.0, 0.0, 0.0, 0.0, 0.0, 0.0, 0.0, 0.0, 0.0\n27295.97, 0.0, 0.0]\nclass = warezclient.", fillcolor="#e53978ff"] ;
382 -> 386 ;
387 [label="dst_host_srv_count <= 69.5\nentropy = 0.39\nsamples = 242\nvalue = [378.0, 0.0, 0.0, 0.0, 0.0, 0.0, 0.0, 0.0, 0.0, 0.0\n0.0, 0.0, 0.0, 0.0, 0.0, 0.0, 0.0, 0.0, 0.0, 0.0\n4549.33, 0.0, 0.0]\nclass = warezclient.", fillcolor="#e53978ea"] ;
381 -> 387 ;
388 [label="diff_srv_rate <= 0.34\nentropy = 0.26\nsamples = 136\nvalue = [211.0, 0.0, 0.0, 0.0, 0.0, 0.0, 0.0, 0.0, 0.0, 0.0\n0.0, 0.0, 0.0, 0.0, 0.0, 0.0, 0.0, 0.0, 0.0, 0.0\n4549.33, 0.0, 0.0]\nclass = warezclient.", fillcolor="#e53978f3"] ;
387 -> 388 ;
389 [label="dst_host_count <= 252.0\nentropy = 0.25\nsamples = 130\nvalue = [201.0, 0.0, 0.0, 0.0, 0.0, 0.0, 0.0, 0.0, 0.0, 0.0\n0.0, 0.0, 0.0, 0.0, 0.0, 0.0, 0.0, 0.0, 0.0, 0.0\n4549.33, 0.0, 0.0]\nclass = warezclient.", fillcolor="#e53978f4"] ;
388 -> 389 ;
390 [label="dst_host_diff_srv_rate <= 0.0\nentropy = 0.66\nsamples = 117\nvalue = [185.0, 0.0, 0.0, 0.0, 0.0, 0.0, 0.0, 0.0, 0.0, 0.0\n0.0, 0.0, 0.0, 0.0, 0.0, 0.0, 0.0, 0.0, 0.0, 0.0\n909.87, 0.0, 0.0]\nclass = warezclient.", fillcolor="#e53978cb"] ;
389 -> 390 ;
391 [label="dst_host_count <= 5.5\nentropy = 0.03\nsamples = 4\nvalue = [3.0, 0.0, 0.0, 0.0, 0.0, 0.0, 0.0, 0.0, 0.0, 0.0\n0.0, 0.0, 0.0, 0.0, 0.0, 0.0, 0.0, 0.0, 0.0, 0.0\n909.87, 0.0, 0.0]\nclass = warezclient.", fillcolor="#e53978fe"] ;
390 -> 391 ;
392 [label="entropy = 0.0\nsamples = 2\nvalue = [2, 0, 0, 0, 0, 0, 0, 0, 0, 0, 0, 0, 0, 0\n0, 0, 0, 0, 0, 0, 0, 0, 0]\nclass = normal.", fillcolor="#e58139ff"] ;
391 -> 392 ;
393 [label="count <= 2.5\nentropy = 0.01\nsamples = 2\nvalue = [1.0, 0.0, 0.0, 0.0, 0.0, 0.0, 0.0, 0.0, 0.0, 0.0\n0.0, 0.0, 0.0, 0.0, 0.0, 0.0, 0.0, 0.0, 0.0, 0.0\n909.87, 0.0, 0.0]\nclass = warezclient.", fillcolor="#e53978ff"] ;
391 -> 393 ;
394 [label="entropy = 0.0\nsamples = 1\nvalue = [0.0, 0.0, 0.0, 0.0, 0.0, 0.0, 0.0, 0.0, 0.0, 0.0\n0.0, 0.0, 0.0, 0.0, 0.0, 0.0, 0.0, 0.0, 0.0, 0.0\n909.87, 0.0, 0.0]\nclass = warezclient.", fillcolor="#e53978ff"] ;
393 -> 394 ;
395 [label="entropy = 0.0\nsamples = 1\nvalue = [1, 0, 0, 0, 0, 0, 0, 0, 0, 0, 0, 0, 0, 0\n0, 0, 0, 0, 0, 0, 0, 0, 0]\nclass = normal.", fillcolor="#e58139ff"] ;
393 -> 395 ;
396 [label="entropy = 0.0\nsamples = 113\nvalue = [182, 0, 0, 0, 0, 0, 0, 0, 0, 0, 0, 0, 0, 0\n0, 0, 0, 0, 0, 0, 0, 0, 0]\nclass = normal.", fillcolor="#e58139ff"] ;
390 -> 396 ;
397 [label="dst_host_same_srv_rate <= 0.23\nentropy = 0.04\nsamples = 13\nvalue = [16.0, 0.0, 0.0, 0.0, 0.0, 0.0, 0.0, 0.0, 0.0, 0.0\n0.0, 0.0, 0.0, 0.0, 0.0, 0.0, 0.0, 0.0, 0.0, 0.0\n3639.46, 0.0, 0.0]\nclass = warezclient.", fillcolor="#e53978fe"] ;
389 -> 397 ;
398 [label="entropy = -0.0\nsamples = 9\nvalue = [14, 0, 0, 0, 0, 0, 0, 0, 0, 0, 0, 0, 0, 0\n0, 0, 0, 0, 0, 0, 0, 0, 0]\nclass = normal.", fillcolor="#e58139ff"] ;
397 -> 398 ;
399 [label="dst_host_srv_serror_rate <= 0.0\nentropy = 0.01\nsamples = 4\nvalue = [2.0, 0.0, 0.0, 0.0, 0.0, 0.0, 0.0, 0.0, 0.0, 0.0\n0.0, 0.0, 0.0, 0.0, 0.0, 0.0, 0.0, 0.0, 0.0, 0.0\n3639.46, 0.0, 0.0]\nclass = warezclient.", fillcolor="#e53978ff"] ;
397 -> 399 ;
400 [label="entropy = 0.0\nsamples = 2\nvalue = [2, 0, 0, 0, 0, 0, 0, 0, 0, 0, 0, 0, 0, 0\n0, 0, 0, 0, 0, 0, 0, 0, 0]\nclass = normal.", fillcolor="#e58139ff"] ;
399 -> 400 ;
401 [label="entropy = 0.0\nsamples = 2\nvalue = [0.0, 0.0, 0.0, 0.0, 0.0, 0.0, 0.0, 0.0, 0.0, 0.0\n0.0, 0.0, 0.0, 0.0, 0.0, 0.0, 0.0, 0.0, 0.0, 0.0\n3639.46, 0.0, 0.0]\nclass = warezclient.", fillcolor="#e53978ff"] ;
399 -> 401 ;
402 [label="entropy = 0.0\nsamples = 6\nvalue = [10, 0, 0, 0, 0, 0, 0, 0, 0, 0, 0, 0, 0, 0\n0, 0, 0, 0, 0, 0, 0, 0, 0]\nclass = normal.", fillcolor="#e58139ff"] ;
388 -> 402 ;
403 [label="entropy = 0.0\nsamples = 106\nvalue = [167, 0, 0, 0, 0, 0, 0, 0, 0, 0, 0, 0, 0, 0\n0, 0, 0, 0, 0, 0, 0, 0, 0]\nclass = normal.", fillcolor="#e58139ff"] ;
387 -> 403 ;
404 [label="entropy = 0.0\nsamples = 181\nvalue = [302, 0, 0, 0, 0, 0, 0, 0, 0, 0, 0, 0, 0, 0\n0, 0, 0, 0, 0, 0, 0, 0, 0]\nclass = normal.", fillcolor="#e58139ff"] ;
380 -> 404 ;
405 [label="count <= 1.5\nentropy = 1.74\nsamples = 1231\nvalue = [1951.0, 0.0, 0.0, 0.0, 0.0, 0.0, 0.0, 3932.97, 0.0\n456.21, 0.0, 0.0, 0.0, 0.0, 0.0, 2752.56, 0.0, 0.0\n0.0, 0.0, 0.0, 0.0, 0.0]\nclass = pod.", fillcolor="#39e5612f"] ;
345 -> 405 ;
406 [label="dst_host_srv_count <= 1.5\nentropy = 0.78\nsamples = 169\nvalue = [278.0, 0.0, 0.0, 0.0, 0.0, 0.0, 0.0, 3932.97, 0.0\n456.21, 0.0, 0.0, 0.0, 0.0, 0.0, 0.0, 0.0, 0.0, 0.0\n0.0, 0.0, 0.0, 0.0]\nclass = pod.", fillcolor="#39e561d3"] ;
405 -> 406 ;
407 [label="flag <= 6.0\nentropy = 0.36\nsamples = 18\nvalue = [28.0, 0.0, 0.0, 0.0, 0.0, 0.0, 0.0, 3932.97, 0.0\n228.1, 0.0, 0.0, 0.0, 0.0, 0.0, 0.0, 0.0, 0.0, 0.0\n0.0, 0.0, 0.0, 0.0]\nclass = pod.", fillcolor="#39e561ef"] ;
406 -> 407 ;
408 [label="entropy = 0.0\nsamples = 1\nvalue = [0.0, 0.0, 0.0, 0.0, 0.0, 0.0, 0.0, 0.0, 0.0, 228.1\n0.0, 0.0, 0.0, 0.0, 0.0, 0.0, 0.0, 0.0, 0.0, 0.0\n0.0, 0.0, 0.0]\nclass = portsweep.", fillcolor="#39e5baff"] ;
407 -> 408 ;
409 [label="src_dst_bytes_diff <= -558.0\nentropy = 0.06\nsamples = 17\nvalue = [28.0, 0.0, 0.0, 0.0, 0.0, 0.0, 0.0, 3932.97, 0.0\n0.0, 0.0, 0.0, 0.0, 0.0, 0.0, 0.0, 0.0, 0.0, 0.0\n0.0, 0.0, 0.0, 0.0]\nclass = pod.", fillcolor="#39e561fd"] ;
407 -> 409 ;
410 [label="entropy = 0.01\nsamples = 2\nvalue = [3.0, 0.0, 0.0, 0.0, 0.0, 0.0, 0.0, 3932.97, 0.0, 0.0\n0.0, 0.0, 0.0, 0.0, 0.0, 0.0, 0.0, 0.0, 0.0, 0.0\n0.0, 0.0, 0.0]\nclass = pod.", fillcolor="#39e561ff"] ;
409 -> 410 ;
411 [label="entropy = 0.0\nsamples = 15\nvalue = [25, 0, 0, 0, 0, 0, 0, 0, 0, 0, 0, 0, 0, 0\n0, 0, 0, 0, 0, 0, 0, 0, 0]\nclass = normal.", fillcolor="#e58139ff"] ;
409 -> 411 ;
412 [label="src_bytes <= 190855264.0\nentropy = 1.0\nsamples = 151\nvalue = [250.0, 0.0, 0.0, 0.0, 0.0, 0.0, 0.0, 0.0, 0.0, 228.1\n0.0, 0.0, 0.0, 0.0, 0.0, 0.0, 0.0, 0.0, 0.0, 0.0\n0.0, 0.0, 0.0]\nclass = normal.", fillcolor="#e5813916"] ;
406 -> 412 ;
413 [label="entropy = 0.0\nsamples = 150\nvalue = [250, 0, 0, 0, 0, 0, 0, 0, 0, 0, 0, 0, 0, 0\n0, 0, 0, 0, 0, 0, 0, 0, 0]\nclass = normal.", fillcolor="#e58139ff"] ;
412 -> 413 ;
414 [label="entropy = 0.0\nsamples = 1\nvalue = [0.0, 0.0, 0.0, 0.0, 0.0, 0.0, 0.0, 0.0, 0.0, 228.1\n0.0, 0.0, 0.0, 0.0, 0.0, 0.0, 0.0, 0.0, 0.0, 0.0\n0.0, 0.0, 0.0]\nclass = portsweep.", fillcolor="#39e5baff"] ;
412 -> 414 ;
415 [label="dst_host_diff_srv_rate <= 0.08\nentropy = 0.96\nsamples = 1062\nvalue = [1673.0, 0.0, 0.0, 0.0, 0.0, 0.0, 0.0, 0.0, 0.0, 0.0\n0.0, 0.0, 0.0, 0.0, 0.0, 2752.56, 0.0, 0.0, 0.0, 0.0\n0.0, 0.0, 0.0]\nclass = satan.", fillcolor="#6f39e564"] ;
405 -> 415 ;
416 [label="entropy = 0.0\nsamples = 1036\nvalue = [1648, 0, 0, 0, 0, 0, 0, 0, 0, 0, 0, 0, 0, 0\n0, 0, 0, 0, 0, 0, 0, 0, 0]\nclass = normal.", fillcolor="#e58139ff"] ;
415 -> 416 ;
417 [label="rerror_rate <= 0.2\nentropy = 0.07\nsamples = 26\nvalue = [25.0, 0.0, 0.0, 0.0, 0.0, 0.0, 0.0, 0.0, 0.0, 0.0\n0.0, 0.0, 0.0, 0.0, 0.0, 2752.56, 0.0, 0.0, 0.0, 0.0\n0.0, 0.0, 0.0]\nclass = satan.", fillcolor="#6f39e5fd"] ;
415 -> 417 ;
418 [label="entropy = -0.0\nsamples = 15\nvalue = [25, 0, 0, 0, 0, 0, 0, 0, 0, 0, 0, 0, 0, 0\n0, 0, 0, 0, 0, 0, 0, 0, 0]\nclass = normal.", fillcolor="#e58139ff"] ;
417 -> 418 ;
419 [label="entropy = 0.0\nsamples = 11\nvalue = [0.0, 0.0, 0.0, 0.0, 0.0, 0.0, 0.0, 0.0, 0.0, 0.0\n0.0, 0.0, 0.0, 0.0, 0.0, 2752.56, 0.0, 0.0, 0.0, 0.0\n0.0, 0.0, 0.0]\nclass = satan.", fillcolor="#6f39e5ff"] ;
417 -> 419 ;
420 [label="dst_host_srv_count <= 2.5\nentropy = 0.95\nsamples = 2579\nvalue = [3927.0, 0.0, 0.0, 0.0, 0.0, 0.0, 0.0, 0.0, 0.0, 0.0\n0.0, 0.0, 0.0, 0.0, 0.0, 2104.9, 0.0, 84246.53, 0.0\n0.0, 0.0, 0.0, 243844.0]\nclass = rootkit.", fillcolor="#e55339a3"] ;
344 -> 420 ;
421 [label="src_dst_bytes_diff <= -68.5\nentropy = 0.11\nsamples = 1610\nvalue = [2562.0, 0.0, 0.0, 0.0, 0.0, 0.0, 0.0, 0.0, 0.0, 0.0\n0.0, 0.0, 0.0, 0.0, 0.0, 161.92, 0.0, 523.27, 0.0\n0.0, 0.0, 0.0, 243844.0]\nclass = rootkit.", fillcolor="#e55339fc"] ;
420 -> 421 ;
422 [label="src_dst_bytes_diff <= -177.0\nentropy = 0.66\nsamples = 1607\nvalue = [2562.0, 0.0, 0.0, 0.0, 0.0, 0.0, 0.0, 0.0, 0.0, 0.0\n0.0, 0.0, 0.0, 0.0, 0.0, 0.0, 0.0, 523.27, 0.0, 0.0\n0.0, 0.0, 0.0]\nclass = normal.", fillcolor="#e58139cb"] ;
421 -> 422 ;
423 [label="service <= 46.5\nentropy = 0.02\nsamples = 2\nvalue = [1.0, 0.0, 0.0, 0.0, 0.0, 0.0, 0.0, 0.0, 0.0, 0.0\n0.0, 0.0, 0.0, 0.0, 0.0, 0.0, 0.0, 523.27, 0.0, 0.0\n0.0, 0.0, 0.0]\nclass = nmap.", fillcolor="#cb39e5ff"] ;
422 -> 423 ;
424 [label="entropy = 0.0\nsamples = 1\nvalue = [1, 0, 0, 0, 0, 0, 0, 0, 0, 0, 0, 0, 0, 0\n0, 0, 0, 0, 0, 0, 0, 0, 0]\nclass = normal.", fillcolor="#e58139ff"] ;
423 -> 424 ;
425 [label="entropy = 0.0\nsamples = 1\nvalue = [0.0, 0.0, 0.0, 0.0, 0.0, 0.0, 0.0, 0.0, 0.0, 0.0\n0.0, 0.0, 0.0, 0.0, 0.0, 0.0, 0.0, 523.27, 0.0, 0.0\n0.0, 0.0, 0.0]\nclass = nmap.", fillcolor="#cb39e5ff"] ;
423 -> 425 ;
426 [label="entropy = 0.0\nsamples = 1605\nvalue = [2561, 0, 0, 0, 0, 0, 0, 0, 0, 0, 0, 0, 0, 0\n0, 0, 0, 0, 0, 0, 0, 0, 0]\nclass = normal.", fillcolor="#e58139ff"] ;
422 -> 426 ;
